timestamp,target_q_0,target_q_1,target_q_2,target_q_3,target_q_4,target_q_5,target_qd_0,target_qd_1,target_qd_2,target_qd_3,target_qd_4,target_qd_5,target_qdd_0,target_qdd_1,target_qdd_2,target_qdd_3,target_qdd_4,target_qdd_5,target_current_0,target_current_1,target_current_2,target_current_3,target_current_4,target_current_5,target_moment_0,target_moment_1,target_moment_2,target_moment_3,target_moment_4,target_moment_5,actual_q_0,actual_q_1,actual_q_2,actual_q_3,actual_q_4,actual_q_5,actual_qd_0,actual_qd_1,actual_qd_2,actual_qd_3,actual_qd_4,actual_qd_5,actual_current_0,actual_current_1,actual_current_2,actual_current_3,actual_current_4,actual_current_5,joint_control_output_0,joint_control_output_1,joint_control_output_2,joint_control_output_3,joint_control_output_4,joint_control_output_5,actual_TCP_pose_0,actual_TCP_pose_1,actual_TCP_pose_2,actual_TCP_pose_3,actual_TCP_pose_4,actual_TCP_pose_5,actual_TCP_speed_0,actual_TCP_speed_1,actual_TCP_speed_2,actual_TCP_speed_3,actual_TCP_speed_4,actual_TCP_speed_5,actual_TCP_force_0,actual_TCP_force_1,actual_TCP_force_2,actual_TCP_force_3,actual_TCP_force_4,actual_TCP_force_5,target_TCP_pose_0,target_TCP_pose_1,target_TCP_pose_2,target_TCP_pose_3,target_TCP_pose_4,target_TCP_pose_5,target_TCP_speed_0,target_TCP_speed_1,target_TCP_speed_2,target_TCP_speed_3,target_TCP_speed_4,target_TCP_speed_5,actual_digital_input_bits,joint_temperatures_0,joint_temperatures_1,joint_temperatures_2,joint_temperatures_3,joint_temperatures_4,joint_temperatures_5,actual_execution_time,robot_mode,joint_mode_0,joint_mode_1,joint_mode_2,joint_mode_3,joint_mode_4,joint_mode_5,safety_mode,actual_tool_accelerometer_0,actual_tool_accelerometer_1,actual_tool_accelerometer_2,speed_scaling,target_speed_fraction,actual_momentum,actual_main_voltage,actual_robot_voltage,actual_robot_current,actual_joint_voltage_0,actual_joint_voltage_1,actual_joint_voltage_2,actual_joint_voltage_3,actual_joint_voltage_4,actual_joint_voltage_5,actual_digital_output_bits,runtime_state,standard_analog_input0,standard_analog_input1,standard_analog_output0,standard_analog_output1,robot_status_bits,safety_status_bits,ft_raw_wrench_0,ft_raw_wrench_1,ft_raw_wrench_2,ft_raw_wrench_3,ft_raw_wrench_4,ft_raw_wrench_5,payload_inertia_0,payload_inertia_1,payload_inertia_2,payload_inertia_3,payload_inertia_4,payload_inertia_5,output_int_register_2,output_int_register_12,output_int_register_13,output_int_register_14,output_int_register_15,output_int_register_16,output_int_register_17,output_int_register_18,output_int_register_19,output_double_register_12,output_double_register_13,output_double_register_14,output_double_register_15,output_double_register_16,output_double_register_17,output_double_register_18,output_double_register_19
241511.014000,1.437494,-1.089114,2.525809,3.275377,1.572121,3.357390,0.000000,0.000000,0.000000,0.000000,0.000000,0.000000,0.000000,0.000000,0.000000,0.000000,0.000000,0.000000,0.000000,-2.260926,-0.418560,-0.238797,-0.000100,0.000000,0.000000,-23.522644,-4.324883,-1.846336,-0.000786,0.000000,1.437469,-1.089131,2.525810,3.275380,1.572145,3.357344,0.000000,0.000000,-0.000000,0.000000,-0.000000,0.000000,0.394497,-1.868716,-0.678998,-0.194657,-0.028251,-0.025745,0.000000,-2.260926,-0.418560,-0.238797,-0.000100,0.000000,0.086279,-0.363188,0.250119,0.000034,-0.000027,-3.053824,0.000000,0.000000,0.000000,0.000000,0.000000,0.000000,-4.375770,3.796977,0.598888,-0.051793,0.078834,0.053763,0.086290,-0.363187,0.250113,0.000000,-0.000000,-3.053753,0.000000,0.000000,0.000000,0.000000,0.000000,0.000000,0,28.375000,29.187500,27.625000,31.812500,35.062500,36.187500,0.667873,7,253,253,253,253,253,253,1,0.248997,0.095768,9.481039,0.000000,1.000000,0.000000,47.490749,47.540901,0.596423,47.427269,47.384270,47.513268,47.527599,47.283943,47.384270,0,1,-0.000000,-0.000000,0.004000,0.004000,1,1,-648.037941,148.625127,19379.569099,-33.666499,-11.285761,33.978793,0.000002,0.000002,0.000002,0.000000,0.000000,0.000000,0,0,0,0,0,0,0,0,0,0.000000,0.000000,0.000000,0.000000,0.000000,0.000000,0.000000,0.000000
241511.016000,1.437494,-1.089114,2.525809,3.275377,1.572121,3.357390,0.000000,0.000000,0.000000,0.000000,0.000000,0.000000,0.000000,0.000000,0.000000,0.000000,0.000000,0.000000,-0.000000,-2.261000,-0.418550,-0.238800,-0.000099,0.000000,-0.000000,-23.523417,-4.324778,-1.846364,-0.000784,0.000000,1.437464,-1.089135,2.525871,3.275331,1.572115,3.357397,0.000000,0.000000,-0.000000,0.000000,-0.000000,0.000000,0.329756,-1.838208,-0.634444,-0.188220,-0.029018,-0.037774,-0.000000,-2.261000,-0.418550,-0.238800,-0.000099,0.000000,0.086283,-0.363166,0.250116,-0.000009,-0.000008,-3.053775,0.000000,0.000000,0.000000,0.000000,0.000000,0.000000,-4.147145,3.637824,0.740204,-0.054234,0.071800,0.051534,0.086290,-0.363187,0.250113,0.000000,-0.000000,-3.053753,0.000000,0.000000,0.000000,0.000000,0.000000,0.000000,0,28.375000,29.187500,27.625000,31.812500,35.062500,36.187500,0.655885,7,253,253,253,253,253,253,1,0.172383,0.076614,9.557653,0.000000,1.000000,0.000000,47.480896,47.530155,0.647900,47.484600,47.398605,47.498932,47.484600,47.326939,47.369938,0,1,-0.000000,-0.000000,0.004000,0.004000,1,1,-648.251981,148.803545,19379.710250,-33.663454,-11.278970,33.976562,0.000002,0.000002,0.000002,0.000000,0.000000,0.000000,0,0,0,0,0,0,0,0,0,0.000000,0.000000,0.000000,0.000000,0.000000,0.000000,0.000000,0.000000
241511.018000,1.437494,-1.089114,2.525809,3.275377,1.572121,3.357390,0.000000,0.000000,0.000000,0.000000,0.000000,0.000000,0.000000,0.000000,0.000000,0.000000,0.000000,0.000000,0.000000,-2.260886,-0.418450,-0.238801,-0.000097,0.000000,0.000000,-23.522227,-4.323752,-1.846368,-0.000766,0.000000,1.437518,-1.089122,2.525831,3.275397,1.572087,3.357336,0.000000,0.000000,-0.000000,0.000000,-0.000000,0.000000,0.354026,-1.828674,-0.683182,-0.207570,-0.026942,-0.026750,0.000000,-2.260886,-0.418450,-0.238801,-0.000097,0.000000,0.086303,-0.363180,0.250111,-0.000042,0.000058,-3.053782,0.000000,0.000000,0.000000,0.000000,0.000000,0.000000,-4.246267,3.616740,0.790634,-0.054069,0.072163,0.049166,0.086290,-0.363187,0.250113,0.000000,-0.000000,-3.053753,0.000000,0.000000,0.000000,0.000000,0.000000,0.000000,0,28.375000,29.187500,27.687500,31.812500,35.062500,36.187500,0.644604,7,253,253,253,253,253,253,1,0.229843,0.134075,9.519346,0.000000,1.000000,0.000000,47.486271,47.522987,0.618802,47.498932,47.412937,47.541931,47.484600,47.312607,47.398605,0,1,-0.000000,-0.000000,0.004000,0.004000,1,1,-648.151393,148.815956,19379.760427,-33.663647,-11.279318,33.974189,0.000002,0.000002,0.000002,0.000000,0.000000,0.000000,0,0,0,0,0,0,0,0,0,0.000000,0.000000,0.000000,0.000000,0.000000,0.000000,0.000000,0.000000
241511.020000,1.437494,-1.089114,2.525809,3.275377,1.572121,3.357390,0.000000,0.000000,0.000000,0.000000,0.000000,0.000000,0.000000,0.000000,0.000000,0.000000,0.000000,0.000000,0.000000,-2.260982,-0.418499,-0.238804,-0.000095,0.000000,0.000000,-23.523219,-4.324259,-1.846391,-0.000750,0.000000,1.437452,-1.089097,2.525831,3.275365,1.572137,3.357427,0.000000,0.000000,-0.000000,0.000000,-0.000000,0.000000,0.334436,-1.861130,-0.703125,-0.197806,-0.023759,-0.023970,0.000000,-2.260982,-0.418499,-0.238804,-0.000095,0.000000,0.086274,-0.363185,0.250106,0.000031,0.000035,-3.053756,0.000000,0.000000,0.000000,0.000000,0.000000,0.000000,-4.466350,3.384023,0.726521,-0.062417,0.079640,0.050785,0.086290,-0.363187,0.250113,0.000000,-0.000000,-3.053753,0.000000,0.000000,0.000000,0.000000,0.000000,0.000000,0,28.375000,29.187500,27.687500,31.812500,35.062500,36.187500,0.661776,7,253,253,253,253,253,253,1,0.172383,0.153229,9.519346,0.000000,1.000000,0.000000,47.507767,47.543587,0.558382,47.484600,47.427269,47.498932,47.513268,47.355606,47.384270,0,1,-0.000000,-0.000000,0.004000,0.004000,1,1,-647.911768,149.028342,19379.696577,-33.655991,-11.287501,33.975812,0.000002,0.000002,0.000002,0.000000,0.000000,0.000000,0,0,0,0,0,0,0,0,0,0.000000,0.000000,0.000000,0.000000,0.000000,0.000000,0.000000,0.000000
241511.022000,1.437494,-1.089114,2.525809,3.275377,1.572121,3.357390,0.000000,0.000000,0.000000,0.000000,0.000000,0.000000,0.000000,0.000000,0.000000,0.000000,0.000000,0.000000,0.000000,-2.261025,-0.418454,-0.238803,-0.000099,0.000000,0.000000,-23.523676,-4.323794,-1.846387,-0.000779,0.000000,1.437469,-1.089125,2.525831,3.275359,1.572137,3.357456,0.000000,0.000000,-0.000000,0.000000,-0.000000,0.000000,0.345474,-1.832443,-0.638343,-0.195112,-0.020837,-0.036304,0.000000,-2.261025,-0.418454,-0.238803,-0.000099,0.000000,0.086281,-0.363180,0.250116,0.000022,-0.000016,-3.053712,0.000000,0.000000,0.000000,0.000000,0.000000,0.000000,-4.092323,3.624660,0.585939,-0.056244,0.069815,0.049177,0.086290,-0.363187,0.250113,0.000000,-0.000000,-3.053753,0.000000,0.000000,0.000000,0.000000,0.000000,0.000000,0,28.375000,29.187500,27.687500,31.812500,35.062500,36.187500,0.650028,7,253,253,253,253,253,253,1,0.191536,0.095768,9.500193,0.000000,1.000000,0.000000,47.506870,47.557022,0.556140,47.412937,47.384270,47.484600,47.484600,47.298275,47.369938,0,1,-0.000000,-0.000000,0.004000,0.004000,1,1,-648.305650,148.821218,19379.556085,-33.661283,-11.277172,33.974206,0.000002,0.000002,0.000002,0.000000,0.000000,0.000000,0,0,0,0,0,0,0,0,0,0.000000,0.000000,0.000000,0.000000,0.000000,0.000000,0.000000,0.000000
241511.024000,1.437494,-1.089114,2.525809,3.275377,1.572121,3.357390,0.000000,0.000000,0.000000,0.000000,0.000000,0.000000,0.000000,0.000000,0.000000,0.000000,0.000000,0.000000,-0.000000,-2.260974,-0.418503,-0.238801,-0.000099,0.000000,-0.000000,-23.523139,-4.324292,-1.846367,-0.000779,0.000000,1.437481,-1.089115,2.525803,3.275373,1.572132,3.357369,0.000000,0.000000,-0.000000,0.000000,-0.000000,0.000000,0.335060,-1.864986,-0.675172,-0.201874,-0.015492,-0.029962,-0.000000,-2.260974,-0.418503,-0.238801,-0.000099,0.000000,0.086284,-0.363189,0.250115,0.000014,-0.000021,-3.053786,0.000000,0.000000,0.000000,0.000000,0.000000,0.000000,-4.478125,3.410080,0.712309,-0.059315,0.081532,0.051815,0.086290,-0.363187,0.250113,0.000000,-0.000000,-3.053753,0.000000,0.000000,0.000000,0.000000,0.000000,0.000000,0,28.375000,29.187500,27.687500,31.812500,35.062500,36.187500,0.645780,7,253,253,253,253,253,253,1,0.210690,0.076614,9.500193,0.000000,1.000000,0.000000,47.472836,47.534634,0.587474,47.470268,47.384270,47.513268,47.498932,47.298275,47.369938,0,1,-0.000000,-0.000000,0.004000,0.004000,1,1,-647.902233,149.001415,19379.682448,-33.659245,-11.289109,33.976844,0.000002,0.000002,0.000002,0.000000,0.000000,0.000000,0,0,0,0,0,0,0,0,0,0.000000,0.000000,0.000000,0.000000,0.000000,0.000000,0.000000,0.000000
241511.026000,1.437494,-1.089114,2.525809,3.275377,1.572121,3.357390,0.000000,0.000000,0.000000,0.000000,0.000000,0.000000,0.000000,0.000000,0.000000,0.000000,0.000000,0.000000,0.000000,-2.261042,-0.418533,-0.238801,-0.000098,0.000000,0.000000,-23.523851,-4.324609,-1.846365,-0.000776,0.000000,1.437472,-1.089122,2.525835,3.275385,1.572120,3.357411,0.000000,0.000000,-0.000000,0.000000,-0.000000,0.000000,0.389087,-1.894312,-0.649569,-0.184949,-0.019864,-0.034150,0.000000,-2.261042,-0.418533,-0.238801,-0.000098,0.000000,0.086283,-0.363182,0.250112,0.000005,0.000038,-3.053753,0.000000,0.000000,0.000000,0.000000,0.000000,0.000000,-4.104786,3.616414,0.775402,-0.055724,0.070888,0.050680,0.086290,-0.363187,0.250113,0.000000,-0.000000,-3.053753,0.000000,0.000000,0.000000,0.000000,0.000000,0.000000,0,28.375000,29.187500,27.687500,31.812500,35.062500,36.187500,0.655980,7,253,253,253,253,253,253,1,0.172383,0.095768,9.481039,0.000000,1.000000,0.000000,47.505077,47.561501,0.654613,47.484600,47.384270,47.498932,47.498932,47.326939,47.384270,0,1,-0.000000,-0.000000,0.004000,0.004000,1,1,-648.292365,148.828556,19379.745372,-33.661890,-11.278195,33.975705,0.000002,0.000002,0.000002,0.000000,0.000000,0.000000,0,0,0,0,0,0,0,0,0,0.000000,0.000000,0.000000,0.000000,0.000000,0.000000,0.000000,0.000000
241511.028000,1.437494,-1.089114,2.525809,3.275377,1.572121,3.357390,0.000000,0.000000,0.000000,0.000000,0.000000,0.000000,0.000000,0.000000,0.000000,0.000000,0.000000,0.000000,0.000000,-2.260973,-0.418491,-0.238803,-0.000098,0.000000,0.000000,-23.523136,-4.324176,-1.846386,-0.000769,0.000000,1.437455,-1.089139,2.525810,3.275382,1.572103,3.357356,0.000000,0.000000,-0.000000,0.000000,-0.000000,0.000000,0.359364,-1.867563,-0.700469,-0.197142,-0.036711,-0.034792,0.000000,-2.260973,-0.418491,-0.238803,-0.000098,0.000000,0.086278,-0.363189,0.250122,-0.000031,-0.000025,-3.053825,0.000000,0.000000,0.000000,0.000000,0.000000,0.000000,-4.500043,3.682858,0.712517,-0.054740,0.078734,0.053116,0.086290,-0.363187,0.250113,0.000000,-0.000000,-3.053753,0.000000,0.000000,0.000000,0.000000,0.000000,0.000000,0,28.375000,29.187500,27.687500,31.812500,35.062500,36.187500,0.681924,7,253,253,253,253,253,253,1,0.153229,0.114922,9.500193,0.000000,1.000000,0.000000,47.536423,47.577621,0.553905,47.527599,47.427269,47.541931,47.470268,47.326939,47.398605,0,1,-0.000000,-0.000000,0.004000,0.004000,1,1,-647.904212,148.727926,19379.682541,-33.663553,-11.285917,33.978144,0.000002,0.000002,0.000002,0.000000,0.000000,0.000000,0,0,0,0,0,0,0,0,0,0.000000,0.000000,0.000000,0.000000,0.000000,0.000000,0.000000,0.000000
241511.030000,1.437494,-1.089114,2.525809,3.275377,1.572121,3.357390,0.000000,0.000000,0.000000,0.000000,0.000000,0.000000,0.000000,0.000000,0.000000,0.000000,0.000000,0.000000,-0.000000,-2.260987,-0.418563,-0.238800,-0.000096,0.000000,-0.000000,-23.523275,-4.324913,-1.846361,-0.000759,0.000000,1.437472,-1.089122,2.525844,3.275385,1.572120,3.357390,0.000000,0.000000,-0.000000,0.000000,-0.000000,0.000000,0.341817,-1.839897,-0.672039,-0.203113,-0.031877,-0.034689,-0.000000,-2.260987,-0.418563,-0.238800,-0.000096,0.000000,0.086284,-0.363179,0.250110,0.000008,0.000051,-3.053774,0.000000,0.000000,0.000000,0.000000,0.000000,0.000000,-4.275468,3.701946,0.708463,-0.058087,0.075400,0.052115,0.086290,-0.363187,0.250113,0.000000,-0.000000,-3.053753,0.000000,0.000000,0.000000,0.000000,0.000000,0.000000,0,28.375000,29.187500,27.687500,31.812500,35.062500,36.187500,0.655608,7,253,253,253,253,253,253,1,0.210690,0.076614,9.404425,0.000000,1.000000,0.000000,47.514931,47.582996,0.636710,47.455936,47.398605,47.513268,47.484600,47.298275,47.398605,0,1,-0.000000,-0.000000,0.004000,0.004000,1,1,-648.129757,148.728478,19379.678404,-33.659930,-11.282897,33.977140,0.000002,0.000002,0.000002,0.000000,0.000000,0.000000,0,0,0,0,0,0,0,0,0,0.000000,0.000000,0.000000,0.000000,0.000000,0.000000,0.000000,0.000000
241511.032000,1.437494,-1.089114,2.525809,3.275377,1.572121,3.357390,0.000000,0.000000,0.000000,0.000000,0.000000,0.000000,0.000000,0.000000,0.000000,0.000000,0.000000,0.000000,-0.000000,-2.260958,-0.418476,-0.238804,-0.000098,0.000000,-0.000000,-23.522979,-4.324019,-1.846392,-0.000769,0.000000,1.437485,-1.089123,2.525852,3.275410,1.572132,3.357390,0.000000,0.000000,-0.000000,0.000000,-0.000000,0.000000,0.353759,-1.826874,-0.629099,-0.183022,-0.028113,-0.029453,-0.000000,-2.260958,-0.418476,-0.238804,-0.000098,0.000000,0.086287,-0.363178,0.250107,0.000035,0.000097,-3.053761,0.000000,0.000000,0.000000,0.000000,0.000000,0.000000,-4.280433,3.392658,0.498272,-0.063500,0.075041,0.047812,0.086290,-0.363187,0.250113,0.000000,-0.000000,-3.053753,0.000000,0.000000,0.000000,0.000000,0.000000,0.000000,0,28.375000,29.187500,27.687500,31.812500,35.062500,36.187500,0.647653,7,253,253,253,253,253,253,1,0.210690,0.114922,9.404425,0.000000,1.000000,0.000000,47.497021,47.541798,0.650136,47.470268,47.412937,47.527599,47.527599,47.326939,47.398605,0,1,-0.000000,-0.000000,0.004000,0.004000,1,1,-648.097696,149.036149,19379.468190,-33.654507,-11.283016,33.972835,0.000002,0.000002,0.000002,0.000000,0.000000,0.000000,0,0,0,0,0,0,0,0,0,0.000000,0.000000,0.000000,0.000000,0.000000,0.000000,0.000000,0.000000
241511.034000,1.437494,-1.089114,2.525809,3.275377,1.572121,3.357390,0.000000,0.000000,0.000000,0.000000,0.000000,0.000000,0.000000,0.000000,0.000000,0.000000,0.000000,0.000000,0.000000,-2.260944,-0.418466,-0.238806,-0.000098,0.000000,0.000000,-23.522833,-4.323913,-1.846410,-0.000776,0.000000,1.437497,-1.089167,2.525857,3.275389,1.572186,3.357402,0.000000,0.000000,-0.000000,0.000000,-0.000000,0.000000,0.314258,-1.832206,-0.702639,-0.189822,-0.032855,-0.021006,0.000000,-2.260944,-0.418466,-0.238806,-0.000098,0.000000,0.086287,-0.363169,0.250124,0.000099,-0.000008,-3.053737,0.000000,0.000000,0.000000,0.000000,0.000000,0.000000,-4.110025,3.686404,0.597084,-0.056137,0.070528,0.050100,0.086290,-0.363187,0.250113,0.000000,-0.000000,-3.053753,0.000000,0.000000,0.000000,0.000000,0.000000,0.000000,0,28.375000,29.187500,27.687500,31.812500,35.062500,36.187500,0.643765,7,253,253,253,253,253,253,1,0.153229,0.134075,9.442732,0.000000,1.000000,0.000000,47.483585,47.547173,0.603141,47.498932,47.398605,47.527599,47.498932,47.326939,47.384270,0,1,-0.000000,-0.000000,0.004000,0.004000,1,1,-648.293242,148.758260,19379.567411,-33.661452,-11.277874,33.975131,0.000002,0.000002,0.000002,0.000000,0.000000,0.000000,0,0,0,0,0,0,0,0,0,0.000000,0.000000,0.000000,0.000000,0.000000,0.000000,0.000000,0.000000
241511.036000,1.437494,-1.089114,2.525809,3.275377,1.572121,3.357390,0.000000,0.000000,0.000000,0.000000,0.000000,0.000000,0.000000,0.000000,0.000000,0.000000,0.000000,0.000000,0.000000,-2.260856,-0.418532,-0.238802,-0.000102,0.000000,0.000000,-23.521918,-4.324592,-1.846375,-0.000807,0.000000,1.437443,-1.089213,2.525827,3.275438,1.572141,3.357390,0.000000,0.000000,-0.000000,0.000000,-0.000000,0.000000,0.393021,-1.865541,-0.717865,-0.194432,-0.025287,-0.032197,0.000000,-2.260856,-0.418532,-0.238802,-0.000102,0.000000,0.086271,-0.363184,0.250139,0.000025,-0.000036,-3.053803,0.000000,0.000000,0.000000,0.000000,0.000000,0.000000,-4.282231,3.485471,0.790742,-0.058882,0.074210,0.049594,0.086290,-0.363187,0.250113,0.000000,-0.000000,-3.053753,0.000000,0.000000,0.000000,0.000000,0.000000,0.000000,0,28.375000,29.187500,27.687500,31.812500,35.062500,36.187500,0.644628,7,253,253,253,253,253,253,1,0.172383,0.153229,9.442732,0.000000,1.000000,0.000000,47.525677,47.573143,0.710562,47.484600,47.398605,47.541931,47.484600,47.355606,47.384270,0,1,-0.000000,-0.000000,0.004000,0.004000,1,1,-648.103909,148.943545,19379.760945,-33.659034,-11.281776,33.974624,0.000002,0.000002,0.000002,0.000000,0.000000,0.000000,0,0,0,0,0,0,0,0,0,0.000000,0.000000,0.000000,0.000000,0.000000,0.000000,0.000000,0.000000
241511.038000,1.437494,-1.089114,2.525809,3.275377,1.572121,3.357390,0.000000,0.000000,0.000000,0.000000,0.000000,0.000000,0.000000,0.000000,0.000000,0.000000,0.000000,0.000000,0.000000,-2.260827,-0.418665,-0.238800,-0.000099,0.000000,0.000000,-23.521608,-4.325967,-1.846360,-0.000781,0.000000,1.437457,-1.089135,2.525807,3.275364,1.572148,3.357427,0.000000,0.000000,-0.000000,0.000000,-0.000000,0.000000,0.389492,-1.886421,-0.680791,-0.194973,-0.027449,-0.029975,0.000000,-2.260827,-0.418665,-0.238800,-0.000099,0.000000,0.086274,-0.363187,0.250123,0.000032,-0.000064,-3.053752,0.000000,0.000000,0.000000,0.000000,0.000000,0.000000,-4.447202,3.652944,0.640098,-0.055318,0.077906,0.048427,0.086290,-0.363187,0.250113,0.000000,-0.000000,-3.053753,0.000000,0.000000,0.000000,0.000000,0.000000,0.000000,0,28.375000,29.187500,27.687500,31.812500,35.062500,36.187500,0.653508,7,253,253,253,253,253,253,1,0.191536,0.057461,9.461885,0.000000,1.000000,0.000000,47.517616,47.577621,0.656848,47.470268,47.384270,47.513268,47.541931,47.384270,47.384270,0,1,-0.000000,-0.000000,0.004000,0.004000,1,1,-647.954452,148.762007,19379.610397,-33.662913,-11.285148,33.973459,0.000002,0.000002,0.000002,0.000000,0.000000,0.000000,0,0,0,0,0,0,0,0,0,0.000000,0.000000,0.000000,0.000000,0.000000,0.000000,0.000000,0.000000
241511.040000,1.437494,-1.089114,2.525809,3.275377,1.572121,3.357390,0.000000,0.000000,0.000000,0.000000,0.000000,0.000000,0.000000,0.000000,0.000000,0.000000,0.000000,0.000000,0.000000,-2.260996,-0.418561,-0.238799,-0.000100,0.000000,0.000000,-23.523375,-4.324898,-1.846350,-0.000786,0.000000,1.437493,-1.089201,2.525822,3.275365,1.572141,3.357378,0.000000,0.000000,-0.000000,0.000000,-0.000000,0.000000,0.341523,-1.888854,-0.674903,-0.196830,-0.025077,-0.029399,0.000000,-2.260996,-0.418561,-0.238799,-0.000100,0.000000,0.086289,-0.363174,0.250143,0.000008,-0.000135,-3.053765,0.000000,0.000000,0.000000,0.000000,0.000000,0.000000,-4.520046,3.361072,0.515813,-0.063639,0.081185,0.047485,0.086290,-0.363187,0.250113,0.000000,-0.000000,-3.053753,0.000000,0.000000,0.000000,0.000000,0.000000,0.000000,0,28.375000,29.187500,27.687500,31.812500,35.062500,36.187500,0.649872,7,253,253,253,253,253,253,1,0.229843,0.134075,9.519346,0.000000,1.000000,0.000000,47.503288,47.542694,0.665802,47.470268,47.412937,47.484600,47.484600,47.283943,47.369938,0,1,-0.000000,-0.000000,0.004000,0.004000,1,1,-647.856266,149.046327,19379.486199,-33.654912,-11.289141,33.972520,0.000002,0.000002,0.000002,0.000000,0.000000,0.000000,0,0,0,0,0,0,0,0,0,0.000000,0.000000,0.000000,0.000000,0.000000,0.000000,0.000000,0.000000
241511.042000,1.437494,-1.089114,2.525809,3.275377,1.572121,3.357390,0.000000,0.000000,0.000000,0.000000,0.000000,0.000000,0.000000,0.000000,0.000000,0.000000,0.000000,0.000000,0.000000,-2.260851,-0.418648,-0.238795,-0.000099,0.000000,0.000000,-23.521866,-4.325790,-1.846322,-0.000781,0.000000,1.437478,-1.089122,2.525852,3.275368,1.572120,3.357357,0.000000,0.000000,-0.000000,0.000000,-0.000000,0.000000,0.298806,-1.840038,-0.669138,-0.180352,-0.036527,-0.040504,0.000000,-2.260851,-0.418648,-0.238795,-0.000099,0.000000,0.086286,-0.363175,0.250111,0.000006,0.000039,-3.053802,0.000000,0.000000,0.000000,0.000000,0.000000,0.000000,-4.379494,3.529213,0.500778,-0.057782,0.075797,0.049271,0.086290,-0.363187,0.250113,0.000000,-0.000000,-3.053753,0.000000,0.000000,0.000000,0.000000,0.000000,0.000000,0,28.375000,29.187500,27.687500,31.812500,35.062500,36.187500,0.667176,7,253,253,253,253,253,253,1,0.229843,0.172383,9.538500,0.000000,1.000000,0.000000,47.483585,47.534634,0.585233,47.470268,47.398605,47.513268,47.541931,47.326939,47.369938,0,1,-0.000000,-0.000000,0.004000,0.004000,1,1,-648.010875,148.891525,19379.470749,-33.660266,-11.283263,33.974296,0.000002,0.000002,0.000002,0.000000,0.000000,0.000000,0,0,0,0,0,0,0,0,0,0.000000,0.000000,0.000000,0.000000,0.000000,0.000000,0.000000,0.000000
241511.044000,1.437494,-1.089114,2.525809,3.275377,1.572121,3.357390,0.000000,0.000000,0.000000,0.000000,0.000000,0.000000,0.000000,0.000000,0.000000,0.000000,0.000000,0.000000,-0.000000,-2.260943,-0.418461,-0.238803,-0.000098,0.000000,-0.000000,-23.522826,-4.323865,-1.846387,-0.000769,0.000000,1.437457,-1.089143,2.525864,3.275380,1.572128,3.357419,0.000000,0.000000,-0.000000,0.000000,-0.000000,0.000000,0.374680,-1.825792,-0.718703,-0.182457,-0.027527,-0.036622,-0.000000,-2.260943,-0.418461,-0.238803,-0.000098,0.000000,0.086278,-0.363172,0.250115,0.000020,0.000040,-3.053761,0.000000,0.000000,0.000000,0.000000,0.000000,0.000000,-4.364032,3.259373,0.634879,-0.063611,0.077678,0.044914,0.086290,-0.363187,0.250113,0.000000,-0.000000,-3.053753,0.000000,0.000000,0.000000,0.000000,0.000000,0.000000,0,28.375000,29.187500,27.687500,31.812500,35.062500,36.187500,0.656844,7,253,253,253,253,253,253,1,0.191536,0.134075,9.557653,0.000000,1.000000,0.000000,47.497913,47.582100,0.681469,47.498932,47.398605,47.498932,47.484600,47.326939,47.412937,0,1,-0.000000,-0.000000,0.004000,0.004000,1,1,-648.002752,149.161514,19379.604891,-33.654629,-11.285650,33.969939,0.000002,0.000002,0.000002,0.000000,0.000000,0.000000,0,0,0,0,0,0,0,0,0,0.000000,0.000000,0.000000,0.000000,0.000000,0.000000,0.000000,0.000000
241511.046000,1.437494,-1.089114,2.525809,3.275377,1.572121,3.357390,0.000000,0.000000,0.000000,0.000000,0.000000,0.000000,0.000000,0.000000,0.000000,0.000000,0.000000,0.000000,0.000000,-2.260887,-0.418478,-0.238804,-0.000098,0.000000,0.000000,-23.522236,-4.324037,-1.846388,-0.000774,0.000000,1.437473,-1.089106,2.525822,3.275380,1.572112,3.357415,0.000000,0.000000,-0.000000,0.000000,-0.000000,0.000000,0.354893,-1.841770,-0.677495,-0.201639,-0.033689,-0.031269,0.000000,-2.260887,-0.418478,-0.238804,-0.000098,0.000000,0.086284,-0.363186,0.250108,-0.000006,0.000038,-3.053748,0.000000,0.000000,0.000000,0.000000,0.000000,0.000000,-4.377886,3.750722,0.755687,-0.053904,0.077688,0.053391,0.086290,-0.363187,0.250113,0.000000,-0.000000,-3.053753,0.000000,0.000000,0.000000,0.000000,0.000000,0.000000,0,28.375000,29.187500,27.687500,31.812500,35.062500,36.187500,0.641400,7,253,253,253,253,253,253,1,0.229843,0.095768,9.461885,0.000000,1.000000,0.000000,47.528366,47.588367,0.591951,47.441601,47.441601,47.556267,47.556267,47.355606,47.427269,0,1,-0.000000,-0.000000,0.004000,0.004000,1,1,-648.032135,148.670787,19379.725620,-33.664300,-11.284809,33.978416,0.000002,0.000002,0.000002,0.000000,0.000000,0.000000,0,0,0,0,0,0,0,0,0,0.000000,0.000000,0.000000,0.000000,0.000000,0.000000,0.000000,0.000000
241511.048000,1.437494,-1.089114,2.525809,3.275377,1.572121,3.357390,0.000000,0.000000,0.000000,0.000000,0.000000,0.000000,0.000000,0.000000,0.000000,0.000000,0.000000,0.000000,0.000000,-2.261025,-0.418485,-0.238803,-0.000097,0.000000,0.000000,-23.523673,-4.324110,-1.846386,-0.000765,0.000000,1.437468,-1.089167,2.525814,3.275389,1.572108,3.357378,0.000000,0.000000,-0.000000,0.000000,-0.000000,0.000000,0.342314,-1.849049,-0.703641,-0.192602,-0.017140,-0.022522,0.000000,-2.261025,-0.418485,-0.238803,-0.000097,0.000000,0.086283,-0.363185,0.250130,-0.000029,-0.000051,-3.053790,0.000000,0.000000,0.000000,0.000000,0.000000,0.000000,-4.087412,3.570755,0.840000,-0.056482,0.067729,0.052386,0.086290,-0.363187,0.250113,0.000000,-0.000000,-3.053753,0.000000,0.000000,0.000000,0.000000,0.000000,0.000000,0,28.375000,29.187500,27.687500,31.812500,35.062500,36.187500,0.648312,7,253,253,253,253,253,253,1,0.172383,0.210690,9.500193,0.000000,1.000000,0.000000,47.511349,47.550755,0.654613,47.484600,47.384270,47.513268,47.527599,47.298275,47.341274,0,1,-0.000000,-0.000000,0.004000,0.004000,1,1,-648.305562,148.875610,19379.810101,-33.660856,-11.275108,33.977415,0.000002,0.000002,0.000002,0.000000,0.000000,0.000000,0,0,0,0,0,0,0,0,0,0.000000,0.000000,0.000000,0.000000,0.000000,0.000000,0.000000,0.000000
241511.050000,1.437494,-1.089114,2.525809,3.275377,1.572121,3.357390,0.000000,0.000000,0.000000,0.000000,0.000000,0.000000,0.000000,0.000000,0.000000,0.000000,0.000000,0.000000,-0.000000,-2.260928,-0.418605,-0.238799,-0.000097,0.000000,-0.000000,-23.522667,-4.325344,-1.846351,-0.000762,0.000000,1.437427,-1.089135,2.525819,3.275422,1.572112,3.357341,0.000000,0.000000,-0.000000,0.000000,-0.000000,0.000000,0.336739,-1.889479,-0.691175,-0.196562,-0.036993,-0.016658,-0.000000,-2.260928,-0.418605,-0.238799,-0.000097,0.000000,0.086267,-0.363193,0.250115,-0.000004,0.000051,-3.053869,0.000000,0.000000,0.000000,0.000000,0.000000,0.000000,-4.133736,3.599588,0.496736,-0.056513,0.074723,0.055090,0.086290,-0.363187,0.250113,0.000000,-0.000000,-3.053753,0.000000,0.000000,0.000000,0.000000,0.000000,0.000000,0,28.375000,29.187500,27.687500,31.812500,35.062500,36.187500,0.647749,7,253,253,253,253,253,253,1,0.210690,0.229843,9.481039,0.000000,1.000000,0.000000,47.497021,47.538216,0.594187,47.470268,47.384270,47.527599,47.513268,47.355606,47.369938,0,1,-0.000000,-0.000000,0.004000,0.004000,1,1,-648.261605,148.843240,19379.466647,-33.661430,-11.282079,33.980115,0.000002,0.000002,0.000002,0.000000,0.000000,0.000000,0,0,0,0,0,0,0,0,0,0.000000,0.000000,0.000000,0.000000,0.000000,0.000000,0.000000,0.000000
241511.052000,1.437494,-1.089114,2.525809,3.275377,1.572121,3.357390,0.000000,0.000000,0.000000,0.000000,0.000000,0.000000,0.000000,0.000000,0.000000,0.000000,0.000000,0.000000,-0.000000,-2.260980,-0.418545,-0.238804,-0.000097,0.000000,-0.000000,-23.523205,-4.324728,-1.846391,-0.000765,0.000000,1.437436,-1.089135,2.525810,3.275343,1.572141,3.357390,0.000000,0.000000,-0.000000,0.000000,-0.000000,0.000000,0.367645,-1.858674,-0.684446,-0.194971,-0.019624,-0.031893,-0.000000,-2.260980,-0.418545,-0.238804,-0.000097,0.000000,0.086268,-0.363186,0.250124,0.000016,-0.000089,-3.053810,0.000000,0.000000,0.000000,0.000000,0.000000,0.000000,-4.321705,3.696175,0.692344,-0.050868,0.075921,0.049699,0.086290,-0.363187,0.250113,0.000000,-0.000000,-3.053753,0.000000,0.000000,0.000000,0.000000,0.000000,0.000000,0,28.375000,29.187500,27.687500,31.812500,35.062500,36.187500,0.637633,7,253,253,253,253,253,253,1,0.229843,0.095768,9.519346,0.000000,1.000000,0.000000,47.515827,47.565979,0.681469,47.498932,47.427269,47.541931,47.513268,47.341274,47.427269,0,1,-0.000000,-0.000000,0.004000,0.004000,1,1,-648.083042,148.730160,19379.662662,-33.667167,-11.282776,33.974731,0.000002,0.000002,0.000002,0.000000,0.000000,0.000000,0,0,0,0,0,0,0,0,0,0.000000,0.000000,0.000000,0.000000,0.000000,0.000000,0.000000,0.000000
241511.054000,1.437494,-1.089114,2.525809,3.275377,1.572121,3.357390,0.000000,0.000000,0.000000,0.000000,0.000000,0.000000,0.000000,0.000000,0.000000,0.000000,0.000000,0.000000,0.000000,-2.260991,-0.418556,-0.238797,-0.000099,0.000000,0.000000,-23.523316,-4.324839,-1.846340,-0.000781,0.000000,1.437488,-1.089115,2.525810,3.275347,1.572091,3.357349,0.000000,0.000000,-0.000000,0.000000,-0.000000,0.000000,0.379404,-1.847293,-0.728269,-0.184756,-0.023071,-0.033089,0.000000,-2.260991,-0.418556,-0.238797,-0.000099,0.000000,0.086291,-0.363185,0.250117,-0.000052,-0.000037,-3.053798,0.000000,0.000000,0.000000,0.000000,0.000000,0.000000,-4.111813,3.614759,0.783329,-0.056710,0.072266,0.050423,0.086290,-0.363187,0.250113,0.000000,-0.000000,-3.053753,0.000000,0.000000,0.000000,0.000000,0.000000,0.000000,0,28.375000,29.187500,27.687500,31.812500,35.062500,36.187500,0.651037,7,253,253,253,253,253,253,1,0.248997,0.153229,9.461885,0.000000,1.000000,0.000000,47.497913,47.561501,0.710562,47.441601,47.412937,47.541931,47.484600,47.298275,47.398605,0,1,-0.000000,-0.000000,0.004000,0.004000,1,1,-648.285105,148.829681,19379.753337,-33.661025,-11.279648,33.975450,0.000002,0.000002,0.000002,0.000000,0.000000,0.000000,0,0,0,0,0,0,0,0,0,0.000000,0.000000,0.000000,0.000000,0.000000,0.000000,0.000000,0.000000
241511.056000,1.437494,-1.089114,2.525809,3.275377,1.572121,3.357390,0.000000,0.000000,0.000000,0.000000,0.000000,0.000000,0.000000,0.000000,0.000000,0.000000,0.000000,0.000000,-0.000000,-2.261028,-0.418520,-0.238799,-0.000095,0.000000,-0.000000,-23.523709,-4.324467,-1.846355,-0.000752,0.000000,1.437423,-1.089143,2.525848,3.275356,1.572099,3.357427,0.000000,0.000000,-0.000000,0.000000,-0.000000,0.000000,0.353221,-1.853858,-0.691282,-0.193421,-0.022943,-0.036602,-0.000000,-2.261028,-0.418520,-0.238799,-0.000095,0.000000,0.086269,-0.363178,0.250120,-0.000036,-0.000012,-3.053786,0.000000,0.000000,0.000000,0.000000,0.000000,0.000000,-4.243596,3.561920,0.730212,-0.056820,0.074046,0.050889,0.086290,-0.363187,0.250113,0.000000,-0.000000,-3.053753,0.000000,0.000000,0.000000,0.000000,0.000000,0.000000,0,28.375000,29.187500,27.687500,31.812500,35.062500,36.187500,0.649572,7,253,253,253,253,253,253,1,0.095768,0.248997,9.519346,0.000000,1.000000,0.000000,47.492542,47.556129,0.641182,47.470268,47.384270,47.513268,47.498932,47.312607,47.369938,0,1,-0.000000,-0.000000,0.004000,0.004000,1,1,-648.149228,148.870740,19379.700195,-33.661073,-11.281432,33.975916,0.000002,0.000002,0.000002,0.000000,0.000000,0.000000,0,0,0,0,0,0,0,0,0,0.000000,0.000000,0.000000,0.000000,0.000000,0.000000,0.000000,0.000000
241511.058000,1.437494,-1.089114,2.525809,3.275377,1.572121,3.357390,0.000000,0.000000,0.000000,0.000000,0.000000,0.000000,0.000000,0.000000,0.000000,0.000000,0.000000,0.000000,0.000000,-2.260913,-0.418504,-0.238801,-0.000096,0.000000,0.000000,-23.522508,-4.324306,-1.846365,-0.000757,0.000000,1.437478,-1.089159,2.525827,3.275382,1.572071,3.357419,0.000000,0.000000,-0.000000,0.000000,-0.000000,0.000000,0.337279,-1.860755,-0.691665,-0.200540,-0.025660,-0.020520,0.000000,-2.260913,-0.418504,-0.238801,-0.000096,0.000000,0.086290,-0.363181,0.250126,-0.000081,-0.000023,-3.053740,0.000000,0.000000,0.000000,0.000000,0.000000,0.000000,-4.204941,3.650110,0.587699,-0.054571,0.075785,0.054259,0.086290,-0.363187,0.250113,0.000000,-0.000000,-3.053753,0.000000,0.000000,0.000000,0.000000,0.000000,0.000000,0,28.375000,29.187500,27.687500,31.812500,35.062500,36.187500,0.647892,7,253,253,253,253,253,253,1,0.153229,0.114922,9.366117,0.000000,1.000000,0.000000,47.510452,47.542694,0.607612,47.470268,47.384270,47.498932,47.498932,47.283943,47.398605,0,1,-0.000000,-0.000000,0.004000,0.004000,1,1,-648.195711,148.786089,19379.557590,-33.663468,-11.282968,33.979285,0.000002,0.000002,0.000002,0.000000,0.000000,0.000000,0,0,0,0,0,0,0,0,0,0.000000,0.000000,0.000000,0.000000,0.000000,0.000000,0.000000,0.000000
241511.060000,1.437494,-1.089114,2.525809,3.275377,1.572121,3.357390,0.000000,0.000000,0.000000,0.000000,0.000000,0.000000,0.000000,0.000000,0.000000,0.000000,0.000000,0.000000,-0.000000,-2.260920,-0.418570,-0.238800,-0.000094,0.000000,-0.000000,-23.522583,-4.324987,-1.846358,-0.000740,0.000000,1.437452,-1.089106,2.525822,3.275393,1.572095,3.357373,0.000000,0.000000,-0.000000,0.000000,-0.000000,0.000000,0.335976,-1.847180,-0.668835,-0.200934,-0.025965,-0.036229,-0.000000,-2.260920,-0.418570,-0.238800,-0.000094,0.000000,0.086278,-0.363189,0.250107,-0.000029,0.000062,-3.053810,0.000000,0.000000,0.000000,0.000000,0.000000,0.000000,-4.144593,3.554043,0.517929,-0.062125,0.071749,0.051255,0.086290,-0.363187,0.250113,0.000000,-0.000000,-3.053753,0.000000,0.000000,0.000000,0.000000,0.000000,0.000000,0,28.375000,29.187500,27.687500,31.812500,35.062500,36.187500,0.647208,7,253,253,253,253,253,253,1,0.248997,0.095768,9.519346,0.000000,1.000000,0.000000,47.498810,47.564190,0.681469,47.441601,47.441601,47.541931,47.513268,47.326939,47.398605,0,1,-0.000000,-0.000000,0.004000,0.004000,1,1,-648.247058,148.887450,19379.487750,-33.655583,-11.279611,33.976278,0.000002,0.000002,0.000002,0.000000,0.000000,0.000000,0,0,0,0,0,0,0,0,0,0.000000,0.000000,0.000000,0.000000,0.000000,0.000000,0.000000,0.000000
241511.062000,1.437494,-1.089114,2.525809,3.275377,1.572121,3.357390,0.000000,0.000000,0.000000,0.000000,0.000000,0.000000,0.000000,0.000000,0.000000,0.000000,0.000000,0.000000,0.000000,-2.261026,-0.418486,-0.238804,-0.000096,0.000000,0.000000,-23.523681,-4.324117,-1.846393,-0.000754,0.000000,1.437472,-1.089143,2.525835,3.275364,1.572103,3.357394,0.000000,0.000000,-0.000000,0.000000,-0.000000,0.000000,0.315292,-1.818811,-0.676374,-0.186736,-0.023408,-0.021748,0.000000,-2.261026,-0.418486,-0.238804,-0.000096,0.000000,0.086285,-0.363178,0.250121,-0.000030,-0.000022,-3.053770,0.000000,0.000000,0.000000,0.000000,0.000000,0.000000,-4.322385,3.526082,0.673998,-0.059939,0.078134,0.051733,0.086290,-0.363187,0.250113,0.000000,-0.000000,-3.053753,0.000000,0.000000,0.000000,0.000000,0.000000,0.000000,0,28.375000,29.187500,27.687500,31.812500,35.062500,36.187500,0.641568,7,253,253,253,253,253,253,1,0.153229,0.095768,9.538500,0.000000,1.000000,0.000000,47.522987,47.550755,0.645659,47.513268,47.441601,47.541931,47.556267,47.355606,47.384270,0,1,-0.000000,-0.000000,0.004000,0.004000,1,1,-648.067659,148.899454,19379.644017,-33.658326,-11.285779,33.976760,0.000002,0.000002,0.000002,0.000000,0.000000,0.000000,0,0,0,0,0,0,0,0,0,0.000000,0.000000,0.000000,0.000000,0.000000,0.000000,0.000000,0.000000
241511.064000,1.437494,-1.089114,2.525809,3.275377,1.572121,3.357390,0.000000,0.000000,0.000000,0.000000,0.000000,0.000000,0.000000,0.000000,0.000000,0.000000,0.000000,0.000000,0.000000,-2.260936,-0.418527,-0.238800,-0.000096,0.000000,0.000000,-23.522741,-4.324539,-1.846362,-0.000759,0.000000,1.437477,-1.089119,2.525840,3.275356,1.572120,3.357365,0.000000,0.000000,-0.000000,0.000000,-0.000000,0.000000,0.319795,-1.832158,-0.647745,-0.188002,-0.022765,-0.037653,0.000000,-2.260936,-0.418527,-0.238800,-0.000096,0.000000,0.086285,-0.363177,0.250113,0.000000,0.000007,-3.053795,0.000000,0.000000,0.000000,0.000000,0.000000,0.000000,-4.034080,3.558357,0.719246,-0.059268,0.069350,0.051920,0.086290,-0.363187,0.250113,0.000000,-0.000000,-3.053753,0.000000,0.000000,0.000000,0.000000,0.000000,0.000000,0,28.375000,29.187500,27.687500,31.812500,35.062500,36.187500,0.628704,7,253,253,253,253,253,253,1,0.172383,0.172383,9.481039,0.000000,1.000000,0.000000,47.492542,47.551651,0.582997,47.412937,47.398605,47.541931,47.498932,47.341274,47.341274,0,1,-0.000000,-0.000000,0.004000,0.004000,1,1,-648.357550,148.892714,19379.689279,-33.658222,-11.276970,33.976947,0.000002,0.000002,0.000002,0.000000,0.000000,0.000000,0,0,0,0,0,0,0,0,0,0.000000,0.000000,0.000000,0.000000,0.000000,0.000000,0.000000,0.000000
241511.066000,1.437494,-1.089114,2.525809,3.275377,1.572121,3.357390,0.000000,0.000000,0.000000,0.000000,0.000000,0.000000,0.000000,0.000000,0.000000,0.000000,0.000000,0.000000,0.000000,-2.260970,-0.418477,-0.238802,-0.000098,0.000000,0.000000,-23.523106,-4.324024,-1.846375,-0.000769,0.000000,1.437452,-1.089168,2.525868,3.275361,1.572124,3.357406,0.000000,0.000000,-0.000000,0.000000,-0.000000,0.000000,0.373114,-1.863461,-0.719904,-0.193991,-0.033267,-0.025250,0.000000,-2.260970,-0.418477,-0.238802,-0.000098,0.000000,0.086278,-0.363167,0.250125,0.000002,-0.000019,-3.053777,0.000000,0.000000,0.000000,0.000000,0.000000,0.000000,-4.395896,3.645078,0.517027,-0.052073,0.074922,0.051141,0.086290,-0.363187,0.250113,0.000000,-0.000000,-3.053753,0.000000,0.000000,0.000000,0.000000,0.000000,0.000000,0,28.375000,29.187500,27.687500,31.812500,35.062500,36.187500,0.643692,7,253,253,253,253,253,253,1,0.268151,0.038307,9.442732,0.000000,1.000000,0.000000,47.540901,47.572247,0.618802,47.484600,47.398605,47.527599,47.527599,47.298275,47.341274,0,1,-0.000000,-0.000000,0.004000,0.004000,1,1,-648.004800,148.774498,19379.487131,-33.665880,-11.281890,33.976169,0.000002,0.000002,0.000002,0.000000,0.000000,0.000000,0,0,0,0,0,0,0,0,0,0.000000,0.000000,0.000000,0.000000,0.000000,0.000000,0.000000,0.000000
241511.068000,1.437494,-1.089114,2.525809,3.275377,1.572121,3.357390,0.000000,0.000000,0.000000,0.000000,0.000000,0.000000,0.000000,0.000000,0.000000,0.000000,0.000000,0.000000,0.000000,-2.260833,-0.418513,-0.238801,-0.000098,0.000000,0.000000,-23.521673,-4.324396,-1.846365,-0.000771,0.000000,1.437435,-1.089127,2.525840,3.275368,1.572108,3.357391,0.000000,0.000000,-0.000000,0.000000,-0.000000,0.000000,0.346337,-1.860725,-0.680055,-0.192401,-0.025948,-0.023154,0.000000,-2.260833,-0.418513,-0.238801,-0.000098,0.000000,0.086272,-0.363182,0.250114,-0.000017,0.000017,-3.053810,0.000000,0.000000,0.000000,0.000000,0.000000,0.000000,-4.100334,3.772201,0.372956,-0.052434,0.072356,0.054172,0.086290,-0.363187,0.250113,0.000000,-0.000000,-3.053753,0.000000,0.000000,0.000000,0.000000,0.000000,0.000000,0,28.375000,29.187500,27.687500,31.812500,35.062500,36.187500,0.639337,7,253,253,253,253,253,253,1,0.210690,0.076614,9.461885,0.000000,1.000000,0.000000,47.499702,47.560604,0.621043,47.484600,47.441601,47.513268,47.484600,47.384270,47.398605,0,1,-0.000000,-0.000000,0.004000,0.004000,1,1,-648.310263,148.673954,19379.342920,-33.665291,-11.279365,33.979197,0.000002,0.000002,0.000002,0.000000,0.000000,0.000000,0,0,0,0,0,0,0,0,0,0.000000,0.000000,0.000000,0.000000,0.000000,0.000000,0.000000,0.000000
241511.070000,1.437494,-1.089114,2.525809,3.275377,1.572121,3.357390,0.000000,0.000000,0.000000,0.000000,0.000000,0.000000,0.000000,0.000000,0.000000,0.000000,0.000000,0.000000,-0.000000,-2.260957,-0.418490,-0.238802,-0.000097,0.000000,-0.000000,-23.522963,-4.324164,-1.846377,-0.000762,0.000000,1.437429,-1.089159,2.525799,3.275406,1.572124,3.357444,0.000000,0.000000,-0.000000,0.000000,-0.000000,0.000000,0.375800,-1.849693,-0.646405,-0.192176,-0.014657,-0.032874,-0.000000,-2.260957,-0.418490,-0.238802,-0.000097,0.000000,0.086266,-0.363195,0.250128,-0.000002,-0.000043,-3.053764,0.000000,0.000000,0.000000,0.000000,0.000000,0.000000,-4.338337,3.603003,0.651726,-0.053881,0.076648,0.050359,0.086290,-0.363187,0.250113,0.000000,-0.000000,-3.053753,0.000000,0.000000,0.000000,0.000000,0.000000,0.000000,0,28.375000,29.187500,27.687500,31.812500,35.062500,36.187500,0.638941,7,253,253,253,253,253,253,1,0.210690,0.114922,9.481039,0.000000,1.000000,0.000000,47.512241,47.571350,0.607612,47.498932,47.398605,47.541931,47.513268,47.326939,47.412937,0,1,-0.000000,-0.000000,0.004000,0.004000,1,1,-648.058508,148.821379,19379.621875,-33.664232,-11.283768,33.975389,0.000002,0.000002,0.000002,0.000000,0.000000,0.000000,0,0,0,0,0,0,0,0,0,0.000000,0.000000,0.000000,0.000000,0.000000,0.000000,0.000000,0.000000
241511.072000,1.437494,-1.089114,2.525809,3.275377,1.572121,3.357390,0.000000,0.000000,0.000000,0.000000,0.000000,0.000000,0.000000,0.000000,0.000000,0.000000,0.000000,0.000000,-0.000000,-2.260970,-0.418620,-0.238799,-0.000098,0.000000,-0.000000,-23.523099,-4.325500,-1.846356,-0.000771,0.000000,1.437523,-1.089138,2.525819,3.275340,1.572170,3.357394,0.000000,0.000000,-0.000000,0.000000,-0.000000,0.000000,0.332634,-1.848204,-0.643269,-0.199006,-0.009114,-0.034036,-0.000000,-2.260970,-0.418620,-0.238799,-0.000098,0.000000,0.086297,-0.363176,0.250124,0.000061,-0.000092,-3.053719,0.000000,0.000000,0.000000,0.000000,0.000000,0.000000,-4.241712,3.848226,0.816441,-0.048762,0.075076,0.049051,0.086290,-0.363187,0.250113,0.000000,-0.000000,-3.053753,0.000000,0.000000,0.000000,0.000000,0.000000,0.000000,0,28.375000,29.187500,27.687500,31.812500,35.062500,36.187500,0.641065,7,253,253,253,253,253,253,1,0.191536,0.153229,9.576807,0.000000,1.000000,0.000000,47.512241,47.565083,0.598664,47.498932,47.384270,47.513268,47.513268,47.298275,47.384270,0,1,-0.000000,-0.000000,0.004000,0.004000,1,1,-648.176395,148.585354,19379.786896,-33.669200,-11.281755,33.974085,0.000002,0.000002,0.000002,0.000000,0.000000,0.000000,0,0,0,0,0,0,0,0,0,0.000000,0.000000,0.000000,0.000000,0.000000,0.000000,0.000000,0.000000
241511.074000,1.437494,-1.089114,2.525809,3.275377,1.572121,3.357390,0.000000,0.000000,0.000000,0.000000,0.000000,0.000000,0.000000,0.000000,0.000000,0.000000,0.000000,0.000000,-0.000000,-2.260970,-0.418546,-0.238798,-0.000101,0.000000,-0.000000,-23.523098,-4.324736,-1.846341,-0.000798,0.000000,1.437539,-1.089146,2.525852,3.275347,1.572174,3.357419,0.000000,0.000000,-0.000000,0.000000,-0.000000,0.000000,0.332090,-1.803714,-0.651791,-0.191743,-0.023317,-0.030842,-0.000000,-2.260970,-0.418546,-0.238798,-0.000101,0.000000,0.086304,-0.363165,0.250121,0.000075,-0.000043,-3.053679,0.000000,0.000000,0.000000,0.000000,0.000000,0.000000,-4.195759,3.596346,0.707785,-0.056416,0.073034,0.053043,0.086290,-0.363187,0.250113,0.000000,-0.000000,-3.053753,0.000000,0.000000,0.000000,0.000000,0.000000,0.000000,0,28.375000,29.187500,27.687500,31.812500,35.062500,36.187500,0.641664,7,253,253,253,253,253,253,1,0.248997,0.191536,9.615114,0.000000,1.000000,0.000000,47.488960,47.559711,0.627756,47.441601,47.398605,47.541931,47.498932,47.341274,47.369938,0,1,-0.000000,-0.000000,0.004000,0.004000,1,1,-648.200203,148.840186,19379.678139,-33.661399,-11.280396,33.978075,0.000002,0.000002,0.000002,0.000000,0.000000,0.000000,0,0,0,0,0,0,0,0,0,0.000000,0.000000,0.000000,0.000000,0.000000,0.000000,0.000000,0.000000
241511.076000,1.437494,-1.089114,2.525809,3.275377,1.572121,3.357390,0.000000,0.000000,0.000000,0.000000,0.000000,0.000000,0.000000,0.000000,0.000000,0.000000,0.000000,0.000000,-0.000000,-2.260899,-0.418502,-0.238800,-0.000102,0.000000,-0.000000,-23.522363,-4.324283,-1.846361,-0.000800,0.000000,1.437469,-1.089130,2.525794,3.275397,1.572128,3.357377,0.000000,0.000000,-0.000000,0.000000,-0.000000,0.000000,0.323871,-1.855680,-0.644001,-0.180747,-0.025514,-0.043402,-0.000000,-2.260899,-0.418502,-0.238800,-0.000102,0.000000,0.086280,-0.363194,0.250119,0.000009,-0.000019,-3.053791,0.000000,0.000000,0.000000,0.000000,0.000000,0.000000,-4.063584,3.712921,0.685926,-0.054716,0.069662,0.047765,0.086290,-0.363187,0.250113,0.000000,-0.000000,-3.053753,0.000000,0.000000,0.000000,0.000000,0.000000,0.000000,0,28.375000,29.187500,27.687500,31.812500,35.062500,36.187500,0.629688,7,253,253,253,253,253,253,1,0.268151,0.114922,9.519346,0.000000,1.000000,0.000000,47.474632,47.532845,0.618802,47.498932,47.384270,47.527599,47.527599,47.283943,47.341274,0,1,-0.000000,-0.000000,0.004000,0.004000,1,1,-648.341721,148.736113,19379.656047,-33.662785,-11.276882,33.972794,0.000002,0.000002,0.000002,0.000000,0.000000,0.000000,0,0,0,0,0,0,0,0,0,0.000000,0.000000,0.000000,0.000000,0.000000,0.000000,0.000000,0.000000
241511.078000,1.437494,-1.089114,2.525809,3.275377,1.572121,3.357390,0.000000,0.000000,0.000000,0.000000,0.000000,0.000000,0.000000,0.000000,0.000000,0.000000,0.000000,0.000000,-0.000000,-2.261031,-0.418576,-0.238801,-0.000098,0.000000,-0.000000,-23.523734,-4.325051,-1.846365,-0.000774,0.000000,1.437523,-1.089164,2.525831,3.275335,1.572103,3.357390,0.000000,0.000000,-0.000000,0.000000,-0.000000,0.000000,0.304895,-1.847118,-0.674989,-0.197831,-0.031894,-0.025964,-0.000000,-2.261031,-0.418576,-0.238801,-0.000098,0.000000,0.086304,-0.363170,0.250132,-0.000044,-0.000101,-3.053724,0.000000,0.000000,0.000000,0.000000,0.000000,0.000000,-4.143937,3.678961,0.640156,-0.052164,0.073787,0.045853,0.086290,-0.363187,0.250113,0.000000,-0.000000,-3.053753,0.000000,0.000000,0.000000,0.000000,0.000000,0.000000,0,28.375000,29.187500,27.687500,31.812500,35.062500,36.187500,0.681060,7,253,253,253,253,253,253,1,0.287304,0.114922,9.519346,0.000000,1.000000,0.000000,47.510452,47.554333,0.679228,47.470268,47.412937,47.527599,47.484600,47.355606,47.384270,0,1,-0.000000,-0.000000,0.004000,0.004000,1,1,-648.259035,148.762548,19379.610345,-33.665694,-11.280766,33.970884,0.000002,0.000002,0.000002,0.000000,0.000000,0.000000,0,0,0,0,0,0,0,0,0,0.000000,0.000000,0.000000,0.000000,0.000000,0.000000,0.000000,0.000000
241511.080000,1.437494,-1.089114,2.525809,3.275377,1.572121,3.357390,0.000000,0.000000,0.000000,0.000000,0.000000,0.000000,0.000000,0.000000,0.000000,0.000000,0.000000,0.000000,-0.000000,-2.260902,-0.418567,-0.238796,-0.000096,0.000000,-0.000000,-23.522398,-4.324961,-1.846331,-0.000759,0.000000,1.437514,-1.089147,2.525827,3.275398,1.572103,3.357341,0.000000,0.000000,-0.000000,0.000000,-0.000000,0.000000,0.393251,-1.836975,-0.678524,-0.197778,-0.020196,-0.024053,-0.000000,-2.260902,-0.418567,-0.238796,-0.000096,0.000000,0.086300,-0.363180,0.250120,-0.000025,0.000013,-3.053782,0.000000,0.000000,0.000000,0.000000,0.000000,0.000000,-4.177983,3.624445,0.498216,-0.057815,0.072524,0.052302,0.086290,-0.363187,0.250113,0.000000,-0.000000,-3.053753,0.000000,0.000000,0.000000,0.000000,0.000000,0.000000,0,28.375000,29.187500,27.687500,31.812500,35.062500,36.187500,0.652188,7,253,253,253,253,253,253,1,0.210690,0.038307,9.481039,0.000000,1.000000,0.000000,47.514931,47.574932,0.607612,47.484600,47.412937,47.541931,47.498932,47.326939,47.369938,0,1,-0.000000,-0.000000,0.004000,0.004000,1,1,-648.220078,148.814221,19379.468170,-33.659948,-11.280005,33.977328,0.000002,0.000002,0.000002,0.000000,0.000000,0.000000,0,0,0,0,0,0,0,0,0,0.000000,0.000000,0.000000,0.000000,0.000000,0.000000,0.000000,0.000000
241511.082000,1.437494,-1.089114,2.525809,3.275377,1.572121,3.357390,0.000000,0.000000,0.000000,0.000000,0.000000,0.000000,0.000000,0.000000,0.000000,0.000000,0.000000,0.000000,0.000000,-2.260942,-0.418549,-0.238802,-0.000096,0.000000,0.000000,-23.522810,-4.324768,-1.846375,-0.000759,0.000000,1.437490,-1.089115,2.525831,3.275377,1.572145,3.357402,0.000000,0.000000,-0.000000,0.000000,-0.000000,0.000000,0.331835,-1.813663,-0.673510,-0.196360,-0.029131,-0.030088,0.000000,-2.260942,-0.418549,-0.238802,-0.000096,0.000000,0.086287,-0.363181,0.250111,0.000043,0.000025,-3.053745,0.000000,0.000000,0.000000,0.000000,0.000000,0.000000,-4.081219,3.619077,0.703514,-0.056389,0.071646,0.048648,0.086290,-0.363187,0.250113,0.000000,-0.000000,-3.053753,0.000000,0.000000,0.000000,0.000000,0.000000,0.000000,0,28.375000,29.187500,27.687500,31.812500,35.062500,36.187500,0.661596,7,253,253,253,253,253,253,1,0.172383,0.076614,9.461885,0.000000,1.000000,0.000000,47.483585,47.545380,0.645659,47.470268,47.398605,47.513268,47.484600,47.298275,47.369938,0,1,-0.000000,-0.000000,0.004000,0.004000,1,1,-648.316068,148.827922,19379.673612,-33.661296,-11.279009,33.973676,0.000002,0.000002,0.000002,0.000000,0.000000,0.000000,0,0,0,0,0,0,0,0,0,0.000000,0.000000,0.000000,0.000000,0.000000,0.000000,0.000000,0.000000
241511.084000,1.437494,-1.089114,2.525809,3.275377,1.572121,3.357390,0.000000,0.000000,0.000000,0.000000,0.000000,0.000000,0.000000,0.000000,0.000000,0.000000,0.000000,0.000000,0.000000,-2.260994,-0.418485,-0.238803,-0.000099,0.000000,0.000000,-23.523353,-4.324111,-1.846384,-0.000784,0.000000,1.437523,-1.089122,2.525790,3.275365,1.572124,3.357387,0.000000,0.000000,-0.000000,0.000000,-0.000000,0.000000,0.335521,-1.823749,-0.682969,-0.198761,-0.030700,-0.036227,0.000000,-2.260994,-0.418485,-0.238803,-0.000099,0.000000,0.086300,-0.363188,0.250121,-0.000005,-0.000061,-3.053727,0.000000,0.000000,0.000000,0.000000,0.000000,0.000000,-4.281836,3.613033,0.676705,-0.057419,0.075300,0.051536,0.086290,-0.363187,0.250113,0.000000,-0.000000,-3.053753,0.000000,0.000000,0.000000,0.000000,0.000000,0.000000,0,28.375000,29.187500,27.687500,31.812500,35.062500,36.187500,0.655884,7,253,253,253,253,253,253,1,0.114922,0.076614,9.500193,0.000000,1.000000,0.000000,47.473732,47.530155,0.625520,47.412937,47.384270,47.484600,47.498932,47.298275,47.369938,0,1,-0.000000,-0.000000,0.004000,0.004000,1,1,-648.115824,148.816177,19379.646892,-33.660592,-11.282736,33.976566,0.000002,0.000002,0.000002,0.000000,0.000000,0.000000,0,0,0,0,0,0,0,0,0,0.000000,0.000000,0.000000,0.000000,0.000000,0.000000,0.000000,0.000000
241511.086000,1.437494,-1.089114,2.525809,3.275377,1.572121,3.357390,0.000000,0.000000,0.000000,0.000000,0.000000,0.000000,0.000000,0.000000,0.000000,0.000000,0.000000,0.000000,-0.000000,-2.261050,-0.418569,-0.238798,-0.000098,0.000000,-0.000000,-23.523934,-4.324974,-1.846349,-0.000771,0.000000,1.437506,-1.089184,2.525819,3.275365,1.572094,3.357378,0.000000,0.000000,-0.000000,0.000000,-0.000000,0.000000,0.363540,-1.770457,-0.710074,-0.198478,-0.013965,-0.024496,-0.000000,-2.261050,-0.418569,-0.238798,-0.000098,0.000000,0.086299,-0.363176,0.250138,-0.000059,-0.000104,-3.053752,0.000000,0.000000,0.000000,0.000000,0.000000,0.000000,-4.165406,3.754575,0.546117,-0.051291,0.073048,0.052456,0.086290,-0.363187,0.250113,0.000000,-0.000000,-3.053753,0.000000,0.000000,0.000000,0.000000,0.000000,0.000000,0,28.375000,29.187500,27.687500,31.812500,35.062500,36.187500,0.665292,7,253,253,253,253,253,253,1,0.153229,0.210690,9.576807,0.000000,1.000000,0.000000,47.521198,47.582996,0.621043,47.470268,47.398605,47.541931,47.513268,47.326939,47.398605,0,1,-0.000000,-0.000000,0.004000,0.004000,1,1,-648.244189,148.685442,19379.516279,-33.666497,-11.279951,33.977486,0.000002,0.000002,0.000002,0.000000,0.000000,0.000000,0,0,0,0,0,0,0,0,0,0.000000,0.000000,0.000000,0.000000,0.000000,0.000000,0.000000,0.000000
241511.088000,1.437494,-1.089114,2.525809,3.275377,1.572121,3.357390,0.000000,0.000000,0.000000,0.000000,0.000000,0.000000,0.000000,0.000000,0.000000,0.000000,0.000000,0.000000,-0.000000,-2.260888,-0.418626,-0.238796,-0.000096,0.000000,-0.000000,-23.522246,-4.325565,-1.846329,-0.000754,0.000000,1.437439,-1.089188,2.525857,3.275364,1.572111,3.357377,0.000000,0.000000,-0.000000,0.000000,-0.000000,0.000000,0.327188,-1.853304,-0.697196,-0.195792,-0.025063,-0.025542,-0.000000,-2.260888,-0.418626,-0.238796,-0.000096,0.000000,0.086274,-0.363171,0.250133,-0.000025,-0.000058,-3.053821,0.000000,0.000000,0.000000,0.000000,0.000000,0.000000,-4.200758,3.742626,0.638472,-0.052680,0.073052,0.051854,0.086290,-0.363187,0.250113,0.000000,-0.000000,-3.053753,0.000000,0.000000,0.000000,0.000000,0.000000,0.000000,0,28.375000,29.187500,27.687500,31.812500,35.062500,36.187500,0.651349,7,253,253,253,253,253,253,1,0.248997,0.114922,9.500193,0.000000,1.000000,0.000000,47.535526,47.568668,0.603141,47.470268,47.398605,47.513268,47.556267,47.341274,47.441601,0,1,-0.000000,-0.000000,0.004000,0.004000,1,1,-648.207598,148.694566,19379.608603,-33.665108,-11.280076,33.976883,0.000002,0.000002,0.000002,0.000000,0.000000,0.000000,0,0,0,0,0,0,0,0,0,0.000000,0.000000,0.000000,0.000000,0.000000,0.000000,0.000000,0.000000
241511.090000,1.437494,-1.089114,2.525809,3.275377,1.572121,3.357390,0.000000,0.000000,0.000000,0.000000,0.000000,0.000000,0.000000,0.000000,0.000000,0.000000,0.000000,0.000000,0.000000,-2.260817,-0.418566,-0.238798,-0.000097,0.000000,0.000000,-23.521508,-4.324949,-1.846349,-0.000764,0.000000,1.437514,-1.089127,2.525827,3.275347,1.572115,3.357354,0.000000,0.000000,-0.000000,0.000000,-0.000000,0.000000,0.322433,-1.873344,-0.701709,-0.197653,-0.028376,-0.018383,0.000000,-2.260817,-0.418566,-0.238798,-0.000097,0.000000,0.086299,-0.363176,0.250118,-0.000015,-0.000037,-3.053769,0.000000,0.000000,0.000000,0.000000,0.000000,0.000000,-4.235739,3.617498,0.355703,-0.055290,0.071232,0.050315,0.086290,-0.363187,0.250113,0.000000,-0.000000,-3.053753,0.000000,0.000000,0.000000,0.000000,0.000000,0.000000,0,28.375000,29.187500,27.687500,31.812500,35.062500,36.187500,0.653701,7,253,253,253,253,253,253,1,0.306458,0.057461,9.557653,0.000000,1.000000,0.000000,47.488064,47.563290,0.636710,47.498932,47.427269,47.541931,47.527599,47.326939,47.384270,0,1,-0.000000,-0.000000,0.004000,0.004000,1,1,-648.161981,148.815959,19379.325804,-33.662353,-11.278496,33.975344,0.000002,0.000002,0.000002,0.000000,0.000000,0.000000,0,0,0,0,0,0,0,0,0,0.000000,0.000000,0.000000,0.000000,0.000000,0.000000,0.000000,0.000000
241511.092000,1.437494,-1.089114,2.525809,3.275377,1.572121,3.357390,0.000000,0.000000,0.000000,0.000000,0.000000,0.000000,0.000000,0.000000,0.000000,0.000000,0.000000,0.000000,0.000000,-2.260978,-0.418512,-0.238800,-0.000097,0.000000,0.000000,-23.523184,-4.324385,-1.846357,-0.000766,0.000000,1.437464,-1.089135,2.525823,3.275364,1.572120,3.357399,0.000000,0.000000,-0.000000,0.000000,-0.000000,0.000000,0.383322,-1.850083,-0.712510,-0.199564,-0.024088,-0.037340,0.000000,-2.260978,-0.418512,-0.238800,-0.000097,0.000000,0.086280,-0.363183,0.250120,-0.000007,-0.000032,-3.053773,0.000000,0.000000,0.000000,0.000000,0.000000,0.000000,-4.019968,3.720364,0.762577,-0.054938,0.070140,0.046827,0.086290,-0.363187,0.250113,0.000000,-0.000000,-3.053753,0.000000,0.000000,0.000000,0.000000,0.000000,0.000000,0,28.375000,29.187500,27.687500,31.812500,35.062500,36.187500,0.649753,7,253,253,253,253,253,253,1,0.268151,0.114922,9.519346,0.000000,1.000000,0.000000,47.510452,47.545380,0.576284,47.470268,47.384270,47.513268,47.498932,47.269608,47.384270,0,1,-0.000000,-0.000000,0.004000,0.004000,1,1,-648.385911,148.732446,19379.732691,-33.662607,-11.277377,33.971855,0.000002,0.000002,0.000002,0.000000,0.000000,0.000000,0,0,0,0,0,0,0,0,0,0.000000,0.000000,0.000000,0.000000,0.000000,0.000000,0.000000,0.000000
241511.094000,1.437494,-1.089114,2.525809,3.275377,1.572121,3.357390,0.000000,0.000000,0.000000,0.000000,0.000000,0.000000,0.000000,0.000000,0.000000,0.000000,0.000000,0.000000,-0.000000,-2.260970,-0.418534,-0.238800,-0.000098,0.000000,-0.000000,-23.523096,-4.324617,-1.846359,-0.000769,0.000000,1.437441,-1.089171,2.525835,3.275398,1.572115,3.357378,0.000000,0.000000,-0.000000,0.000000,-0.000000,0.000000,0.346706,-1.805848,-0.692042,-0.195523,-0.029772,-0.028625,-0.000000,-2.260970,-0.418534,-0.238800,-0.000098,0.000000,0.086273,-0.363181,0.250128,-0.000011,-0.000015,-3.053818,0.000000,0.000000,0.000000,0.000000,0.000000,0.000000,-4.351453,3.596354,0.588751,-0.055515,0.078924,0.050589,0.086290,-0.363187,0.250113,0.000000,-0.000000,-3.053753,0.000000,0.000000,0.000000,0.000000,0.000000,0.000000,0,28.375000,29.187500,27.687500,31.812500,35.062500,36.187500,0.684972,7,253,253,253,253,253,253,1,0.210690,0.095768,9.519346,0.000000,1.000000,0.000000,47.500599,47.569561,0.634469,47.498932,47.412937,47.541931,47.513268,47.355606,47.398605,0,1,-0.000000,-0.000000,0.004000,0.004000,1,1,-648.044655,148.827101,19379.558806,-33.662798,-11.286176,33.975616,0.000002,0.000002,0.000002,0.000000,0.000000,0.000000,0,0,0,0,0,0,0,0,0,0.000000,0.000000,0.000000,0.000000,0.000000,0.000000,0.000000,0.000000
241511.096000,1.437494,-1.089114,2.525809,3.275377,1.572121,3.357390,0.000000,0.000000,0.000000,0.000000,0.000000,0.000000,0.000000,0.000000,0.000000,0.000000,0.000000,0.000000,-0.000000,-2.260885,-0.418576,-0.238801,-0.000097,0.000000,-0.000000,-23.522216,-4.325054,-1.846366,-0.000766,0.000000,1.437468,-1.089168,2.525803,3.275373,1.572124,3.357369,0.000000,0.000000,-0.000000,0.000000,-0.000000,0.000000,0.364790,-1.844018,-0.633223,-0.194975,-0.024393,-0.032924,-0.000000,-2.260885,-0.418576,-0.238801,-0.000097,0.000000,0.086281,-0.363186,0.250134,-0.000012,-0.000099,-3.053799,0.000000,0.000000,0.000000,0.000000,0.000000,0.000000,-4.150960,3.783461,0.336572,-0.052435,0.071583,0.048796,0.086290,-0.363187,0.250113,0.000000,-0.000000,-3.053753,0.000000,0.000000,0.000000,0.000000,0.000000,0.000000,0,28.375000,29.187500,27.687500,31.812500,35.062500,36.187500,0.653328,7,253,253,253,253,253,253,1,0.287304,0.095768,9.346964,0.000000,1.000000,0.000000,47.521198,47.562393,0.623279,47.441601,47.398605,47.556267,47.513268,47.341274,47.369938,0,1,-0.000000,-0.000000,0.004000,0.004000,1,1,-648.260862,148.658105,19379.306847,-33.665227,-11.278591,33.973828,0.000002,0.000002,0.000002,0.000000,0.000000,0.000000,0,0,0,0,0,0,0,0,0,0.000000,0.000000,0.000000,0.000000,0.000000,0.000000,0.000000,0.000000
241511.098000,1.437494,-1.089114,2.525809,3.275377,1.572121,3.357390,0.000000,0.000000,0.000000,0.000000,0.000000,0.000000,0.000000,0.000000,0.000000,0.000000,0.000000,0.000000,0.000000,-2.260945,-0.418625,-0.238797,-0.000098,0.000000,0.000000,-23.522837,-4.325561,-1.846334,-0.000771,0.000000,1.437448,-1.089110,2.525835,3.275438,1.572144,3.357352,0.000000,0.000000,-0.000000,0.000000,-0.000000,0.000000,0.364614,-1.844029,-0.695191,-0.200343,-0.030613,-0.015593,0.000000,-2.260945,-0.418625,-0.238797,-0.000098,0.000000,0.086271,-0.363190,0.250102,0.000059,0.000130,-3.053836,0.000000,0.000000,0.000000,0.000000,0.000000,0.000000,-4.077858,3.699825,0.797163,-0.058563,0.071881,0.049203,0.086290,-0.363187,0.250113,0.000000,-0.000000,-3.053753,0.000000,0.000000,0.000000,0.000000,0.000000,0.000000,0,28.375000,29.187500,27.687500,31.812500,35.062500,36.187500,0.641052,7,253,253,253,253,253,253,1,0.229843,0.057461,9.385271,0.000000,1.000000,0.000000,47.488960,47.540901,0.621043,47.455936,47.398605,47.498932,47.498932,47.298275,47.355606,0,1,-0.000000,-0.000000,0.004000,0.004000,1,1,-648.326112,148.748232,19379.767033,-33.659142,-11.279433,33.974226,0.000002,0.000002,0.000002,0.000000,0.000000,0.000000,0,0,0,0,0,0,0,0,0,0.000000,0.000000,0.000000,0.000000,0.000000,0.000000,0.000000,0.000000
241511.100000,1.437494,-1.089114,2.525809,3.275377,1.572121,3.357390,0.000000,0.000000,0.000000,0.000000,0.000000,0.000000,0.000000,0.000000,0.000000,0.000000,0.000000,0.000000,0.000000,-2.260998,-0.418474,-0.238808,-0.000099,0.000000,0.000000,-23.523395,-4.323993,-1.846425,-0.000783,0.000000,1.437468,-1.089147,2.525831,3.275380,1.572124,3.357390,0.000000,0.000000,-0.000000,0.000000,-0.000000,0.000000,0.382565,-1.832160,-0.660142,-0.187779,-0.031928,-0.034591,0.000000,-2.260998,-0.418474,-0.238808,-0.000099,0.000000,0.086281,-0.363181,0.250122,0.000003,-0.000014,-3.053779,0.000000,0.000000,0.000000,0.000000,0.000000,0.000000,-4.058416,3.543782,0.648251,-0.059005,0.070265,0.050323,0.086290,-0.363187,0.250113,0.000000,-0.000000,-3.053753,0.000000,0.000000,0.000000,0.000000,0.000000,0.000000,0,28.375000,29.187500,27.687500,31.812500,35.062500,36.187500,0.632568,7,253,253,253,253,253,253,1,0.229843,0.019154,9.461885,0.000000,1.000000,0.000000,47.494331,47.557022,0.632233,47.498932,47.369938,47.513268,47.556267,47.226612,47.369938,0,1,-0.000000,-0.000000,0.004000,0.004000,1,1,-648.332090,148.905014,19379.618343,-33.658566,-11.277859,33.975351,0.000002,0.000002,0.000002,0.000000,0.000000,0.000000,0,0,0,0,0,0,0,0,0,0.000000,0.000000,0.000000,0.000000,0.000000,0.000000,0.000000,0.000000
241511.102000,1.437494,-1.089114,2.525809,3.275377,1.572121,3.357390,0.000000,0.000000,0.000000,0.000000,0.000000,0.000000,0.000000,0.000000,0.000000,0.000000,0.000000,0.000000,0.000000,-2.260935,-0.418542,-0.238801,-0.000098,0.000000,0.000000,-23.522735,-4.324695,-1.846367,-0.000771,0.000000,1.437509,-1.089159,2.525852,3.275356,1.572116,3.357370,0.000000,0.000000,-0.000000,0.000000,-0.000000,0.000000,0.335398,-1.832009,-0.687613,-0.202024,-0.031683,-0.026199,0.000000,-2.260935,-0.418542,-0.238801,-0.000098,0.000000,0.086299,-0.363168,0.250125,-0.000012,-0.000034,-3.053757,0.000000,0.000000,0.000000,0.000000,0.000000,0.000000,-4.241749,3.362905,0.716003,-0.062335,0.074423,0.046500,0.086290,-0.363187,0.250113,0.000000,-0.000000,-3.053753,0.000000,0.000000,0.000000,0.000000,0.000000,0.000000,0,28.375000,29.187500,27.687500,31.812500,35.062500,36.187500,0.650100,7,253,253,253,253,253,253,1,0.210690,0.153229,9.481039,0.000000,1.000000,0.000000,47.502392,47.570457,0.618802,47.498932,47.441601,47.541931,47.513268,47.341274,47.384270,0,1,-0.000000,-0.000000,0.004000,0.004000,1,1,-648.133700,149.069008,19379.686099,-33.655615,-11.282293,33.971529,0.000002,0.000002,0.000002,0.000000,0.000000,0.000000,0,0,0,0,0,0,0,0,0,0.000000,0.000000,0.000000,0.000000,0.000000,0.000000,0.000000,0.000000
241511.104000,1.437494,-1.089114,2.525809,3.275377,1.572121,3.357390,0.000000,0.000000,0.000000,0.000000,0.000000,0.000000,0.000000,0.000000,0.000000,0.000000,0.000000,0.000000,0.000000,-2.260875,-0.418525,-0.238800,-0.000097,0.000000,0.000000,-23.522116,-4.324518,-1.846358,-0.000767,0.000000,1.437478,-1.089159,2.525852,3.275398,1.572120,3.357414,0.000000,0.000000,-0.000000,0.000000,-0.000000,0.000000,0.353887,-1.853474,-0.719249,-0.202308,-0.026808,-0.023336,0.000000,-2.260875,-0.418525,-0.238800,-0.000097,0.000000,0.086286,-0.363174,0.250121,0.000003,0.000027,-3.053745,0.000000,0.000000,0.000000,0.000000,0.000000,0.000000,-4.064744,3.758473,0.562641,-0.052311,0.071365,0.049714,0.086290,-0.363187,0.250113,0.000000,-0.000000,-3.053753,0.000000,0.000000,0.000000,0.000000,0.000000,0.000000,0,28.375000,29.187500,27.687500,31.812500,35.062500,36.187500,0.642036,7,253,253,253,253,253,253,1,0.248997,0.191536,9.461885,0.000000,1.000000,0.000000,47.514931,47.586578,0.735177,47.498932,47.398605,47.556267,47.470268,47.384270,47.398605,0,1,-0.000000,-0.000000,0.004000,0.004000,1,1,-648.344753,148.690517,19379.532629,-33.665333,-11.278370,33.974740,0.000002,0.000002,0.000002,0.000000,0.000000,0.000000,0,0,0,0,0,0,0,0,0,0.000000,0.000000,0.000000,0.000000,0.000000,0.000000,0.000000,0.000000
241511.106000,1.437494,-1.089114,2.525809,3.275377,1.572121,3.357390,0.000000,0.000000,0.000000,0.000000,0.000000,0.000000,0.000000,0.000000,0.000000,0.000000,0.000000,0.000000,0.000000,-2.260878,-0.418527,-0.238803,-0.000098,0.000000,0.000000,-23.522144,-4.324546,-1.846382,-0.000769,0.000000,1.437481,-1.089188,2.525827,3.275377,1.572087,3.357402,0.000000,0.000000,-0.000000,0.000000,-0.000000,0.000000,0.273625,-1.839660,-0.650408,-0.187273,-0.017103,-0.020960,0.000000,-2.260878,-0.418527,-0.238803,-0.000098,0.000000,0.086290,-0.363177,0.250137,-0.000066,-0.000077,-3.053753,0.000000,0.000000,0.000000,0.000000,0.000000,0.000000,-4.115735,3.649122,0.547081,-0.054069,0.071721,0.052321,0.086290,-0.363187,0.250113,0.000000,-0.000000,-3.053753,0.000000,0.000000,0.000000,0.000000,0.000000,0.000000,0,28.375000,29.187500,27.687500,31.812500,35.062500,36.187500,0.648217,7,253,253,253,253,253,253,1,0.268151,0.095768,9.557653,0.000000,1.000000,0.000000,47.491642,47.554333,0.621043,47.484600,47.398605,47.513268,47.498932,47.326939,47.384270,0,1,-0.000000,-0.000000,0.004000,0.004000,1,1,-648.284418,148.794884,19379.517153,-33.663612,-11.278874,33.977350,0.000002,0.000002,0.000002,0.000000,0.000000,0.000000,0,0,0,0,0,0,0,0,0,0.000000,0.000000,0.000000,0.000000,0.000000,0.000000,0.000000,0.000000
241511.108000,1.437494,-1.089114,2.525809,3.275377,1.572121,3.357390,0.000000,0.000000,0.000000,0.000000,0.000000,0.000000,0.000000,0.000000,0.000000,0.000000,0.000000,0.000000,0.000000,-2.260869,-0.418618,-0.238797,-0.000095,0.000000,0.000000,-23.522045,-4.325487,-1.846339,-0.000750,0.000000,1.437502,-1.089147,2.525799,3.275361,1.572141,3.357406,0.000000,0.000000,-0.000000,0.000000,-0.000000,0.000000,0.391036,-1.850172,-0.694325,-0.191851,-0.031145,-0.033953,0.000000,-2.260869,-0.418618,-0.238797,-0.000095,0.000000,0.086291,-0.363185,0.250128,0.000015,-0.000097,-3.053728,0.000000,0.000000,0.000000,0.000000,0.000000,0.000000,-4.339526,3.569951,0.558112,-0.055812,0.075014,0.049425,0.086290,-0.363187,0.250113,0.000000,-0.000000,-3.053753,0.000000,0.000000,0.000000,0.000000,0.000000,0.000000,0,28.375000,29.187500,27.687500,31.812500,35.062500,36.187500,0.631021,7,253,253,253,253,253,253,1,0.210690,0.095768,9.500193,0.000000,1.000000,0.000000,47.498810,47.564190,0.641182,47.470268,47.384270,47.513268,47.498932,47.283943,47.369938,0,1,-0.000000,-0.000000,0.004000,0.004000,1,1,-648.054549,148.853988,19379.528439,-33.662170,-11.282310,33.974458,0.000002,0.000002,0.000002,0.000000,0.000000,0.000000,0,0,0,0,0,0,0,0,0,0.000000,0.000000,0.000000,0.000000,0.000000,0.000000,0.000000,0.000000
241511.110000,1.437494,-1.089114,2.525809,3.275377,1.572121,3.357390,0.000000,0.000000,0.000000,0.000000,0.000000,0.000000,0.000000,0.000000,0.000000,0.000000,0.000000,0.000000,-0.000000,-2.260989,-0.418596,-0.238797,-0.000099,0.000000,-0.000000,-23.523302,-4.325259,-1.846337,-0.000781,0.000000,1.437485,-1.089155,2.525840,3.275347,1.572166,3.357341,0.000000,0.000000,-0.000000,0.000000,-0.000000,0.000000,0.357775,-1.876583,-0.681929,-0.201802,-0.021416,-0.031655,-0.000000,-2.260989,-0.418596,-0.238797,-0.000099,0.000000,0.086285,-0.363172,0.250126,0.000058,-0.000073,-3.053810,0.000000,0.000000,0.000000,0.000000,0.000000,0.000000,-4.360899,3.332764,0.788883,-0.062726,0.077169,0.048227,0.086290,-0.363187,0.250113,0.000000,-0.000000,-3.053753,0.000000,0.000000,0.000000,0.000000,0.000000,0.000000,0,28.375000,29.187500,27.687500,31.812500,35.062500,36.187500,0.652621,7,253,253,253,253,253,253,1,0.172383,0.172383,9.519346,0.000000,1.000000,0.000000,47.532845,47.574039,0.603141,47.455936,47.441601,47.527599,47.527599,47.326939,47.398605,0,1,-0.000000,-0.000000,0.004000,0.004000,1,1,-648.012095,149.088755,19379.759259,-33.655466,-11.285060,33.973260,0.000002,0.000002,0.000002,0.000000,0.000000,0.000000,0,0,0,0,0,0,0,0,0,0.000000,0.000000,0.000000,0.000000,0.000000,0.000000,0.000000,0.000000
241511.112000,1.437494,-1.089114,2.525809,3.275377,1.572121,3.357390,0.000000,0.000000,0.000000,0.000000,0.000000,0.000000,0.000000,0.000000,0.000000,0.000000,0.000000,0.000000,-0.000000,-2.260904,-0.418538,-0.238798,-0.000101,0.000000,-0.000000,-23.522414,-4.324655,-1.846348,-0.000796,0.000000,1.437511,-1.089138,2.525839,3.275373,1.572141,3.357369,0.000000,0.000000,-0.000000,0.000000,-0.000000,0.000000,0.323589,-1.855645,-0.663052,-0.194216,-0.023486,-0.031260,-0.000000,-2.260904,-0.418538,-0.238798,-0.000101,0.000000,0.086296,-0.363174,0.250118,0.000031,-0.000005,-3.053756,0.000000,0.000000,0.000000,0.000000,0.000000,0.000000,-4.397906,3.613652,0.758844,-0.055477,0.078673,0.045756,0.086290,-0.363187,0.250113,0.000000,-0.000000,-3.053753,0.000000,0.000000,0.000000,0.000000,0.000000,0.000000,0,28.375000,29.187500,27.687500,31.812500,35.062500,36.187500,0.648528,7,253,253,253,253,253,253,1,0.134075,0.134075,9.423578,0.000000,1.000000,0.000000,47.527466,47.582996,0.654613,47.556267,47.455936,47.541931,47.556267,47.384270,47.398605,0,1,-0.000000,-0.000000,0.004000,0.004000,1,1,-648.000095,148.805559,19379.728991,-33.662820,-11.285928,33.970785,0.000002,0.000002,0.000002,0.000000,0.000000,0.000000,0,0,0,0,0,0,0,0,0,0.000000,0.000000,0.000000,0.000000,0.000000,0.000000,0.000000,0.000000
241511.114000,1.437494,-1.089114,2.525809,3.275377,1.572121,3.357390,0.000000,0.000000,0.000000,0.000000,0.000000,0.000000,0.000000,0.000000,0.000000,0.000000,0.000000,0.000000,0.000000,-2.260936,-0.418512,-0.238801,-0.000099,0.000000,0.000000,-23.522753,-4.324390,-1.846372,-0.000781,0.000000,1.437518,-1.089168,2.525782,3.275376,1.572165,3.357444,0.000000,0.000000,-0.000000,0.000000,-0.000000,0.000000,0.368868,-1.857187,-0.734056,-0.203863,-0.021782,-0.035838,0.000000,-2.260936,-0.418512,-0.238801,-0.000099,0.000000,0.086294,-0.363188,0.250137,0.000044,-0.000137,-3.053674,0.000000,0.000000,0.000000,0.000000,0.000000,0.000000,-4.340565,3.311454,0.597657,-0.064813,0.078457,0.043721,0.086290,-0.363187,0.250113,0.000000,-0.000000,-3.053753,0.000000,0.000000,0.000000,0.000000,0.000000,0.000000,0,28.375000,29.187500,27.687500,31.812500,35.062500,36.187500,0.632352,7,253,253,253,253,253,253,1,0.229843,0.114922,9.595961,0.000000,1.000000,0.000000,47.501499,47.568668,0.618802,47.441601,47.412937,47.498932,47.527599,47.298275,47.341274,0,1,-0.000000,-0.000000,0.004000,0.004000,1,1,-648.030996,149.111132,19379.568141,-33.653512,-11.286532,33.968757,0.000002,0.000002,0.000002,0.000000,0.000000,0.000000,0,0,0,0,0,0,0,0,0,0.000000,0.000000,0.000000,0.000000,0.000000,0.000000,0.000000,0.000000
241511.116000,1.437494,-1.089114,2.525809,3.275377,1.572121,3.357390,0.000000,0.000000,0.000000,0.000000,0.000000,0.000000,0.000000,0.000000,0.000000,0.000000,0.000000,0.000000,-0.000000,-2.260981,-0.418662,-0.238795,-0.000101,0.000000,-0.000000,-23.523216,-4.325940,-1.846323,-0.000795,0.000000,1.437506,-1.089106,2.525831,3.275364,1.572050,3.357381,0.000000,0.000000,-0.000000,0.000000,-0.000000,0.000000,0.318319,-1.833230,-0.696230,-0.196890,-0.030956,-0.031868,-0.000000,-2.260981,-0.418662,-0.238795,-0.000101,0.000000,0.086303,-0.363180,0.250109,-0.000102,0.000042,-3.053749,0.000000,0.000000,0.000000,0.000000,0.000000,0.000000,-4.308535,3.392033,0.741977,-0.060247,0.074302,0.047262,0.086290,-0.363187,0.250113,0.000000,-0.000000,-3.053753,0.000000,0.000000,0.000000,0.000000,0.000000,0.000000,0,28.375000,29.187500,27.687500,31.812500,35.062500,36.187500,0.632916,7,253,253,253,253,253,253,1,0.229843,0.172383,9.461885,0.000000,1.000000,0.000000,47.499702,47.566872,0.603141,47.470268,47.412937,47.527599,47.527599,47.326939,47.341274,0,1,-0.000000,-0.000000,0.004000,0.004000,1,1,-648.069850,149.034190,19379.711651,-33.657680,-11.281990,33.972283,0.000002,0.000002,0.000002,0.000000,0.000000,0.000000,0,0,0,0,0,0,0,0,0,0.000000,0.000000,0.000000,0.000000,0.000000,0.000000,0.000000,0.000000
241511.118000,1.437494,-1.089114,2.525809,3.275377,1.572121,3.357390,0.000000,0.000000,0.000000,0.000000,0.000000,0.000000,0.000000,0.000000,0.000000,0.000000,0.000000,0.000000,-0.000000,-2.261009,-0.418469,-0.238803,-0.000092,0.000000,-0.000000,-23.523511,-4.323948,-1.846381,-0.000728,0.000000,1.437472,-1.089192,2.525835,3.275359,1.572132,3.357373,0.000000,0.000000,-0.000000,0.000000,-0.000000,0.000000,0.319292,-1.828571,-0.700088,-0.187962,-0.005348,-0.034974,-0.000000,-2.261009,-0.418469,-0.238803,-0.000092,0.000000,0.086283,-0.363173,0.250139,-0.000001,-0.000109,-3.053791,0.000000,0.000000,0.000000,0.000000,0.000000,0.000000,-4.327237,3.500816,0.768288,-0.057718,0.075491,0.047350,0.086290,-0.363187,0.250113,0.000000,-0.000000,-3.053753,0.000000,0.000000,0.000000,0.000000,0.000000,0.000000,0,28.375000,29.187500,27.687500,31.812500,35.062500,36.187500,0.649704,7,253,253,253,253,253,253,1,0.210690,0.095768,9.481039,0.000000,1.000000,0.000000,47.513138,47.559711,0.621043,47.441601,47.441601,47.556267,47.527599,47.341274,47.398605,0,1,-0.000000,-0.000000,0.004000,0.004000,1,1,-648.060500,148.924187,19379.738596,-33.660308,-11.282949,33.972382,0.000002,0.000002,0.000002,0.000000,0.000000,0.000000,0,0,0,0,0,0,0,0,0,0.000000,0.000000,0.000000,0.000000,0.000000,0.000000,0.000000,0.000000
241511.120000,1.437494,-1.089114,2.525809,3.275377,1.572121,3.357390,0.000000,0.000000,0.000000,0.000000,0.000000,0.000000,0.000000,0.000000,0.000000,0.000000,0.000000,0.000000,-0.000000,-2.260845,-0.418610,-0.238796,-0.000098,0.000000,-0.000000,-23.521799,-4.325402,-1.846331,-0.000776,0.000000,1.437443,-1.089106,2.525868,3.275352,1.572128,3.357427,0.000000,0.000000,-0.000000,0.000000,-0.000000,0.000000,0.308197,-1.832052,-0.701888,-0.195496,-0.016461,-0.034397,-0.000000,-2.260845,-0.418610,-0.238796,-0.000098,0.000000,0.086274,-0.363173,0.250104,0.000022,0.000060,-3.053765,0.000000,0.000000,0.000000,0.000000,0.000000,0.000000,-4.250078,3.384696,0.867812,-0.063760,0.075306,0.050147,0.086290,-0.363187,0.250113,0.000000,-0.000000,-3.053753,0.000000,0.000000,0.000000,0.000000,0.000000,0.000000,0,28.375000,29.187500,27.687500,31.812500,35.062500,36.187500,0.646548,7,253,253,253,253,253,253,1,0.287304,0.019154,9.500193,0.000000,1.000000,0.000000,47.499702,47.563290,0.562853,47.484600,47.384270,47.556267,47.498932,47.269608,47.384270,0,1,-0.000000,-0.000000,0.004000,0.004000,1,1,-648.127242,149.046701,19379.837781,-33.654271,-11.283302,33.975172,0.000002,0.000002,0.000002,0.000000,0.000000,0.000000,0,0,0,0,0,0,0,0,0,0.000000,0.000000,0.000000,0.000000,0.000000,0.000000,0.000000,0.000000
241511.122000,1.437494,-1.089114,2.525809,3.275377,1.572121,3.357390,0.000000,0.000000,0.000000,0.000000,0.000000,0.000000,0.000000,0.000000,0.000000,0.000000,0.000000,0.000000,-0.000000,-2.260946,-0.418405,-0.238805,-0.000098,0.000000,-0.000000,-23.522847,-4.323283,-1.846396,-0.000774,0.000000,1.437481,-1.089155,2.525843,3.275361,1.572124,3.357385,0.000000,0.000000,-0.000000,0.000000,-0.000000,0.000000,0.313447,-1.844309,-0.702234,-0.192305,-0.010196,-0.024314,-0.000000,-2.260946,-0.418405,-0.238805,-0.000098,0.000000,0.086287,-0.363173,0.250124,-0.000001,-0.000036,-3.053770,0.000000,0.000000,0.000000,0.000000,0.000000,0.000000,-4.292715,3.559014,0.719952,-0.055710,0.075296,0.050004,0.086290,-0.363187,0.250113,0.000000,-0.000000,-3.053753,0.000000,0.000000,0.000000,0.000000,0.000000,0.000000,0,28.375000,29.187500,27.687500,31.812500,35.062500,36.187500,0.647952,7,253,253,253,253,253,253,1,0.268151,0.076614,9.442732,0.000000,1.000000,0.000000,47.531944,47.565979,0.621043,47.498932,47.398605,47.513268,47.527599,47.384270,47.412937,0,1,-0.000000,-0.000000,0.004000,0.004000,1,1,-648.100070,148.869234,19379.690088,-33.662291,-11.282581,33.975034,0.000002,0.000002,0.000002,0.000000,0.000000,0.000000,0,0,0,0,0,0,0,0,0,0.000000,0.000000,0.000000,0.000000,0.000000,0.000000,0.000000,0.000000
241511.124000,1.437494,-1.089114,2.525809,3.275377,1.572121,3.357390,0.000000,0.000000,0.000000,0.000000,0.000000,0.000000,0.000000,0.000000,0.000000,0.000000,0.000000,0.000000,-0.000000,-2.260899,-0.418532,-0.238800,-0.000098,0.000000,-0.000000,-23.522358,-4.324599,-1.846358,-0.000771,0.000000,1.437477,-1.089147,2.525819,3.275364,1.572087,3.357402,0.000000,0.000000,-0.000000,0.000000,-0.000000,0.000000,0.353843,-1.888996,-0.658447,-0.190755,-0.023617,-0.040005,-0.000000,-2.260899,-0.418532,-0.238800,-0.000098,0.000000,0.086288,-0.363182,0.250125,-0.000060,-0.000048,-3.053758,0.000000,0.000000,0.000000,0.000000,0.000000,0.000000,-4.176837,3.652798,0.436886,-0.058308,0.073712,0.052892,0.086290,-0.363187,0.250113,0.000000,-0.000000,-3.053753,0.000000,0.000000,0.000000,0.000000,0.000000,0.000000,0,28.375000,29.187500,27.687500,31.812500,35.062500,36.187500,0.646620,7,253,253,253,253,253,253,1,0.191536,0.095768,9.442732,0.000000,1.000000,0.000000,47.499702,47.562393,0.636710,47.441601,47.398605,47.541931,47.527599,47.326939,47.369938,0,1,-0.000000,-0.000000,0.004000,0.004000,1,1,-648.223853,148.785910,19379.406898,-33.659563,-11.281230,33.977919,0.000002,0.000002,0.000002,0.000000,0.000000,0.000000,0,0,0,0,0,0,0,0,0,0.000000,0.000000,0.000000,0.000000,0.000000,0.000000,0.000000,0.000000
241511.126000,1.437494,-1.089114,2.525809,3.275377,1.572121,3.357390,0.000000,0.000000,0.000000,0.000000,0.000000,0.000000,0.000000,0.000000,0.000000,0.000000,0.000000,0.000000,0.000000,-2.260955,-0.418562,-0.238799,-0.000095,0.000000,0.000000,-23.522947,-4.324905,-1.846350,-0.000750,0.000000,1.437509,-1.089110,2.525823,3.275385,1.572103,3.357390,0.000000,0.000000,-0.000000,0.000000,-0.000000,0.000000,0.309504,-1.867068,-0.707107,-0.198905,-0.028959,-0.028778,0.000000,-2.260955,-0.418562,-0.238799,-0.000095,0.000000,0.086298,-0.363183,0.250109,-0.000019,0.000041,-3.053737,0.000000,0.000000,0.000000,0.000000,0.000000,0.000000,-4.239940,3.676869,0.657965,-0.054110,0.071474,0.054755,0.086290,-0.363187,0.250113,0.000000,-0.000000,-3.053753,0.000000,0.000000,0.000000,0.000000,0.000000,0.000000,0,28.375000,29.187500,27.687500,31.812500,35.062500,36.187500,0.650809,7,253,253,253,253,253,253,1,0.153229,0.095768,9.500193,0.000000,1.000000,0.000000,47.497021,47.543587,0.598664,47.484600,47.384270,47.527599,47.527599,47.341274,47.398605,0,1,-0.000000,-0.000000,0.004000,0.004000,1,1,-648.163128,148.756422,19379.627859,-33.663549,-11.278637,33.979779,0.000002,0.000002,0.000002,0.000000,0.000000,0.000000,0,0,0,0,0,0,0,0,0,0.000000,0.000000,0.000000,0.000000,0.000000,0.000000,0.000000,0.000000
241511.128000,1.437494,-1.089114,2.525809,3.275377,1.572121,3.357390,0.000000,0.000000,0.000000,0.000000,0.000000,0.000000,0.000000,0.000000,0.000000,0.000000,0.000000,0.000000,0.000000,-2.261016,-0.418492,-0.238803,-0.000096,0.000000,0.000000,-23.523584,-4.324182,-1.846386,-0.000759,0.000000,1.437481,-1.089135,2.525782,3.275368,1.572120,3.357378,0.000000,0.000000,-0.000000,0.000000,-0.000000,0.000000,0.317852,-1.843699,-0.676403,-0.201119,-0.026751,-0.028332,0.000000,-2.261016,-0.418492,-0.238803,-0.000096,0.000000,0.086285,-0.363193,0.250126,-0.000017,-0.000087,-3.053777,0.000000,0.000000,0.000000,0.000000,0.000000,0.000000,-4.057455,3.670393,0.672032,-0.055180,0.071877,0.052672,0.086290,-0.363187,0.250113,0.000000,-0.000000,-3.053753,0.000000,0.000000,0.000000,0.000000,0.000000,0.000000,0,28.375000,29.187500,27.687500,31.812500,35.062500,36.187500,0.663601,7,253,253,253,253,253,253,1,0.191536,0.095768,9.538500,0.000000,1.000000,0.000000,47.518509,47.574039,0.625520,47.498932,47.427269,47.527599,47.527599,47.312607,47.398605,0,1,-0.000000,-0.000000,0.004000,0.004000,1,1,-648.344184,148.778889,19379.642258,-33.662519,-11.279126,33.977702,0.000002,0.000002,0.000002,0.000000,0.000000,0.000000,0,0,0,0,0,0,0,0,0,0.000000,0.000000,0.000000,0.000000,0.000000,0.000000,0.000000,0.000000
241511.130000,1.437494,-1.089114,2.525809,3.275377,1.572121,3.357390,0.000000,0.000000,0.000000,0.000000,0.000000,0.000000,0.000000,0.000000,0.000000,0.000000,0.000000,0.000000,-0.000000,-2.261040,-0.418605,-0.238797,-0.000098,0.000000,-0.000000,-23.523832,-4.325354,-1.846338,-0.000769,0.000000,1.437455,-1.089094,2.525840,3.275319,1.572132,3.357411,0.000000,0.000000,-0.000000,0.000000,-0.000000,0.000000,0.337291,-1.897911,-0.671154,-0.181775,-0.027659,-0.018655,-0.000000,-2.261040,-0.418605,-0.238797,-0.000098,0.000000,0.086277,-0.363178,0.250108,0.000016,-0.000015,-3.053770,0.000000,0.000000,0.000000,0.000000,0.000000,0.000000,-4.222214,3.663620,0.826263,-0.055475,0.075566,0.052642,0.086290,-0.363187,0.250113,0.000000,-0.000000,-3.053753,0.000000,0.000000,0.000000,0.000000,0.000000,0.000000,0,28.375000,29.187500,27.687500,31.812500,35.062500,36.187500,0.655225,7,253,253,253,253,253,253,1,0.268151,0.057461,9.423578,0.000000,1.000000,0.000000,47.540901,47.602695,0.627756,47.484600,47.412937,47.513268,47.470268,47.283943,47.398605,0,1,-0.000000,-0.000000,0.004000,0.004000,1,1,-648.179455,148.771240,19379.796391,-33.662549,-11.282831,33.977671,0.000002,0.000002,0.000002,0.000000,0.000000,0.000000,0,0,0,0,0,0,0,0,0,0.000000,0.000000,0.000000,0.000000,0.000000,0.000000,0.000000,0.000000
241511.132000,1.437494,-1.089114,2.525809,3.275377,1.572121,3.357390,0.000000,0.000000,0.000000,0.000000,0.000000,0.000000,0.000000,0.000000,0.000000,0.000000,0.000000,0.000000,0.000000,-2.261014,-0.418431,-0.238801,-0.000098,0.000000,0.000000,-23.523561,-4.323555,-1.846368,-0.000776,0.000000,1.437485,-1.089138,2.525888,3.275389,1.572124,3.357397,0.000000,0.000000,-0.000000,0.000000,-0.000000,0.000000,0.323966,-1.860779,-0.685300,-0.202093,-0.023859,-0.017186,0.000000,-2.261014,-0.418431,-0.238801,-0.000098,0.000000,0.086290,-0.363164,0.250109,0.000023,0.000098,-3.053753,0.000000,0.000000,0.000000,0.000000,0.000000,0.000000,-4.397981,3.570468,0.474133,-0.056438,0.078863,0.048876,0.086290,-0.363187,0.250113,0.000000,-0.000000,-3.053753,0.000000,0.000000,0.000000,0.000000,0.000000,0.000000,0,28.375000,29.187500,27.687500,31.812500,35.062500,36.187500,0.652644,7,253,253,253,253,253,253,1,0.229843,0.000000,9.538500,0.000000,1.000000,0.000000,47.497913,47.554333,0.663561,47.484600,47.412937,47.513268,47.527599,47.341274,47.341274,0,1,-0.000000,-0.000000,0.004000,0.004000,1,1,-647.996242,148.848687,19379.444006,-33.661877,-11.286204,33.973899,0.000002,0.000002,0.000002,0.000000,0.000000,0.000000,0,0,0,0,0,0,0,0,0,0.000000,0.000000,0.000000,0.000000,0.000000,0.000000,0.000000,0.000000
241511.134000,1.437494,-1.089114,2.525809,3.275377,1.572121,3.357390,0.000000,0.000000,0.000000,0.000000,0.000000,0.000000,0.000000,0.000000,0.000000,0.000000,0.000000,0.000000,-0.000000,-2.260854,-0.418429,-0.238806,-0.000098,0.000000,-0.000000,-23.521893,-4.323530,-1.846410,-0.000771,0.000000,1.437452,-1.089143,2.525814,3.275389,1.572137,3.357373,0.000000,0.000000,-0.000000,0.000000,-0.000000,0.000000,0.357547,-1.857149,-0.664283,-0.187733,-0.024508,-0.030490,-0.000000,-2.260854,-0.418429,-0.238806,-0.000098,0.000000,0.086274,-0.363188,0.250122,0.000021,-0.000023,-3.053810,0.000000,0.000000,0.000000,0.000000,0.000000,0.000000,-4.187681,3.534049,0.472435,-0.056290,0.074754,0.043737,0.086290,-0.363187,0.250113,0.000000,-0.000000,-3.053753,0.000000,0.000000,0.000000,0.000000,0.000000,0.000000,0,28.375000,29.187500,27.687500,31.812500,35.062500,36.187500,0.651924,7,253,253,253,253,253,253,1,0.306458,0.057461,9.576807,0.000000,1.000000,0.000000,47.474632,47.537323,0.609854,47.470268,47.384270,47.498932,47.470268,47.326939,47.384270,0,1,-0.000000,-0.000000,0.004000,0.004000,1,1,-648.202324,148.903481,19379.442595,-33.661663,-11.282091,33.968766,0.000002,0.000002,0.000002,0.000000,0.000000,0.000000,0,0,0,0,0,0,0,0,0,0.000000,0.000000,0.000000,0.000000,0.000000,0.000000,0.000000,0.000000
241511.136000,1.437494,-1.089114,2.525809,3.275377,1.572121,3.357390,0.000000,0.000000,0.000000,0.000000,0.000000,0.000000,0.000000,0.000000,0.000000,0.000000,0.000000,0.000000,-0.000000,-2.260972,-0.418563,-0.238801,-0.000099,0.000000,-0.000000,-23.523121,-4.324918,-1.846365,-0.000779,0.000000,1.437485,-1.089213,2.525790,3.275373,1.572120,3.357378,0.000000,0.000000,-0.000000,0.000000,-0.000000,0.000000,0.326608,-1.865907,-0.686263,-0.202934,-0.004679,-0.026123,-0.000000,-2.260972,-0.418563,-0.238801,-0.000099,0.000000,0.086288,-0.363184,0.250151,-0.000034,-0.000185,-3.053773,0.000000,0.000000,0.000000,0.000000,0.000000,0.000000,-4.267916,3.424000,0.623192,-0.059947,0.073217,0.051559,0.086290,-0.363187,0.250113,0.000000,-0.000000,-3.053753,0.000000,0.000000,0.000000,0.000000,0.000000,0.000000,0,28.375000,29.187500,27.687500,31.812500,35.062500,36.187500,0.649668,7,253,253,253,253,253,253,1,0.191536,0.153229,9.442732,0.000000,1.000000,0.000000,47.513138,47.563290,0.627756,47.441601,47.384270,47.513268,47.527599,47.255276,47.398605,0,1,-0.000000,-0.000000,0.004000,0.004000,1,1,-648.112967,149.005741,19379.593585,-33.657890,-11.280876,33.976594,0.000002,0.000002,0.000002,0.000000,0.000000,0.000000,0,0,0,0,0,0,0,0,0,0.000000,0.000000,0.000000,0.000000,0.000000,0.000000,0.000000,0.000000
241511.138000,1.437494,-1.089114,2.525809,3.275377,1.572121,3.357390,0.000000,0.000000,0.000000,0.000000,0.000000,0.000000,0.000000,0.000000,0.000000,0.000000,0.000000,0.000000,-0.000000,-2.260886,-0.418725,-0.238792,-0.000098,0.000000,-0.000000,-23.522226,-4.326587,-1.846300,-0.000769,0.000000,1.437481,-1.089151,2.525790,3.275419,1.572096,3.357394,0.000000,0.000000,-0.000000,0.000000,-0.000000,0.000000,0.369520,-1.889378,-0.754585,-0.185411,-0.010950,-0.018842,-0.000000,-2.260886,-0.418725,-0.238792,-0.000098,0.000000,0.086287,-0.363195,0.250125,-0.000041,-0.000016,-3.053761,0.000000,0.000000,0.000000,0.000000,0.000000,0.000000,-4.337935,3.459153,0.701146,-0.059120,0.076036,0.044662,0.086290,-0.363187,0.250113,0.000000,-0.000000,-3.053753,0.000000,0.000000,0.000000,0.000000,0.000000,0.000000,0,28.375000,29.187500,27.687500,31.812500,35.062500,36.187500,0.653784,7,253,253,253,253,253,253,1,0.134075,0.210690,9.481039,0.000000,1.000000,0.000000,47.533737,47.580307,0.676992,47.441601,47.412937,47.541931,47.513268,47.326939,47.398605,0,1,-0.000000,-0.000000,0.004000,0.004000,1,1,-648.046345,148.964733,19379.671119,-33.658958,-11.283618,33.969688,0.000002,0.000002,0.000002,0.000000,0.000000,0.000000,0,0,0,0,0,0,0,0,0,0.000000,0.000000,0.000000,0.000000,0.000000,0.000000,0.000000,0.000000
241511.140000,1.437494,-1.089114,2.525809,3.275377,1.572121,3.357390,0.000000,0.000000,0.000000,0.000000,0.000000,0.000000,0.000000,0.000000,0.000000,0.000000,0.000000,0.000000,0.000000,-2.261001,-0.418620,-0.238800,-0.000096,0.000000,0.000000,-23.523429,-4.325510,-1.846363,-0.000755,0.000000,1.437499,-1.089192,2.525819,3.275377,1.572145,3.357365,0.000000,0.000000,-0.000000,0.000000,-0.000000,0.000000,0.325327,-1.843335,-0.688894,-0.189814,-0.006707,-0.026880,0.000000,-2.261001,-0.418620,-0.238800,-0.000096,0.000000,0.086291,-0.363177,0.250139,0.000019,-0.000111,-3.053773,0.000000,0.000000,0.000000,0.000000,0.000000,0.000000,-4.380496,3.505096,0.842927,-0.056765,0.076729,0.048188,0.086290,-0.363187,0.250113,0.000000,-0.000000,-3.053753,0.000000,0.000000,0.000000,0.000000,0.000000,0.000000,0,28.375000,29.187500,27.687500,31.812500,35.062500,36.187500,0.653772,7,253,253,253,253,253,253,1,0.076614,0.172383,9.500193,0.000000,1.000000,0.000000,47.489853,47.547173,0.654613,47.412937,47.384270,47.527599,47.498932,47.341274,47.341274,0,1,-0.000000,-0.000000,0.004000,0.004000,1,1,-648.007870,148.915183,19379.813296,-33.661368,-11.284099,33.973222,0.000002,0.000002,0.000002,0.000000,0.000000,0.000000,0,0,0,0,0,0,0,0,0,0.000000,0.000000,0.000000,0.000000,0.000000,0.000000,0.000000,0.000000
241511.142000,1.437494,-1.089114,2.525809,3.275377,1.572121,3.357390,0.000000,0.000000,0.000000,0.000000,0.000000,0.000000,0.000000,0.000000,0.000000,0.000000,0.000000,0.000000,0.000000,-2.260874,-0.418640,-0.238796,-0.000099,0.000000,0.000000,-23.522107,-4.325709,-1.846332,-0.000784,0.000000,1.437527,-1.089138,2.525782,3.275359,1.572128,3.357344,0.000000,0.000000,-0.000000,0.000000,-0.000000,0.000000,0.364739,-1.868110,-0.684842,-0.198407,-0.023986,-0.018751,0.000000,-2.260874,-0.418640,-0.238796,-0.000099,0.000000,0.086301,-0.363188,0.250128,-0.000008,-0.000108,-3.053765,0.000000,0.000000,0.000000,0.000000,0.000000,0.000000,-4.093051,3.355373,0.599367,-0.062390,0.071370,0.047302,0.086290,-0.363187,0.250113,0.000000,-0.000000,-3.053753,0.000000,0.000000,0.000000,0.000000,0.000000,0.000000,0,28.375000,29.187500,27.687500,31.812500,35.062500,36.187500,0.656328,7,253,253,253,253,253,253,1,0.153229,0.095768,9.576807,0.000000,1.000000,0.000000,47.522987,47.573143,0.612089,47.455936,47.398605,47.541931,47.513268,47.384270,47.398605,0,1,-0.000000,-0.000000,0.004000,0.004000,1,1,-648.281132,149.089499,19379.569645,-33.655294,-11.279254,33.972334,0.000002,0.000002,0.000002,0.000000,0.000000,0.000000,0,0,0,0,0,0,0,0,0,0.000000,0.000000,0.000000,0.000000,0.000000,0.000000,0.000000,0.000000
241511.144000,1.437494,-1.089114,2.525809,3.275377,1.572121,3.357390,0.000000,0.000000,0.000000,0.000000,0.000000,0.000000,0.000000,0.000000,0.000000,0.000000,0.000000,0.000000,0.000000,-2.261034,-0.418610,-0.238796,-0.000098,0.000000,0.000000,-23.523767,-4.325405,-1.846331,-0.000774,0.000000,1.437481,-1.089101,2.525814,3.275376,1.572148,3.357411,0.000000,0.000000,-0.000000,0.000000,-0.000000,0.000000,0.347722,-1.849884,-0.682836,-0.205245,-0.006200,-0.023929,0.000000,-2.261034,-0.418610,-0.238796,-0.000098,0.000000,0.086283,-0.363187,0.250109,0.000046,0.000016,-3.053745,0.000000,0.000000,0.000000,0.000000,0.000000,0.000000,-4.343433,3.401436,0.648771,-0.061308,0.076976,0.050040,0.086290,-0.363187,0.250113,0.000000,-0.000000,-3.053753,0.000000,0.000000,0.000000,0.000000,0.000000,0.000000,0,28.375000,29.187500,27.687500,31.812500,35.062500,36.187500,0.657649,7,253,253,253,253,253,253,1,0.172383,0.134075,9.538500,0.000000,1.000000,0.000000,47.520306,47.582996,0.618802,47.484600,47.369938,47.541931,47.513268,47.326939,47.398605,0,1,-0.000000,-0.000000,0.004000,0.004000,1,1,-648.035765,149.021711,19379.618908,-33.656864,-11.284750,33.975068,0.000002,0.000002,0.000002,0.000000,0.000000,0.000000,0,0,0,0,0,0,0,0,0,0.000000,0.000000,0.000000,0.000000,0.000000,0.000000,0.000000,0.000000
241511.146000,1.437494,-1.089114,2.525809,3.275377,1.572121,3.357390,0.000000,0.000000,0.000000,0.000000,0.000000,0.000000,0.000000,0.000000,0.000000,0.000000,0.000000,0.000000,-0.000000,-2.261047,-0.418491,-0.238803,-0.000100,0.000000,-0.000000,-23.523896,-4.324175,-1.846381,-0.000786,0.000000,1.437436,-1.089098,2.525843,3.275345,1.572120,3.357411,0.000000,0.000000,-0.000000,0.000000,-0.000000,0.000000,0.352323,-1.858402,-0.687629,-0.198424,-0.011610,-0.012568,-0.000000,-2.261047,-0.418491,-0.238803,-0.000100,0.000000,0.086271,-0.363180,0.250106,0.000004,0.000026,-3.053790,0.000000,0.000000,0.000000,0.000000,0.000000,0.000000,-4.384073,3.503685,0.741459,-0.058895,0.078009,0.046295,0.086290,-0.363187,0.250113,0.000000,-0.000000,-3.053753,0.000000,0.000000,0.000000,0.000000,0.000000,0.000000,0,28.375000,29.187500,27.687500,31.812500,35.062500,36.187500,0.644077,7,253,253,253,253,253,253,1,0.172383,0.076614,9.461885,0.000000,1.000000,0.000000,47.519409,47.588367,0.629992,47.527599,47.412937,47.527599,47.527599,47.326939,47.427269,0,1,-0.000000,-0.000000,0.004000,0.004000,1,1,-648.004128,148.916484,19379.711456,-33.659353,-11.285564,33.971321,0.000002,0.000002,0.000002,0.000000,0.000000,0.000000,0,0,0,0,0,0,0,0,0,0.000000,0.000000,0.000000,0.000000,0.000000,0.000000,0.000000,0.000000
241511.148000,1.437494,-1.089114,2.525809,3.275377,1.572121,3.357390,0.000000,0.000000,0.000000,0.000000,0.000000,0.000000,0.000000,0.000000,0.000000,0.000000,0.000000,0.000000,0.000000,-2.261001,-0.418434,-0.238803,-0.000098,0.000000,0.000000,-23.523426,-4.323578,-1.846382,-0.000769,0.000000,1.437452,-1.089132,2.525782,3.275415,1.572128,3.357406,0.000000,0.000000,-0.000000,0.000000,-0.000000,0.000000,0.357395,-1.871457,-0.664135,-0.194726,-0.024234,-0.027331,0.000000,-2.261001,-0.418434,-0.238803,-0.000098,0.000000,0.086273,-0.363201,0.250120,0.000009,-0.000015,-3.053777,0.000000,0.000000,0.000000,0.000000,0.000000,0.000000,-4.084449,3.684269,0.908802,-0.052713,0.071439,0.050063,0.086290,-0.363187,0.250113,0.000000,-0.000000,-3.053753,0.000000,0.000000,0.000000,0.000000,0.000000,0.000000,0,28.375000,29.187500,27.687500,31.812500,35.062500,36.187500,0.648409,7,253,253,253,253,253,253,1,0.248997,0.114922,9.442732,0.000000,1.000000,0.000000,47.519409,47.552544,0.585233,47.484600,47.326939,47.527599,47.498932,47.283943,47.384270,0,1,-0.000000,-0.000000,0.004000,0.004000,1,1,-648.318478,148.762782,19379.878912,-33.664937,-11.278476,33.975091,0.000002,0.000002,0.000002,0.000000,0.000000,0.000000,0,0,0,0,0,0,0,0,0,0.000000,0.000000,0.000000,0.000000,0.000000,0.000000,0.000000,0.000000
241511.150000,1.437494,-1.089114,2.525809,3.275377,1.572121,3.357390,0.000000,0.000000,0.000000,0.000000,0.000000,0.000000,0.000000,0.000000,0.000000,0.000000,0.000000,0.000000,-0.000000,-2.261049,-0.418602,-0.238801,-0.000098,0.000000,-0.000000,-23.523922,-4.325321,-1.846367,-0.000774,0.000000,1.437485,-1.089138,2.525827,3.275380,1.572128,3.357349,0.000000,0.000000,-0.000000,0.000000,-0.000000,0.000000,0.350070,-1.855229,-0.682499,-0.209904,-0.025019,-0.029513,-0.000000,-2.261049,-0.418602,-0.238801,-0.000098,0.000000,0.086287,-0.363181,0.250119,0.000011,-0.000008,-3.053801,0.000000,0.000000,0.000000,0.000000,0.000000,0.000000,-4.030646,3.721724,0.787297,-0.052679,0.069494,0.053263,0.086290,-0.363187,0.250113,0.000000,-0.000000,-3.053753,0.000000,0.000000,0.000000,0.000000,0.000000,0.000000,0,28.375000,29.187500,27.687500,31.812500,35.062500,36.187500,0.653172,7,253,253,253,253,253,253,1,0.210690,0.191536,9.538500,0.000000,1.000000,0.000000,47.485374,47.547173,0.594187,47.427269,47.384270,47.498932,47.527599,47.326939,47.398605,0,1,-0.000000,-0.000000,0.004000,0.004000,1,1,-648.375259,148.730283,19379.757395,-33.664799,-11.276536,33.978291,0.000002,0.000002,0.000002,0.000000,0.000000,0.000000,0,0,0,0,0,0,0,0,0,0.000000,0.000000,0.000000,0.000000,0.000000,0.000000,0.000000,0.000000
241511.152000,1.437494,-1.089114,2.525809,3.275377,1.572121,3.357390,0.000000,0.000000,0.000000,0.000000,0.000000,0.000000,0.000000,0.000000,0.000000,0.000000,0.000000,0.000000,-0.000000,-2.260958,-0.418534,-0.238801,-0.000098,0.000000,-0.000000,-23.522978,-4.324615,-1.846370,-0.000774,0.000000,1.437469,-1.089151,2.525848,3.275373,1.572153,3.357397,0.000000,0.000000,-0.000000,0.000000,-0.000000,0.000000,0.345054,-1.877452,-0.680605,-0.200900,-0.011403,-0.031404,-0.000000,-2.260958,-0.418534,-0.238801,-0.000098,0.000000,0.086280,-0.363174,0.250121,0.000048,-0.000013,-3.053770,0.000000,0.000000,0.000000,0.000000,0.000000,0.000000,-4.172853,3.593647,0.634253,-0.056944,0.073061,0.052621,0.086290,-0.363187,0.250113,0.000000,-0.000000,-3.053753,0.000000,0.000000,0.000000,0.000000,0.000000,0.000000,0,28.375000,29.187500,27.687500,31.812500,35.062500,36.187500,0.641772,7,253,253,253,253,253,253,1,0.191536,0.248997,9.538500,0.000000,1.000000,0.000000,47.534634,47.563290,0.641182,47.455936,47.412937,47.527599,47.513268,47.341274,47.398605,0,1,-0.000000,-0.000000,0.004000,0.004000,1,1,-648.222449,148.845271,19379.604461,-33.660867,-11.280465,33.977651,0.000002,0.000002,0.000002,0.000000,0.000000,0.000000,0,0,0,0,0,0,0,0,0,0.000000,0.000000,0.000000,0.000000,0.000000,0.000000,0.000000,0.000000
241511.154000,1.437494,-1.089114,2.525809,3.275377,1.572121,3.357390,0.000000,0.000000,0.000000,0.000000,0.000000,0.000000,0.000000,0.000000,0.000000,0.000000,0.000000,0.000000,0.000000,-2.260900,-0.418518,-0.238801,-0.000100,0.000000,0.000000,-23.522371,-4.324453,-1.846370,-0.000788,0.000000,1.437439,-1.089131,2.525831,3.275434,1.572087,3.357377,0.000000,0.000000,-0.000000,0.000000,-0.000000,0.000000,0.283808,-1.835330,-0.678432,-0.196087,-0.015181,-0.032111,0.000000,-2.260900,-0.418518,-0.238801,-0.000100,0.000000,0.086274,-0.363190,0.250111,-0.000034,0.000101,-3.053821,0.000000,0.000000,0.000000,0.000000,0.000000,0.000000,-4.058108,3.884873,0.724308,-0.049542,0.071130,0.051649,0.086290,-0.363187,0.250113,0.000000,-0.000000,-3.053753,0.000000,0.000000,0.000000,0.000000,0.000000,0.000000,0,28.375000,29.187500,27.687500,31.812500,35.062500,36.187500,0.634092,7,253,253,253,253,253,253,1,0.134075,0.114922,9.385271,0.000000,1.000000,0.000000,47.491642,47.553440,0.690418,47.455936,47.398605,47.541931,47.513268,47.326939,47.398605,0,1,-0.000000,-0.000000,0.004000,0.004000,1,1,-648.362168,148.565550,19379.694002,-33.668061,-11.277892,33.976670,0.000002,0.000002,0.000002,0.000000,0.000000,0.000000,0,0,0,0,0,0,0,0,0,0.000000,0.000000,0.000000,0.000000,0.000000,0.000000,0.000000,0.000000
241511.156000,1.437494,-1.089114,2.525809,3.275377,1.572121,3.357390,0.000000,0.000000,0.000000,0.000000,0.000000,0.000000,0.000000,0.000000,0.000000,0.000000,0.000000,0.000000,-0.000000,-2.260967,-0.418517,-0.238806,-0.000095,0.000000,-0.000000,-23.523075,-4.324436,-1.846408,-0.000750,0.000000,1.437460,-1.089127,2.525868,3.275382,1.572145,3.357341,0.000000,0.000000,-0.000000,0.000000,-0.000000,0.000000,0.354507,-1.887198,-0.614798,-0.190241,-0.016619,-0.030434,-0.000000,-2.260967,-0.418517,-0.238806,-0.000095,0.000000,0.086278,-0.363172,0.250109,0.000051,0.000069,-3.053836,0.000000,0.000000,0.000000,0.000000,0.000000,0.000000,-4.287913,3.631672,0.794439,-0.056345,0.073515,0.049573,0.086290,-0.363187,0.250113,0.000000,-0.000000,-3.053753,0.000000,0.000000,0.000000,0.000000,0.000000,0.000000,0,28.375000,29.187500,27.687500,31.812500,35.062500,36.187500,0.643008,7,253,253,253,253,253,253,1,0.268151,0.134075,9.461885,0.000000,1.000000,0.000000,47.497021,47.542694,0.609854,47.484600,47.398605,47.513268,47.498932,47.312607,47.384270,0,1,-0.000000,-0.000000,0.004000,0.004000,1,1,-648.110904,148.797649,19379.764453,-33.661496,-11.280864,33.974599,0.000002,0.000002,0.000002,0.000000,0.000000,0.000000,0,0,0,0,0,0,0,0,0,0.000000,0.000000,0.000000,0.000000,0.000000,0.000000,0.000000,0.000000
241511.158000,1.437494,-1.089114,2.525809,3.275377,1.572121,3.357390,0.000000,0.000000,0.000000,0.000000,0.000000,0.000000,0.000000,0.000000,0.000000,0.000000,0.000000,0.000000,0.000000,-2.260909,-0.418443,-0.238805,-0.000099,0.000000,0.000000,-23.522470,-4.323671,-1.846401,-0.000784,0.000000,1.437457,-1.089210,2.525799,3.275312,1.572124,3.357378,0.000000,0.000000,-0.000000,0.000000,-0.000000,0.000000,0.333099,-1.869467,-0.696700,-0.195249,-0.015374,-0.014220,0.000000,-2.260909,-0.418443,-0.238805,-0.000099,0.000000,0.086278,-0.363179,0.250155,-0.000041,-0.000260,-3.053801,0.000000,0.000000,0.000000,0.000000,0.000000,0.000000,-4.463302,3.429986,0.726831,-0.059521,0.079387,0.048010,0.086290,-0.363187,0.250113,0.000000,-0.000000,-3.053753,0.000000,0.000000,0.000000,0.000000,0.000000,0.000000,0,28.375000,29.187500,27.687500,31.812500,35.062500,36.187500,0.632856,7,253,253,253,253,253,253,1,0.268151,0.114922,9.481039,0.000000,1.000000,0.000000,47.478210,47.542694,0.638946,47.412937,47.384270,47.513268,47.470268,47.312607,47.341274,0,1,-0.000000,-0.000000,0.004000,0.004000,1,1,-647.918759,148.982690,19379.697382,-33.658854,-11.286981,33.973049,0.000002,0.000002,0.000002,0.000000,0.000000,0.000000,0,0,0,0,0,0,0,0,0,0.000000,0.000000,0.000000,0.000000,0.000000,0.000000,0.000000,0.000000
241511.160000,1.437494,-1.089114,2.525809,3.275377,1.572121,3.357390,0.000000,0.000000,0.000000,0.000000,0.000000,0.000000,0.000000,0.000000,0.000000,0.000000,0.000000,0.000000,-0.000000,-2.260873,-0.418701,-0.238789,-0.000098,0.000000,-0.000000,-23.522092,-4.326340,-1.846272,-0.000771,0.000000,1.437455,-1.089140,2.525807,3.275356,1.572133,3.357373,0.000000,0.000000,-0.000000,0.000000,-0.000000,0.000000,0.288494,-1.832734,-0.661399,-0.187448,-0.020412,-0.034363,-0.000000,-2.260873,-0.418701,-0.238789,-0.000098,0.000000,0.086275,-0.363187,0.250125,0.000005,-0.000077,-3.053807,0.000000,0.000000,0.000000,0.000000,0.000000,0.000000,-4.174441,3.511195,0.764911,-0.057656,0.073837,0.050752,0.086290,-0.363187,0.250113,0.000000,-0.000000,-3.053753,0.000000,0.000000,0.000000,0.000000,0.000000,0.000000,0,28.375000,29.187500,27.687500,31.812500,35.062500,36.187500,0.633060,7,253,253,253,253,253,253,1,0.229843,0.114922,9.404425,0.000000,1.000000,0.000000,47.505077,47.566872,0.685941,47.527599,47.441601,47.498932,47.513268,47.369938,47.412937,0,1,-0.000000,-0.000000,0.004000,0.004000,1,1,-648.213544,148.927345,19379.735160,-33.660222,-11.281295,33.975783,0.000002,0.000002,0.000002,0.000000,0.000000,0.000000,0,0,0,0,0,0,0,0,0,0.000000,0.000000,0.000000,0.000000,0.000000,0.000000,0.000000,0.000000
