timestamp,target_q_0,target_q_1,target_q_2,target_q_3,target_q_4,target_q_5,target_qd_0,target_qd_1,target_qd_2,target_qd_3,target_qd_4,target_qd_5,target_qdd_0,target_qdd_1,target_qdd_2,target_qdd_3,target_qdd_4,target_qdd_5,target_current_0,target_current_1,target_current_2,target_current_3,target_current_4,target_current_5,target_moment_0,target_moment_1,target_moment_2,target_moment_3,target_moment_4,target_moment_5,actual_q_0,actual_q_1,actual_q_2,actual_q_3,actual_q_4,actual_q_5,actual_qd_0,actual_qd_1,actual_qd_2,actual_qd_3,actual_qd_4,actual_qd_5,actual_current_0,actual_current_1,actual_current_2,actual_current_3,actual_current_4,actual_current_5,joint_control_output_0,joint_control_output_1,joint_control_output_2,joint_control_output_3,joint_control_output_4,joint_control_output_5,actual_TCP_pose_0,actual_TCP_pose_1,actual_TCP_pose_2,actual_TCP_pose_3,actual_TCP_pose_4,actual_TCP_pose_5,actual_TCP_speed_0,actual_TCP_speed_1,actual_TCP_speed_2,actual_TCP_speed_3,actual_TCP_speed_4,actual_TCP_speed_5,actual_TCP_force_0,actual_TCP_force_1,actual_TCP_force_2,actual_TCP_force_3,actual_TCP_force_4,actual_TCP_force_5,target_TCP_pose_0,target_TCP_pose_1,target_TCP_pose_2,target_TCP_pose_3,target_TCP_pose_4,target_TCP_pose_5,target_TCP_speed_0,target_TCP_speed_1,target_TCP_speed_2,target_TCP_speed_3,target_TCP_speed_4,target_TCP_speed_5,actual_digital_input_bits,joint_temperatures_0,joint_temperatures_1,joint_temperatures_2,joint_temperatures_3,joint_temperatures_4,joint_temperatures_5,actual_execution_time,robot_mode,joint_mode_0,joint_mode_1,joint_mode_2,joint_mode_3,joint_mode_4,joint_mode_5,safety_mode,actual_tool_accelerometer_0,actual_tool_accelerometer_1,actual_tool_accelerometer_2,speed_scaling,target_speed_fraction,actual_momentum,actual_main_voltage,actual_robot_voltage,actual_robot_current,actual_joint_voltage_0,actual_joint_voltage_1,actual_joint_voltage_2,actual_joint_voltage_3,actual_joint_voltage_4,actual_joint_voltage_5,actual_digital_output_bits,runtime_state,standard_analog_input0,standard_analog_input1,standard_analog_output0,standard_analog_output1,robot_status_bits,safety_status_bits,ft_raw_wrench_0,ft_raw_wrench_1,ft_raw_wrench_2,ft_raw_wrench_3,ft_raw_wrench_4,ft_raw_wrench_5,payload_inertia_0,payload_inertia_1,payload_inertia_2,payload_inertia_3,payload_inertia_4,payload_inertia_5,output_int_register_2,output_int_register_12,output_int_register_13,output_int_register_14,output_int_register_15,output_int_register_16,output_int_register_17,output_int_register_18,output_int_register_19,output_double_register_12,output_double_register_13,output_double_register_14,output_double_register_15,output_double_register_16,output_double_register_17,output_double_register_18,output_double_register_19
241390.272000,1.437494,-1.089114,2.525809,3.275377,1.572121,3.357390,0.000000,0.000000,0.000000,0.000000,0.000000,0.000000,0.000000,0.000000,0.000000,0.000000,0.000000,0.000000,0.000000,-2.260912,-0.418535,-0.238800,-0.000094,0.000000,0.000000,-23.522500,-4.324626,-1.846359,-0.000743,0.000000,1.437523,-1.089168,2.525831,3.275373,1.572132,3.357402,0.000000,0.000000,-0.000000,-0.000000,-0.000000,0.000000,0.372746,-1.905986,-0.714245,-0.192689,-0.062513,-0.038105,0.000000,-2.260912,-0.418535,-0.238800,-0.000094,0.000000,0.086301,-0.363173,0.250130,0.000007,-0.000059,-3.053712,0.000000,0.000000,0.000000,0.000000,0.000000,0.000000,-4.018306,3.735792,0.364504,-0.052905,0.067707,0.053850,0.086290,-0.363187,0.250113,0.000000,-0.000000,-3.053753,0.000000,0.000000,0.000000,0.000000,0.000000,0.000000,0,28.375000,29.187500,27.625000,31.750000,35.000000,36.187500,0.642661,7,253,253,253,253,253,253,1,0.210690,0.172383,9.538500,0.000000,1.000000,0.000000,47.540005,47.588367,0.629992,47.527599,47.484600,47.556267,47.556267,47.384270,47.398605,0,1,-0.000000,-0.000000,0.004000,0.004000,1,1,-648.389155,148.716952,19379.334724,-33.664424,-11.274777,33.978880,0.000002,0.000002,0.000002,0.000000,0.000000,0.000000,0,0,0,0,0,0,0,0,0,0.000000,0.000000,0.000000,0.000000,0.000000,0.000000,0.000000,0.000000
241390.274000,1.437494,-1.089114,2.525809,3.275377,1.572121,3.357390,0.000000,0.000000,0.000000,0.000000,0.000000,0.000000,0.000000,0.000000,0.000000,0.000000,0.000000,0.000000,0.000000,-2.260896,-0.418577,-0.238799,-0.000098,0.000000,0.000000,-23.522332,-4.325065,-1.846350,-0.000776,0.000000,1.437490,-1.089197,2.525836,3.275368,1.572082,3.357419,0.000000,0.000000,-0.000000,-0.000000,-0.000000,0.000000,0.335396,-1.878058,-0.685894,-0.181668,-0.043554,-0.017629,0.000000,-2.260896,-0.418577,-0.238799,-0.000098,0.000000,0.086295,-0.363172,0.250139,-0.000075,-0.000089,-3.053728,0.000000,0.000000,0.000000,0.000000,0.000000,0.000000,-4.139987,3.840483,0.268065,-0.051432,0.072409,0.053921,0.086290,-0.363187,0.250113,0.000000,-0.000000,-3.053753,0.000000,0.000000,0.000000,0.000000,0.000000,0.000000,0,28.375000,29.187500,27.625000,31.750000,35.000000,36.187500,0.648529,7,253,253,253,253,253,253,1,0.248997,0.134075,9.519346,0.000000,1.000000,0.000000,47.540901,47.600906,0.681469,47.498932,47.398605,47.498932,47.556267,47.384270,47.384270,0,1,-0.000000,-0.000000,0.004000,0.004000,1,1,-648.277181,148.602007,19379.238153,-33.666301,-11.279328,33.978950,0.000002,0.000002,0.000002,0.000000,0.000000,0.000000,0,0,0,0,0,0,0,0,0,0.000000,0.000000,0.000000,0.000000,0.000000,0.000000,0.000000,0.000000
241390.276000,1.437494,-1.089114,2.525809,3.275377,1.572121,3.357390,0.000000,0.000000,0.000000,0.000000,0.000000,0.000000,0.000000,0.000000,0.000000,0.000000,0.000000,0.000000,-0.000000,-2.260836,-0.418618,-0.238797,-0.000095,0.000000,-0.000000,-23.521711,-4.325487,-1.846334,-0.000747,0.000000,1.437473,-1.089113,2.525868,3.275394,1.572155,3.357369,0.000000,0.000000,-0.000000,-0.000000,-0.000000,0.000000,0.336501,-1.856497,-0.761554,-0.191145,-0.045054,-0.041220,-0.000000,-2.260836,-0.418618,-0.238797,-0.000095,0.000000,0.086281,-0.363173,0.250103,0.000072,0.000105,-3.053794,0.000000,0.000000,0.000000,0.000000,0.000000,0.000000,-4.210730,3.818209,0.523418,-0.050498,0.070339,0.054662,0.086290,-0.363187,0.250113,0.000000,-0.000000,-3.053753,0.000000,0.000000,0.000000,0.000000,0.000000,0.000000,0,28.375000,29.187500,27.625000,31.750000,35.000000,36.187500,0.644029,7,253,253,253,253,253,253,1,0.268151,0.153229,9.500193,0.000000,1.000000,0.000000,47.531048,47.569561,0.625520,47.498932,47.412937,47.541931,47.484600,47.341274,47.398605,0,1,-0.000000,-0.000000,0.004000,0.004000,1,1,-648.204276,148.618487,19379.493381,-33.667046,-11.277192,33.979687,0.000002,0.000002,0.000002,0.000000,0.000000,0.000000,0,0,0,0,0,0,0,0,0,0.000000,0.000000,0.000000,0.000000,0.000000,0.000000,0.000000,0.000000
241390.278000,1.437494,-1.089114,2.525809,3.275377,1.572121,3.357390,0.000000,0.000000,0.000000,0.000000,0.000000,0.000000,0.000000,0.000000,0.000000,0.000000,0.000000,0.000000,0.000000,-2.260934,-0.418420,-0.238807,-0.000100,0.000000,0.000000,-23.522729,-4.323433,-1.846416,-0.000789,0.000000,1.437464,-1.089110,2.525822,3.275406,1.572106,3.357352,0.000000,0.000000,-0.000000,-0.000000,-0.000000,0.000000,0.293067,-1.882486,-0.764374,-0.177933,-0.059902,-0.038398,0.000000,-2.260934,-0.418420,-0.238807,-0.000100,0.000000,0.086281,-0.363189,0.250107,-0.000010,0.000072,-3.053820,0.000000,0.000000,0.000000,0.000000,0.000000,0.000000,-4.009850,3.722488,0.621618,-0.051960,0.067172,0.054429,0.086290,-0.363187,0.250113,0.000000,-0.000000,-3.053753,0.000000,0.000000,0.000000,0.000000,0.000000,0.000000,0,28.375000,29.187500,27.625000,31.750000,35.000000,36.187500,0.652128,7,253,253,253,253,253,253,1,0.229843,0.114922,9.481039,0.000000,1.000000,0.000000,47.520306,47.582996,0.621043,47.498932,47.427269,47.556267,47.556267,47.369938,47.412937,0,1,-0.000000,-0.000000,0.004000,0.004000,1,1,-648.395987,148.731507,19379.591459,-33.665307,-11.274161,33.979453,0.000002,0.000002,0.000002,0.000000,0.000000,0.000000,0,0,0,0,0,0,0,0,0,0.000000,0.000000,0.000000,0.000000,0.000000,0.000000,0.000000,0.000000
241390.280000,1.437494,-1.089114,2.525809,3.275377,1.572121,3.357390,0.000000,0.000000,0.000000,0.000000,0.000000,0.000000,0.000000,0.000000,0.000000,0.000000,0.000000,0.000000,-0.000000,-2.261019,-0.418494,-0.238805,-0.000097,0.000000,-0.000000,-23.523613,-4.324204,-1.846398,-0.000761,0.000000,1.437443,-1.089131,2.525827,3.275333,1.572120,3.357370,0.000000,0.000000,-0.000000,-0.000000,-0.000000,0.000000,0.292624,-1.862076,-0.734166,-0.190162,-0.059159,-0.022158,-0.000000,-2.261019,-0.418494,-0.238805,-0.000097,0.000000,0.086273,-0.363181,0.250121,-0.000013,-0.000067,-3.053822,0.000000,0.000000,0.000000,0.000000,0.000000,0.000000,-4.045350,3.635687,0.589558,-0.054186,0.067569,0.056646,0.086290,-0.363187,0.250113,0.000000,-0.000000,-3.053753,0.000000,0.000000,0.000000,0.000000,0.000000,0.000000,0,28.375000,29.187500,27.625000,31.750000,35.000000,36.187500,0.642228,7,253,253,253,253,253,253,1,0.153229,0.095768,9.481039,0.000000,1.000000,0.000000,47.546276,47.599113,0.598664,47.527599,47.427269,47.556267,47.584930,47.369938,47.398605,0,1,-0.000000,-0.000000,0.004000,0.004000,1,1,-648.353014,148.814709,19379.559742,-33.663127,-11.274746,33.981676,0.000002,0.000002,0.000002,0.000000,0.000000,0.000000,0,0,0,0,0,0,0,0,0,0.000000,0.000000,0.000000,0.000000,0.000000,0.000000,0.000000,0.000000
241390.282000,1.437494,-1.089114,2.525809,3.275377,1.572121,3.357390,0.000000,0.000000,0.000000,0.000000,0.000000,0.000000,0.000000,0.000000,0.000000,0.000000,0.000000,0.000000,-0.000000,-2.260970,-0.418519,-0.238798,-0.000098,0.000000,-0.000000,-23.523097,-4.324458,-1.846346,-0.000769,0.000000,1.437443,-1.089147,2.525857,3.275370,1.572132,3.357427,0.000000,0.000000,-0.000000,-0.000000,-0.000000,0.000000,0.302268,-1.858843,-0.693841,-0.184162,-0.054602,-0.017887,-0.000000,-2.260970,-0.418519,-0.238798,-0.000098,0.000000,0.086273,-0.363174,0.250119,0.000019,0.000007,-3.053765,0.000000,0.000000,0.000000,0.000000,0.000000,0.000000,-4.193264,3.527169,0.444203,-0.058375,0.071247,0.049986,0.086290,-0.363187,0.250113,0.000000,-0.000000,-3.053753,0.000000,0.000000,0.000000,0.000000,0.000000,0.000000,0,28.375000,29.187500,27.625000,31.750000,35.000000,36.187500,0.651852,7,253,253,253,253,253,253,1,0.153229,0.095768,9.519346,0.000000,1.000000,0.000000,47.545380,47.603592,0.574043,47.527599,47.441601,47.556267,47.556267,47.326939,47.427269,0,1,-0.000000,-0.000000,0.004000,0.004000,1,1,-648.196334,148.909709,19379.414287,-33.659281,-11.278784,33.975014,0.000002,0.000002,0.000002,0.000000,0.000000,0.000000,0,0,0,0,0,0,0,0,0,0.000000,0.000000,0.000000,0.000000,0.000000,0.000000,0.000000,0.000000
241390.284000,1.437494,-1.089114,2.525809,3.275377,1.572121,3.357390,0.000000,0.000000,0.000000,0.000000,0.000000,0.000000,0.000000,0.000000,0.000000,0.000000,0.000000,0.000000,0.000000,-2.260890,-0.418497,-0.238802,-0.000098,0.000000,0.000000,-23.522270,-4.324232,-1.846376,-0.000776,0.000000,1.437502,-1.089131,2.525836,3.275367,1.572132,3.357397,0.000000,0.000000,-0.000000,-0.000000,-0.000000,0.000000,0.359211,-1.845153,-0.724832,-0.187537,-0.047550,-0.032802,0.000000,-2.260890,-0.418497,-0.238802,-0.000098,0.000000,0.086293,-0.363176,0.250117,0.000017,-0.000005,-3.053737,0.000000,0.000000,0.000000,0.000000,0.000000,0.000000,-4.075055,3.860176,0.316404,-0.051051,0.071656,0.051502,0.086290,-0.363187,0.250113,0.000000,-0.000000,-3.053753,0.000000,0.000000,0.000000,0.000000,0.000000,0.000000,0,28.375000,29.187500,27.625000,31.750000,35.000000,36.187500,0.646896,7,253,253,253,253,253,253,1,0.153229,0.172383,9.538500,0.000000,1.000000,0.000000,47.555233,47.595535,0.652371,47.498932,47.441601,47.541931,47.470268,47.369938,47.412937,0,1,-0.000000,-0.000000,0.004000,0.004000,1,1,-648.343418,148.588233,19379.286510,-33.666615,-11.278550,33.976530,0.000002,0.000002,0.000002,0.000000,0.000000,0.000000,0,0,0,0,0,0,0,0,0,0.000000,0.000000,0.000000,0.000000,0.000000,0.000000,0.000000,0.000000
241390.286000,1.437494,-1.089114,2.525809,3.275377,1.572121,3.357390,0.000000,0.000000,0.000000,0.000000,0.000000,0.000000,0.000000,0.000000,0.000000,0.000000,0.000000,0.000000,0.000000,-2.260956,-0.418505,-0.238801,-0.000098,0.000000,0.000000,-23.522956,-4.324316,-1.846371,-0.000776,0.000000,1.437472,-1.089131,2.525836,3.275382,1.572103,3.357419,0.000000,0.000000,-0.000000,-0.000000,-0.000000,0.000000,0.342038,-1.838259,-0.740648,-0.166152,-0.036122,-0.017180,0.000000,-2.260956,-0.418505,-0.238801,-0.000098,0.000000,0.086285,-0.363181,0.250115,-0.000022,0.000025,-3.053746,0.000000,0.000000,0.000000,0.000000,0.000000,0.000000,-4.222872,3.554717,0.430943,-0.055924,0.072108,0.052530,0.086290,-0.363187,0.250113,0.000000,-0.000000,-3.053753,0.000000,0.000000,0.000000,0.000000,0.000000,0.000000,0,28.375000,29.187500,27.625000,31.750000,35.000000,36.187500,0.660948,7,253,253,253,253,253,253,1,0.153229,0.210690,9.500193,0.000000,1.000000,0.000000,47.555233,47.604488,0.654613,47.498932,47.455936,47.541931,47.513268,47.369938,47.427269,0,1,-0.000000,-0.000000,0.004000,0.004000,1,1,-648.169386,148.879619,19379.400872,-33.661797,-11.279427,33.977555,0.000002,0.000002,0.000002,0.000000,0.000000,0.000000,0,0,0,0,0,0,0,0,0,0.000000,0.000000,0.000000,0.000000,0.000000,0.000000,0.000000,0.000000
241390.288000,1.437494,-1.089114,2.525809,3.275377,1.572121,3.357390,0.000000,0.000000,0.000000,0.000000,0.000000,0.000000,0.000000,0.000000,0.000000,0.000000,0.000000,0.000000,-0.000000,-2.260957,-0.418506,-0.238802,-0.000096,0.000000,-0.000000,-23.522964,-4.324325,-1.846380,-0.000759,0.000000,1.437506,-1.089106,2.525781,3.275335,1.572111,3.357402,0.000000,0.000000,-0.000000,-0.000000,-0.000000,0.000000,0.338129,-1.851249,-0.724825,-0.179351,-0.056206,-0.020752,-0.000000,-2.260957,-0.418506,-0.238802,-0.000096,0.000000,0.086295,-0.363191,0.250119,-0.000031,-0.000090,-3.053728,0.000000,0.000000,0.000000,0.000000,0.000000,0.000000,-4.225925,3.680097,0.457314,-0.053309,0.072489,0.049373,0.086290,-0.363187,0.250113,0.000000,-0.000000,-3.053753,0.000000,0.000000,0.000000,0.000000,0.000000,0.000000,0,28.375000,29.187500,27.625000,31.750000,35.000000,36.187500,0.666060,7,253,253,253,253,253,253,1,0.172383,0.114922,9.404425,0.000000,1.000000,0.000000,47.571350,47.609863,0.598664,47.527599,47.498932,47.556267,47.541931,47.384270,47.455936,0,1,-0.000000,-0.000000,0.004000,0.004000,1,1,-648.177434,148.754240,19379.427508,-33.664440,-11.279574,33.974403,0.000002,0.000002,0.000002,0.000000,0.000000,0.000000,0,0,0,0,0,0,0,0,0,0.000000,0.000000,0.000000,0.000000,0.000000,0.000000,0.000000,0.000000
241390.290000,1.437494,-1.089114,2.525809,3.275377,1.572121,3.357390,0.000000,0.000000,0.000000,0.000000,0.000000,0.000000,0.000000,0.000000,0.000000,0.000000,0.000000,0.000000,0.000000,-2.261093,-0.418553,-0.238797,-0.000097,0.000000,0.000000,-23.524386,-4.324813,-1.846336,-0.000764,0.000000,1.437452,-1.089173,2.525801,3.275373,1.572120,3.357385,0.000000,0.000000,-0.000000,-0.000000,-0.000000,0.000000,0.340094,-1.868392,-0.725619,-0.186015,-0.042708,-0.033633,0.000000,-2.261093,-0.418553,-0.238797,-0.000097,0.000000,0.086276,-0.363188,0.250136,-0.000021,-0.000108,-3.053798,0.000000,0.000000,0.000000,0.000000,0.000000,0.000000,-4.270844,3.687888,0.563335,-0.055984,0.070083,0.054143,0.086290,-0.363187,0.250113,0.000000,-0.000000,-3.053753,0.000000,0.000000,0.000000,0.000000,0.000000,0.000000,0,28.375000,29.187500,27.625000,31.750000,35.000000,36.187500,0.665436,7,253,253,253,253,253,253,1,0.229843,0.248997,9.385271,0.000000,1.000000,0.000000,47.562393,47.616131,0.625520,47.513268,47.412937,47.541931,47.556267,47.341274,47.384270,0,1,-0.000000,-0.000000,0.004000,0.004000,1,1,-648.133073,148.742798,19379.533603,-33.661559,-11.277407,33.979175,0.000002,0.000002,0.000002,0.000000,0.000000,0.000000,0,0,0,0,0,0,0,0,0,0.000000,0.000000,0.000000,0.000000,0.000000,0.000000,0.000000,0.000000
241390.292000,1.437494,-1.089114,2.525809,3.275377,1.572121,3.357390,0.000000,0.000000,0.000000,0.000000,0.000000,0.000000,0.000000,0.000000,0.000000,0.000000,0.000000,0.000000,0.000000,-2.260940,-0.418637,-0.238796,-0.000098,0.000000,0.000000,-23.522786,-4.325683,-1.846330,-0.000769,0.000000,1.437473,-1.089197,2.525790,3.275401,1.572137,3.357402,0.000000,0.000000,-0.000000,-0.000000,-0.000000,0.000000,0.317811,-1.898354,-0.750305,-0.174887,-0.056265,-0.041440,0.000000,-2.260940,-0.418637,-0.238796,-0.000098,0.000000,0.086281,-0.363189,0.250143,0.000003,-0.000122,-3.053761,0.000000,0.000000,0.000000,0.000000,0.000000,0.000000,-4.089650,3.727458,0.460019,-0.054374,0.071671,0.054116,0.086290,-0.363187,0.250113,0.000000,-0.000000,-3.053753,0.000000,0.000000,0.000000,0.000000,0.000000,0.000000,0,28.375000,29.187500,27.625000,31.750000,35.000000,36.187500,0.655321,7,253,253,253,253,253,253,1,0.210690,0.153229,9.557653,0.000000,1.000000,0.000000,47.540901,47.576725,0.634469,47.541931,47.441601,47.570599,47.541931,47.398605,47.412937,0,1,-0.000000,-0.000000,0.004000,0.004000,1,1,-648.317162,148.719103,19379.430387,-33.663307,-11.278850,33.979149,0.000002,0.000002,0.000002,0.000000,0.000000,0.000000,0,0,0,0,0,0,0,0,0,0.000000,0.000000,0.000000,0.000000,0.000000,0.000000,0.000000,0.000000
241390.294000,1.437494,-1.089114,2.525809,3.275377,1.572121,3.357390,0.000000,0.000000,0.000000,0.000000,0.000000,0.000000,0.000000,0.000000,0.000000,0.000000,0.000000,0.000000,-0.000000,-2.260916,-0.418698,-0.238796,-0.000099,0.000000,-0.000000,-23.522536,-4.326312,-1.846327,-0.000779,0.000000,1.437485,-1.089192,2.525785,3.275398,1.572120,3.357415,0.000000,0.000000,-0.000000,-0.000000,-0.000000,0.000000,0.309827,-1.851937,-0.745188,-0.184838,-0.032473,-0.034367,-0.000000,-2.260916,-0.418698,-0.238796,-0.000099,0.000000,0.086287,-0.363190,0.250143,-0.000024,-0.000123,-3.053736,0.000000,0.000000,0.000000,0.000000,0.000000,0.000000,-4.235867,3.792141,0.429583,-0.049399,0.074744,0.053401,0.086290,-0.363187,0.250113,0.000000,-0.000000,-3.053753,0.000000,0.000000,0.000000,0.000000,0.000000,0.000000,0,28.375000,29.187500,27.625000,31.750000,35.000000,36.187500,0.669469,7,253,253,253,253,253,253,1,0.172383,0.114922,9.481039,0.000000,1.000000,0.000000,47.519409,47.581200,0.632233,47.498932,47.441601,47.556267,47.527599,47.341274,47.398605,0,1,-0.000000,-0.000000,0.004000,0.004000,1,1,-648.177324,148.641741,19379.399890,-33.668533,-11.281475,33.978433,0.000002,0.000002,0.000002,0.000000,0.000000,0.000000,0,0,0,0,0,0,0,0,0,0.000000,0.000000,0.000000,0.000000,0.000000,0.000000,0.000000,0.000000
241390.296000,1.437494,-1.089114,2.525809,3.275377,1.572121,3.357390,0.000000,0.000000,0.000000,0.000000,0.000000,0.000000,0.000000,0.000000,0.000000,0.000000,0.000000,0.000000,0.000000,-2.260932,-0.418699,-0.238795,-0.000098,0.000000,0.000000,-23.522712,-4.326324,-1.846324,-0.000769,0.000000,1.437448,-1.089097,2.525819,3.275361,1.572124,3.357399,0.000000,0.000000,-0.000000,-0.000000,-0.000000,0.000000,0.305666,-1.896394,-0.762913,-0.175586,-0.058481,-0.037669,0.000000,-2.260932,-0.418699,-0.238795,-0.000098,0.000000,0.086273,-0.363188,0.250108,0.000008,0.000014,-3.053790,0.000000,0.000000,0.000000,0.000000,0.000000,0.000000,-4.294403,3.777520,0.593764,-0.051927,0.073112,0.054940,0.086290,-0.363187,0.250113,0.000000,-0.000000,-3.053753,0.000000,0.000000,0.000000,0.000000,0.000000,0.000000,0,28.375000,29.187500,27.625000,31.750000,35.000000,36.187500,0.659449,7,253,253,253,253,253,253,1,0.172383,0.191536,9.519346,0.000000,1.000000,0.000000,47.533737,47.594635,0.647900,47.484600,47.398605,47.541931,47.513268,47.341274,47.398605,0,1,-0.000000,-0.000000,0.004000,0.004000,1,1,-648.117459,148.651557,19379.563800,-33.665865,-11.280075,33.979967,0.000002,0.000002,0.000002,0.000000,0.000000,0.000000,0,0,0,0,0,0,0,0,0,0.000000,0.000000,0.000000,0.000000,0.000000,0.000000,0.000000,0.000000
241390.298000,1.437494,-1.089114,2.525809,3.275377,1.572121,3.357390,0.000000,0.000000,0.000000,0.000000,0.000000,0.000000,0.000000,0.000000,0.000000,0.000000,0.000000,0.000000,-0.000000,-2.261047,-0.418475,-0.238802,-0.000098,0.000000,-0.000000,-23.523903,-4.324003,-1.846378,-0.000771,0.000000,1.437443,-1.089155,2.525798,3.275356,1.572103,3.357383,0.000000,0.000000,-0.000000,-0.000000,-0.000000,0.000000,0.335632,-1.849232,-0.712609,-0.182293,-0.050688,-0.025722,-0.000000,-2.261047,-0.418475,-0.238802,-0.000098,0.000000,0.086274,-0.363189,0.250132,-0.000045,-0.000105,-3.053810,0.000000,0.000000,0.000000,0.000000,0.000000,0.000000,-3.994675,3.769709,0.565192,-0.053206,0.068388,0.054207,0.086290,-0.363187,0.250113,0.000000,-0.000000,-3.053753,0.000000,0.000000,0.000000,0.000000,0.000000,0.000000,0,28.375000,29.187500,27.625000,31.750000,35.000000,36.187500,0.655476,7,253,253,253,253,253,253,1,0.191536,0.114922,9.557653,0.000000,1.000000,0.000000,47.544483,47.602695,0.623279,47.498932,47.384270,47.513268,47.527599,47.326939,47.384270,0,1,-0.000000,-0.000000,0.004000,0.004000,1,1,-648.415333,148.685555,19379.535400,-33.664176,-11.275474,33.979237,0.000002,0.000002,0.000002,0.000000,0.000000,0.000000,0,0,0,0,0,0,0,0,0,0.000000,0.000000,0.000000,0.000000,0.000000,0.000000,0.000000,0.000000
241390.300000,1.437494,-1.089114,2.525809,3.275377,1.572121,3.357390,0.000000,0.000000,0.000000,0.000000,0.000000,0.000000,0.000000,0.000000,0.000000,0.000000,0.000000,0.000000,-0.000000,-2.260975,-0.418610,-0.238796,-0.000096,0.000000,-0.000000,-23.523156,-4.325399,-1.846330,-0.000759,0.000000,1.437509,-1.089218,2.525840,3.275409,1.572174,3.357414,0.000000,0.000000,-0.000000,-0.000000,-0.000000,0.000000,0.340909,-1.867835,-0.741127,-0.183106,-0.052557,-0.039572,-0.000000,-2.260975,-0.418610,-0.238796,-0.000096,0.000000,0.086292,-0.363171,0.250142,0.000069,-0.000077,-3.053713,0.000000,0.000000,0.000000,0.000000,0.000000,0.000000,-3.983740,3.669597,0.538294,-0.053655,0.068079,0.051335,0.086290,-0.363187,0.250113,0.000000,-0.000000,-3.053753,0.000000,0.000000,0.000000,0.000000,0.000000,0.000000,0,28.375000,29.187500,27.625000,31.750000,35.000000,36.187500,0.656040,7,253,253,253,253,253,253,1,0.210690,0.095768,9.557653,0.000000,1.000000,0.000000,47.518509,47.588367,0.632233,47.484600,47.412937,47.541931,47.484600,47.355606,47.398605,0,1,-0.000000,-0.000000,0.004000,0.004000,1,1,-648.417699,148.785913,19379.508708,-33.663713,-11.275214,33.976368,0.000002,0.000002,0.000002,0.000000,0.000000,0.000000,0,0,0,0,0,0,0,0,0,0.000000,0.000000,0.000000,0.000000,0.000000,0.000000,0.000000,0.000000
241390.302000,1.437494,-1.089114,2.525809,3.275377,1.572121,3.357390,0.000000,0.000000,0.000000,0.000000,0.000000,0.000000,0.000000,0.000000,0.000000,0.000000,0.000000,0.000000,-0.000000,-2.260793,-0.418649,-0.238798,-0.000102,0.000000,-0.000000,-23.521264,-4.325804,-1.846348,-0.000800,0.000000,1.437464,-1.089127,2.525810,3.275434,1.572141,3.357369,0.000000,0.000000,-0.000000,-0.000000,-0.000000,0.000000,0.365697,-1.866905,-0.752828,-0.195277,-0.050382,-0.030126,-0.000000,-2.260793,-0.418649,-0.238798,-0.000102,0.000000,0.086277,-0.363194,0.250112,0.000043,0.000062,-3.053803,0.000000,0.000000,0.000000,0.000000,0.000000,0.000000,-4.051629,3.722012,0.480920,-0.052638,0.068616,0.056438,0.086290,-0.363187,0.250113,0.000000,-0.000000,-3.053753,0.000000,0.000000,0.000000,0.000000,0.000000,0.000000,0,28.375000,29.187500,27.625000,31.750000,35.000000,36.187500,0.653940,7,253,253,253,253,253,253,1,0.229843,0.134075,9.423578,0.000000,1.000000,0.000000,47.533737,47.574039,0.585233,47.498932,47.427269,47.541931,47.498932,47.326939,47.398605,0,1,-0.000000,-0.000000,0.004000,0.004000,1,1,-648.354330,148.728248,19379.450920,-33.664762,-11.275661,33.981464,0.000002,0.000002,0.000002,0.000000,0.000000,0.000000,0,0,0,0,0,0,0,0,0,0.000000,0.000000,0.000000,0.000000,0.000000,0.000000,0.000000,0.000000
241390.304000,1.437494,-1.089114,2.525809,3.275377,1.572121,3.357390,0.000000,0.000000,0.000000,0.000000,0.000000,0.000000,0.000000,0.000000,0.000000,0.000000,0.000000,0.000000,0.000000,-2.261012,-0.418546,-0.238805,-0.000099,0.000000,0.000000,-23.523537,-4.324735,-1.846398,-0.000781,0.000000,1.437539,-1.089156,2.525810,3.275326,1.572124,3.357411,0.000000,0.000000,-0.000000,-0.000000,-0.000000,0.000000,0.335663,-1.875325,-0.734658,-0.184837,-0.052149,-0.032104,0.000000,-2.261012,-0.418546,-0.238805,-0.000099,0.000000,0.086307,-0.363174,0.250133,-0.000019,-0.000141,-3.053686,0.000000,0.000000,0.000000,0.000000,0.000000,0.000000,-4.112321,3.876551,0.426557,-0.046513,0.072041,0.050312,0.086290,-0.363187,0.250113,0.000000,-0.000000,-3.053753,0.000000,0.000000,0.000000,0.000000,0.000000,0.000000,0,28.375000,29.187500,27.625000,31.750000,35.000000,36.187500,0.644184,7,253,253,253,253,253,253,1,0.191536,0.114922,9.423578,0.000000,1.000000,0.000000,47.566872,47.608967,0.681469,47.513268,47.455936,47.541931,47.599262,47.369938,47.427269,0,1,-0.000000,-0.000000,0.004000,0.004000,1,1,-648.308003,148.568288,19379.396930,-33.671175,-11.278532,33.975346,0.000002,0.000002,0.000002,0.000000,0.000000,0.000000,0,0,0,0,0,0,0,0,0,0.000000,0.000000,0.000000,0.000000,0.000000,0.000000,0.000000,0.000000
241390.306000,1.437494,-1.089114,2.525809,3.275377,1.572121,3.357390,0.000000,0.000000,0.000000,0.000000,0.000000,0.000000,0.000000,0.000000,0.000000,0.000000,0.000000,0.000000,-0.000000,-2.260952,-0.418591,-0.238794,-0.000098,0.000000,-0.000000,-23.522911,-4.325201,-1.846318,-0.000771,0.000000,1.437497,-1.089147,2.525840,3.275364,1.572115,3.357377,0.000000,0.000000,-0.000000,-0.000000,-0.000000,0.000000,0.310353,-1.904593,-0.755193,-0.180895,-0.049157,-0.018438,-0.000000,-2.260952,-0.418591,-0.238794,-0.000098,0.000000,0.086294,-0.363174,0.250122,-0.000013,-0.000024,-3.053762,0.000000,0.000000,0.000000,0.000000,0.000000,0.000000,-3.980419,3.837301,0.411600,-0.047137,0.066691,0.054730,0.086290,-0.363187,0.250113,0.000000,-0.000000,-3.053753,0.000000,0.000000,0.000000,0.000000,0.000000,0.000000,0,28.375000,29.187500,27.625000,31.750000,35.000000,36.187500,0.664308,7,253,253,253,253,253,253,1,0.191536,0.191536,9.461885,0.000000,1.000000,0.000000,47.574039,47.612545,0.652371,47.541931,47.441601,47.541931,47.541931,47.355606,47.427269,0,1,-0.000000,-0.000000,0.004000,0.004000,1,1,-648.435617,148.619394,19379.381680,-33.670076,-11.273257,33.979758,0.000002,0.000002,0.000002,0.000000,0.000000,0.000000,0,0,0,0,0,0,0,0,0,0.000000,0.000000,0.000000,0.000000,0.000000,0.000000,0.000000,0.000000
241390.308000,1.437494,-1.089114,2.525809,3.275377,1.572121,3.357390,0.000000,0.000000,0.000000,0.000000,0.000000,0.000000,0.000000,0.000000,0.000000,0.000000,0.000000,0.000000,0.000000,-2.260919,-0.418526,-0.238800,-0.000097,0.000000,0.000000,-23.522568,-4.324529,-1.846362,-0.000766,0.000000,1.437455,-1.089156,2.525827,3.275380,1.572099,3.357406,0.000000,0.000000,-0.000000,-0.000000,-0.000000,0.000000,0.358299,-1.870847,-0.740308,-0.183000,-0.060326,-0.031197,0.000000,-2.260919,-0.418526,-0.238800,-0.000097,0.000000,0.086279,-0.363182,0.250125,-0.000039,-0.000028,-3.053775,0.000000,0.000000,0.000000,0.000000,0.000000,0.000000,-4.126232,3.677803,0.559639,-0.052185,0.070608,0.051887,0.086290,-0.363187,0.250113,0.000000,-0.000000,-3.053753,0.000000,0.000000,0.000000,0.000000,0.000000,0.000000,0,28.375000,29.187500,27.625000,31.750000,35.000000,36.187500,0.656280,7,253,253,253,253,253,253,1,0.248997,0.076614,9.404425,0.000000,1.000000,0.000000,47.522095,47.580307,0.629992,47.498932,47.441601,47.541931,47.484600,47.312607,47.412937,0,1,-0.000000,-0.000000,0.004000,0.004000,1,1,-648.276357,148.765531,19379.529658,-33.665389,-11.277601,33.976914,0.000002,0.000002,0.000002,0.000000,0.000000,0.000000,0,0,0,0,0,0,0,0,0,0.000000,0.000000,0.000000,0.000000,0.000000,0.000000,0.000000,0.000000
241390.310000,1.437494,-1.089114,2.525809,3.275377,1.572121,3.357390,0.000000,0.000000,0.000000,0.000000,0.000000,0.000000,0.000000,0.000000,0.000000,0.000000,0.000000,0.000000,-0.000000,-2.260926,-0.418565,-0.238800,-0.000096,0.000000,-0.000000,-23.522645,-4.324935,-1.846359,-0.000757,0.000000,1.437514,-1.089164,2.525795,3.275368,1.572111,3.357366,0.000000,0.000000,-0.000000,-0.000000,-0.000000,0.000000,0.366540,-1.888221,-0.764369,-0.191502,-0.043911,-0.019943,-0.000000,-2.260926,-0.418565,-0.238800,-0.000096,0.000000,0.086298,-0.363185,0.250134,-0.000035,-0.000108,-3.053757,0.000000,0.000000,0.000000,0.000000,0.000000,0.000000,-4.183134,3.837282,0.529418,-0.049498,0.072190,0.053155,0.086290,-0.363187,0.250113,0.000000,-0.000000,-3.053753,0.000000,0.000000,0.000000,0.000000,0.000000,0.000000,0,28.375000,29.187500,27.625000,31.750000,35.000000,36.187500,0.656737,7,253,253,253,253,253,253,1,0.248997,0.076614,9.481039,0.000000,1.000000,0.000000,47.553440,47.588367,0.647900,47.498932,47.427269,47.556267,47.556267,47.355606,47.398605,0,1,-0.000000,-0.000000,0.004000,0.004000,1,1,-648.233737,148.601509,19379.499660,-33.668208,-11.278939,33.978187,0.000002,0.000002,0.000002,0.000000,0.000000,0.000000,0,0,0,0,0,0,0,0,0,0.000000,0.000000,0.000000,0.000000,0.000000,0.000000,0.000000,0.000000
241390.312000,1.437494,-1.089114,2.525809,3.275377,1.572121,3.357390,0.000000,0.000000,0.000000,0.000000,0.000000,0.000000,0.000000,0.000000,0.000000,0.000000,0.000000,0.000000,0.000000,-2.260966,-0.418632,-0.238796,-0.000097,0.000000,0.000000,-23.523059,-4.325627,-1.846329,-0.000764,0.000000,1.437457,-1.089144,2.525801,3.275385,1.572099,3.357415,0.000000,0.000000,-0.000000,-0.000000,-0.000000,0.000000,0.336592,-1.873765,-0.709170,-0.200139,-0.057083,-0.024105,0.000000,-2.260966,-0.418632,-0.238796,-0.000097,0.000000,0.086279,-0.363191,0.250125,-0.000041,-0.000042,-3.053764,0.000000,0.000000,0.000000,0.000000,0.000000,0.000000,-4.076485,3.588568,0.531441,-0.055248,0.070681,0.052003,0.086290,-0.363187,0.250113,0.000000,-0.000000,-3.053753,0.000000,0.000000,0.000000,0.000000,0.000000,0.000000,0,28.375000,29.187500,27.625000,31.750000,35.000000,36.187500,0.644485,7,253,253,253,253,253,253,1,0.172383,0.057461,9.442732,0.000000,1.000000,0.000000,47.540005,47.597324,0.607612,47.527599,47.441601,47.541931,47.556267,47.384270,47.412937,0,1,-0.000000,-0.000000,0.004000,0.004000,1,1,-648.318132,148.858728,19379.501488,-33.662346,-11.277943,33.977031,0.000002,0.000002,0.000002,0.000000,0.000000,0.000000,0,0,0,0,0,0,0,0,0,0.000000,0.000000,0.000000,0.000000,0.000000,0.000000,0.000000,0.000000
241390.314000,1.437494,-1.089114,2.525809,3.275377,1.572121,3.357390,0.000000,0.000000,0.000000,0.000000,0.000000,0.000000,0.000000,0.000000,0.000000,0.000000,0.000000,0.000000,-0.000000,-2.260992,-0.418589,-0.238799,-0.000096,0.000000,-0.000000,-23.523330,-4.325185,-1.846353,-0.000757,0.000000,1.437452,-1.089134,2.525831,3.275364,1.572148,3.357419,0.000000,0.000000,-0.000000,-0.000000,-0.000000,0.000000,0.288919,-1.828051,-0.731314,-0.178932,-0.045827,-0.029410,-0.000000,-2.260992,-0.418589,-0.238799,-0.000096,0.000000,0.086274,-0.363181,0.250119,0.000039,-0.000026,-3.053765,0.000000,0.000000,0.000000,0.000000,0.000000,0.000000,-4.173801,3.839804,0.380228,-0.049829,0.071535,0.053580,0.086290,-0.363187,0.250113,0.000000,-0.000000,-3.053753,0.000000,0.000000,0.000000,0.000000,0.000000,0.000000,0,28.375000,29.187500,27.625000,31.750000,35.000000,36.187500,0.646777,7,253,253,253,253,253,253,1,0.191536,0.134075,9.442732,0.000000,1.000000,0.000000,47.518509,47.561501,0.679228,47.527599,47.427269,47.541931,47.513268,47.341274,47.398605,0,1,-0.000000,-0.000000,0.004000,0.004000,1,1,-648.243120,148.599942,19379.350447,-33.667821,-11.278320,33.978609,0.000002,0.000002,0.000002,0.000000,0.000000,0.000000,0,0,0,0,0,0,0,0,0,0.000000,0.000000,0.000000,0.000000,0.000000,0.000000,0.000000,0.000000
241390.316000,1.437494,-1.089114,2.525809,3.275377,1.572121,3.357390,0.000000,0.000000,0.000000,0.000000,0.000000,0.000000,0.000000,0.000000,0.000000,0.000000,0.000000,0.000000,-0.000000,-2.260958,-0.418518,-0.238801,-0.000100,0.000000,-0.000000,-23.522977,-4.324449,-1.846365,-0.000786,0.000000,1.437457,-1.089085,2.525831,3.275361,1.572146,3.357423,0.000000,0.000000,-0.000000,-0.000000,-0.000000,0.000000,0.333679,-1.885626,-0.744565,-0.193959,-0.047983,-0.033202,-0.000000,-2.260958,-0.418518,-0.238801,-0.000100,0.000000,0.086275,-0.363185,0.250102,0.000047,0.000045,-3.053757,0.000000,0.000000,0.000000,0.000000,0.000000,0.000000,-4.274843,3.944491,0.368202,-0.045913,0.073990,0.054609,0.086290,-0.363187,0.250113,0.000000,-0.000000,-3.053753,0.000000,0.000000,0.000000,0.000000,0.000000,0.000000,0,28.375000,29.187500,27.625000,31.750000,35.000000,36.187500,0.645876,7,253,253,253,253,253,253,1,0.191536,0.172383,9.557653,0.000000,1.000000,0.000000,47.509556,47.559711,0.681469,47.470268,47.427269,47.541931,47.484600,47.355606,47.312607,0,1,-0.000000,-0.000000,0.004000,0.004000,1,1,-648.151672,148.486855,19379.338257,-33.671937,-11.280426,33.979635,0.000002,0.000002,0.000002,0.000000,0.000000,0.000000,0,0,0,0,0,0,0,0,0,0.000000,0.000000,0.000000,0.000000,0.000000,0.000000,0.000000,0.000000
241390.318000,1.437494,-1.089114,2.525809,3.275377,1.572121,3.357390,0.000000,0.000000,0.000000,0.000000,0.000000,0.000000,0.000000,0.000000,0.000000,0.000000,0.000000,0.000000,0.000000,-2.261048,-0.418433,-0.238804,-0.000099,0.000000,0.000000,-23.523911,-4.323569,-1.846392,-0.000784,0.000000,1.437494,-1.089176,2.525798,3.275385,1.572111,3.357465,0.000000,0.000000,-0.000000,-0.000000,-0.000000,0.000000,0.319370,-1.875125,-0.737922,-0.204000,-0.053867,-0.018402,0.000000,-2.261048,-0.418433,-0.238804,-0.000099,0.000000,0.086292,-0.363186,0.250136,-0.000033,-0.000096,-3.053677,0.000000,0.000000,0.000000,0.000000,0.000000,0.000000,-4.113994,3.762931,0.721870,-0.050639,0.070705,0.056227,0.086290,-0.363187,0.250113,0.000000,-0.000000,-3.053753,0.000000,0.000000,0.000000,0.000000,0.000000,0.000000,0,28.375000,29.187500,27.625000,31.750000,35.000000,36.187500,0.648552,7,253,253,253,253,253,253,1,0.210690,0.229843,9.672575,0.000000,1.000000,0.000000,47.519409,47.555233,0.607612,47.455936,47.398605,47.513268,47.441601,47.326939,47.341274,0,1,-0.000000,-0.000000,0.004000,0.004000,1,1,-648.296406,148.681366,19379.692083,-33.666946,-11.277564,33.981258,0.000002,0.000002,0.000002,0.000000,0.000000,0.000000,0,0,0,0,0,0,0,0,0,0.000000,0.000000,0.000000,0.000000,0.000000,0.000000,0.000000,0.000000
241390.320000,1.437494,-1.089114,2.525809,3.275377,1.572121,3.357390,0.000000,0.000000,0.000000,0.000000,0.000000,0.000000,0.000000,0.000000,0.000000,0.000000,0.000000,0.000000,-0.000000,-2.260939,-0.418647,-0.238797,-0.000097,0.000000,-0.000000,-23.522779,-4.325785,-1.846334,-0.000764,0.000000,1.437472,-1.089147,2.525822,3.275364,1.572137,3.357393,0.000000,0.000000,-0.000000,-0.000000,-0.000000,0.000000,0.307427,-1.850785,-0.725930,-0.186942,-0.055190,-0.034868,-0.000000,-2.260939,-0.418647,-0.238797,-0.000097,0.000000,0.086282,-0.363181,0.250125,0.000015,-0.000056,-3.053771,0.000000,0.000000,0.000000,0.000000,0.000000,0.000000,-4.133495,3.590658,0.648768,-0.054968,0.072831,0.052220,0.086290,-0.363187,0.250113,0.000000,-0.000000,-3.053753,0.000000,0.000000,0.000000,0.000000,0.000000,0.000000,0,28.375000,29.187500,27.625000,31.750000,35.000000,36.187500,0.664788,7,253,253,253,253,253,253,1,0.287304,0.095768,9.500193,0.000000,1.000000,0.000000,47.493439,47.557919,0.627756,47.484600,47.341274,47.513268,47.556267,47.369938,47.412937,0,1,-0.000000,-0.000000,0.004000,0.004000,1,1,-648.261430,148.851657,19379.618995,-33.662815,-11.280060,33.977251,0.000002,0.000002,0.000002,0.000000,0.000000,0.000000,0,0,0,0,0,0,0,0,0,0.000000,0.000000,0.000000,0.000000,0.000000,0.000000,0.000000,0.000000
241390.322000,1.437494,-1.089114,2.525809,3.275377,1.572121,3.357390,0.000000,0.000000,0.000000,0.000000,0.000000,0.000000,0.000000,0.000000,0.000000,0.000000,0.000000,0.000000,0.000000,-2.260949,-0.418556,-0.238799,-0.000099,0.000000,0.000000,-23.522881,-4.324843,-1.846352,-0.000779,0.000000,1.437535,-1.089176,2.525819,3.275335,1.572153,3.357369,0.000000,0.000000,-0.000000,-0.000000,-0.000000,0.000000,0.317694,-1.850255,-0.738830,-0.198472,-0.039240,-0.024582,0.000000,-2.260949,-0.418556,-0.238799,-0.000099,0.000000,0.086303,-0.363171,0.250138,0.000024,-0.000151,-3.053732,0.000000,0.000000,0.000000,0.000000,0.000000,0.000000,-4.171463,3.475231,0.630283,-0.057331,0.073263,0.044047,0.086290,-0.363187,0.250113,0.000000,-0.000000,-3.053753,0.000000,0.000000,0.000000,0.000000,0.000000,0.000000,0,28.375000,29.187500,27.625000,31.750000,35.000000,36.187500,0.649284,7,253,253,253,253,253,253,1,0.248997,0.114922,9.557653,0.000000,1.000000,0.000000,47.537323,47.587475,0.659090,47.527599,47.455936,47.541931,47.556267,47.384270,47.427269,0,1,-0.000000,-0.000000,0.004000,0.004000,1,1,-648.213628,148.963049,19379.600755,-33.660504,-11.280698,33.969082,0.000002,0.000002,0.000002,0.000000,0.000000,0.000000,0,0,0,0,0,0,0,0,0,0.000000,0.000000,0.000000,0.000000,0.000000,0.000000,0.000000,0.000000
241390.324000,1.437494,-1.089114,2.525809,3.275377,1.572121,3.357390,0.000000,0.000000,0.000000,0.000000,0.000000,0.000000,0.000000,0.000000,0.000000,0.000000,0.000000,0.000000,-0.000000,-2.260902,-0.418610,-0.238794,-0.000100,0.000000,-0.000000,-23.522390,-4.325396,-1.846317,-0.000788,0.000000,1.437511,-1.089168,2.525868,3.275364,1.572120,3.357352,0.000000,0.000000,-0.000000,-0.000000,-0.000000,0.000000,0.341391,-1.874139,-0.736414,-0.194309,-0.050703,-0.036683,-0.000000,-2.260902,-0.418610,-0.238794,-0.000100,0.000000,0.086299,-0.363163,0.250125,-0.000004,-0.000014,-3.053773,0.000000,0.000000,0.000000,0.000000,0.000000,0.000000,-4.273428,3.766750,0.477569,-0.050971,0.071230,0.050819,0.086290,-0.363187,0.250113,0.000000,-0.000000,-3.053753,0.000000,0.000000,0.000000,0.000000,0.000000,0.000000,0,28.375000,29.187500,27.625000,31.750000,35.000000,36.187500,0.644124,7,253,253,253,253,253,253,1,0.191536,0.114922,9.557653,0.000000,1.000000,0.000000,47.518509,47.577621,0.603141,47.498932,47.427269,47.556267,47.556267,47.369938,47.398605,0,1,-0.000000,-0.000000,0.004000,0.004000,1,1,-648.137493,148.664025,19379.447644,-33.666655,-11.278116,33.975847,0.000002,0.000002,0.000002,0.000000,0.000000,0.000000,0,0,0,0,0,0,0,0,0,0.000000,0.000000,0.000000,0.000000,0.000000,0.000000,0.000000,0.000000
241390.326000,1.437494,-1.089114,2.525809,3.275377,1.572121,3.357390,0.000000,0.000000,0.000000,0.000000,0.000000,0.000000,0.000000,0.000000,0.000000,0.000000,0.000000,0.000000,0.000000,-2.260832,-0.418513,-0.238801,-0.000098,0.000000,0.000000,-23.521666,-4.324398,-1.846367,-0.000769,0.000000,1.437464,-1.089107,2.525875,3.275368,1.572112,3.357378,0.000000,0.000000,-0.000000,-0.000000,-0.000000,0.000000,0.364275,-1.863231,-0.730558,-0.188722,-0.035948,-0.041364,0.000000,-2.260832,-0.418513,-0.238801,-0.000098,0.000000,0.086283,-0.363171,0.250102,0.000005,0.000098,-3.053794,0.000000,0.000000,0.000000,0.000000,0.000000,0.000000,-4.377181,3.762189,0.469003,-0.051830,0.075012,0.054581,0.086290,-0.363187,0.250113,0.000000,-0.000000,-3.053753,0.000000,0.000000,0.000000,0.000000,0.000000,0.000000,0,28.375000,29.187500,27.625000,31.750000,35.000000,36.187500,0.645480,7,253,253,253,253,253,253,1,0.153229,0.191536,9.500193,0.000000,1.000000,0.000000,47.520306,47.582996,0.663561,47.470268,47.427269,47.527599,47.484600,47.384270,47.398605,0,1,-0.000000,-0.000000,0.004000,0.004000,1,1,-648.033636,148.659695,19379.438812,-33.666126,-11.281961,33.979603,0.000002,0.000002,0.000002,0.000000,0.000000,0.000000,0,0,0,0,0,0,0,0,0,0.000000,0.000000,0.000000,0.000000,0.000000,0.000000,0.000000,0.000000
241390.328000,1.437494,-1.089114,2.525809,3.275377,1.572121,3.357390,0.000000,0.000000,0.000000,0.000000,0.000000,0.000000,0.000000,0.000000,0.000000,0.000000,0.000000,0.000000,-0.000000,-2.260932,-0.418396,-0.238806,-0.000097,0.000000,-0.000000,-23.522709,-4.323185,-1.846409,-0.000765,0.000000,1.437494,-1.089159,2.525814,3.275389,1.572115,3.357411,0.000000,0.000000,-0.000000,-0.000000,-0.000000,0.000000,0.353178,-1.862452,-0.747344,-0.191283,-0.032143,-0.029034,-0.000000,-2.260932,-0.418396,-0.238806,-0.000097,0.000000,0.086291,-0.363183,0.250128,-0.000016,-0.000043,-3.053731,0.000000,0.000000,0.000000,0.000000,0.000000,0.000000,-4.083092,3.732838,0.669989,-0.050759,0.068472,0.054697,0.086290,-0.363187,0.250113,0.000000,-0.000000,-3.053753,0.000000,0.000000,0.000000,0.000000,0.000000,0.000000,0,28.375000,29.187500,27.625000,31.750000,35.000000,36.187500,0.645132,7,253,253,253,253,253,253,1,0.153229,0.134075,9.538500,0.000000,1.000000,0.000000,47.525677,47.570457,0.645659,47.527599,47.441601,47.527599,47.513268,47.355606,47.427269,0,1,-0.000000,-0.000000,0.004000,0.004000,1,1,-648.324307,148.714313,19379.640106,-33.666627,-11.275351,33.979725,0.000002,0.000002,0.000002,0.000000,0.000000,0.000000,0,0,0,0,0,0,0,0,0,0.000000,0.000000,0.000000,0.000000,0.000000,0.000000,0.000000,0.000000
241390.330000,1.437494,-1.089114,2.525809,3.275377,1.572121,3.357390,0.000000,0.000000,0.000000,0.000000,0.000000,0.000000,0.000000,0.000000,0.000000,0.000000,0.000000,0.000000,0.000000,-2.260942,-0.418592,-0.238799,-0.000097,0.000000,0.000000,-23.522812,-4.325217,-1.846355,-0.000766,0.000000,1.437475,-1.089164,2.525839,3.275380,1.572128,3.357406,0.000000,0.000000,-0.000000,-0.000000,-0.000000,0.000000,0.325878,-1.844108,-0.758902,-0.189477,-0.052078,-0.037494,0.000000,-2.260942,-0.418592,-0.238799,-0.000097,0.000000,0.086284,-0.363176,0.250126,0.000006,-0.000028,-3.053755,0.000000,0.000000,0.000000,0.000000,0.000000,0.000000,-4.213466,3.789245,0.668362,-0.050552,0.074037,0.055304,0.086290,-0.363187,0.250113,0.000000,-0.000000,-3.053753,0.000000,0.000000,0.000000,0.000000,0.000000,0.000000,0,28.375000,29.187500,27.625000,31.750000,35.000000,36.187500,0.648229,7,253,253,253,253,253,253,1,0.153229,0.191536,9.500193,0.000000,1.000000,0.000000,47.526573,47.582100,0.634469,47.513268,47.427269,47.541931,47.556267,47.298275,47.427269,0,1,-0.000000,-0.000000,0.004000,0.004000,1,1,-648.199260,148.646791,19379.638500,-33.667320,-11.280875,33.980333,0.000002,0.000002,0.000002,0.000000,0.000000,0.000000,0,0,0,0,0,0,0,0,0,0.000000,0.000000,0.000000,0.000000,0.000000,0.000000,0.000000,0.000000
241390.332000,1.437494,-1.089114,2.525809,3.275377,1.572121,3.357390,0.000000,0.000000,0.000000,0.000000,0.000000,0.000000,0.000000,0.000000,0.000000,0.000000,0.000000,0.000000,0.000000,-2.260891,-0.418557,-0.238800,-0.000098,0.000000,0.000000,-23.522281,-4.324850,-1.846362,-0.000774,0.000000,1.437490,-1.089159,2.525828,3.275364,1.572174,3.357448,0.000000,0.000000,-0.000000,-0.000000,-0.000000,0.000000,0.354331,-1.911482,-0.728225,-0.184177,-0.045537,-0.038847,0.000000,-2.260891,-0.418557,-0.238800,-0.000098,0.000000,0.086285,-0.363176,0.250128,0.000070,-0.000076,-3.053698,0.000000,0.000000,0.000000,0.000000,0.000000,0.000000,-4.127023,3.771701,0.647640,-0.050378,0.070759,0.053024,0.086290,-0.363187,0.250113,0.000000,-0.000000,-3.053753,0.000000,0.000000,0.000000,0.000000,0.000000,0.000000,0,28.375000,29.187500,27.625000,31.750000,35.000000,36.187500,0.644125,7,253,253,253,253,253,253,1,0.191536,0.095768,9.481039,0.000000,1.000000,0.000000,47.555233,47.594635,0.603141,47.498932,47.412937,47.541931,47.527599,47.341274,47.412937,0,1,-0.000000,-0.000000,0.004000,0.004000,1,1,-648.283996,148.671578,19379.618064,-33.667213,-11.277597,33.978057,0.000002,0.000002,0.000002,0.000000,0.000000,0.000000,0,0,0,0,0,0,0,0,0,0.000000,0.000000,0.000000,0.000000,0.000000,0.000000,0.000000,0.000000
241390.334000,1.437494,-1.089114,2.525809,3.275377,1.572121,3.357390,0.000000,0.000000,0.000000,0.000000,0.000000,0.000000,0.000000,0.000000,0.000000,0.000000,0.000000,0.000000,-0.000000,-2.260917,-0.418567,-0.238798,-0.000102,0.000000,-0.000000,-23.522555,-4.324960,-1.846348,-0.000800,0.000000,1.437514,-1.089081,2.525868,3.275410,1.572094,3.357381,0.000000,0.000000,-0.000000,-0.000000,-0.000000,0.000000,0.333295,-1.883241,-0.736509,-0.201204,-0.049261,-0.039357,-0.000000,-2.260917,-0.418567,-0.238798,-0.000102,0.000000,0.086301,-0.363175,0.250090,-0.000006,0.000194,-3.053741,0.000000,0.000000,0.000000,0.000000,0.000000,0.000000,-4.135285,3.796374,0.479301,-0.049429,0.070924,0.050274,0.086290,-0.363187,0.250113,0.000000,-0.000000,-3.053753,0.000000,0.000000,0.000000,0.000000,0.000000,0.000000,0,28.375000,29.187500,27.625000,31.750000,35.000000,36.187500,0.649992,7,253,253,253,253,253,253,1,0.191536,0.172383,9.442732,0.000000,1.000000,0.000000,47.530155,47.581200,0.652371,47.513268,47.427269,47.527599,47.513268,47.355606,47.398605,0,1,-0.000000,-0.000000,0.004000,0.004000,1,1,-648.277825,148.646774,19379.448830,-33.668160,-11.277684,33.975291,0.000002,0.000002,0.000002,0.000000,0.000000,0.000000,0,0,0,0,0,0,0,0,0,0.000000,0.000000,0.000000,0.000000,0.000000,0.000000,0.000000,0.000000
241390.336000,1.437494,-1.089114,2.525809,3.275377,1.572121,3.357390,0.000000,0.000000,0.000000,0.000000,0.000000,0.000000,0.000000,0.000000,0.000000,0.000000,0.000000,0.000000,-0.000000,-2.260993,-0.418366,-0.238811,-0.000096,0.000000,-0.000000,-23.523339,-4.322879,-1.846444,-0.000754,0.000000,1.437497,-1.089093,2.525840,3.275319,1.572112,3.357370,0.000000,0.000000,-0.000000,-0.000000,-0.000000,0.000000,0.299827,-1.879031,-0.746102,-0.180052,-0.060812,-0.037871,-0.000000,-2.260993,-0.418366,-0.238811,-0.000096,0.000000,0.086294,-0.363174,0.250108,-0.000014,-0.000009,-3.053769,0.000000,0.000000,0.000000,0.000000,0.000000,0.000000,-4.171408,3.762574,0.354095,-0.051492,0.072946,0.053090,0.086290,-0.363187,0.250113,0.000000,-0.000000,-3.053753,0.000000,0.000000,0.000000,0.000000,0.000000,0.000000,0,28.375000,29.187500,27.625000,31.750000,35.000000,36.187500,0.645768,7,253,253,253,253,253,253,1,0.268151,0.191536,9.481039,0.000000,1.000000,0.000000,47.542694,47.572247,0.612089,47.527599,47.412937,47.541931,47.513268,47.355606,47.412937,0,1,-0.000000,-0.000000,0.004000,0.004000,1,1,-648.238786,148.677122,19379.324130,-33.666285,-11.279870,33.978117,0.000002,0.000002,0.000002,0.000000,0.000000,0.000000,0,0,0,0,0,0,0,0,0,0.000000,0.000000,0.000000,0.000000,0.000000,0.000000,0.000000,0.000000
241390.338000,1.437494,-1.089114,2.525809,3.275377,1.572121,3.357390,0.000000,0.000000,0.000000,0.000000,0.000000,0.000000,0.000000,0.000000,0.000000,0.000000,0.000000,0.000000,-0.000000,-2.261014,-0.418430,-0.238801,-0.000097,0.000000,-0.000000,-23.523562,-4.323546,-1.846368,-0.000765,0.000000,1.437500,-1.089173,2.525831,3.275413,1.572150,3.357394,0.000000,0.000000,-0.000000,-0.000000,-0.000000,0.000000,0.318516,-1.863240,-0.764309,-0.177084,-0.061629,-0.029681,-0.000000,-2.261014,-0.418430,-0.238801,-0.000097,0.000000,0.086291,-0.363178,0.250127,0.000044,-0.000010,-3.053742,0.000000,0.000000,0.000000,0.000000,0.000000,0.000000,-4.341706,3.819596,0.454182,-0.049537,0.076462,0.058119,0.086290,-0.363187,0.250113,0.000000,-0.000000,-3.053753,0.000000,0.000000,0.000000,0.000000,0.000000,0.000000,0,28.375000,29.187500,27.625000,31.750000,35.000000,36.187500,0.649824,7,253,253,253,253,253,253,1,0.268151,0.210690,9.500193,0.000000,1.000000,0.000000,47.537323,47.593739,0.538238,47.484600,47.412937,47.513268,47.556267,47.341274,47.412937,0,1,-0.000000,-0.000000,0.004000,0.004000,1,1,-648.074183,148.605271,19379.424378,-33.668546,-11.283204,33.983148,0.000002,0.000002,0.000002,0.000000,0.000000,0.000000,0,0,0,0,0,0,0,0,0,0.000000,0.000000,0.000000,0.000000,0.000000,0.000000,0.000000,0.000000
241390.340000,1.437494,-1.089114,2.525809,3.275377,1.572121,3.357390,0.000000,0.000000,0.000000,0.000000,0.000000,0.000000,0.000000,0.000000,0.000000,0.000000,0.000000,0.000000,0.000000,-2.260890,-0.418587,-0.238801,-0.000100,0.000000,0.000000,-23.522271,-4.325168,-1.846371,-0.000787,0.000000,1.437497,-1.089171,2.525831,3.275401,1.572128,3.357352,0.000000,0.000000,-0.000000,-0.000000,-0.000000,0.000000,0.312497,-1.886710,-0.748612,-0.188198,-0.062977,-0.033229,0.000000,-2.260890,-0.418587,-0.238801,-0.000100,0.000000,0.086292,-0.363178,0.250128,0.000007,-0.000020,-3.053786,0.000000,0.000000,0.000000,0.000000,0.000000,0.000000,-4.073634,3.730957,0.367968,-0.053182,0.068525,0.050149,0.086290,-0.363187,0.250113,0.000000,-0.000000,-3.053753,0.000000,0.000000,0.000000,0.000000,0.000000,0.000000,0,28.375000,29.187500,27.625000,31.750000,35.000000,36.187500,0.645900,7,253,253,253,253,253,253,1,0.172383,0.248997,9.538500,0.000000,1.000000,0.000000,47.553440,47.589264,0.603141,47.498932,47.427269,47.513268,47.556267,47.341274,47.341274,0,1,-0.000000,-0.000000,0.004000,0.004000,1,1,-648.333309,148.717244,19379.338086,-33.664214,-11.275615,33.975177,0.000002,0.000002,0.000002,0.000000,0.000000,0.000000,0,0,0,0,0,0,0,0,0,0.000000,0.000000,0.000000,0.000000,0.000000,0.000000,0.000000,0.000000
241390.342000,1.437494,-1.089114,2.525809,3.275377,1.572121,3.357390,0.000000,0.000000,0.000000,0.000000,0.000000,0.000000,0.000000,0.000000,0.000000,0.000000,0.000000,0.000000,0.000000,-2.260892,-0.418584,-0.238801,-0.000098,0.000000,0.000000,-23.522293,-4.325134,-1.846365,-0.000774,0.000000,1.437448,-1.089159,2.525857,3.275397,1.572103,3.357341,0.000000,0.000000,-0.000000,-0.000000,-0.000000,0.000000,0.316998,-1.866218,-0.766669,-0.198137,-0.057789,-0.032128,0.000000,-2.260892,-0.418584,-0.238801,-0.000098,0.000000,0.086277,-0.363176,0.250120,-0.000020,0.000037,-3.053848,0.000000,0.000000,0.000000,0.000000,0.000000,0.000000,-4.185933,3.966389,0.500051,-0.046675,0.070422,0.052763,0.086290,-0.363187,0.250113,0.000000,-0.000000,-3.053753,0.000000,0.000000,0.000000,0.000000,0.000000,0.000000,0,28.375000,29.187500,27.625000,31.750000,35.000000,36.187500,0.653220,7,253,253,253,253,253,253,1,0.172383,0.191536,9.576807,0.000000,1.000000,0.000000,47.531944,47.588367,0.636710,47.513268,47.412937,47.527599,47.527599,47.341274,47.398605,0,1,-0.000000,-0.000000,0.004000,0.004000,1,1,-648.241855,148.473180,19379.469947,-33.670855,-11.276933,33.977788,0.000002,0.000002,0.000002,0.000000,0.000000,0.000000,0,0,0,0,0,0,0,0,0,0.000000,0.000000,0.000000,0.000000,0.000000,0.000000,0.000000,0.000000
241390.344000,1.437494,-1.089114,2.525809,3.275377,1.572121,3.357390,0.000000,0.000000,0.000000,0.000000,0.000000,0.000000,0.000000,0.000000,0.000000,0.000000,0.000000,0.000000,-0.000000,-2.260870,-0.418519,-0.238803,-0.000096,0.000000,-0.000000,-23.522057,-4.324462,-1.846385,-0.000759,0.000000,1.437461,-1.089164,2.525836,3.275406,1.572111,3.357378,0.000000,0.000000,-0.000000,-0.000000,-0.000000,0.000000,0.333572,-1.858704,-0.696075,-0.177133,-0.044796,-0.024326,-0.000000,-2.260870,-0.418519,-0.238803,-0.000096,0.000000,0.086281,-0.363181,0.250124,-0.000014,0.000010,-3.053797,0.000000,0.000000,0.000000,0.000000,0.000000,0.000000,-4.051813,3.690526,0.351474,-0.053671,0.071769,0.051680,0.086290,-0.363187,0.250113,0.000000,-0.000000,-3.053753,0.000000,0.000000,0.000000,0.000000,0.000000,0.000000,0,28.375000,29.187500,27.625000,31.750000,35.000000,36.187500,0.649524,7,253,253,253,253,253,253,1,0.248997,0.134075,9.500193,0.000000,1.000000,0.000000,47.527466,47.590157,0.654613,47.498932,47.427269,47.513268,47.527599,47.341274,47.341274,0,1,-0.000000,-0.000000,0.004000,0.004000,1,1,-648.351484,148.759513,19379.321463,-33.664008,-11.278889,33.976706,0.000002,0.000002,0.000002,0.000000,0.000000,0.000000,0,0,0,0,0,0,0,0,0,0.000000,0.000000,0.000000,0.000000,0.000000,0.000000,0.000000,0.000000
241390.346000,1.437494,-1.089114,2.525809,3.275377,1.572121,3.357390,0.000000,0.000000,0.000000,0.000000,0.000000,0.000000,0.000000,0.000000,0.000000,0.000000,0.000000,0.000000,0.000000,-2.260898,-0.418564,-0.238802,-0.000097,0.000000,0.000000,-23.522356,-4.324924,-1.846375,-0.000764,0.000000,1.437448,-1.089085,2.525822,3.275377,1.572153,3.357381,0.000000,0.000000,-0.000000,-0.000000,-0.000000,0.000000,0.358653,-1.855217,-0.723688,-0.191092,-0.048647,-0.035167,0.000000,-2.260898,-0.418564,-0.238802,-0.000097,0.000000,0.086270,-0.363189,0.250101,0.000060,0.000054,-3.053807,0.000000,0.000000,0.000000,0.000000,0.000000,0.000000,-4.135922,3.893269,0.289348,-0.047037,0.070179,0.051259,0.086290,-0.363187,0.250113,0.000000,-0.000000,-3.053753,0.000000,0.000000,0.000000,0.000000,0.000000,0.000000,0,28.375000,29.187500,27.625000,31.750000,35.000000,36.187500,0.654468,7,253,253,253,253,253,253,1,0.191536,0.191536,9.481039,0.000000,1.000000,0.000000,47.555233,47.602695,0.632233,47.498932,47.427269,47.498932,47.570599,47.355606,47.398605,0,1,-0.000000,-0.000000,0.004000,0.004000,1,1,-648.285328,148.550272,19379.259409,-33.670479,-11.276726,33.976285,0.000002,0.000002,0.000002,0.000000,0.000000,0.000000,0,0,0,0,0,0,0,0,0,0.000000,0.000000,0.000000,0.000000,0.000000,0.000000,0.000000,0.000000
241390.348000,1.437494,-1.089114,2.525809,3.275377,1.572121,3.357390,0.000000,0.000000,0.000000,0.000000,0.000000,0.000000,0.000000,0.000000,0.000000,0.000000,0.000000,0.000000,-0.000000,-2.261064,-0.418449,-0.238805,-0.000100,0.000000,-0.000000,-23.524077,-4.323735,-1.846396,-0.000788,0.000000,1.437464,-1.089123,2.525810,3.275431,1.572165,3.357336,0.000000,0.000000,-0.000000,-0.000000,-0.000000,0.000000,0.343377,-1.865018,-0.755133,-0.173760,-0.051702,-0.031278,-0.000000,-2.261064,-0.418449,-0.238805,-0.000100,0.000000,0.086274,-0.363193,0.250111,0.000078,0.000056,-3.053836,0.000000,0.000000,0.000000,0.000000,0.000000,0.000000,-4.095443,3.751588,0.401831,-0.051492,0.072277,0.052508,0.086290,-0.363187,0.250113,0.000000,-0.000000,-3.053753,0.000000,0.000000,0.000000,0.000000,0.000000,0.000000,0,28.375000,29.187500,27.625000,31.750000,35.000000,36.187500,0.654637,7,253,253,253,253,253,253,1,0.153229,0.114922,9.519346,0.000000,1.000000,0.000000,47.550755,47.609863,0.627756,47.513268,47.455936,47.541931,47.527599,47.384270,47.427269,0,1,-0.000000,-0.000000,0.004000,0.004000,1,1,-648.313093,148.695061,19379.371938,-33.666223,-11.279206,33.977535,0.000002,0.000002,0.000002,0.000000,0.000000,0.000000,0,0,0,0,0,0,0,0,0,0.000000,0.000000,0.000000,0.000000,0.000000,0.000000,0.000000,0.000000
241390.350000,1.437494,-1.089114,2.525809,3.275377,1.572121,3.357390,0.000000,0.000000,0.000000,0.000000,0.000000,0.000000,0.000000,0.000000,0.000000,0.000000,0.000000,0.000000,-0.000000,-2.261017,-0.418540,-0.238805,-0.000101,0.000000,-0.000000,-23.523595,-4.324677,-1.846398,-0.000795,0.000000,1.437490,-1.089156,2.525789,3.275368,1.572082,3.357348,0.000000,0.000000,-0.000000,-0.000000,-0.000000,0.000000,0.334011,-1.870501,-0.750105,-0.167416,-0.056768,-0.031328,-0.000000,-2.261017,-0.418540,-0.238805,-0.000101,0.000000,0.086292,-0.363189,0.250132,-0.000077,-0.000097,-3.053798,0.000000,0.000000,0.000000,0.000000,0.000000,0.000000,-4.089122,3.799074,0.455039,-0.048316,0.069773,0.053096,0.086290,-0.363187,0.250113,0.000000,-0.000000,-3.053753,0.000000,0.000000,0.000000,0.000000,0.000000,0.000000,0,28.375000,29.187500,27.625000,31.750000,35.000000,36.187500,0.686017,7,253,253,253,253,253,253,1,0.210690,0.057461,9.481039,0.000000,1.000000,0.000000,47.531048,47.574039,0.578520,47.513268,47.427269,47.527599,47.470268,47.355606,47.384270,0,1,-0.000000,-0.000000,0.004000,0.004000,1,1,-648.323917,148.647982,19379.425145,-33.669169,-11.276426,33.978126,0.000002,0.000002,0.000002,0.000000,0.000000,0.000000,0,0,0,0,0,0,0,0,0,0.000000,0.000000,0.000000,0.000000,0.000000,0.000000,0.000000,0.000000
241390.352000,1.437494,-1.089114,2.525809,3.275377,1.572121,3.357390,0.000000,0.000000,0.000000,0.000000,0.000000,0.000000,0.000000,0.000000,0.000000,0.000000,0.000000,0.000000,-0.000000,-2.260989,-0.418628,-0.238796,-0.000095,0.000000,-0.000000,-23.523300,-4.325590,-1.846330,-0.000747,0.000000,1.437457,-1.089134,2.525848,3.275430,1.572149,3.357385,0.000000,0.000000,-0.000000,-0.000000,-0.000000,0.000000,0.336026,-1.802361,-0.727927,-0.176897,-0.059813,-0.025942,-0.000000,-2.260989,-0.418628,-0.238796,-0.000095,0.000000,0.086275,-0.363182,0.250109,0.000061,0.000100,-3.053794,0.000000,0.000000,0.000000,0.000000,0.000000,0.000000,-4.149749,3.766322,0.384483,-0.052655,0.071302,0.056266,0.086290,-0.363187,0.250113,0.000000,-0.000000,-3.053753,0.000000,0.000000,0.000000,0.000000,0.000000,0.000000,0,28.375000,29.187500,27.625000,31.750000,35.000000,36.187500,0.664633,7,253,253,253,253,253,253,1,0.191536,0.095768,9.404425,0.000000,1.000000,0.000000,47.515827,47.568668,0.643423,47.455936,47.412937,47.513268,47.527599,47.326939,47.355606,0,1,-0.000000,-0.000000,0.004000,0.004000,1,1,-648.260479,148.675524,19379.354434,-33.664981,-11.278340,33.981290,0.000002,0.000002,0.000002,0.000000,0.000000,0.000000,0,0,0,0,0,0,0,0,0,0.000000,0.000000,0.000000,0.000000,0.000000,0.000000,0.000000,0.000000
241390.354000,1.437494,-1.089114,2.525809,3.275377,1.572121,3.357390,0.000000,0.000000,0.000000,0.000000,0.000000,0.000000,0.000000,0.000000,0.000000,0.000000,0.000000,0.000000,-0.000000,-2.260933,-0.418492,-0.238807,-0.000100,0.000000,-0.000000,-23.522715,-4.324186,-1.846413,-0.000786,0.000000,1.437490,-1.089147,2.525819,3.275430,1.572115,3.357423,0.000000,0.000000,-0.000000,-0.000000,-0.000000,0.000000,0.323955,-1.880303,-0.716618,-0.183346,-0.052156,-0.035036,-0.000000,-2.260933,-0.418492,-0.238807,-0.000100,0.000000,0.086289,-0.363187,0.250119,-0.000001,0.000044,-3.053723,0.000000,0.000000,0.000000,0.000000,0.000000,0.000000,-4.445474,3.545321,0.319868,-0.054110,0.078312,0.051181,0.086290,-0.363187,0.250113,0.000000,-0.000000,-3.053753,0.000000,0.000000,0.000000,0.000000,0.000000,0.000000,0,28.375000,29.187500,27.625000,31.750000,35.000000,36.187500,0.658860,7,253,253,253,253,253,253,1,0.153229,0.095768,9.461885,0.000000,1.000000,0.000000,47.555233,47.591949,0.607612,47.527599,47.470268,47.556267,47.584930,47.369938,47.384270,0,1,-0.000000,-0.000000,0.004000,0.004000,1,1,-647.946876,148.869385,19379.289807,-33.664151,-11.285450,33.976206,0.000002,0.000002,0.000002,0.000000,0.000000,0.000000,0,0,0,0,0,0,0,0,0,0.000000,0.000000,0.000000,0.000000,0.000000,0.000000,0.000000,0.000000
241390.356000,1.437494,-1.089114,2.525809,3.275377,1.572121,3.357390,0.000000,0.000000,0.000000,0.000000,0.000000,0.000000,0.000000,0.000000,0.000000,0.000000,0.000000,0.000000,0.000000,-2.260959,-0.418566,-0.238804,-0.000097,0.000000,0.000000,-23.522984,-4.324945,-1.846388,-0.000766,0.000000,1.437502,-1.089180,2.525798,3.275380,1.572120,3.357378,0.000000,0.000000,-0.000000,-0.000000,-0.000000,0.000000,0.344744,-1.849979,-0.750603,-0.192692,-0.060830,-0.030092,0.000000,-2.260959,-0.418566,-0.238804,-0.000097,0.000000,0.086293,-0.363184,0.250138,-0.000021,-0.000112,-3.053756,0.000000,0.000000,0.000000,0.000000,0.000000,0.000000,-4.275711,3.666468,0.355112,-0.053429,0.074032,0.049415,0.086290,-0.363187,0.250113,0.000000,-0.000000,-3.053753,0.000000,0.000000,0.000000,0.000000,0.000000,0.000000,0,28.375000,29.187500,27.625000,31.750000,35.000000,36.187500,0.655080,7,253,253,253,253,253,253,1,0.210690,0.038307,9.423578,0.000000,1.000000,0.000000,47.528366,47.598217,0.627756,47.513268,47.441601,47.541931,47.527599,47.341274,47.427269,0,1,-0.000000,-0.000000,0.004000,0.004000,1,1,-648.126520,148.763523,19379.325386,-33.664454,-11.281119,33.974447,0.000002,0.000002,0.000002,0.000000,0.000000,0.000000,0,0,0,0,0,0,0,0,0,0.000000,0.000000,0.000000,0.000000,0.000000,0.000000,0.000000,0.000000
241390.358000,1.437494,-1.089114,2.525809,3.275377,1.572121,3.357390,0.000000,0.000000,0.000000,0.000000,0.000000,0.000000,0.000000,0.000000,0.000000,0.000000,0.000000,0.000000,-0.000000,-2.260931,-0.418655,-0.238796,-0.000098,0.000000,-0.000000,-23.522693,-4.325861,-1.846329,-0.000769,0.000000,1.437523,-1.089143,2.525777,3.275352,1.572111,3.357361,0.000000,0.000000,-0.000000,-0.000000,-0.000000,0.000000,0.331307,-1.824435,-0.736394,-0.181668,-0.057369,-0.031754,-0.000000,-2.260931,-0.418655,-0.238796,-0.000098,0.000000,0.086301,-0.363189,0.250131,-0.000038,-0.000128,-3.053752,0.000000,0.000000,0.000000,0.000000,0.000000,0.000000,-4.127375,3.739318,0.495530,-0.054375,0.069390,0.054490,0.086290,-0.363187,0.250113,0.000000,-0.000000,-3.053753,0.000000,0.000000,0.000000,0.000000,0.000000,0.000000,0,28.375000,29.187500,27.625000,31.750000,35.000000,36.187500,0.657948,7,253,253,253,253,253,253,1,0.248997,0.134075,9.481039,0.000000,1.000000,0.000000,47.515827,47.550755,0.625520,47.470268,47.384270,47.513268,47.541931,47.326939,47.369938,0,1,-0.000000,-0.000000,0.004000,0.004000,1,1,-648.280712,148.703941,19379.465809,-33.663105,-11.276577,33.979522,0.000002,0.000002,0.000002,0.000000,0.000000,0.000000,0,0,0,0,0,0,0,0,0,0.000000,0.000000,0.000000,0.000000,0.000000,0.000000,0.000000,0.000000
241390.360000,1.437494,-1.089114,2.525809,3.275377,1.572121,3.357390,0.000000,0.000000,0.000000,0.000000,0.000000,0.000000,0.000000,0.000000,0.000000,0.000000,0.000000,0.000000,0.000000,-2.261034,-0.418626,-0.238795,-0.000097,0.000000,0.000000,-23.523764,-4.325563,-1.846321,-0.000764,0.000000,1.437464,-1.089147,2.525831,3.275345,1.572120,3.357402,0.000000,0.000000,-0.000000,-0.000000,-0.000000,0.000000,0.348195,-1.858281,-0.719602,-0.187923,-0.046528,-0.033778,0.000000,-2.261034,-0.418626,-0.238795,-0.000097,0.000000,0.086281,-0.363177,0.250125,-0.000013,-0.000067,-3.053770,0.000000,0.000000,0.000000,0.000000,0.000000,0.000000,-4.158649,3.689011,0.654202,-0.050669,0.072980,0.055152,0.086290,-0.363187,0.250113,0.000000,-0.000000,-3.053753,0.000000,0.000000,0.000000,0.000000,0.000000,0.000000,0,28.375000,29.187500,27.625000,31.750000,35.000000,36.187500,0.654492,7,253,253,253,253,253,253,1,0.210690,0.114922,9.481039,0.000000,1.000000,0.000000,47.501499,47.554333,0.612089,47.484600,47.412937,47.498932,47.527599,47.341274,47.398605,0,1,-0.000000,-0.000000,0.004000,0.004000,1,1,-648.245036,148.751462,19379.624387,-33.667110,-11.279831,33.980182,0.000002,0.000002,0.000002,0.000000,0.000000,0.000000,0,0,0,0,0,0,0,0,0,0.000000,0.000000,0.000000,0.000000,0.000000,0.000000,0.000000,0.000000
241390.362000,1.437494,-1.089114,2.525809,3.275377,1.572121,3.357390,0.000000,0.000000,0.000000,0.000000,0.000000,0.000000,0.000000,0.000000,0.000000,0.000000,0.000000,0.000000,-0.000000,-2.260933,-0.418540,-0.238798,-0.000098,0.000000,-0.000000,-23.522713,-4.324675,-1.846346,-0.000769,0.000000,1.437482,-1.089155,2.525843,3.275347,1.572148,3.357423,0.000000,0.000000,-0.000000,-0.000000,-0.000000,0.000000,0.352540,-1.828890,-0.750840,-0.183867,-0.048165,-0.028308,-0.000000,-2.260933,-0.418540,-0.238798,-0.000098,0.000000,0.086285,-0.363171,0.250126,0.000032,-0.000063,-3.053731,0.000000,0.000000,0.000000,0.000000,0.000000,0.000000,-4.271030,3.667249,0.528324,-0.053205,0.074734,0.054057,0.086290,-0.363187,0.250113,0.000000,-0.000000,-3.053753,0.000000,0.000000,0.000000,0.000000,0.000000,0.000000,0,28.375000,29.187500,27.625000,31.750000,35.000000,36.187500,0.653832,7,253,253,253,253,253,253,1,0.248997,-0.191536,9.423578,0.000000,1.000000,0.000000,47.531048,47.591057,0.634469,47.513268,47.427269,47.527599,47.527599,47.326939,47.412937,0,1,-0.000000,-0.000000,0.004000,0.004000,1,1,-648.131282,148.763127,19379.498619,-33.664742,-11.281803,33.979088,0.000002,0.000002,0.000002,0.000000,0.000000,0.000000,0,0,0,0,0,0,0,0,0,0.000000,0.000000,0.000000,0.000000,0.000000,0.000000,0.000000,0.000000
241390.364000,1.437494,-1.089114,2.525809,3.275377,1.572121,3.357390,0.000000,0.000000,0.000000,0.000000,0.000000,0.000000,0.000000,0.000000,0.000000,0.000000,0.000000,0.000000,-0.000000,-2.260898,-0.418532,-0.238799,-0.000100,0.000000,-0.000000,-23.522351,-4.324591,-1.846351,-0.000786,0.000000,1.437461,-1.089168,2.525848,3.275352,1.572155,3.357419,0.000000,0.000000,-0.000000,-0.000000,-0.000000,0.000000,0.315235,-1.826299,-0.737283,-0.179931,-0.057903,-0.039608,-0.000000,-2.260898,-0.418532,-0.238799,-0.000100,0.000000,0.086277,-0.363171,0.250129,0.000040,-0.000071,-3.053756,0.000000,0.000000,0.000000,0.000000,0.000000,0.000000,-4.192559,3.707388,0.575095,-0.051302,0.076611,0.050264,0.086290,-0.363187,0.250113,0.000000,-0.000000,-3.053753,0.000000,0.000000,0.000000,0.000000,0.000000,0.000000,0,28.375000,29.187500,27.625000,31.750000,35.000000,36.187500,0.651480,7,253,253,253,253,253,253,1,0.210690,0.038307,9.404425,0.000000,1.000000,0.000000,47.518509,47.571350,0.641182,47.498932,47.427269,47.556267,47.556267,47.384270,47.412937,0,1,-0.000000,-0.000000,0.004000,0.004000,1,1,-648.212862,148.730117,19379.545431,-33.666800,-11.283505,33.975296,0.000002,0.000002,0.000002,0.000000,0.000000,0.000000,0,0,0,0,0,0,0,0,0,0.000000,0.000000,0.000000,0.000000,0.000000,0.000000,0.000000,0.000000
241390.366000,1.437494,-1.089114,2.525809,3.275377,1.572121,3.357390,0.000000,0.000000,0.000000,0.000000,0.000000,0.000000,0.000000,0.000000,0.000000,0.000000,0.000000,0.000000,0.000000,-2.260866,-0.418547,-0.238798,-0.000100,0.000000,0.000000,-23.522019,-4.324751,-1.846348,-0.000789,0.000000,1.437477,-1.089110,2.525831,3.275422,1.572091,3.357402,0.000000,0.000000,-0.000000,-0.000000,-0.000000,0.000000,0.325380,-1.844948,-0.736964,-0.186543,-0.047831,-0.031292,0.000000,-2.260866,-0.418547,-0.238798,-0.000100,0.000000,0.086287,-0.363188,0.250104,-0.000025,0.000114,-3.053758,0.000000,0.000000,0.000000,0.000000,0.000000,0.000000,-4.308158,3.631397,0.560314,-0.055083,0.075833,0.052917,0.086290,-0.363187,0.250113,0.000000,-0.000000,-3.053753,0.000000,0.000000,0.000000,0.000000,0.000000,0.000000,0,28.375000,29.187500,27.625000,31.750000,35.000000,36.187500,0.661632,7,253,253,253,253,253,253,1,0.268151,0.153229,9.404425,0.000000,1.000000,0.000000,47.528366,47.588367,0.663561,47.498932,47.427269,47.513268,47.556267,47.341274,47.398605,0,1,-0.000000,-0.000000,0.004000,0.004000,1,1,-648.091105,148.795906,19379.530012,-33.662958,-11.283066,33.977938,0.000002,0.000002,0.000002,0.000000,0.000000,0.000000,0,0,0,0,0,0,0,0,0,0.000000,0.000000,0.000000,0.000000,0.000000,0.000000,0.000000,0.000000
241390.368000,1.437494,-1.089114,2.525809,3.275377,1.572121,3.357390,0.000000,0.000000,0.000000,0.000000,0.000000,0.000000,0.000000,0.000000,0.000000,0.000000,0.000000,0.000000,-0.000000,-2.261005,-0.418480,-0.238807,-0.000095,0.000000,-0.000000,-23.523465,-4.324057,-1.846413,-0.000752,0.000000,1.437502,-1.089147,2.525822,3.275315,1.572071,3.357411,0.000000,0.000000,-0.000000,-0.000000,-0.000000,0.000000,0.320304,-1.856155,-0.756261,-0.180885,-0.044983,-0.029546,-0.000000,-2.261005,-0.418480,-0.238807,-0.000095,0.000000,0.086300,-0.363174,0.250129,-0.000097,-0.000112,-3.053724,0.000000,0.000000,0.000000,0.000000,0.000000,0.000000,-4.269667,3.701203,0.742340,-0.051564,0.074089,0.051043,0.086290,-0.363187,0.250113,0.000000,-0.000000,-3.053753,0.000000,0.000000,0.000000,0.000000,0.000000,0.000000,0,28.375000,29.187500,27.625000,31.750000,35.000000,36.187500,0.664381,7,253,253,253,253,253,253,1,0.229843,0.134075,9.500193,0.000000,1.000000,0.000000,47.502392,47.553440,0.594187,47.470268,47.427269,47.513268,47.498932,47.326939,47.341274,0,1,-0.000000,-0.000000,0.004000,0.004000,1,1,-648.135797,148.729355,19379.712413,-33.666318,-11.281012,33.976072,0.000002,0.000002,0.000002,0.000000,0.000000,0.000000,0,0,0,0,0,0,0,0,0,0.000000,0.000000,0.000000,0.000000,0.000000,0.000000,0.000000,0.000000
241390.370000,1.437494,-1.089114,2.525809,3.275377,1.572121,3.357390,0.000000,0.000000,0.000000,0.000000,0.000000,0.000000,0.000000,0.000000,0.000000,0.000000,0.000000,0.000000,-0.000000,-2.260946,-0.418553,-0.238795,-0.000094,0.000000,-0.000000,-23.522853,-4.324815,-1.846324,-0.000740,0.000000,1.437485,-1.089098,2.525852,3.275380,1.572120,3.357373,0.000000,0.000000,-0.000000,-0.000000,-0.000000,0.000000,0.387820,-1.822154,-0.732825,-0.180101,-0.049342,-0.028641,-0.000000,-2.260946,-0.418553,-0.238795,-0.000094,0.000000,0.086289,-0.363177,0.250101,0.000015,0.000093,-3.053777,0.000000,0.000000,0.000000,0.000000,0.000000,0.000000,-4.257692,3.750419,0.606512,-0.054419,0.073237,0.057989,0.086290,-0.363187,0.250113,0.000000,-0.000000,-3.053753,0.000000,0.000000,0.000000,0.000000,0.000000,0.000000,0,28.375000,29.187500,27.625000,31.750000,35.000000,36.187500,0.647845,7,253,253,253,253,253,253,1,0.153229,0.153229,9.538500,0.000000,1.000000,0.000000,47.533737,47.572247,0.679228,47.498932,47.455936,47.556267,47.584930,47.384270,47.427269,0,1,-0.000000,-0.000000,0.004000,0.004000,1,1,-648.151690,148.681816,19379.576363,-33.663394,-11.280422,33.983012,0.000002,0.000002,0.000002,0.000000,0.000000,0.000000,0,0,0,0,0,0,0,0,0,0.000000,0.000000,0.000000,0.000000,0.000000,0.000000,0.000000,0.000000
241390.372000,1.437494,-1.089114,2.525809,3.275377,1.572121,3.357390,0.000000,0.000000,0.000000,0.000000,0.000000,0.000000,0.000000,0.000000,0.000000,0.000000,0.000000,0.000000,-0.000000,-2.260988,-0.418420,-0.238806,-0.000098,0.000000,-0.000000,-23.523293,-4.323439,-1.846408,-0.000769,0.000000,1.437535,-1.089180,2.525843,3.275352,1.572115,3.357411,0.000000,0.000000,-0.000000,-0.000000,-0.000000,0.000000,0.375748,-1.860442,-0.760375,-0.179250,-0.046554,-0.032908,-0.000000,-2.260988,-0.418420,-0.238806,-0.000098,0.000000,0.086308,-0.363166,0.250134,-0.000024,-0.000086,-3.053691,0.000000,0.000000,0.000000,0.000000,0.000000,0.000000,-3.989669,3.826331,0.571780,-0.052156,0.067451,0.053498,0.086290,-0.363187,0.250113,0.000000,-0.000000,-3.053753,0.000000,0.000000,0.000000,0.000000,0.000000,0.000000,0,28.375000,29.187500,27.625000,31.750000,35.000000,36.187500,0.652716,7,253,253,253,253,253,253,1,0.210690,0.134075,9.481039,0.000000,1.000000,0.000000,47.512241,47.559711,0.645659,47.498932,47.427269,47.541931,47.556267,47.341274,47.398605,0,1,-0.000000,-0.000000,0.004000,0.004000,1,1,-648.425753,148.629178,19379.541994,-33.665149,-11.274455,33.978528,0.000002,0.000002,0.000002,0.000000,0.000000,0.000000,0,0,0,0,0,0,0,0,0,0.000000,0.000000,0.000000,0.000000,0.000000,0.000000,0.000000,0.000000
241390.374000,1.437494,-1.089114,2.525809,3.275377,1.572121,3.357390,0.000000,0.000000,0.000000,0.000000,0.000000,0.000000,0.000000,0.000000,0.000000,0.000000,0.000000,0.000000,-0.000000,-2.260852,-0.418575,-0.238797,-0.000097,0.000000,-0.000000,-23.521874,-4.325043,-1.846338,-0.000766,0.000000,1.437411,-1.089131,2.525819,3.275401,1.572111,3.357399,0.000000,0.000000,-0.000000,-0.000000,-0.000000,0.000000,0.294819,-1.884678,-0.745277,-0.186693,-0.053750,-0.014909,-0.000000,-2.260852,-0.418575,-0.238797,-0.000097,0.000000,0.086261,-0.363193,0.250116,-0.000011,0.000027,-3.053827,0.000000,0.000000,0.000000,0.000000,0.000000,0.000000,-4.111898,3.942446,0.515771,-0.045638,0.070565,0.055134,0.086290,-0.363187,0.250113,0.000000,-0.000000,-3.053753,0.000000,0.000000,0.000000,0.000000,0.000000,0.000000,0,28.375000,29.187500,27.625000,31.750000,35.000000,36.187500,0.650184,7,253,253,253,253,253,253,1,0.248997,0.076614,9.461885,0.000000,1.000000,0.000000,47.502392,47.558811,0.632233,47.455936,47.384270,47.513268,47.513268,47.341274,47.398605,0,1,-0.000000,-0.000000,0.004000,0.004000,1,1,-648.313586,148.503427,19379.485720,-33.671903,-11.276984,33.980160,0.000002,0.000002,0.000002,0.000000,0.000000,0.000000,0,0,0,0,0,0,0,0,0,0.000000,0.000000,0.000000,0.000000,0.000000,0.000000,0.000000,0.000000
241390.376000,1.437494,-1.089114,2.525809,3.275377,1.572121,3.357390,0.000000,0.000000,0.000000,0.000000,0.000000,0.000000,0.000000,0.000000,0.000000,0.000000,0.000000,0.000000,-0.000000,-2.260987,-0.418536,-0.238803,-0.000097,0.000000,-0.000000,-23.523277,-4.324638,-1.846381,-0.000764,0.000000,1.437473,-1.089168,2.525831,3.275373,1.572075,3.357378,0.000000,0.000000,-0.000000,-0.000000,-0.000000,0.000000,0.319664,-1.865017,-0.702378,-0.175493,-0.052695,-0.038497,-0.000000,-2.260987,-0.418536,-0.238803,-0.000097,0.000000,0.086289,-0.363178,0.250130,-0.000078,-0.000044,-3.053785,0.000000,0.000000,0.000000,0.000000,0.000000,0.000000,-4.028750,3.707167,0.429162,-0.053407,0.068978,0.055080,0.086290,-0.363187,0.250113,0.000000,-0.000000,-3.053753,0.000000,0.000000,0.000000,0.000000,0.000000,0.000000,0,28.375000,29.187500,27.625000,31.750000,35.000000,36.187500,0.642468,7,253,253,253,253,253,253,1,0.134075,0.172383,9.595961,0.000000,1.000000,0.000000,47.502392,47.565083,0.580761,47.470268,47.412937,47.541931,47.584930,47.341274,47.355606,0,1,-0.000000,-0.000000,0.004000,0.004000,1,1,-648.376052,148.744847,19379.399126,-33.664027,-11.276083,33.980107,0.000002,0.000002,0.000002,0.000000,0.000000,0.000000,0,0,0,0,0,0,0,0,0,0.000000,0.000000,0.000000,0.000000,0.000000,0.000000,0.000000,0.000000
241390.378000,1.437494,-1.089114,2.525809,3.275377,1.572121,3.357390,0.000000,0.000000,0.000000,0.000000,0.000000,0.000000,0.000000,0.000000,0.000000,0.000000,0.000000,0.000000,0.000000,-2.260896,-0.418577,-0.238799,-0.000094,0.000000,0.000000,-23.522332,-4.325065,-1.846350,-0.000743,0.000000,1.437485,-1.089135,2.525868,3.275371,1.572082,3.357406,0.000000,0.000000,-0.000000,-0.000000,-0.000000,0.000000,0.338511,-1.905054,-0.753295,-0.182247,-0.055066,-0.033493,0.000000,-2.260896,-0.418577,-0.238799,-0.000094,0.000000,0.086293,-0.363169,0.250113,-0.000049,0.000057,-3.053744,0.000000,0.000000,0.000000,0.000000,0.000000,0.000000,-4.172524,3.565769,0.575759,-0.055399,0.070872,0.054275,0.086290,-0.363187,0.250113,0.000000,-0.000000,-3.053753,0.000000,0.000000,0.000000,0.000000,0.000000,0.000000,0,28.375000,29.187500,27.625000,31.750000,35.000000,36.187500,0.653916,7,253,253,253,253,253,253,1,0.095768,0.172383,9.519346,0.000000,1.000000,0.000000,47.504181,47.566872,0.638946,47.498932,47.441601,47.541931,47.584930,47.355606,47.384270,0,1,-0.000000,-0.000000,0.004000,0.004000,1,1,-648.220543,148.873060,19379.545541,-33.662210,-11.278150,33.979297,0.000002,0.000002,0.000002,0.000000,0.000000,0.000000,0,0,0,0,0,0,0,0,0,0.000000,0.000000,0.000000,0.000000,0.000000,0.000000,0.000000,0.000000
241390.380000,1.437494,-1.089114,2.525809,3.275377,1.572121,3.357390,0.000000,0.000000,0.000000,0.000000,0.000000,0.000000,0.000000,0.000000,0.000000,0.000000,0.000000,0.000000,0.000000,-2.260892,-0.418457,-0.238804,-0.000095,0.000000,0.000000,-23.522292,-4.323818,-1.846390,-0.000747,0.000000,1.437460,-1.089188,2.525848,3.275335,1.572108,3.357383,0.000000,0.000000,-0.000000,-0.000000,-0.000000,0.000000,0.349543,-1.849864,-0.732133,-0.177867,-0.045049,-0.035345,0.000000,-2.260892,-0.418457,-0.238804,-0.000095,0.000000,0.086282,-0.363169,0.250138,-0.000040,-0.000113,-3.053794,0.000000,0.000000,0.000000,0.000000,0.000000,0.000000,-4.033063,3.677872,0.627132,-0.053032,0.070695,0.057080,0.086290,-0.363187,0.250113,0.000000,-0.000000,-3.053753,0.000000,0.000000,0.000000,0.000000,0.000000,0.000000,0,28.375000,29.187500,27.625000,31.750000,35.000000,36.187500,0.642000,7,253,253,253,253,253,253,1,0.134075,0.057461,9.595961,0.000000,1.000000,0.000000,47.540901,47.580307,0.661325,47.498932,47.427269,47.470268,47.513268,47.369938,47.398605,0,1,-0.000000,-0.000000,0.004000,0.004000,1,1,-648.369099,148.773608,19379.597365,-33.664554,-11.277758,33.982111,0.000002,0.000002,0.000002,0.000000,0.000000,0.000000,0,0,0,0,0,0,0,0,0,0.000000,0.000000,0.000000,0.000000,0.000000,0.000000,0.000000,0.000000
241390.382000,1.437494,-1.089114,2.525809,3.275377,1.572121,3.357390,0.000000,0.000000,0.000000,0.000000,0.000000,0.000000,0.000000,0.000000,0.000000,0.000000,0.000000,0.000000,0.000000,-2.260830,-0.418580,-0.238796,-0.000097,0.000000,0.000000,-23.521640,-4.325089,-1.846327,-0.000762,0.000000,1.437482,-1.089122,2.525805,3.275410,1.572066,3.357390,0.000000,0.000000,-0.000000,-0.000000,-0.000000,0.000000,0.321802,-1.871890,-0.738848,-0.177416,-0.053747,-0.029325,0.000000,-2.260830,-0.418580,-0.238796,-0.000097,0.000000,0.086291,-0.363193,0.250114,-0.000077,0.000045,-3.053764,0.000000,0.000000,0.000000,0.000000,0.000000,0.000000,-4.258785,3.446461,0.565565,-0.059372,0.073408,0.052978,0.086290,-0.363187,0.250113,0.000000,-0.000000,-3.053753,0.000000,0.000000,0.000000,0.000000,0.000000,0.000000,0,28.375000,29.187500,27.625000,31.750000,35.000000,36.187500,0.652020,7,253,253,253,253,253,253,1,0.153229,0.134075,9.557653,0.000000,1.000000,0.000000,47.532845,47.591057,0.589710,47.470268,47.427269,47.513268,47.527599,47.355606,47.384270,0,1,-0.000000,-0.000000,0.004000,0.004000,1,1,-648.124106,148.984405,19379.535301,-33.658473,-11.281023,33.978000,0.000002,0.000002,0.000002,0.000000,0.000000,0.000000,0,0,0,0,0,0,0,0,0,0.000000,0.000000,0.000000,0.000000,0.000000,0.000000,0.000000,0.000000
241390.384000,1.437494,-1.089114,2.525809,3.275377,1.572121,3.357390,0.000000,0.000000,0.000000,0.000000,0.000000,0.000000,0.000000,0.000000,0.000000,0.000000,0.000000,0.000000,0.000000,-2.261026,-0.418544,-0.238803,-0.000094,0.000000,0.000000,-23.523687,-4.324723,-1.846384,-0.000738,0.000000,1.437469,-1.089197,2.525831,3.275356,1.572141,3.357381,0.000000,0.000000,-0.000000,-0.000000,-0.000000,0.000000,0.375888,-1.886293,-0.754168,-0.203138,-0.057204,-0.029979,0.000000,-2.261026,-0.418544,-0.238803,-0.000094,0.000000,0.086281,-0.363174,0.250141,0.000009,-0.000129,-3.053786,0.000000,0.000000,0.000000,0.000000,0.000000,0.000000,-4.300731,3.630706,0.425887,-0.054211,0.073580,0.051942,0.086290,-0.363187,0.250113,0.000000,-0.000000,-3.053753,0.000000,0.000000,0.000000,0.000000,0.000000,0.000000,0,28.375000,29.187500,27.625000,31.750000,35.000000,36.187500,0.645744,7,253,253,253,253,253,253,1,0.306458,0.153229,9.461885,0.000000,1.000000,0.000000,47.524784,47.566872,0.661325,47.498932,47.398605,47.513268,47.570599,47.355606,47.412937,0,1,-0.000000,-0.000000,0.004000,0.004000,1,1,-648.098301,148.797053,19379.396283,-33.663635,-11.280737,33.976976,0.000002,0.000002,0.000002,0.000000,0.000000,0.000000,0,0,0,0,0,0,0,0,0,0.000000,0.000000,0.000000,0.000000,0.000000,0.000000,0.000000,0.000000
241390.386000,1.437494,-1.089114,2.525809,3.275377,1.572121,3.357390,0.000000,0.000000,0.000000,0.000000,0.000000,0.000000,0.000000,0.000000,0.000000,0.000000,0.000000,0.000000,0.000000,-2.260844,-0.418625,-0.238795,-0.000099,0.000000,0.000000,-23.521785,-4.325560,-1.846324,-0.000781,0.000000,1.437448,-1.089119,2.525827,3.275415,1.572158,3.357390,0.000000,0.000000,-0.000000,-0.000000,-0.000000,0.000000,0.360804,-1.838500,-0.723825,-0.176801,-0.060081,-0.022470,0.000000,-2.260844,-0.418625,-0.238795,-0.000099,0.000000,0.086270,-0.363189,0.250109,0.000069,0.000065,-3.053799,0.000000,0.000000,0.000000,0.000000,0.000000,0.000000,-4.013601,3.859661,0.342120,-0.049533,0.067953,0.050643,0.086290,-0.363187,0.250113,0.000000,-0.000000,-3.053753,0.000000,0.000000,0.000000,0.000000,0.000000,0.000000,0,28.375000,29.187500,27.625000,31.750000,35.000000,36.187500,0.657781,7,253,253,253,253,253,253,1,0.153229,0.153229,9.461885,0.000000,1.000000,0.000000,47.505978,47.565979,0.650136,47.484600,47.412937,47.498932,47.498932,47.341274,47.412937,0,1,-0.000000,-0.000000,0.004000,0.004000,1,1,-648.404258,148.594455,19379.312172,-33.667797,-11.274729,33.975669,0.000002,0.000002,0.000002,0.000000,0.000000,0.000000,0,0,0,0,0,0,0,0,0,0.000000,0.000000,0.000000,0.000000,0.000000,0.000000,0.000000,0.000000
241390.388000,1.437494,-1.089114,2.525809,3.275377,1.572121,3.357390,0.000000,0.000000,0.000000,0.000000,0.000000,0.000000,0.000000,0.000000,0.000000,0.000000,0.000000,0.000000,-0.000000,-2.260996,-0.418503,-0.238805,-0.000100,0.000000,-0.000000,-23.523373,-4.324291,-1.846401,-0.000791,0.000000,1.437469,-1.089155,2.525803,3.275328,1.572087,3.357378,0.000000,0.000000,-0.000000,-0.000000,-0.000000,0.000000,0.314384,-1.849526,-0.732042,-0.188877,-0.051339,-0.013795,-0.000000,-2.260996,-0.418503,-0.238805,-0.000100,0.000000,0.086285,-0.363183,0.250134,-0.000076,-0.000138,-3.053789,0.000000,0.000000,0.000000,0.000000,0.000000,0.000000,-4.053397,3.838487,0.358098,-0.050883,0.068847,0.052878,0.086290,-0.363187,0.250113,0.000000,-0.000000,-3.053753,0.000000,0.000000,0.000000,0.000000,0.000000,0.000000,0,28.375000,29.187500,27.625000,31.750000,35.000000,36.187500,0.664309,7,253,253,253,253,253,253,1,0.210690,0.172383,9.442732,0.000000,1.000000,0.000000,47.555233,47.591057,0.585233,47.513268,47.427269,47.556267,47.527599,47.355606,47.412937,0,1,-0.000000,-0.000000,0.004000,0.004000,1,1,-648.363005,148.611761,19379.328315,-33.666532,-11.275727,33.977909,0.000002,0.000002,0.000002,0.000000,0.000000,0.000000,0,0,0,0,0,0,0,0,0,0.000000,0.000000,0.000000,0.000000,0.000000,0.000000,0.000000,0.000000
241390.390000,1.437494,-1.089114,2.525809,3.275377,1.572121,3.357390,0.000000,0.000000,0.000000,0.000000,0.000000,0.000000,0.000000,0.000000,0.000000,0.000000,0.000000,0.000000,-0.000000,-2.260967,-0.418601,-0.238794,-0.000095,0.000000,-0.000000,-23.523064,-4.325305,-1.846315,-0.000750,0.000000,1.437448,-1.089119,2.525848,3.275364,1.572146,3.357390,0.000000,0.000000,-0.000000,-0.000000,-0.000000,0.000000,0.287639,-1.868416,-0.751358,-0.175729,-0.055053,-0.027990,-0.000000,-2.260967,-0.418601,-0.238794,-0.000095,0.000000,0.086273,-0.363178,0.250111,0.000043,0.000023,-3.053798,0.000000,0.000000,0.000000,0.000000,0.000000,0.000000,-4.261486,3.870050,0.533916,-0.045219,0.073281,0.052552,0.086290,-0.363187,0.250113,0.000000,-0.000000,-3.053753,0.000000,0.000000,0.000000,0.000000,0.000000,0.000000,0,28.375000,29.187500,27.625000,31.750000,35.000000,36.187500,0.655297,7,253,253,253,253,253,253,1,0.248997,0.229843,9.500193,0.000000,1.000000,0.000000,47.537323,47.595535,0.600900,47.441601,47.427269,47.541931,47.527599,47.355606,47.412937,0,1,-0.000000,-0.000000,0.004000,0.004000,1,1,-648.158282,148.562314,19379.504019,-33.672563,-11.279655,33.977579,0.000002,0.000002,0.000002,0.000000,0.000000,0.000000,0,0,0,0,0,0,0,0,0,0.000000,0.000000,0.000000,0.000000,0.000000,0.000000,0.000000,0.000000
241390.392000,1.437494,-1.089114,2.525809,3.275377,1.572121,3.357390,0.000000,0.000000,0.000000,0.000000,0.000000,0.000000,0.000000,0.000000,0.000000,0.000000,0.000000,0.000000,-0.000000,-2.260957,-0.418463,-0.238803,-0.000099,0.000000,-0.000000,-23.522961,-4.323880,-1.846384,-0.000784,0.000000,1.437469,-1.089164,2.525819,3.275385,1.572078,3.357406,0.000000,0.000000,-0.000000,-0.000000,-0.000000,0.000000,0.295393,-1.833241,-0.759368,-0.194782,-0.038207,-0.026532,-0.000000,-2.260957,-0.418463,-0.238803,-0.000099,0.000000,0.086286,-0.363184,0.250129,-0.000073,-0.000039,-3.053761,0.000000,0.000000,0.000000,0.000000,0.000000,0.000000,-4.381240,3.595579,0.424628,-0.055775,0.080439,0.044525,0.086290,-0.363187,0.250113,0.000000,-0.000000,-3.053753,0.000000,0.000000,0.000000,0.000000,0.000000,0.000000,0,28.375000,29.187500,27.625000,31.812500,35.000000,36.187500,0.641784,7,253,253,253,253,253,253,1,0.248997,0.191536,9.519346,0.000000,1.000000,0.000000,47.519409,47.573143,0.647900,47.484600,47.398605,47.513268,47.498932,47.341274,47.384270,0,1,-0.000000,-0.000000,0.004000,0.004000,1,1,-648.015222,148.825003,19379.394571,-33.662676,-11.287709,33.969552,0.000002,0.000002,0.000002,0.000000,0.000000,0.000000,0,0,0,0,0,0,0,0,0,0.000000,0.000000,0.000000,0.000000,0.000000,0.000000,0.000000,0.000000
241390.394000,1.437494,-1.089114,2.525809,3.275377,1.572121,3.357390,0.000000,0.000000,0.000000,0.000000,0.000000,0.000000,0.000000,0.000000,0.000000,0.000000,0.000000,0.000000,-0.000000,-2.260926,-0.418592,-0.238799,-0.000094,0.000000,-0.000000,-23.522644,-4.325212,-1.846353,-0.000745,0.000000,1.437506,-1.089164,2.525781,3.275352,1.572178,3.357373,0.000000,0.000000,-0.000000,-0.000000,-0.000000,0.000000,0.305018,-1.850449,-0.714461,-0.189346,-0.046292,-0.031321,-0.000000,-2.260926,-0.418592,-0.238799,-0.000094,0.000000,0.086289,-0.363187,0.250138,0.000059,-0.000171,-3.053756,0.000000,0.000000,0.000000,0.000000,0.000000,0.000000,-4.183908,3.718911,0.266823,-0.054624,0.071150,0.056496,0.086290,-0.363187,0.250113,0.000000,-0.000000,-3.053753,0.000000,0.000000,0.000000,0.000000,0.000000,0.000000,0,28.375000,29.187500,27.625000,31.812500,35.000000,36.187500,0.639828,7,253,253,253,253,253,253,1,0.229843,0.172383,9.557653,0.000000,1.000000,0.000000,47.515827,47.575829,0.618802,47.441601,47.427269,47.513268,47.527599,47.312607,47.412937,0,1,-0.000000,-0.000000,0.004000,0.004000,1,1,-648.222462,148.719242,19379.237465,-33.663015,-11.278353,33.981533,0.000002,0.000002,0.000002,0.000000,0.000000,0.000000,0,0,0,0,0,0,0,0,0,0.000000,0.000000,0.000000,0.000000,0.000000,0.000000,0.000000,0.000000
241390.396000,1.437494,-1.089114,2.525809,3.275377,1.572121,3.357390,0.000000,0.000000,0.000000,0.000000,0.000000,0.000000,0.000000,0.000000,0.000000,0.000000,0.000000,0.000000,-0.000000,-2.260988,-0.418654,-0.238794,-0.000102,0.000000,-0.000000,-23.523291,-4.325859,-1.846312,-0.000803,0.000000,1.437506,-1.089123,2.525852,3.275397,1.572094,3.357411,0.000000,0.000000,-0.000000,-0.000000,-0.000000,0.000000,0.333253,-1.907428,-0.720298,-0.203011,-0.043679,-0.032689,-0.000000,-2.260988,-0.418654,-0.238794,-0.000102,0.000000,0.086299,-0.363175,0.250108,-0.000025,0.000087,-3.053719,0.000000,0.000000,0.000000,0.000000,0.000000,0.000000,-4.114656,3.805010,0.286229,-0.052358,0.070220,0.050249,0.086290,-0.363187,0.250113,0.000000,-0.000000,-3.053753,0.000000,0.000000,0.000000,0.000000,0.000000,0.000000,0,28.375000,29.187500,27.625000,31.812500,35.000000,36.187500,0.643956,7,253,253,253,253,253,253,1,0.210690,0.172383,9.615114,0.000000,1.000000,0.000000,47.555233,47.606277,0.656848,47.527599,47.427269,47.541931,47.556267,47.369938,47.412937,0,1,-0.000000,-0.000000,0.004000,0.004000,1,1,-648.299256,148.639775,19379.255987,-33.665185,-11.277236,33.975271,0.000002,0.000002,0.000002,0.000000,0.000000,0.000000,0,0,0,0,0,0,0,0,0,0.000000,0.000000,0.000000,0.000000,0.000000,0.000000,0.000000,0.000000
241390.398000,1.437494,-1.089114,2.525809,3.275377,1.572121,3.357390,0.000000,0.000000,0.000000,0.000000,0.000000,0.000000,0.000000,0.000000,0.000000,0.000000,0.000000,0.000000,-0.000000,-2.260943,-0.418465,-0.238805,-0.000096,0.000000,-0.000000,-23.522820,-4.323902,-1.846403,-0.000754,0.000000,1.437472,-1.089119,2.525810,3.275352,1.572129,3.357406,0.000000,0.000000,-0.000000,-0.000000,-0.000000,0.000000,0.287465,-1.840436,-0.696529,-0.194138,-0.053455,-0.026084,-0.000000,-2.260943,-0.418465,-0.238805,-0.000096,0.000000,0.086282,-0.363186,0.250118,0.000004,-0.000048,-3.053758,0.000000,0.000000,0.000000,0.000000,0.000000,0.000000,-4.346929,3.605889,0.445689,-0.054416,0.077579,0.046608,0.086290,-0.363187,0.250113,0.000000,-0.000000,-3.053753,0.000000,0.000000,0.000000,0.000000,0.000000,0.000000,0,28.375000,29.187500,27.625000,31.812500,35.000000,36.187500,0.642228,7,253,253,253,253,253,253,1,0.248997,0.153229,9.576807,0.000000,1.000000,0.000000,47.566872,47.600906,0.612089,47.513268,47.470268,47.556267,47.556267,47.355606,47.398605,0,1,-0.000000,-0.000000,0.004000,0.004000,1,1,-648.050219,148.817715,19379.415868,-33.663781,-11.284742,33.971637,0.000002,0.000002,0.000002,0.000000,0.000000,0.000000,0,0,0,0,0,0,0,0,0,0.000000,0.000000,0.000000,0.000000,0.000000,0.000000,0.000000,0.000000
241390.400000,1.437494,-1.089114,2.525809,3.275377,1.572121,3.357390,0.000000,0.000000,0.000000,0.000000,0.000000,0.000000,0.000000,0.000000,0.000000,0.000000,0.000000,0.000000,-0.000000,-2.261021,-0.418528,-0.238799,-0.000098,0.000000,-0.000000,-23.523633,-4.324551,-1.846354,-0.000774,0.000000,1.437511,-1.089119,2.525798,3.275401,1.572099,3.357394,0.000000,0.000000,-0.000000,-0.000000,-0.000000,0.000000,0.325422,-1.854094,-0.726298,-0.184074,-0.042047,-0.031510,-0.000000,-2.261021,-0.418528,-0.238799,-0.000098,0.000000,0.086298,-0.363191,0.250115,-0.000031,0.000018,-3.053731,0.000000,0.000000,0.000000,0.000000,0.000000,0.000000,-4.181270,3.728433,0.550661,-0.051551,0.071054,0.051039,0.086290,-0.363187,0.250113,0.000000,-0.000000,-3.053753,0.000000,0.000000,0.000000,0.000000,0.000000,0.000000,0,28.375000,29.187500,27.625000,31.812500,35.000000,36.187500,0.652788,7,253,253,253,253,253,253,1,0.287304,0.134075,9.461885,0.000000,1.000000,0.000000,47.531944,47.593739,0.641182,47.513268,47.412937,47.527599,47.513268,47.341274,47.355606,0,1,-0.000000,-0.000000,0.004000,0.004000,1,1,-648.226138,148.710157,19379.520584,-33.666063,-11.277994,33.976065,0.000002,0.000002,0.000002,0.000000,0.000000,0.000000,0,0,0,0,0,0,0,0,0,0.000000,0.000000,0.000000,0.000000,0.000000,0.000000,0.000000,0.000000
241390.402000,1.437494,-1.089114,2.525809,3.275377,1.572121,3.357390,0.000000,0.000000,0.000000,0.000000,0.000000,0.000000,0.000000,0.000000,0.000000,0.000000,0.000000,0.000000,-0.000000,-2.261043,-0.418550,-0.238802,-0.000096,0.000000,-0.000000,-23.523865,-4.324784,-1.846377,-0.000757,0.000000,1.437430,-1.089114,2.525798,3.275406,1.572094,3.357415,0.000000,0.000000,-0.000000,-0.000000,-0.000000,0.000000,0.343934,-1.903991,-0.727905,-0.188316,-0.049844,-0.031179,-0.000000,-2.261043,-0.418550,-0.238802,-0.000096,0.000000,0.086269,-0.363199,0.250113,-0.000035,0.000033,-3.053791,0.000000,0.000000,0.000000,0.000000,0.000000,0.000000,-4.274619,3.606413,0.361093,-0.055935,0.073193,0.049095,0.086290,-0.363187,0.250113,0.000000,-0.000000,-3.053753,0.000000,0.000000,0.000000,0.000000,0.000000,0.000000,0,28.375000,29.187500,27.625000,31.812500,35.000000,36.187500,0.655872,7,253,253,253,253,253,253,1,0.229843,0.153229,9.461885,0.000000,1.000000,0.000000,47.516720,47.571350,0.629992,47.498932,47.412937,47.541931,47.527599,47.369938,47.355606,0,1,-0.000000,-0.000000,0.004000,0.004000,1,1,-648.122212,148.823775,19379.330967,-33.661877,-11.280506,33.974119,0.000002,0.000002,0.000002,0.000000,0.000000,0.000000,0,0,0,0,0,0,0,0,0,0.000000,0.000000,0.000000,0.000000,0.000000,0.000000,0.000000,0.000000
241390.404000,1.437494,-1.089114,2.525809,3.275377,1.572121,3.357390,0.000000,0.000000,0.000000,0.000000,0.000000,0.000000,0.000000,0.000000,0.000000,0.000000,0.000000,0.000000,0.000000,-2.261052,-0.418543,-0.238803,-0.000096,0.000000,0.000000,-23.523953,-4.324707,-1.846382,-0.000754,0.000000,1.437464,-1.089176,2.525827,3.275340,1.572141,3.357419,0.000000,0.000000,-0.000000,-0.000000,-0.000000,0.000000,0.375843,-1.886106,-0.730642,-0.196275,-0.057953,-0.022463,0.000000,-2.261052,-0.418543,-0.238803,-0.000096,0.000000,0.086279,-0.363175,0.250136,0.000009,-0.000129,-3.053753,0.000000,0.000000,0.000000,0.000000,0.000000,0.000000,-4.212958,3.731390,0.349071,-0.051610,0.075644,0.050036,0.086290,-0.363187,0.250113,0.000000,-0.000000,-3.053753,0.000000,0.000000,0.000000,0.000000,0.000000,0.000000,0,28.375000,29.187500,27.625000,31.812500,35.000000,36.187500,0.652081,7,253,253,253,253,253,253,1,0.268151,0.229843,9.481039,0.000000,1.000000,0.000000,47.535526,47.588367,0.681469,47.513268,47.427269,47.541931,47.570599,47.384270,47.384270,0,1,-0.000000,-0.000000,0.004000,0.004000,1,1,-648.194699,148.704320,19379.319476,-33.666409,-11.282566,33.975070,0.000002,0.000002,0.000002,0.000000,0.000000,0.000000,0,0,0,0,0,0,0,0,0,0.000000,0.000000,0.000000,0.000000,0.000000,0.000000,0.000000,0.000000
241390.406000,1.437494,-1.089114,2.525809,3.275377,1.572121,3.357390,0.000000,0.000000,0.000000,0.000000,0.000000,0.000000,0.000000,0.000000,0.000000,0.000000,0.000000,0.000000,0.000000,-2.260889,-0.418596,-0.238795,-0.000099,0.000000,0.000000,-23.522253,-4.325259,-1.846324,-0.000781,0.000000,1.437460,-1.089143,2.525845,3.275394,1.572103,3.357369,0.000000,0.000000,-0.000000,-0.000000,-0.000000,0.000000,0.323264,-1.867167,-0.767904,-0.187012,-0.044343,-0.029344,0.000000,-2.260889,-0.418596,-0.238795,-0.000099,0.000000,0.086281,-0.363179,0.250117,-0.000020,0.000038,-3.053807,0.000000,0.000000,0.000000,0.000000,0.000000,0.000000,-4.097560,3.860048,0.306238,-0.049467,0.072523,0.055039,0.086290,-0.363187,0.250113,0.000000,-0.000000,-3.053753,0.000000,0.000000,0.000000,0.000000,0.000000,0.000000,0,28.375000,29.187500,27.625000,31.812500,35.000000,36.187500,0.648589,7,253,253,253,253,253,253,1,0.229843,0.248997,9.500193,0.000000,1.000000,0.000000,47.549854,47.588367,0.645659,47.527599,47.470268,47.556267,47.584930,47.384270,47.427269,0,1,-0.000000,-0.000000,0.004000,0.004000,1,1,-648.320741,148.586711,19379.276135,-33.668261,-11.279272,33.980064,0.000002,0.000002,0.000002,0.000000,0.000000,0.000000,0,0,0,0,0,0,0,0,0,0.000000,0.000000,0.000000,0.000000,0.000000,0.000000,0.000000,0.000000
241390.408000,1.437494,-1.089114,2.525809,3.275377,1.572121,3.357390,0.000000,0.000000,0.000000,0.000000,0.000000,0.000000,0.000000,0.000000,0.000000,0.000000,0.000000,0.000000,0.000000,-2.260921,-0.418511,-0.238803,-0.000096,0.000000,0.000000,-23.522584,-4.324383,-1.846385,-0.000759,0.000000,1.437448,-1.089189,2.525810,3.275415,1.572112,3.357390,0.000000,0.000000,-0.000000,-0.000000,-0.000000,0.000000,0.349134,-1.843135,-0.758223,-0.186986,-0.049998,-0.028754,0.000000,-2.260921,-0.418511,-0.238803,-0.000096,0.000000,0.086275,-0.363188,0.250136,-0.000023,-0.000054,-3.053799,0.000000,0.000000,0.000000,0.000000,0.000000,0.000000,-4.200238,3.997376,0.385007,-0.044886,0.071905,0.051424,0.086290,-0.363187,0.250113,0.000000,-0.000000,-3.053753,0.000000,0.000000,0.000000,0.000000,0.000000,0.000000,0,28.375000,29.187500,27.625000,31.812500,35.000000,36.187500,0.647437,7,253,253,253,253,253,253,1,0.229843,0.114922,9.500193,0.000000,1.000000,0.000000,47.506870,47.570457,0.591951,47.498932,47.412937,47.541931,47.513268,47.355606,47.398605,0,1,-0.000000,-0.000000,0.004000,0.004000,1,1,-648.230546,148.440752,19379.355144,-33.672773,-11.278251,33.976453,0.000002,0.000002,0.000002,0.000000,0.000000,0.000000,0,0,0,0,0,0,0,0,0,0.000000,0.000000,0.000000,0.000000,0.000000,0.000000,0.000000,0.000000
241390.410000,1.437494,-1.089114,2.525809,3.275377,1.572121,3.357390,0.000000,0.000000,0.000000,0.000000,0.000000,0.000000,0.000000,0.000000,0.000000,0.000000,0.000000,0.000000,0.000000,-2.260897,-0.418652,-0.238799,-0.000097,0.000000,0.000000,-23.522339,-4.325837,-1.846350,-0.000765,0.000000,1.437452,-1.089138,2.525822,3.275335,1.572165,3.357402,0.000000,0.000000,-0.000000,-0.000000,-0.000000,0.000000,0.354597,-1.879330,-0.724117,-0.189337,-0.047187,-0.024063,0.000000,-2.260897,-0.418652,-0.238799,-0.000097,0.000000,0.086272,-0.363180,0.250124,0.000052,-0.000092,-3.053782,0.000000,0.000000,0.000000,0.000000,0.000000,0.000000,-4.081671,3.760121,0.634804,-0.051967,0.068482,0.053918,0.086290,-0.363187,0.250113,0.000000,-0.000000,-3.053753,0.000000,0.000000,0.000000,0.000000,0.000000,0.000000,0,28.375000,29.187500,27.625000,31.812500,35.000000,36.187500,0.644868,7,253,253,253,253,253,253,1,0.248997,0.019154,9.461885,0.000000,1.000000,0.000000,47.522095,47.562393,0.634469,47.484600,47.427269,47.513268,47.527599,47.312607,47.384270,0,1,-0.000000,-0.000000,0.004000,0.004000,1,1,-648.327832,148.687388,19379.605225,-33.665424,-11.275464,33.978952,0.000002,0.000002,0.000002,0.000000,0.000000,0.000000,0,0,0,0,0,0,0,0,0,0.000000,0.000000,0.000000,0.000000,0.000000,0.000000,0.000000,0.000000
241390.412000,1.437494,-1.089114,2.525809,3.275377,1.572121,3.357390,0.000000,0.000000,0.000000,0.000000,0.000000,0.000000,0.000000,0.000000,0.000000,0.000000,0.000000,0.000000,-0.000000,-2.260963,-0.418539,-0.238797,-0.000101,0.000000,-0.000000,-23.523034,-4.324668,-1.846341,-0.000795,0.000000,1.437514,-1.089110,2.525819,3.275340,1.572066,3.357377,0.000000,0.000000,-0.000000,-0.000000,-0.000000,0.000000,0.334680,-1.913245,-0.795809,-0.187602,-0.052254,-0.029945,-0.000000,-2.260963,-0.418539,-0.238797,-0.000101,0.000000,0.086304,-0.363180,0.250115,-0.000089,-0.000023,-3.053746,0.000000,0.000000,0.000000,0.000000,0.000000,0.000000,-4.064081,3.855476,0.446734,-0.050475,0.068625,0.049611,0.086290,-0.363187,0.250113,0.000000,-0.000000,-3.053753,0.000000,0.000000,0.000000,0.000000,0.000000,0.000000,0,28.375000,29.187500,27.625000,31.812500,35.000000,36.187500,0.648708,7,253,253,253,253,253,253,1,0.248997,0.153229,9.576807,0.000000,1.000000,0.000000,47.524784,47.589264,0.652371,47.527599,47.427269,47.541931,47.556267,47.384270,47.412937,0,1,-0.000000,-0.000000,0.004000,0.004000,1,1,-648.354038,148.593895,19379.416617,-33.666919,-11.275476,33.974636,0.000002,0.000002,0.000002,0.000000,0.000000,0.000000,0,0,0,0,0,0,0,0,0,0.000000,0.000000,0.000000,0.000000,0.000000,0.000000,0.000000,0.000000
241390.414000,1.437494,-1.089114,2.525809,3.275377,1.572121,3.357390,0.000000,0.000000,0.000000,0.000000,0.000000,0.000000,0.000000,0.000000,0.000000,0.000000,0.000000,0.000000,-0.000000,-2.261022,-0.418497,-0.238800,-0.000094,0.000000,-0.000000,-23.523638,-4.324229,-1.846358,-0.000738,0.000000,1.437478,-1.089135,2.525814,3.275389,1.572124,3.357406,0.000000,0.000000,-0.000000,-0.000000,-0.000000,0.000000,0.346389,-1.931245,-0.677050,-0.195103,-0.042156,-0.035188,-0.000000,-2.261022,-0.418497,-0.238800,-0.000094,0.000000,0.086284,-0.363186,0.250119,0.000004,-0.000009,-3.053752,0.000000,0.000000,0.000000,0.000000,0.000000,0.000000,-4.118149,3.922070,0.303267,-0.047726,0.071290,0.054116,0.086290,-0.363187,0.250113,0.000000,-0.000000,-3.053753,0.000000,0.000000,0.000000,0.000000,0.000000,0.000000,0,28.375000,29.187500,27.625000,31.812500,35.000000,36.187500,0.659304,7,253,253,253,253,253,253,1,0.229843,0.210690,9.538500,0.000000,1.000000,0.000000,47.534634,47.575829,0.728464,47.527599,47.441601,47.556267,47.556267,47.355606,47.412937,0,1,-0.000000,-0.000000,0.004000,0.004000,1,1,-648.305875,148.522849,19379.273350,-33.669894,-11.277892,33.979144,0.000002,0.000002,0.000002,0.000000,0.000000,0.000000,0,0,0,0,0,0,0,0,0,0.000000,0.000000,0.000000,0.000000,0.000000,0.000000,0.000000,0.000000
241390.416000,1.437494,-1.089114,2.525809,3.275377,1.572121,3.357390,0.000000,0.000000,0.000000,0.000000,0.000000,0.000000,0.000000,0.000000,0.000000,0.000000,0.000000,0.000000,0.000000,-2.260986,-0.418551,-0.238801,-0.000098,0.000000,0.000000,-23.523265,-4.324790,-1.846369,-0.000771,0.000000,1.437445,-1.089061,2.525836,3.275356,1.572124,3.357365,0.000000,0.000000,-0.000000,-0.000000,-0.000000,0.000000,0.326413,-1.866023,-0.727609,-0.180257,-0.046864,-0.034201,0.000000,-2.260986,-0.418551,-0.238801,-0.000098,0.000000,0.086273,-0.363186,0.250093,0.000021,0.000087,-3.053827,0.000000,0.000000,0.000000,0.000000,0.000000,0.000000,-4.208282,3.936609,0.310465,-0.047121,0.071027,0.051774,0.086290,-0.363187,0.250113,0.000000,-0.000000,-3.053753,0.000000,0.000000,0.000000,0.000000,0.000000,0.000000,0,28.375000,29.187500,27.625000,31.812500,35.000000,36.187500,0.671244,7,253,253,253,253,253,253,1,0.191536,0.191536,9.481039,0.000000,1.000000,0.000000,47.516720,47.568668,0.632233,47.513268,47.412937,47.541931,47.513268,47.355606,47.398605,0,1,-0.000000,-0.000000,0.004000,0.004000,1,1,-648.217016,148.500876,19379.280336,-33.670466,-11.277577,33.976798,0.000002,0.000002,0.000002,0.000000,0.000000,0.000000,0,0,0,0,0,0,0,0,0,0.000000,0.000000,0.000000,0.000000,0.000000,0.000000,0.000000,0.000000
241390.418000,1.437494,-1.089114,2.525809,3.275377,1.572121,3.357390,0.000000,0.000000,0.000000,0.000000,0.000000,0.000000,0.000000,0.000000,0.000000,0.000000,0.000000,0.000000,-0.000000,-2.261084,-0.418383,-0.238806,-0.000098,0.000000,-0.000000,-23.524282,-4.323059,-1.846406,-0.000771,0.000000,1.437469,-1.089068,2.525807,3.275364,1.572158,3.357378,0.000000,0.000000,-0.000000,-0.000000,-0.000000,0.000000,0.358761,-1.851887,-0.690184,-0.203571,-0.035864,-0.026635,-0.000000,-2.261084,-0.418383,-0.238806,-0.000098,0.000000,0.086277,-0.363192,0.250099,0.000064,0.000035,-3.053789,0.000000,0.000000,0.000000,0.000000,0.000000,0.000000,-4.197303,3.757724,0.436611,-0.052749,0.073787,0.051185,0.086290,-0.363187,0.250113,0.000000,-0.000000,-3.053753,0.000000,0.000000,0.000000,0.000000,0.000000,0.000000,0,28.375000,29.187500,27.625000,31.812500,35.000000,36.187500,0.672336,7,253,253,253,253,253,253,1,0.057461,0.114922,9.500193,0.000000,1.000000,0.000000,47.526573,47.580307,0.645659,47.498932,47.427269,47.541931,47.556267,47.341274,47.341274,0,1,-0.000000,-0.000000,0.004000,0.004000,1,1,-648.212376,148.679816,19379.406738,-33.665107,-11.280822,33.976212,0.000002,0.000002,0.000002,0.000000,0.000000,0.000000,0,0,0,0,0,0,0,0,0,0.000000,0.000000,0.000000,0.000000,0.000000,0.000000,0.000000,0.000000
