timestamp,target_q_0,target_q_1,target_q_2,target_q_3,target_q_4,target_q_5,target_qd_0,target_qd_1,target_qd_2,target_qd_3,target_qd_4,target_qd_5,target_qdd_0,target_qdd_1,target_qdd_2,target_qdd_3,target_qdd_4,target_qdd_5,target_current_0,target_current_1,target_current_2,target_current_3,target_current_4,target_current_5,target_moment_0,target_moment_1,target_moment_2,target_moment_3,target_moment_4,target_moment_5,actual_q_0,actual_q_1,actual_q_2,actual_q_3,actual_q_4,actual_q_5,actual_qd_0,actual_qd_1,actual_qd_2,actual_qd_3,actual_qd_4,actual_qd_5,actual_current_0,actual_current_1,actual_current_2,actual_current_3,actual_current_4,actual_current_5,joint_control_output_0,joint_control_output_1,joint_control_output_2,joint_control_output_3,joint_control_output_4,joint_control_output_5,actual_TCP_pose_0,actual_TCP_pose_1,actual_TCP_pose_2,actual_TCP_pose_3,actual_TCP_pose_4,actual_TCP_pose_5,actual_TCP_speed_0,actual_TCP_speed_1,actual_TCP_speed_2,actual_TCP_speed_3,actual_TCP_speed_4,actual_TCP_speed_5,actual_TCP_force_0,actual_TCP_force_1,actual_TCP_force_2,actual_TCP_force_3,actual_TCP_force_4,actual_TCP_force_5,target_TCP_pose_0,target_TCP_pose_1,target_TCP_pose_2,target_TCP_pose_3,target_TCP_pose_4,target_TCP_pose_5,target_TCP_speed_0,target_TCP_speed_1,target_TCP_speed_2,target_TCP_speed_3,target_TCP_speed_4,target_TCP_speed_5,actual_digital_input_bits,joint_temperatures_0,joint_temperatures_1,joint_temperatures_2,joint_temperatures_3,joint_temperatures_4,joint_temperatures_5,actual_execution_time,robot_mode,joint_mode_0,joint_mode_1,joint_mode_2,joint_mode_3,joint_mode_4,joint_mode_5,safety_mode,actual_tool_accelerometer_0,actual_tool_accelerometer_1,actual_tool_accelerometer_2,speed_scaling,target_speed_fraction,actual_momentum,actual_main_voltage,actual_robot_voltage,actual_robot_current,actual_joint_voltage_0,actual_joint_voltage_1,actual_joint_voltage_2,actual_joint_voltage_3,actual_joint_voltage_4,actual_joint_voltage_5,actual_digital_output_bits,runtime_state,standard_analog_input0,standard_analog_input1,standard_analog_output0,standard_analog_output1,robot_status_bits,safety_status_bits,ft_raw_wrench_0,ft_raw_wrench_1,ft_raw_wrench_2,ft_raw_wrench_3,ft_raw_wrench_4,ft_raw_wrench_5,payload_inertia_0,payload_inertia_1,payload_inertia_2,payload_inertia_3,payload_inertia_4,payload_inertia_5,output_int_register_2,output_int_register_12,output_int_register_13,output_int_register_14,output_int_register_15,output_int_register_16,output_int_register_17,output_int_register_18,output_int_register_19,output_double_register_12,output_double_register_13,output_double_register_14,output_double_register_15,output_double_register_16,output_double_register_17,output_double_register_18,output_double_register_19
241535.816000,1.437494,-1.089114,2.525809,3.275377,1.572121,3.357390,0.000000,0.000000,0.000000,0.000000,0.000000,0.000000,0.000000,0.000000,0.000000,0.000000,0.000000,0.000000,-0.000000,-2.261040,-0.418590,-0.238797,-0.000100,0.000000,-0.000000,-23.523832,-4.325192,-1.846336,-0.000786,0.000000,1.437510,-1.089131,2.525807,3.275397,1.572124,3.357365,0.000000,0.000000,-0.000000,0.000000,0.000000,0.000000,0.273404,-1.993249,-0.542930,-0.181282,-0.042413,-0.045987,-0.000000,-2.261040,-0.418590,-0.238797,-0.000100,0.000000,0.086296,-0.363187,0.250118,0.000005,-0.000000,-3.053761,0.000000,0.000000,0.000000,0.000000,0.000000,0.000000,-4.360746,3.498771,0.604467,-0.058127,0.072004,0.050058,0.086290,-0.363187,0.250113,0.000000,-0.000000,-3.053753,0.000000,0.000000,0.000000,0.000000,0.000000,0.000000,0,28.437500,29.250000,27.687500,31.812500,35.000000,36.250000,0.637105,7,253,253,253,253,253,253,1,0.210690,0.076614,9.538500,0.000000,1.000000,0.000000,47.521198,47.574039,0.591951,47.470268,47.427269,47.513268,47.513268,47.298275,47.369938,0,1,-0.000000,-0.000000,0.004000,0.004000,1,1,-648.027042,148.923282,19379.574532,-33.659594,-11.279515,33.975086,0.000002,0.000002,0.000002,0.000000,0.000000,0.000000,0,0,0,0,0,0,0,0,0,0.000000,0.000000,0.000000,0.000000,0.000000,0.000000,0.000000,0.000000
241535.818000,1.437494,-1.089114,2.525809,3.275377,1.572121,3.357390,0.000000,0.000000,0.000000,0.000000,0.000000,0.000000,0.000000,0.000000,0.000000,0.000000,0.000000,0.000000,-0.000000,-2.261006,-0.418556,-0.238801,-0.000098,0.000000,-0.000000,-23.523478,-4.324839,-1.846372,-0.000771,0.000000,1.437481,-1.089138,2.525814,3.275388,1.572166,3.357402,0.000000,0.000000,-0.000000,0.000000,0.000000,0.000000,0.296780,-2.055379,-0.514120,-0.184135,-0.012888,-0.043191,-0.000000,-2.261006,-0.418556,-0.238801,-0.000098,0.000000,0.086281,-0.363185,0.250120,0.000066,-0.000025,-3.053753,0.000000,0.000000,0.000000,0.000000,0.000000,0.000000,-4.309147,3.687040,0.336752,-0.050869,0.073221,0.047399,0.086290,-0.363187,0.250113,0.000000,-0.000000,-3.053753,0.000000,0.000000,0.000000,0.000000,0.000000,0.000000,0,28.437500,29.250000,27.687500,31.812500,35.000000,36.250000,0.643608,7,253,253,253,253,253,253,1,0.248997,0.019154,9.442732,0.000000,1.000000,0.000000,47.517616,47.574932,0.614330,47.455936,47.412937,47.527599,47.484600,47.355606,47.369938,0,1,-0.000000,-0.000000,0.004000,0.004000,1,1,-648.094906,148.740197,19379.307046,-33.666934,-11.280092,33.972429,0.000002,0.000002,0.000002,0.000000,0.000000,0.000000,0,0,0,0,0,0,0,0,0,0.000000,0.000000,0.000000,0.000000,0.000000,0.000000,0.000000,0.000000
241535.820000,1.437494,-1.089114,2.525809,3.275377,1.572121,3.357390,0.000000,0.000000,0.000000,0.000000,0.000000,0.000000,0.000000,0.000000,0.000000,0.000000,0.000000,0.000000,-0.000000,-2.260980,-0.418556,-0.238801,-0.000101,0.000000,-0.000000,-23.523204,-4.324839,-1.846367,-0.000796,0.000000,1.437490,-1.089140,2.525844,3.275398,1.572132,3.357410,0.000000,0.000000,-0.000000,0.000000,0.000000,0.000000,0.291850,-2.039467,-0.528600,-0.186308,-0.041199,-0.038673,-0.000000,-2.260980,-0.418556,-0.238801,-0.000101,0.000000,0.086289,-0.363177,0.250115,0.000025,0.000041,-3.053736,0.000000,0.000000,0.000000,0.000000,0.000000,0.000000,-4.364062,3.748343,0.315272,-0.048412,0.074553,0.045453,0.086290,-0.363187,0.250113,0.000000,-0.000000,-3.053753,0.000000,0.000000,0.000000,0.000000,0.000000,0.000000,0,28.437500,29.250000,27.687500,31.812500,35.000000,36.250000,0.643068,7,253,253,253,253,253,253,1,0.248997,0.057461,9.500193,0.000000,1.000000,0.000000,47.510452,47.554333,0.621043,47.513268,47.427269,47.556267,47.484600,47.326939,47.412937,0,1,-0.000000,-0.000000,0.004000,0.004000,1,1,-648.045704,148.674336,19379.285284,-33.669497,-11.281205,33.970479,0.000002,0.000002,0.000002,0.000000,0.000000,0.000000,0,0,0,0,0,0,0,0,0,0.000000,0.000000,0.000000,0.000000,0.000000,0.000000,0.000000,0.000000
241535.822000,1.437494,-1.089114,2.525809,3.275377,1.572121,3.357390,0.000000,0.000000,0.000000,0.000000,0.000000,0.000000,0.000000,0.000000,0.000000,0.000000,0.000000,0.000000,-0.000000,-2.260927,-0.418507,-0.238804,-0.000098,0.000000,-0.000000,-23.522654,-4.324339,-1.846389,-0.000776,0.000000,1.437441,-1.089131,2.525812,3.275389,1.572099,3.357365,0.000000,0.000000,-0.000000,0.000000,0.000000,0.000000,0.247871,-2.022522,-0.548884,-0.203456,-0.028835,-0.037405,-0.000000,-2.260927,-0.418507,-0.238804,-0.000098,0.000000,0.086273,-0.363191,0.250118,-0.000034,0.000001,-3.053831,0.000000,0.000000,0.000000,0.000000,0.000000,0.000000,-4.306285,3.475607,0.323056,-0.057366,0.069199,0.045662,0.086290,-0.363187,0.250113,0.000000,-0.000000,-3.053753,0.000000,0.000000,0.000000,0.000000,0.000000,0.000000,0,28.437500,29.250000,27.687500,31.812500,35.000000,36.250000,0.641604,7,253,253,253,253,253,253,1,0.248997,0.153229,9.481039,0.000000,1.000000,0.000000,47.526573,47.587475,0.591951,47.513268,47.412937,47.541931,47.513268,47.355606,47.398605,0,1,-0.000000,-0.000000,0.004000,0.004000,1,1,-648.079047,148.951415,19379.293011,-33.660100,-11.276650,33.970688,0.000002,0.000002,0.000002,0.000000,0.000000,0.000000,0,0,0,0,0,0,0,0,0,0.000000,0.000000,0.000000,0.000000,0.000000,0.000000,0.000000,0.000000
241535.824000,1.437494,-1.089114,2.525809,3.275377,1.572121,3.357390,0.000000,0.000000,0.000000,0.000000,0.000000,0.000000,0.000000,0.000000,0.000000,0.000000,0.000000,0.000000,-0.000000,-2.260998,-0.418547,-0.238801,-0.000096,0.000000,-0.000000,-23.523393,-4.324753,-1.846370,-0.000757,0.000000,1.437414,-1.089082,2.525769,3.275343,1.572146,3.357378,0.000000,0.000000,-0.000000,0.000000,0.000000,0.000000,0.289876,-2.026560,-0.574064,-0.198623,-0.030388,-0.038121,-0.000000,-2.260998,-0.418547,-0.238801,-0.000096,0.000000,0.086257,-0.363205,0.250112,0.000027,-0.000070,-3.053844,0.000000,0.000000,0.000000,0.000000,0.000000,0.000000,-4.497046,3.486448,0.464989,-0.056438,0.074284,0.048242,0.086290,-0.363187,0.250113,0.000000,-0.000000,-3.053753,0.000000,0.000000,0.000000,0.000000,0.000000,0.000000,0,28.437500,29.250000,27.687500,31.812500,35.000000,36.250000,0.642924,7,253,253,253,253,253,253,1,0.172383,0.114922,9.538500,0.000000,1.000000,0.000000,47.534634,47.590157,0.607612,47.498932,47.412937,47.527599,47.484600,47.326939,47.412937,0,1,-0.000000,-0.000000,0.004000,0.004000,1,1,-647.889843,148.923857,19379.435282,-33.661473,-11.281633,33.973273,0.000002,0.000002,0.000002,0.000000,0.000000,0.000000,0,0,0,0,0,0,0,0,0,0.000000,0.000000,0.000000,0.000000,0.000000,0.000000,0.000000,0.000000
241535.826000,1.437494,-1.089114,2.525809,3.275377,1.572121,3.357390,0.000000,0.000000,0.000000,0.000000,0.000000,0.000000,0.000000,0.000000,0.000000,0.000000,0.000000,0.000000,-0.000000,-2.261158,-0.418533,-0.238798,-0.000099,0.000000,-0.000000,-23.525056,-4.324603,-1.846348,-0.000784,0.000000,1.437485,-1.089164,2.525807,3.275335,1.572137,3.357369,0.000000,0.000000,-0.000000,0.000000,0.000000,0.000000,0.313213,-1.993050,-0.537060,-0.182546,-0.025604,-0.027848,-0.000000,-2.261158,-0.418533,-0.238798,-0.000099,0.000000,0.086287,-0.363180,0.250135,-0.000001,-0.000146,-3.053781,0.000000,0.000000,0.000000,0.000000,0.000000,0.000000,-4.726901,3.553025,0.394395,-0.054754,0.080761,0.040027,0.086290,-0.363187,0.250113,0.000000,-0.000000,-3.053753,0.000000,0.000000,0.000000,0.000000,0.000000,0.000000,0,28.437500,29.250000,27.687500,31.812500,35.000000,36.250000,0.649512,7,253,253,253,253,253,253,1,0.210690,0.134075,9.576807,0.000000,1.000000,0.000000,47.522987,47.581200,0.681469,47.484600,47.398605,47.556267,47.513268,47.298275,47.398605,0,1,-0.000000,-0.000000,0.004000,0.004000,1,1,-647.666993,148.837017,19379.364801,-33.663725,-11.287937,33.965062,0.000002,0.000002,0.000002,0.000000,0.000000,0.000000,0,0,0,0,0,0,0,0,0,0.000000,0.000000,0.000000,0.000000,0.000000,0.000000,0.000000,0.000000
241535.828000,1.437494,-1.089114,2.525809,3.275377,1.572121,3.357390,0.000000,0.000000,0.000000,0.000000,0.000000,0.000000,0.000000,0.000000,0.000000,0.000000,0.000000,0.000000,0.000000,-2.260943,-0.418609,-0.238794,-0.000099,0.000000,0.000000,-23.522821,-4.325386,-1.846317,-0.000779,0.000000,1.437490,-1.089140,2.525778,3.275368,1.572112,3.357374,0.000000,0.000000,-0.000000,0.000000,0.000000,0.000000,0.286327,-2.047734,-0.540223,-0.199273,-0.036931,-0.024004,0.000000,-2.260943,-0.418609,-0.238794,-0.000099,0.000000,0.086289,-0.363193,0.250128,-0.000030,-0.000097,-3.053773,0.000000,0.000000,0.000000,0.000000,0.000000,0.000000,-4.545382,3.746737,0.402826,-0.051509,0.078383,0.043651,0.086290,-0.363187,0.250113,0.000000,-0.000000,-3.053753,0.000000,0.000000,0.000000,0.000000,0.000000,0.000000,0,28.437500,29.250000,27.687500,31.812500,35.000000,36.250000,0.642204,7,253,253,253,253,253,253,1,0.229843,0.153229,9.481039,0.000000,1.000000,0.000000,47.497021,47.554333,0.609854,47.498932,47.412937,47.513268,47.484600,47.298275,47.384270,0,1,-0.000000,-0.000000,0.004000,0.004000,1,1,-647.864873,148.659999,19379.373040,-33.666746,-11.285285,33.968683,0.000002,0.000002,0.000002,0.000000,0.000000,0.000000,0,0,0,0,0,0,0,0,0,0.000000,0.000000,0.000000,0.000000,0.000000,0.000000,0.000000,0.000000
241535.830000,1.437494,-1.089114,2.525809,3.275377,1.572121,3.357390,0.000000,0.000000,0.000000,0.000000,0.000000,0.000000,0.000000,0.000000,0.000000,0.000000,0.000000,0.000000,-0.000000,-2.261038,-0.418619,-0.238796,-0.000097,0.000000,-0.000000,-23.523810,-4.325498,-1.846333,-0.000765,0.000000,1.437497,-1.089176,2.525810,3.275364,1.572124,3.357369,0.000000,0.000000,-0.000000,0.000000,0.000000,0.000000,0.300184,-2.032373,-0.548587,-0.194148,-0.028297,-0.023566,-0.000000,-2.261038,-0.418619,-0.238796,-0.000097,0.000000,0.086292,-0.363180,0.250136,-0.000015,-0.000114,-3.053770,0.000000,0.000000,0.000000,0.000000,0.000000,0.000000,-4.342863,3.580968,0.538261,-0.055105,0.073331,0.049654,0.086290,-0.363187,0.250113,0.000000,-0.000000,-3.053753,0.000000,0.000000,0.000000,0.000000,0.000000,0.000000,0,28.437500,29.250000,27.687500,31.812500,35.000000,36.250000,0.642732,7,253,253,253,253,253,253,1,0.210690,0.095768,9.461885,0.000000,1.000000,0.000000,47.526573,47.588367,0.585233,47.527599,47.441601,47.527599,47.484600,47.355606,47.326939,0,1,-0.000000,-0.000000,0.004000,0.004000,1,1,-648.052064,148.842868,19379.508550,-33.662723,-11.280567,33.974686,0.000002,0.000002,0.000002,0.000000,0.000000,0.000000,0,0,0,0,0,0,0,0,0,0.000000,0.000000,0.000000,0.000000,0.000000,0.000000,0.000000,0.000000
241535.832000,1.437494,-1.089114,2.525809,3.275377,1.572121,3.357390,0.000000,0.000000,0.000000,0.000000,0.000000,0.000000,0.000000,0.000000,0.000000,0.000000,0.000000,0.000000,-0.000000,-2.260918,-0.418626,-0.238796,-0.000098,0.000000,-0.000000,-23.522561,-4.325563,-1.846328,-0.000771,0.000000,1.437518,-1.089119,2.525819,3.275368,1.572080,3.357431,0.000000,0.000000,-0.000000,0.000000,0.000000,0.000000,0.326181,-2.008881,-0.550404,-0.187746,-0.018391,-0.037179,-0.000000,-2.260918,-0.418626,-0.238796,-0.000098,0.000000,0.086303,-0.363182,0.250115,-0.000063,0.000004,-3.053687,0.000000,0.000000,0.000000,0.000000,0.000000,0.000000,-4.535351,3.526230,0.856648,-0.059360,0.080219,0.045908,0.086290,-0.363187,0.250113,0.000000,-0.000000,-3.053753,0.000000,0.000000,0.000000,0.000000,0.000000,0.000000,0,28.437500,29.250000,27.687500,31.812500,35.000000,36.250000,0.642193,7,253,253,253,253,253,253,1,0.268151,0.076614,9.461885,0.000000,1.000000,0.000000,47.546276,47.588367,0.607612,47.498932,47.441601,47.541931,47.513268,47.355606,47.412937,0,1,-0.000000,-0.000000,0.004000,0.004000,1,1,-647.855879,148.880308,19379.826508,-33.659091,-11.287809,33.970933,0.000002,0.000002,0.000002,0.000000,0.000000,0.000000,0,0,0,0,0,0,0,0,0,0.000000,0.000000,0.000000,0.000000,0.000000,0.000000,0.000000,0.000000
241535.834000,1.437494,-1.089114,2.525809,3.275377,1.572121,3.357390,0.000000,0.000000,0.000000,0.000000,0.000000,0.000000,0.000000,0.000000,0.000000,0.000000,0.000000,0.000000,-0.000000,-2.261007,-0.418514,-0.238801,-0.000095,0.000000,-0.000000,-23.523485,-4.324405,-1.846369,-0.000746,0.000000,1.437469,-1.089164,2.525807,3.275378,1.572158,3.357431,0.000000,0.000000,-0.000000,0.000000,0.000000,0.000000,0.323792,-2.029170,-0.511655,-0.182884,-0.022230,-0.030285,-0.000000,-2.261007,-0.418514,-0.238801,-0.000095,0.000000,0.086278,-0.363185,0.250131,0.000042,-0.000086,-3.053736,0.000000,0.000000,0.000000,0.000000,0.000000,0.000000,-4.479477,3.631683,0.332281,-0.049602,0.075742,0.047544,0.086290,-0.363187,0.250113,0.000000,-0.000000,-3.053753,0.000000,0.000000,0.000000,0.000000,0.000000,0.000000,0,28.437500,29.250000,27.687500,31.812500,35.000000,36.250000,0.655225,7,253,253,253,253,253,253,1,0.172383,0.076614,9.481039,0.000000,1.000000,0.000000,47.491642,47.552544,0.612089,47.455936,47.398605,47.513268,47.498932,47.312607,47.341274,0,1,-0.000000,-0.000000,0.004000,0.004000,1,1,-647.920483,148.780245,19379.302665,-33.668420,-11.282491,33.972577,0.000002,0.000002,0.000002,0.000000,0.000000,0.000000,0,0,0,0,0,0,0,0,0,0.000000,0.000000,0.000000,0.000000,0.000000,0.000000,0.000000,0.000000
241535.836000,1.437494,-1.089114,2.525809,3.275377,1.572121,3.357390,0.000000,0.000000,0.000000,0.000000,0.000000,0.000000,0.000000,0.000000,0.000000,0.000000,0.000000,0.000000,0.000000,-2.260946,-0.418611,-0.238798,-0.000100,0.000000,0.000000,-23.522846,-4.325411,-1.846342,-0.000791,0.000000,1.437448,-1.089110,2.525823,3.275385,1.572115,3.357365,0.000000,0.000000,-0.000000,0.000000,0.000000,0.000000,0.274828,-2.046727,-0.547651,-0.188073,-0.020307,-0.046176,0.000000,-2.260946,-0.418611,-0.238798,-0.000100,0.000000,0.086274,-0.363188,0.250109,-0.000002,0.000038,-3.053823,0.000000,0.000000,0.000000,0.000000,0.000000,0.000000,-4.534685,3.449555,0.488705,-0.059159,0.077662,0.041926,0.086290,-0.363187,0.250113,0.000000,-0.000000,-3.053753,0.000000,0.000000,0.000000,0.000000,0.000000,0.000000,0,28.437500,29.250000,27.687500,31.812500,35.000000,36.250000,0.647749,7,253,253,253,253,253,253,1,0.210690,0.191536,9.481039,0.000000,1.000000,0.000000,47.502392,47.552544,0.643423,47.470268,47.384270,47.513268,47.484600,47.298275,47.341274,0,1,-0.000000,-0.000000,0.004000,0.004000,1,1,-647.849225,148.957360,19379.458658,-33.659056,-11.285240,33.966951,0.000002,0.000002,0.000002,0.000000,0.000000,0.000000,0,0,0,0,0,0,0,0,0,0.000000,0.000000,0.000000,0.000000,0.000000,0.000000,0.000000,0.000000
241535.838000,1.437494,-1.089114,2.525809,3.275377,1.572121,3.357390,0.000000,0.000000,0.000000,0.000000,0.000000,0.000000,0.000000,0.000000,0.000000,0.000000,0.000000,0.000000,0.000000,-2.261017,-0.418492,-0.238803,-0.000097,0.000000,0.000000,-23.523586,-4.324180,-1.846386,-0.000766,0.000000,1.437522,-1.089147,2.525812,3.275410,1.572124,3.357436,0.000000,0.000000,-0.000000,0.000000,0.000000,0.000000,0.305252,-2.027782,-0.539067,-0.197299,-0.039351,-0.033273,0.000000,-2.261017,-0.418492,-0.238803,-0.000097,0.000000,0.086300,-0.363184,0.250122,0.000006,0.000002,-3.053678,0.000000,0.000000,0.000000,0.000000,0.000000,0.000000,-4.506347,3.533611,0.343504,-0.054345,0.078168,0.046327,0.086290,-0.363187,0.250113,0.000000,-0.000000,-3.053753,0.000000,0.000000,0.000000,0.000000,0.000000,0.000000,0,28.437500,29.250000,27.687500,31.812500,35.000000,36.250000,0.649824,7,253,253,253,253,253,253,1,0.229843,0.172383,9.481039,0.000000,1.000000,0.000000,47.514034,47.577621,0.663561,47.484600,47.384270,47.513268,47.470268,47.298275,47.398605,0,1,-0.000000,-0.000000,0.004000,0.004000,1,1,-647.885381,148.875462,19379.313564,-33.663909,-11.285328,33.971354,0.000002,0.000002,0.000002,0.000000,0.000000,0.000000,0,0,0,0,0,0,0,0,0,0.000000,0.000000,0.000000,0.000000,0.000000,0.000000,0.000000,0.000000
241535.840000,1.437494,-1.089114,2.525809,3.275377,1.572121,3.357390,0.000000,0.000000,0.000000,0.000000,0.000000,0.000000,0.000000,0.000000,0.000000,0.000000,0.000000,0.000000,0.000000,-2.260970,-0.418576,-0.238802,-0.000098,0.000000,0.000000,-23.523097,-4.325055,-1.846373,-0.000771,0.000000,1.437469,-1.089156,2.525814,3.275364,1.572112,3.357381,0.000000,0.000000,-0.000000,0.000000,0.000000,0.000000,0.271882,-2.042006,-0.520398,-0.195867,-0.026200,-0.037115,0.000000,-2.260970,-0.418576,-0.238802,-0.000098,0.000000,0.086283,-0.363183,0.250129,-0.000026,-0.000075,-3.053786,0.000000,0.000000,0.000000,0.000000,0.000000,0.000000,-4.390189,3.646996,0.262006,-0.051822,0.071476,0.054583,0.086290,-0.363187,0.250113,0.000000,-0.000000,-3.053753,0.000000,0.000000,0.000000,0.000000,0.000000,0.000000,0,28.437500,29.250000,27.687500,31.812500,35.000000,36.250000,0.645768,7,253,253,253,253,253,253,1,0.210690,0.134075,9.442732,0.000000,1.000000,0.000000,47.540901,47.575829,0.647900,47.513268,47.441601,47.527599,47.513268,47.355606,47.412937,0,1,-0.000000,-0.000000,0.004000,0.004000,1,1,-648.010663,148.773045,19379.232171,-33.665827,-11.278432,33.979613,0.000002,0.000002,0.000002,0.000000,0.000000,0.000000,0,0,0,0,0,0,0,0,0,0.000000,0.000000,0.000000,0.000000,0.000000,0.000000,0.000000,0.000000
241535.842000,1.437494,-1.089114,2.525809,3.275377,1.572121,3.357390,0.000000,0.000000,0.000000,0.000000,0.000000,0.000000,0.000000,0.000000,0.000000,0.000000,0.000000,0.000000,-0.000000,-2.260946,-0.418585,-0.238798,-0.000097,0.000000,-0.000000,-23.522854,-4.325140,-1.846342,-0.000765,0.000000,1.437445,-1.089119,2.525827,3.275361,1.572096,3.357418,0.000000,0.000000,-0.000000,0.000000,0.000000,0.000000,0.272158,-1.984195,-0.536151,-0.178808,-0.034679,-0.051044,-0.000000,-2.260946,-0.418585,-0.238798,-0.000097,0.000000,0.086276,-0.363185,0.250114,-0.000038,-0.000000,-3.053773,0.000000,0.000000,0.000000,0.000000,0.000000,0.000000,-4.306698,3.648305,0.232005,-0.051428,0.075721,0.050046,0.086290,-0.363187,0.250113,0.000000,-0.000000,-3.053753,0.000000,0.000000,0.000000,0.000000,0.000000,0.000000,0,28.437500,29.250000,27.687500,31.812500,35.000000,36.250000,0.653160,7,253,253,253,253,253,253,1,0.191536,0.191536,9.500193,0.000000,1.000000,0.000000,47.508659,47.560604,0.638946,47.484600,47.398605,47.556267,47.484600,47.355606,47.398605,0,1,-0.000000,-0.000000,0.004000,0.004000,1,1,-648.094012,148.779116,19379.201951,-33.666591,-11.282629,33.975072,0.000002,0.000002,0.000002,0.000000,0.000000,0.000000,0,0,0,0,0,0,0,0,0,0.000000,0.000000,0.000000,0.000000,0.000000,0.000000,0.000000,0.000000
241535.844000,1.437494,-1.089114,2.525809,3.275377,1.572121,3.357390,0.000000,0.000000,0.000000,0.000000,0.000000,0.000000,0.000000,0.000000,0.000000,0.000000,0.000000,0.000000,0.000000,-2.260993,-0.418499,-0.238801,-0.000096,0.000000,0.000000,-23.523337,-4.324256,-1.846369,-0.000755,0.000000,1.437445,-1.089127,2.525823,3.275438,1.572124,3.357418,0.000000,0.000000,-0.000000,0.000000,0.000000,0.000000,0.350088,-2.002129,-0.517530,-0.192414,-0.045102,-0.043737,0.000000,-2.260993,-0.418499,-0.238801,-0.000096,0.000000,0.086272,-0.363192,0.250110,0.000022,0.000092,-3.053773,0.000000,0.000000,0.000000,0.000000,0.000000,0.000000,-4.396784,3.664237,0.082716,-0.053750,0.075240,0.047649,0.086290,-0.363187,0.250113,0.000000,-0.000000,-3.053753,0.000000,0.000000,0.000000,0.000000,0.000000,0.000000,0,28.437500,29.250000,27.687500,31.812500,35.000000,36.250000,0.649692,7,253,253,253,253,253,253,1,0.210690,0.095768,9.404425,0.000000,1.000000,0.000000,47.501499,47.562393,0.589710,47.455936,47.384270,47.513268,47.484600,47.298275,47.384270,0,1,-0.000000,-0.000000,0.004000,0.004000,1,1,-648.005577,148.755480,19379.052592,-33.664235,-11.282358,33.972672,0.000002,0.000002,0.000002,0.000000,0.000000,0.000000,0,0,0,0,0,0,0,0,0,0.000000,0.000000,0.000000,0.000000,0.000000,0.000000,0.000000,0.000000
241535.846000,1.437494,-1.089114,2.525809,3.275377,1.572121,3.357390,0.000000,0.000000,0.000000,0.000000,0.000000,0.000000,0.000000,0.000000,0.000000,0.000000,0.000000,0.000000,0.000000,-2.260990,-0.418523,-0.238806,-0.000098,0.000000,0.000000,-23.523306,-4.324504,-1.846408,-0.000771,0.000000,1.437539,-1.089135,2.525835,3.275345,1.572120,3.357378,0.000000,0.000000,-0.000000,0.000000,0.000000,0.000000,0.289600,-1.987259,-0.566852,-0.169257,-0.036760,-0.030110,0.000000,-2.260990,-0.418523,-0.238806,-0.000098,0.000000,0.086308,-0.363171,0.250120,-0.000009,-0.000043,-3.053720,0.000000,0.000000,0.000000,0.000000,0.000000,0.000000,-4.417493,3.685438,0.267534,-0.051379,0.072557,0.049315,0.086290,-0.363187,0.250113,0.000000,-0.000000,-3.053753,0.000000,0.000000,0.000000,0.000000,0.000000,0.000000,0,28.437500,29.250000,27.687500,31.812500,35.000000,36.250000,0.646296,7,253,253,253,253,253,253,1,0.229843,0.172383,9.500193,0.000000,1.000000,0.000000,47.516720,47.574039,0.643423,47.498932,47.427269,47.541931,47.484600,47.355606,47.412937,0,1,-0.000000,-0.000000,0.004000,0.004000,1,1,-647.987078,148.732129,19379.237667,-33.666368,-11.279475,33.974344,0.000002,0.000002,0.000002,0.000000,0.000000,0.000000,0,0,0,0,0,0,0,0,0,0.000000,0.000000,0.000000,0.000000,0.000000,0.000000,0.000000,0.000000
241535.848000,1.437494,-1.089114,2.525809,3.275377,1.572121,3.357390,0.000000,0.000000,0.000000,0.000000,0.000000,0.000000,0.000000,0.000000,0.000000,0.000000,0.000000,0.000000,0.000000,-2.260947,-0.418512,-0.238799,-0.000098,0.000000,0.000000,-23.522863,-4.324387,-1.846355,-0.000769,0.000000,1.437490,-1.089156,2.525814,3.275356,1.572146,3.357423,0.000000,0.000000,-0.000000,0.000000,0.000000,0.000000,0.262222,-1.997682,-0.514220,-0.200417,-0.049531,-0.044205,0.000000,-2.260947,-0.418512,-0.238799,-0.000098,0.000000,0.086287,-0.363180,0.250130,0.000022,-0.000094,-3.053724,0.000000,0.000000,0.000000,0.000000,0.000000,0.000000,-4.289300,3.716212,0.357511,-0.051022,0.069395,0.049402,0.086290,-0.363187,0.250113,0.000000,-0.000000,-3.053753,0.000000,0.000000,0.000000,0.000000,0.000000,0.000000,0,28.437500,29.250000,27.687500,31.812500,35.000000,36.250000,0.659988,7,253,253,253,253,253,253,1,0.268151,0.114922,9.481039,0.000000,1.000000,0.000000,47.512241,47.581200,0.643423,47.484600,47.412937,47.541931,47.484600,47.355606,47.398605,0,1,-0.000000,-0.000000,0.004000,0.004000,1,1,-648.117420,148.712673,19379.327860,-33.666449,-11.276293,33.974435,0.000002,0.000002,0.000002,0.000000,0.000000,0.000000,0,0,0,0,0,0,0,0,0,0.000000,0.000000,0.000000,0.000000,0.000000,0.000000,0.000000,0.000000
241535.850000,1.437494,-1.089114,2.525809,3.275377,1.572121,3.357390,0.000000,0.000000,0.000000,0.000000,0.000000,0.000000,0.000000,0.000000,0.000000,0.000000,0.000000,0.000000,-0.000000,-2.260946,-0.418584,-0.238797,-0.000099,0.000000,-0.000000,-23.522850,-4.325136,-1.846338,-0.000784,0.000000,1.437428,-1.089123,2.525820,3.275335,1.572108,3.357390,0.000000,0.000000,-0.000000,0.000000,0.000000,0.000000,0.305196,-2.018685,-0.556462,-0.174856,-0.025256,-0.032828,-0.000000,-2.260946,-0.418584,-0.238797,-0.000099,0.000000,0.086268,-0.363185,0.250119,-0.000030,-0.000057,-3.053819,0.000000,0.000000,0.000000,0.000000,0.000000,0.000000,-4.470292,3.540926,0.485467,-0.056142,0.074686,0.047422,0.086290,-0.363187,0.250113,0.000000,-0.000000,-3.053753,0.000000,0.000000,0.000000,0.000000,0.000000,0.000000,0,28.437500,29.250000,27.687500,31.812500,35.000000,36.250000,0.660204,7,253,253,253,253,253,253,1,0.248997,0.172383,9.481039,0.000000,1.000000,0.000000,47.512241,47.547173,0.636710,47.484600,47.412937,47.527599,47.484600,47.298275,47.398605,0,1,-0.000000,-0.000000,0.004000,0.004000,1,1,-647.921437,148.871849,19379.455572,-33.661803,-11.282008,33.972451,0.000002,0.000002,0.000002,0.000000,0.000000,0.000000,0,0,0,0,0,0,0,0,0,0.000000,0.000000,0.000000,0.000000,0.000000,0.000000,0.000000,0.000000
241535.852000,1.437494,-1.089114,2.525809,3.275377,1.572121,3.357390,0.000000,0.000000,0.000000,0.000000,0.000000,0.000000,0.000000,0.000000,0.000000,0.000000,0.000000,0.000000,-0.000000,-2.260994,-0.418516,-0.238798,-0.000097,0.000000,-0.000000,-23.523353,-4.324434,-1.846348,-0.000762,0.000000,1.437436,-1.089106,2.525819,3.275307,1.572094,3.357415,0.000000,0.000000,-0.000000,0.000000,0.000000,0.000000,0.267688,-2.010247,-0.526670,-0.193510,-0.032039,-0.044744,-0.000000,-2.260994,-0.418516,-0.238798,-0.000097,0.000000,0.086273,-0.363184,0.250116,-0.000053,-0.000072,-3.053785,0.000000,0.000000,0.000000,0.000000,0.000000,0.000000,-4.278511,3.570850,0.332994,-0.056023,0.071825,0.047867,0.086290,-0.363187,0.250113,0.000000,-0.000000,-3.053753,0.000000,0.000000,0.000000,0.000000,0.000000,0.000000,0,28.437500,29.250000,27.687500,31.812500,35.000000,36.250000,0.643009,7,253,253,253,253,253,253,1,0.325611,0.134075,9.461885,0.000000,1.000000,0.000000,47.507767,47.574039,0.636710,47.470268,47.412937,47.513268,47.484600,47.298275,47.369938,0,1,-0.000000,-0.000000,0.004000,0.004000,1,1,-648.115272,148.858694,19379.303077,-33.661673,-11.279148,33.972896,0.000002,0.000002,0.000002,0.000000,0.000000,0.000000,0,0,0,0,0,0,0,0,0,0.000000,0.000000,0.000000,0.000000,0.000000,0.000000,0.000000,0.000000
241535.854000,1.437494,-1.089114,2.525809,3.275377,1.572121,3.357390,0.000000,0.000000,0.000000,0.000000,0.000000,0.000000,0.000000,0.000000,0.000000,0.000000,0.000000,0.000000,0.000000,-2.261028,-0.418487,-0.238798,-0.000096,0.000000,0.000000,-23.523701,-4.324133,-1.846341,-0.000754,0.000000,1.437448,-1.089110,2.525831,3.275418,1.572128,3.357415,0.000000,0.000000,-0.000000,0.000000,0.000000,0.000000,0.261664,-1.997640,-0.528625,-0.185775,-0.041633,-0.048516,0.000000,-2.261028,-0.418487,-0.238798,-0.000096,0.000000,0.086273,-0.363189,0.250105,0.000028,0.000098,-3.053773,0.000000,0.000000,0.000000,0.000000,0.000000,0.000000,-4.465211,3.726451,0.220919,-0.051277,0.076148,0.044756,0.086290,-0.363187,0.250113,0.000000,-0.000000,-3.053753,0.000000,0.000000,0.000000,0.000000,0.000000,0.000000,0,28.437500,29.250000,27.687500,31.812500,35.000000,36.250000,0.642517,7,253,253,253,253,253,253,1,0.306458,0.038307,9.557653,0.000000,1.000000,0.000000,47.526573,47.566872,0.679228,47.498932,47.427269,47.484600,47.513268,47.355606,47.398605,0,1,-0.000000,-0.000000,0.004000,0.004000,1,1,-647.942861,148.687504,19379.190797,-33.666778,-11.283046,33.969779,0.000002,0.000002,0.000002,0.000000,0.000000,0.000000,0,0,0,0,0,0,0,0,0,0.000000,0.000000,0.000000,0.000000,0.000000,0.000000,0.000000,0.000000
241535.856000,1.437494,-1.089114,2.525809,3.275377,1.572121,3.357390,0.000000,0.000000,0.000000,0.000000,0.000000,0.000000,0.000000,0.000000,0.000000,0.000000,0.000000,0.000000,0.000000,-2.261004,-0.418480,-0.238806,-0.000098,0.000000,0.000000,-23.523461,-4.324056,-1.846410,-0.000774,0.000000,1.437522,-1.089171,2.525786,3.275401,1.572090,3.357374,0.000000,0.000000,-0.000000,0.000000,0.000000,0.000000,0.293792,-2.035455,-0.514192,-0.185037,-0.034650,-0.046172,0.000000,-2.261004,-0.418480,-0.238806,-0.000098,0.000000,0.086303,-0.363189,0.250135,-0.000062,-0.000077,-3.053740,0.000000,0.000000,0.000000,0.000000,0.000000,0.000000,-4.367319,3.757881,0.214864,-0.051315,0.073941,0.044178,0.086290,-0.363187,0.250113,0.000000,-0.000000,-3.053753,0.000000,0.000000,0.000000,0.000000,0.000000,0.000000,0,28.437500,29.250000,27.687500,31.812500,35.000000,36.250000,0.638388,7,253,253,253,253,253,253,1,0.210690,0.095768,9.519346,0.000000,1.000000,0.000000,47.526573,47.575829,0.645659,47.527599,47.455936,47.570599,47.513268,47.355606,47.412937,0,1,-0.000000,-0.000000,0.004000,0.004000,1,1,-648.043409,148.664405,19379.184944,-33.666551,-11.280845,33.969208,0.000002,0.000002,0.000002,0.000000,0.000000,0.000000,0,0,0,0,0,0,0,0,0,0.000000,0.000000,0.000000,0.000000,0.000000,0.000000,0.000000,0.000000
241535.858000,1.437494,-1.089114,2.525809,3.275377,1.572121,3.357390,0.000000,0.000000,0.000000,0.000000,0.000000,0.000000,0.000000,0.000000,0.000000,0.000000,0.000000,0.000000,-0.000000,-2.260970,-0.418662,-0.238797,-0.000095,0.000000,-0.000000,-23.523096,-4.325934,-1.846339,-0.000752,0.000000,1.437469,-1.089159,2.525831,3.275345,1.572111,3.357337,0.000000,0.000000,-0.000000,0.000000,0.000000,0.000000,0.293088,-2.010860,-0.543543,-0.187226,-0.039455,-0.047704,-0.000000,-2.260970,-0.418662,-0.238797,-0.000095,0.000000,0.086284,-0.363176,0.250129,-0.000030,-0.000083,-3.053831,0.000000,0.000000,0.000000,0.000000,0.000000,0.000000,-4.361047,3.671354,0.113170,-0.052060,0.072759,0.048497,0.086290,-0.363187,0.250113,0.000000,-0.000000,-3.053753,0.000000,0.000000,0.000000,0.000000,0.000000,0.000000,0,28.437500,29.250000,27.687500,31.812500,35.000000,36.250000,0.640044,7,253,253,253,253,253,253,1,0.153229,0.057461,9.538500,0.000000,1.000000,0.000000,47.498810,47.545380,0.574043,47.455936,47.398605,47.513268,47.484600,47.312607,47.398605,0,1,-0.000000,-0.000000,0.004000,0.004000,1,1,-648.041656,148.751497,19379.083346,-33.665700,-11.279729,33.973527,0.000002,0.000002,0.000002,0.000000,0.000000,0.000000,0,0,0,0,0,0,0,0,0,0.000000,0.000000,0.000000,0.000000,0.000000,0.000000,0.000000,0.000000
241535.860000,1.437494,-1.089114,2.525809,3.275377,1.572121,3.357390,0.000000,0.000000,0.000000,0.000000,0.000000,0.000000,0.000000,0.000000,0.000000,0.000000,0.000000,0.000000,-0.000000,-2.260911,-0.418560,-0.238797,-0.000097,0.000000,-0.000000,-23.522485,-4.324889,-1.846339,-0.000764,0.000000,1.437506,-1.089106,2.525819,3.275352,1.572099,3.357386,0.000000,0.000000,-0.000000,0.000000,0.000000,0.000000,0.257927,-1.991768,-0.543613,-0.182705,-0.022705,-0.045726,-0.000000,-2.260911,-0.418560,-0.238797,-0.000097,0.000000,0.086297,-0.363182,0.250112,-0.000035,-0.000007,-3.053745,0.000000,0.000000,0.000000,0.000000,0.000000,0.000000,-4.419267,3.681269,0.358198,-0.056372,0.075093,0.046925,0.086290,-0.363187,0.250113,0.000000,-0.000000,-3.053753,0.000000,0.000000,0.000000,0.000000,0.000000,0.000000,0,28.437500,29.250000,27.687500,31.812500,35.000000,36.250000,0.660792,7,253,253,253,253,253,253,1,0.134075,0.095768,9.538500,0.000000,1.000000,0.000000,47.485374,47.545380,0.556140,47.498932,47.398605,47.498932,47.484600,47.255276,47.341274,0,1,-0.000000,-0.000000,0.004000,0.004000,1,1,-647.984876,148.736280,19379.328167,-33.661614,-11.282438,33.971951,0.000002,0.000002,0.000002,0.000000,0.000000,0.000000,0,0,0,0,0,0,0,0,0,0.000000,0.000000,0.000000,0.000000,0.000000,0.000000,0.000000,0.000000
241535.862000,1.437494,-1.089114,2.525809,3.275377,1.572121,3.357390,0.000000,0.000000,0.000000,0.000000,0.000000,0.000000,0.000000,0.000000,0.000000,0.000000,0.000000,0.000000,0.000000,-2.261030,-0.418490,-0.238801,-0.000096,0.000000,0.000000,-23.523727,-4.324159,-1.846367,-0.000757,0.000000,1.437485,-1.089094,2.525814,3.275376,1.572071,3.357374,0.000000,0.000000,-0.000000,0.000000,0.000000,0.000000,0.258608,-2.027183,-0.496293,-0.184235,-0.033002,-0.037988,0.000000,-2.261030,-0.418490,-0.238801,-0.000096,0.000000,0.086292,-0.363189,0.250106,-0.000069,0.000048,-3.053777,0.000000,0.000000,0.000000,0.000000,0.000000,0.000000,-4.312772,3.695915,0.374542,-0.052998,0.068263,0.048007,0.086290,-0.363187,0.250113,0.000000,-0.000000,-3.053753,0.000000,0.000000,0.000000,0.000000,0.000000,0.000000,0,28.437500,29.250000,27.687500,31.812500,35.000000,36.250000,0.641460,7,253,253,253,253,253,253,1,0.287304,0.229843,9.634268,0.000000,1.000000,0.000000,47.512241,47.551651,0.665802,47.513268,47.427269,47.527599,47.513268,47.355606,47.441601,0,1,-0.000000,-0.000000,0.004000,0.004000,1,1,-648.092154,148.731238,19379.344282,-33.664370,-11.275338,33.973030,0.000002,0.000002,0.000002,0.000000,0.000000,0.000000,0,0,0,0,0,0,0,0,0,0.000000,0.000000,0.000000,0.000000,0.000000,0.000000,0.000000,0.000000
241535.864000,1.437494,-1.089114,2.525809,3.275377,1.572121,3.357390,0.000000,0.000000,0.000000,0.000000,0.000000,0.000000,0.000000,0.000000,0.000000,0.000000,0.000000,0.000000,-0.000000,-2.261061,-0.418478,-0.238803,-0.000094,0.000000,-0.000000,-23.524045,-4.324035,-1.846386,-0.000740,0.000000,1.437490,-1.089152,2.525816,3.275365,1.572103,3.357374,0.000000,0.000000,-0.000000,0.000000,0.000000,0.000000,0.276975,-2.004362,-0.557461,-0.188836,-0.023837,-0.044270,-0.000000,-2.261061,-0.418478,-0.238803,-0.000094,0.000000,0.086291,-0.363181,0.250127,-0.000037,-0.000061,-3.053773,0.000000,0.000000,0.000000,0.000000,0.000000,0.000000,-4.444537,3.645305,0.288090,-0.053578,0.076106,0.049427,0.086290,-0.363187,0.250113,0.000000,-0.000000,-3.053753,0.000000,0.000000,0.000000,0.000000,0.000000,0.000000,0,28.437500,29.250000,27.687500,31.812500,35.000000,36.250000,0.638784,7,253,253,253,253,253,253,1,0.268151,0.306458,9.615114,0.000000,1.000000,0.000000,47.522987,47.567768,0.612089,47.527599,47.398605,47.527599,47.513268,47.355606,47.398605,0,1,-0.000000,-0.000000,0.004000,0.004000,1,1,-647.956443,148.769929,19379.258188,-33.664485,-11.283199,33.974456,0.000002,0.000002,0.000002,0.000000,0.000000,0.000000,0,0,0,0,0,0,0,0,0,0.000000,0.000000,0.000000,0.000000,0.000000,0.000000,0.000000,0.000000
241535.866000,1.437494,-1.089114,2.525809,3.275377,1.572121,3.357390,0.000000,0.000000,0.000000,0.000000,0.000000,0.000000,0.000000,0.000000,0.000000,0.000000,0.000000,0.000000,0.000000,-2.260952,-0.418574,-0.238798,-0.000096,0.000000,0.000000,-23.522909,-4.325032,-1.846347,-0.000759,0.000000,1.437510,-1.089164,2.525823,3.275356,1.572099,3.357386,0.000000,0.000000,-0.000000,0.000000,0.000000,0.000000,0.270094,-1.982265,-0.537778,-0.185577,-0.031547,-0.024154,0.000000,-2.260952,-0.418574,-0.238798,-0.000096,0.000000,0.086300,-0.363176,0.250131,-0.000048,-0.000080,-3.053740,0.000000,0.000000,0.000000,0.000000,0.000000,0.000000,-4.509310,3.630915,0.240082,-0.054206,0.072546,0.048499,0.086290,-0.363187,0.250113,0.000000,-0.000000,-3.053753,0.000000,0.000000,0.000000,0.000000,0.000000,0.000000,0,28.437500,29.250000,27.687500,31.812500,35.000000,36.250000,0.641568,7,253,253,253,253,253,253,1,0.153229,0.268151,9.538500,0.000000,1.000000,0.000000,47.529259,47.578518,0.616566,47.484600,47.427269,47.484600,47.484600,47.298275,47.384270,0,1,-0.000000,-0.000000,0.004000,0.004000,1,1,-647.890805,148.778419,19379.210196,-33.663550,-11.279708,33.973528,0.000002,0.000002,0.000002,0.000000,0.000000,0.000000,0,0,0,0,0,0,0,0,0,0.000000,0.000000,0.000000,0.000000,0.000000,0.000000,0.000000,0.000000
241535.868000,1.437494,-1.089114,2.525809,3.275377,1.572121,3.357390,0.000000,0.000000,0.000000,0.000000,0.000000,0.000000,0.000000,0.000000,0.000000,0.000000,0.000000,0.000000,-0.000000,-2.260917,-0.418583,-0.238797,-0.000096,0.000000,-0.000000,-23.522553,-4.325118,-1.846339,-0.000757,0.000000,1.437497,-1.089119,2.525819,3.275415,1.572099,3.357419,0.000000,0.000000,-0.000000,0.000000,0.000000,0.000000,0.297249,-1.991965,-0.549106,-0.198871,-0.037595,-0.030439,-0.000000,-2.260917,-0.418583,-0.238797,-0.000096,0.000000,0.086293,-0.363188,0.250110,-0.000022,0.000068,-3.053720,0.000000,0.000000,0.000000,0.000000,0.000000,0.000000,-4.380721,3.613922,0.362173,-0.054129,0.073125,0.045504,0.086290,-0.363187,0.250113,0.000000,-0.000000,-3.053753,0.000000,0.000000,0.000000,0.000000,0.000000,0.000000,0,28.437500,29.250000,27.687500,31.812500,35.000000,36.250000,0.641712,7,253,253,253,253,253,253,1,0.153229,0.172383,9.615114,0.000000,1.000000,0.000000,47.485374,47.557022,0.638946,47.470268,47.398605,47.527599,47.484600,47.298275,47.398605,0,1,-0.000000,-0.000000,0.004000,0.004000,1,1,-648.017441,148.806748,19379.331992,-33.663676,-11.280285,33.970527,0.000002,0.000002,0.000002,0.000000,0.000000,0.000000,0,0,0,0,0,0,0,0,0,0.000000,0.000000,0.000000,0.000000,0.000000,0.000000,0.000000,0.000000
241535.870000,1.437494,-1.089114,2.525809,3.275377,1.572121,3.357390,0.000000,0.000000,0.000000,0.000000,0.000000,0.000000,0.000000,0.000000,0.000000,0.000000,0.000000,0.000000,0.000000,-2.261010,-0.418516,-0.238805,-0.000096,0.000000,0.000000,-23.523513,-4.324431,-1.846396,-0.000757,0.000000,1.437473,-1.089152,2.525812,3.275358,1.572153,3.357427,0.000000,0.000000,-0.000000,0.000000,0.000000,0.000000,0.241819,-2.039503,-0.490346,-0.188528,-0.039772,-0.043998,0.000000,-2.261010,-0.418516,-0.238805,-0.000096,0.000000,0.086280,-0.363183,0.250128,0.000034,-0.000091,-3.053736,0.000000,0.000000,0.000000,0.000000,0.000000,0.000000,-4.491657,3.492444,0.259384,-0.055436,0.075874,0.042762,0.086290,-0.363187,0.250113,0.000000,-0.000000,-3.053753,0.000000,0.000000,0.000000,0.000000,0.000000,0.000000,0,28.437500,29.250000,27.687500,31.812500,35.000000,36.250000,0.642637,7,253,253,253,253,253,253,1,0.268151,0.153229,9.595961,0.000000,1.000000,0.000000,47.501499,47.551651,0.632233,47.513268,47.412937,47.513268,47.484600,47.312607,47.412937,0,1,-0.000000,-0.000000,0.004000,0.004000,1,1,-647.896142,148.917867,19379.229751,-33.662620,-11.283134,33.967795,0.000002,0.000002,0.000002,0.000000,0.000000,0.000000,0,0,0,0,0,0,0,0,0,0.000000,0.000000,0.000000,0.000000,0.000000,0.000000,0.000000,0.000000
241535.872000,1.437494,-1.089114,2.525809,3.275377,1.572121,3.357390,0.000000,0.000000,0.000000,0.000000,0.000000,0.000000,0.000000,0.000000,0.000000,0.000000,0.000000,0.000000,0.000000,-2.260958,-0.418581,-0.238797,-0.000100,0.000000,0.000000,-23.522982,-4.325104,-1.846340,-0.000788,0.000000,1.437489,-1.089127,2.525814,3.275319,1.572124,3.357332,0.000000,0.000000,-0.000000,0.000000,0.000000,0.000000,0.263049,-1.996114,-0.529429,-0.181855,-0.036634,-0.037353,0.000000,-2.260958,-0.418581,-0.238797,-0.000100,0.000000,0.086289,-0.363179,0.250123,-0.000012,-0.000100,-3.053815,0.000000,0.000000,0.000000,0.000000,0.000000,0.000000,-4.358596,3.590792,0.297481,-0.057677,0.072558,0.045931,0.086290,-0.363187,0.250113,0.000000,-0.000000,-3.053753,0.000000,0.000000,0.000000,0.000000,0.000000,0.000000,0,28.375000,29.187500,27.687500,31.812500,35.000000,36.250000,0.643201,7,253,253,253,253,253,253,1,0.229843,0.095768,9.576807,0.000000,1.000000,0.000000,47.502392,47.559711,0.562853,47.513268,47.427269,47.541931,47.484600,47.312607,47.369938,0,1,-0.000000,-0.000000,0.004000,0.004000,1,1,-648.037070,148.831886,19379.267744,-33.660089,-11.280022,33.970962,0.000002,0.000002,0.000002,0.000000,0.000000,0.000000,0,0,0,0,0,0,0,0,0,0.000000,0.000000,0.000000,0.000000,0.000000,0.000000,0.000000,0.000000
241535.874000,1.437494,-1.089114,2.525809,3.275377,1.572121,3.357390,0.000000,0.000000,0.000000,0.000000,0.000000,0.000000,0.000000,0.000000,0.000000,0.000000,0.000000,0.000000,-0.000000,-2.260998,-0.418531,-0.238797,-0.000098,0.000000,-0.000000,-23.523388,-4.324588,-1.846334,-0.000771,0.000000,1.437518,-1.089176,2.525799,3.275442,1.572120,3.357398,0.000000,0.000000,-0.000000,0.000000,0.000000,0.000000,0.280680,-2.001477,-0.511177,-0.176013,-0.040758,-0.031316,-0.000000,-2.260998,-0.418531,-0.238797,-0.000098,0.000000,0.086298,-0.363189,0.250130,-0.000004,-0.000012,-3.053721,0.000000,0.000000,0.000000,0.000000,0.000000,0.000000,-4.492348,3.616059,0.320493,-0.058006,0.074129,0.045245,0.086290,-0.363187,0.250113,0.000000,-0.000000,-3.053753,0.000000,0.000000,0.000000,0.000000,0.000000,0.000000,0,28.375000,29.187500,27.687500,31.812500,35.000000,36.250000,0.645049,7,253,253,253,253,253,253,1,0.210690,0.134075,9.595961,0.000000,1.000000,0.000000,47.542694,47.601803,0.594187,47.498932,47.441601,47.513268,47.513268,47.298275,47.427269,0,1,-0.000000,-0.000000,0.004000,0.004000,1,1,-647.906409,148.794719,19379.290561,-33.659904,-11.281623,33.970272,0.000002,0.000002,0.000002,0.000000,0.000000,0.000000,0,0,0,0,0,0,0,0,0,0.000000,0.000000,0.000000,0.000000,0.000000,0.000000,0.000000,0.000000
241535.876000,1.437494,-1.089114,2.525809,3.275377,1.572121,3.357390,0.000000,0.000000,0.000000,0.000000,0.000000,0.000000,0.000000,0.000000,0.000000,0.000000,0.000000,0.000000,-0.000000,-2.260942,-0.418650,-0.238801,-0.000098,0.000000,-0.000000,-23.522810,-4.325812,-1.846367,-0.000769,0.000000,1.437468,-1.089098,2.525799,3.275356,1.572137,3.357415,0.000000,0.000000,-0.000000,0.000000,0.000000,0.000000,0.314342,-2.010304,-0.546458,-0.192102,-0.030918,-0.037561,-0.000000,-2.260942,-0.418650,-0.238801,-0.000098,0.000000,0.086279,-0.363192,0.250112,0.000020,-0.000028,-3.053753,0.000000,0.000000,0.000000,0.000000,0.000000,0.000000,-4.463486,3.508849,0.375423,-0.057410,0.075297,0.048972,0.086290,-0.363187,0.250113,0.000000,-0.000000,-3.053753,0.000000,0.000000,0.000000,0.000000,0.000000,0.000000,0,28.375000,29.187500,27.687500,31.812500,35.000000,36.250000,0.642996,7,253,253,253,253,253,253,1,0.191536,0.095768,9.538500,0.000000,1.000000,0.000000,47.498810,47.554333,0.598664,47.498932,47.412937,47.484600,47.484600,47.312607,47.369938,0,1,-0.000000,-0.000000,0.004000,0.004000,1,1,-647.925593,148.904160,19379.345597,-33.660599,-11.282733,33.974001,0.000002,0.000002,0.000002,0.000000,0.000000,0.000000,0,0,0,0,0,0,0,0,0,0.000000,0.000000,0.000000,0.000000,0.000000,0.000000,0.000000,0.000000
241535.878000,1.437494,-1.089114,2.525809,3.275377,1.572121,3.357390,0.000000,0.000000,0.000000,0.000000,0.000000,0.000000,0.000000,0.000000,0.000000,0.000000,0.000000,0.000000,-0.000000,-2.261079,-0.418511,-0.238800,-0.000099,0.000000,-0.000000,-23.524231,-4.324382,-1.846363,-0.000779,0.000000,1.437490,-1.089159,2.525786,3.275365,1.572153,3.357406,0.000000,0.000000,-0.000000,0.000000,0.000000,0.000000,0.359606,-2.031523,-0.525744,-0.181899,-0.041977,-0.035458,-0.000000,-2.261079,-0.418511,-0.238800,-0.000099,0.000000,0.086285,-0.363189,0.250134,0.000027,-0.000131,-3.053740,0.000000,0.000000,0.000000,0.000000,0.000000,0.000000,-4.360657,3.567614,0.229386,-0.056670,0.072108,0.044486,0.086290,-0.363187,0.250113,0.000000,-0.000000,-3.053753,0.000000,0.000000,0.000000,0.000000,0.000000,0.000000,0,28.375000,29.187500,27.687500,31.812500,35.000000,36.250000,0.643188,7,253,253,253,253,253,253,1,0.153229,0.134075,9.442732,0.000000,1.000000,0.000000,47.512241,47.570457,0.629992,47.484600,47.384270,47.484600,47.484600,47.355606,47.398605,0,1,-0.000000,-0.000000,0.004000,0.004000,1,1,-648.033228,148.854442,19379.199831,-33.661060,-11.279489,33.969521,0.000002,0.000002,0.000002,0.000000,0.000000,0.000000,0,0,0,0,0,0,0,0,0,0.000000,0.000000,0.000000,0.000000,0.000000,0.000000,0.000000,0.000000
241535.880000,1.437494,-1.089114,2.525809,3.275377,1.572121,3.357390,0.000000,0.000000,0.000000,0.000000,0.000000,0.000000,0.000000,0.000000,0.000000,0.000000,0.000000,0.000000,-0.000000,-2.260989,-0.418639,-0.238795,-0.000100,0.000000,-0.000000,-23.523299,-4.325703,-1.846325,-0.000788,0.000000,1.437461,-1.089143,2.525831,3.275314,1.572105,3.357374,0.000000,0.000000,-0.000000,0.000000,0.000000,0.000000,0.227351,-1.973681,-0.536459,-0.175938,-0.030892,-0.021782,-0.000000,-2.260989,-0.418639,-0.238795,-0.000100,0.000000,0.086282,-0.363175,0.250127,-0.000042,-0.000102,-3.053801,0.000000,0.000000,0.000000,0.000000,0.000000,0.000000,-4.307073,3.480518,0.269763,-0.062540,0.071253,0.047165,0.086290,-0.363187,0.250113,0.000000,-0.000000,-3.053753,0.000000,0.000000,0.000000,0.000000,0.000000,0.000000,0,28.375000,29.187500,27.687500,31.812500,35.000000,36.250000,0.641160,7,253,253,253,253,253,253,1,0.172383,0.095768,9.500193,0.000000,1.000000,0.000000,47.540901,47.584785,0.625520,47.498932,47.441601,47.513268,47.513268,47.355606,47.412937,0,1,-0.000000,-0.000000,0.004000,0.004000,1,1,-648.078825,148.946193,19379.239941,-33.655130,-11.279148,33.972196,0.000002,0.000002,0.000002,0.000000,0.000000,0.000000,0,0,0,0,0,0,0,0,0,0.000000,0.000000,0.000000,0.000000,0.000000,0.000000,0.000000,0.000000
241535.882000,1.437494,-1.089114,2.525809,3.275377,1.572121,3.357390,0.000000,0.000000,0.000000,0.000000,0.000000,0.000000,0.000000,0.000000,0.000000,0.000000,0.000000,0.000000,-0.000000,-2.260939,-0.418530,-0.238796,-0.000096,0.000000,-0.000000,-23.522779,-4.324579,-1.846331,-0.000760,0.000000,1.437439,-1.089156,2.525840,3.275389,1.572120,3.357386,0.000000,0.000000,-0.000000,0.000000,0.000000,0.000000,0.297283,-2.015776,-0.518037,-0.185298,-0.044541,-0.035193,-0.000000,-2.260939,-0.418530,-0.238796,-0.000096,0.000000,0.086272,-0.363181,0.250123,-0.000001,-0.000001,-3.053811,0.000000,0.000000,0.000000,0.000000,0.000000,0.000000,-4.459344,3.378639,0.482749,-0.059792,0.076978,0.045591,0.086290,-0.363187,0.250113,0.000000,-0.000000,-3.053753,0.000000,0.000000,0.000000,0.000000,0.000000,0.000000,0,28.375000,29.187500,27.687500,31.812500,35.000000,36.250000,0.640344,7,253,253,253,253,253,253,1,0.153229,0.114922,9.481039,0.000000,1.000000,0.000000,47.545380,47.601803,0.612089,47.484600,47.412937,47.527599,47.513268,47.298275,47.412937,0,1,-0.000000,-0.000000,0.004000,0.004000,1,1,-647.918107,149.034510,19379.452796,-33.658368,-11.284614,33.970618,0.000002,0.000002,0.000002,0.000000,0.000000,0.000000,0,0,0,0,0,0,0,0,0,0.000000,0.000000,0.000000,0.000000,0.000000,0.000000,0.000000,0.000000
241535.884000,1.437494,-1.089114,2.525809,3.275377,1.572121,3.357390,0.000000,0.000000,0.000000,0.000000,0.000000,0.000000,0.000000,0.000000,0.000000,0.000000,0.000000,0.000000,-0.000000,-2.260905,-0.418543,-0.238801,-0.000098,0.000000,-0.000000,-23.522419,-4.324705,-1.846372,-0.000769,0.000000,1.437453,-1.089180,2.525844,3.275373,1.572082,3.357414,0.000000,0.000000,-0.000000,0.000000,0.000000,0.000000,0.309569,-2.027743,-0.531512,-0.186548,-0.031159,-0.041726,-0.000000,-2.260905,-0.418543,-0.238801,-0.000098,0.000000,0.086281,-0.363175,0.250132,-0.000067,-0.000044,-3.053770,0.000000,0.000000,0.000000,0.000000,0.000000,0.000000,-4.352493,3.546598,0.379286,-0.057252,0.071520,0.045476,0.086290,-0.363187,0.250113,0.000000,-0.000000,-3.053753,0.000000,0.000000,0.000000,0.000000,0.000000,0.000000,0,28.375000,29.187500,27.687500,31.812500,35.000000,36.250000,0.664044,7,253,253,253,253,253,253,1,0.153229,0.153229,9.500193,0.000000,1.000000,0.000000,47.526573,47.583889,0.623279,47.470268,47.398605,47.484600,47.484600,47.326939,47.412937,0,1,-0.000000,-0.000000,0.004000,0.004000,1,1,-648.039523,148.876343,19379.349259,-33.660422,-11.278953,33.970503,0.000002,0.000002,0.000002,0.000000,0.000000,0.000000,0,0,0,0,0,0,0,0,0,0.000000,0.000000,0.000000,0.000000,0.000000,0.000000,0.000000,0.000000
241535.886000,1.437494,-1.089114,2.525809,3.275377,1.572121,3.357390,0.000000,0.000000,0.000000,0.000000,0.000000,0.000000,0.000000,0.000000,0.000000,0.000000,0.000000,0.000000,0.000000,-2.260852,-0.418575,-0.238799,-0.000095,0.000000,0.000000,-23.521877,-4.325040,-1.846351,-0.000747,0.000000,1.437473,-1.089188,2.525835,3.275364,1.572141,3.357374,0.000000,0.000000,-0.000000,0.000000,0.000000,0.000000,0.222890,-2.073976,-0.529681,-0.187144,-0.031967,-0.037680,0.000000,-2.260852,-0.418575,-0.238799,-0.000095,0.000000,0.086283,-0.363173,0.250137,0.000015,-0.000098,-3.053789,0.000000,0.000000,0.000000,0.000000,0.000000,0.000000,-4.401937,3.702563,0.345992,-0.049282,0.071410,0.046283,0.086290,-0.363187,0.250113,0.000000,-0.000000,-3.053753,0.000000,0.000000,0.000000,0.000000,0.000000,0.000000,0,28.375000,29.187500,27.687500,31.812500,35.000000,36.250000,0.655188,7,253,253,253,253,253,253,1,0.172383,0.191536,9.576807,0.000000,1.000000,0.000000,47.489853,47.547173,0.612089,47.455936,47.398605,47.484600,47.455936,47.283943,47.369938,0,1,-0.000000,-0.000000,0.004000,0.004000,1,1,-648.003764,148.716644,19379.316332,-33.668354,-11.278144,33.971316,0.000002,0.000002,0.000002,0.000000,0.000000,0.000000,0,0,0,0,0,0,0,0,0,0.000000,0.000000,0.000000,0.000000,0.000000,0.000000,0.000000,0.000000
241535.888000,1.437494,-1.089114,2.525809,3.275377,1.572121,3.357390,0.000000,0.000000,0.000000,0.000000,0.000000,0.000000,0.000000,0.000000,0.000000,0.000000,0.000000,0.000000,0.000000,-2.260853,-0.418603,-0.238797,-0.000099,0.000000,0.000000,-23.521883,-4.325328,-1.846336,-0.000781,0.000000,1.437448,-1.089173,2.525794,3.275352,1.572115,3.357424,0.000000,0.000000,-0.000000,0.000000,0.000000,0.000000,0.230716,-1.999403,-0.540339,-0.184493,-0.025594,-0.039085,0.000000,-2.260853,-0.418603,-0.238797,-0.000099,0.000000,0.086274,-0.363188,0.250139,-0.000035,-0.000148,-3.053765,0.000000,0.000000,0.000000,0.000000,0.000000,0.000000,-4.274991,3.692569,0.220096,-0.053506,0.068833,0.048999,0.086290,-0.363187,0.250113,0.000000,-0.000000,-3.053753,0.000000,0.000000,0.000000,0.000000,0.000000,0.000000,0,28.375000,29.187500,27.687500,31.812500,35.000000,36.250000,0.660840,7,253,253,253,253,253,253,1,0.172383,0.229843,9.538500,0.000000,1.000000,0.000000,47.525677,47.570457,0.681469,47.470268,47.384270,47.541931,47.513268,47.355606,47.341274,0,1,-0.000000,-0.000000,0.004000,0.004000,1,1,-648.129518,148.737558,19379.190428,-33.663922,-11.275945,33.974032,0.000002,0.000002,0.000002,0.000000,0.000000,0.000000,0,0,0,0,0,0,0,0,0,0.000000,0.000000,0.000000,0.000000,0.000000,0.000000,0.000000,0.000000
241535.890000,1.437494,-1.089114,2.525809,3.275377,1.572121,3.357390,0.000000,0.000000,0.000000,0.000000,0.000000,0.000000,0.000000,0.000000,0.000000,0.000000,0.000000,0.000000,0.000000,-2.260950,-0.418647,-0.238794,-0.000097,0.000000,0.000000,-23.522891,-4.325783,-1.846314,-0.000766,0.000000,1.437432,-1.089135,2.525848,3.275368,1.572132,3.357377,0.000000,0.000000,-0.000000,0.000000,0.000000,0.000000,0.282736,-2.016546,-0.518387,-0.197524,-0.029839,-0.034817,0.000000,-2.260950,-0.418647,-0.238794,-0.000097,0.000000,0.086268,-0.363178,0.250116,0.000020,0.000010,-3.053828,0.000000,0.000000,0.000000,0.000000,0.000000,0.000000,-4.599528,3.627530,0.275713,-0.052777,0.075711,0.045289,0.086290,-0.363187,0.250113,0.000000,-0.000000,-3.053753,0.000000,0.000000,0.000000,0.000000,0.000000,0.000000,0,28.375000,29.187500,27.687500,31.812500,35.000000,36.250000,0.668425,7,253,253,253,253,253,253,1,0.191536,0.268151,9.500193,0.000000,1.000000,0.000000,47.526573,47.576725,0.609854,47.513268,47.441601,47.541931,47.513268,47.355606,47.412937,0,1,-0.000000,-0.000000,0.004000,0.004000,1,1,-647.800186,148.774370,19379.245795,-33.665244,-11.282737,33.970316,0.000002,0.000002,0.000002,0.000000,0.000000,0.000000,0,0,0,0,0,0,0,0,0,0.000000,0.000000,0.000000,0.000000,0.000000,0.000000,0.000000,0.000000
241535.892000,1.437494,-1.089114,2.525809,3.275377,1.572121,3.357390,0.000000,0.000000,0.000000,0.000000,0.000000,0.000000,0.000000,0.000000,0.000000,0.000000,0.000000,0.000000,-0.000000,-2.260926,-0.418491,-0.238802,-0.000098,0.000000,-0.000000,-23.522643,-4.324167,-1.846377,-0.000776,0.000000,1.437444,-1.089197,2.525827,3.275377,1.572087,3.357394,0.000000,0.000000,-0.000000,0.000000,0.000000,0.000000,0.272135,-1.994513,-0.526695,-0.185942,-0.026099,-0.033148,-0.000000,-2.260926,-0.418491,-0.238802,-0.000098,0.000000,0.086277,-0.363180,0.250140,-0.000068,-0.000090,-3.053798,0.000000,0.000000,0.000000,0.000000,0.000000,0.000000,-4.720035,3.318323,0.191444,-0.060069,0.080748,0.046918,0.086290,-0.363187,0.250113,0.000000,-0.000000,-3.053753,0.000000,0.000000,0.000000,0.000000,0.000000,0.000000,0,28.375000,29.187500,27.687500,31.812500,35.000000,36.250000,0.656149,7,253,253,253,253,253,253,1,0.248997,0.134075,9.385271,0.000000,1.000000,0.000000,47.509556,47.574039,0.647900,47.470268,47.398605,47.527599,47.484600,47.355606,47.427269,0,1,-0.000000,-0.000000,0.004000,0.004000,1,1,-647.653282,149.071556,19379.161497,-33.658424,-11.288389,33.971948,0.000002,0.000002,0.000002,0.000000,0.000000,0.000000,0,0,0,0,0,0,0,0,0,0.000000,0.000000,0.000000,0.000000,0.000000,0.000000,0.000000,0.000000
241535.894000,1.437494,-1.089114,2.525809,3.275377,1.572121,3.357390,0.000000,0.000000,0.000000,0.000000,0.000000,0.000000,0.000000,0.000000,0.000000,0.000000,0.000000,0.000000,-0.000000,-2.260852,-0.418634,-0.238797,-0.000095,0.000000,-0.000000,-23.521876,-4.325646,-1.846334,-0.000750,0.000000,1.437464,-1.089168,2.525786,3.275389,1.572103,3.357390,0.000000,0.000000,-0.000000,0.000000,0.000000,0.000000,0.297581,-2.028816,-0.516495,-0.186818,-0.032262,-0.042118,-0.000000,-2.260852,-0.418634,-0.238797,-0.000095,0.000000,0.086281,-0.363193,0.250135,-0.000044,-0.000095,-3.053782,0.000000,0.000000,0.000000,0.000000,0.000000,0.000000,-4.236017,3.697721,0.332380,-0.054253,0.070217,0.045497,0.086290,-0.363187,0.250113,0.000000,-0.000000,-3.053753,0.000000,0.000000,0.000000,0.000000,0.000000,0.000000,0,28.375000,29.187500,27.687500,31.812500,35.000000,36.250000,0.648708,7,253,253,253,253,253,253,1,0.191536,0.038307,9.366117,0.000000,1.000000,0.000000,47.500599,47.554333,0.574043,47.498932,47.412937,47.527599,47.484600,47.312607,47.398605,0,1,-0.000000,-0.000000,0.004000,0.004000,1,1,-648.168729,148.735995,19379.302554,-33.663295,-11.277390,33.970527,0.000002,0.000002,0.000002,0.000000,0.000000,0.000000,0,0,0,0,0,0,0,0,0,0.000000,0.000000,0.000000,0.000000,0.000000,0.000000,0.000000,0.000000
241535.896000,1.437494,-1.089114,2.525809,3.275377,1.572121,3.357390,0.000000,0.000000,0.000000,0.000000,0.000000,0.000000,0.000000,0.000000,0.000000,0.000000,0.000000,0.000000,0.000000,-2.260974,-0.418656,-0.238796,-0.000096,0.000000,0.000000,-23.523146,-4.325873,-1.846334,-0.000759,0.000000,1.437485,-1.089147,2.525774,3.275418,1.572120,3.357455,0.000000,0.000000,-0.000000,0.000000,0.000000,0.000000,0.289932,-2.065091,-0.536249,-0.183299,-0.032179,-0.039136,0.000000,-2.260974,-0.418656,-0.238796,-0.000096,0.000000,0.086286,-0.363199,0.250127,-0.000009,-0.000043,-3.053696,0.000000,0.000000,0.000000,0.000000,0.000000,0.000000,-4.241739,3.718662,0.391811,-0.053985,0.070925,0.045469,0.086290,-0.363187,0.250113,0.000000,-0.000000,-3.053753,0.000000,0.000000,0.000000,0.000000,0.000000,0.000000,0,28.375000,29.187500,27.687500,31.812500,35.000000,36.250000,0.644436,7,253,253,253,253,253,253,1,0.114922,0.172383,9.538500,0.000000,1.000000,0.000000,47.526573,47.583889,0.621043,47.527599,47.441601,47.556267,47.513268,47.355606,47.412937,0,1,-0.000000,-0.000000,0.004000,0.004000,1,1,-648.165166,148.714367,19379.361944,-33.663632,-11.278078,33.970498,0.000002,0.000002,0.000002,0.000000,0.000000,0.000000,0,0,0,0,0,0,0,0,0,0.000000,0.000000,0.000000,0.000000,0.000000,0.000000,0.000000,0.000000
241535.898000,1.437494,-1.089114,2.525809,3.275377,1.572121,3.357390,0.000000,0.000000,0.000000,0.000000,0.000000,0.000000,0.000000,0.000000,0.000000,0.000000,0.000000,0.000000,0.000000,-2.261035,-0.418643,-0.238799,-0.000098,0.000000,0.000000,-23.523779,-4.325739,-1.846355,-0.000769,0.000000,1.437494,-1.089180,2.525819,3.275361,1.572103,3.357369,0.000000,0.000000,-0.000000,0.000000,0.000000,0.000000,0.308524,-2.045853,-0.531252,-0.187820,-0.024617,-0.039407,0.000000,-2.261035,-0.418643,-0.238799,-0.000098,0.000000,0.086293,-0.363177,0.250137,-0.000046,-0.000106,-3.053773,0.000000,0.000000,0.000000,0.000000,0.000000,0.000000,-4.562199,3.656348,0.330127,-0.053161,0.077974,0.046353,0.086290,-0.363187,0.250113,0.000000,-0.000000,-3.053753,0.000000,0.000000,0.000000,0.000000,0.000000,0.000000,0,28.375000,29.187500,27.687500,31.812500,35.000000,36.250000,0.649836,7,253,253,253,253,253,253,1,0.153229,0.153229,9.557653,0.000000,1.000000,0.000000,47.527466,47.577621,0.688182,47.513268,47.441601,47.541931,47.513268,47.355606,47.412937,0,1,-0.000000,-0.000000,0.004000,0.004000,1,1,-647.840216,148.748549,19379.300313,-33.665065,-11.285022,33.971384,0.000002,0.000002,0.000002,0.000000,0.000000,0.000000,0,0,0,0,0,0,0,0,0,0.000000,0.000000,0.000000,0.000000,0.000000,0.000000,0.000000,0.000000
241535.900000,1.437494,-1.089114,2.525809,3.275377,1.572121,3.357390,0.000000,0.000000,0.000000,0.000000,0.000000,0.000000,0.000000,0.000000,0.000000,0.000000,0.000000,0.000000,0.000000,-2.260895,-0.418618,-0.238796,-0.000096,0.000000,0.000000,-23.522323,-4.325487,-1.846329,-0.000759,0.000000,1.437502,-1.089101,2.525782,3.275373,1.572132,3.357415,0.000000,0.000000,-0.000000,0.000000,0.000000,0.000000,0.274789,-2.015049,-0.558800,-0.190914,-0.026072,-0.022625,0.000000,-2.260895,-0.418618,-0.238796,-0.000096,0.000000,0.086291,-0.363195,0.250114,0.000012,-0.000033,-3.053720,0.000000,0.000000,0.000000,0.000000,0.000000,0.000000,-4.595114,3.490892,0.263718,-0.055037,0.080227,0.043135,0.086290,-0.363187,0.250113,0.000000,-0.000000,-3.053753,0.000000,0.000000,0.000000,0.000000,0.000000,0.000000,0,28.375000,29.187500,27.687500,31.812500,35.000000,36.250000,0.673860,7,253,253,253,253,253,253,1,0.095768,0.114922,9.519346,0.000000,1.000000,0.000000,47.494331,47.566872,0.690418,47.470268,47.427269,47.541931,47.498932,47.312607,47.398605,0,1,-0.000000,-0.000000,0.004000,0.004000,1,1,-647.793039,148.910349,19379.233882,-33.663398,-11.287437,33.968165,0.000002,0.000002,0.000002,0.000000,0.000000,0.000000,0,0,0,0,0,0,0,0,0,0.000000,0.000000,0.000000,0.000000,0.000000,0.000000,0.000000,0.000000
241535.902000,1.437494,-1.089114,2.525809,3.275377,1.572121,3.357390,0.000000,0.000000,0.000000,0.000000,0.000000,0.000000,0.000000,0.000000,0.000000,0.000000,0.000000,0.000000,0.000000,-2.261102,-0.418547,-0.238800,-0.000098,0.000000,0.000000,-23.524479,-4.324751,-1.846360,-0.000776,0.000000,1.437506,-1.089077,2.525835,3.275376,1.572115,3.357402,0.000000,0.000000,-0.000000,0.000000,0.000000,0.000000,0.330359,-1.984369,-0.538442,-0.186779,-0.027862,-0.038469,0.000000,-2.261102,-0.418547,-0.238800,-0.000098,0.000000,0.086296,-0.363182,0.250097,0.000008,0.000093,-3.053728,0.000000,0.000000,0.000000,0.000000,0.000000,0.000000,-4.401434,3.607842,0.185174,-0.055975,0.072771,0.049141,0.086290,-0.363187,0.250113,0.000000,-0.000000,-3.053753,0.000000,0.000000,0.000000,0.000000,0.000000,0.000000,0,28.375000,29.187500,27.687500,31.812500,35.000000,36.250000,0.657828,7,253,253,253,253,253,253,1,0.153229,0.114922,9.538500,0.000000,1.000000,0.000000,47.511349,47.566872,0.600900,47.455936,47.398605,47.513268,47.484600,47.312607,47.412937,0,1,-0.000000,-0.000000,0.004000,0.004000,1,1,-647.996197,148.811064,19379.155015,-33.661806,-11.280096,33.974164,0.000002,0.000002,0.000002,0.000000,0.000000,0.000000,0,0,0,0,0,0,0,0,0,0.000000,0.000000,0.000000,0.000000,0.000000,0.000000,0.000000,0.000000
241535.904000,1.437494,-1.089114,2.525809,3.275377,1.572121,3.357390,0.000000,0.000000,0.000000,0.000000,0.000000,0.000000,0.000000,0.000000,0.000000,0.000000,0.000000,0.000000,0.000000,-2.261055,-0.418413,-0.238806,-0.000097,0.000000,0.000000,-23.523983,-4.323369,-1.846407,-0.000766,0.000000,1.437423,-1.089131,2.525840,3.275415,1.572099,3.357431,0.000000,0.000000,-0.000000,0.000000,0.000000,0.000000,0.247985,-1.997265,-0.605901,-0.191971,-0.023381,-0.036645,0.000000,-2.261055,-0.418413,-0.238806,-0.000097,0.000000,0.086268,-0.363187,0.250111,-0.000019,0.000082,-3.053782,0.000000,0.000000,0.000000,0.000000,0.000000,0.000000,-4.684912,3.414613,0.306588,-0.058193,0.078254,0.043113,0.086290,-0.363187,0.250113,0.000000,-0.000000,-3.053753,0.000000,0.000000,0.000000,0.000000,0.000000,0.000000,0,28.375000,29.187500,27.687500,31.812500,35.000000,36.250000,0.648468,7,253,253,253,253,253,253,1,0.210690,0.134075,9.442732,0.000000,1.000000,0.000000,47.514034,47.575829,0.616566,47.498932,47.441601,47.527599,47.513268,47.355606,47.398605,0,1,-0.000000,-0.000000,0.004000,0.004000,1,1,-647.696693,148.978884,19379.276387,-33.660073,-11.285748,33.968135,0.000002,0.000002,0.000002,0.000000,0.000000,0.000000,0,0,0,0,0,0,0,0,0,0.000000,0.000000,0.000000,0.000000,0.000000,0.000000,0.000000,0.000000
241535.906000,1.437494,-1.089114,2.525809,3.275377,1.572121,3.357390,0.000000,0.000000,0.000000,0.000000,0.000000,0.000000,0.000000,0.000000,0.000000,0.000000,0.000000,0.000000,-0.000000,-2.260952,-0.418501,-0.238805,-0.000096,0.000000,-0.000000,-23.522911,-4.324272,-1.846401,-0.000757,0.000000,1.437456,-1.089147,2.525803,3.275352,1.572062,3.357393,0.000000,0.000000,-0.000000,0.000000,0.000000,0.000000,0.307183,-1.980514,-0.570562,-0.189168,-0.028352,-0.035775,-0.000000,-2.260952,-0.418501,-0.238805,-0.000096,0.000000,0.086283,-0.363188,0.250129,-0.000106,-0.000083,-3.053787,0.000000,0.000000,0.000000,0.000000,0.000000,0.000000,-4.557720,3.555521,0.432193,-0.054743,0.076729,0.041365,0.086290,-0.363187,0.250113,0.000000,-0.000000,-3.053753,0.000000,0.000000,0.000000,0.000000,0.000000,0.000000,0,28.375000,29.187500,27.687500,31.812500,35.000000,36.250000,0.654576,7,253,253,253,253,253,253,1,0.229843,0.153229,9.404425,0.000000,1.000000,0.000000,47.537323,47.562393,0.643423,47.527599,47.441601,47.556267,47.513268,47.355606,47.398605,0,1,-0.000000,-0.000000,0.004000,0.004000,1,1,-647.835851,148.849483,19379.402141,-33.663376,-11.283919,33.966393,0.000002,0.000002,0.000002,0.000000,0.000000,0.000000,0,0,0,0,0,0,0,0,0,0.000000,0.000000,0.000000,0.000000,0.000000,0.000000,0.000000,0.000000
241535.908000,1.437494,-1.089114,2.525809,3.275377,1.572121,3.357390,0.000000,0.000000,0.000000,0.000000,0.000000,0.000000,0.000000,0.000000,0.000000,0.000000,0.000000,0.000000,0.000000,-2.260982,-0.418588,-0.238797,-0.000093,0.000000,0.000000,-23.523220,-4.325178,-1.846334,-0.000735,0.000000,1.437506,-1.089147,2.525816,3.275427,1.572108,3.357402,0.000000,0.000000,-0.000000,0.000000,0.000000,0.000000,0.279555,-2.035522,-0.546800,-0.183224,-0.038078,-0.036130,0.000000,-2.260982,-0.418588,-0.238797,-0.000093,0.000000,0.086296,-0.363186,0.250119,-0.000013,0.000037,-3.053728,0.000000,0.000000,0.000000,0.000000,0.000000,0.000000,-4.745614,3.359381,0.490396,-0.059797,0.078927,0.043636,0.086290,-0.363187,0.250113,0.000000,-0.000000,-3.053753,0.000000,0.000000,0.000000,0.000000,0.000000,0.000000,0,28.375000,29.187500,27.687500,31.812500,35.000000,36.250000,0.657853,7,253,253,253,253,253,253,1,0.210690,0.095768,9.557653,0.000000,1.000000,0.000000,47.497913,47.565979,0.643423,47.470268,47.384270,47.541931,47.484600,47.312607,47.398605,0,1,-0.000000,-0.000000,0.004000,0.004000,1,1,-647.631575,149.028277,19379.460318,-33.658540,-11.286561,33.968661,0.000002,0.000002,0.000002,0.000000,0.000000,0.000000,0,0,0,0,0,0,0,0,0,0.000000,0.000000,0.000000,0.000000,0.000000,0.000000,0.000000,0.000000
241535.910000,1.437494,-1.089114,2.525809,3.275377,1.572121,3.357390,0.000000,0.000000,0.000000,0.000000,0.000000,0.000000,0.000000,0.000000,0.000000,0.000000,0.000000,0.000000,0.000000,-2.260963,-0.418570,-0.238803,-0.000097,0.000000,0.000000,-23.523030,-4.324988,-1.846385,-0.000762,0.000000,1.437559,-1.089123,2.525832,3.275431,1.572094,3.357378,0.000000,0.000000,-0.000000,0.000000,0.000000,0.000000,0.288911,-2.061395,-0.508276,-0.187500,-0.026663,-0.046652,0.000000,-2.260963,-0.418570,-0.238803,-0.000097,0.000000,0.086317,-0.363180,0.250108,-0.000022,0.000108,-3.053699,0.000000,0.000000,0.000000,0.000000,0.000000,0.000000,-4.432972,3.653418,0.545438,-0.052781,0.072914,0.048796,0.086290,-0.363187,0.250113,0.000000,-0.000000,-3.053753,0.000000,0.000000,0.000000,0.000000,0.000000,0.000000,0,28.375000,29.187500,27.687500,31.812500,35.000000,36.250000,0.649945,7,253,253,253,253,253,253,1,0.191536,0.076614,9.500193,0.000000,1.000000,0.000000,47.497913,47.565979,0.594187,47.484600,47.398605,47.470268,47.484600,47.298275,47.369938,0,1,-0.000000,-0.000000,0.004000,0.004000,1,1,-647.968937,148.762773,19379.515156,-33.665001,-11.279959,33.973817,0.000002,0.000002,0.000002,0.000000,0.000000,0.000000,0,0,0,0,0,0,0,0,0,0.000000,0.000000,0.000000,0.000000,0.000000,0.000000,0.000000,0.000000
241535.912000,1.437494,-1.089114,2.525809,3.275377,1.572121,3.357390,0.000000,0.000000,0.000000,0.000000,0.000000,0.000000,0.000000,0.000000,0.000000,0.000000,0.000000,0.000000,0.000000,-2.260980,-0.418502,-0.238806,-0.000096,0.000000,0.000000,-23.523205,-4.324287,-1.846411,-0.000754,0.000000,1.437485,-1.089164,2.525790,3.275364,1.572144,3.357390,0.000000,0.000000,-0.000000,0.000000,0.000000,0.000000,0.295501,-2.039781,-0.517565,-0.196482,-0.039744,-0.054050,0.000000,-2.260980,-0.418502,-0.238806,-0.000096,0.000000,0.086285,-0.363187,0.250135,0.000013,-0.000131,-3.053761,0.000000,0.000000,0.000000,0.000000,0.000000,0.000000,-4.307999,3.512043,0.380420,-0.056887,0.071360,0.043766,0.086290,-0.363187,0.250113,0.000000,-0.000000,-3.053753,0.000000,0.000000,0.000000,0.000000,0.000000,0.000000,0,28.375000,29.187500,27.687500,31.812500,35.000000,36.250000,0.658753,7,253,253,253,253,253,253,1,0.210690,0.076614,9.519346,0.000000,1.000000,0.000000,47.500599,47.563290,0.681469,47.484600,47.369938,47.556267,47.513268,47.312607,47.384270,0,1,-0.000000,-0.000000,0.004000,0.004000,1,1,-648.080748,148.914515,19379.350821,-33.660776,-11.278762,33.968800,0.000002,0.000002,0.000002,0.000000,0.000000,0.000000,0,0,0,0,0,0,0,0,0,0.000000,0.000000,0.000000,0.000000,0.000000,0.000000,0.000000,0.000000
241535.914000,1.437494,-1.089114,2.525809,3.275377,1.572121,3.357390,0.000000,0.000000,0.000000,0.000000,0.000000,0.000000,0.000000,0.000000,0.000000,0.000000,0.000000,0.000000,-0.000000,-2.260973,-0.418639,-0.238795,-0.000099,0.000000,-0.000000,-23.523139,-4.325703,-1.846324,-0.000783,0.000000,1.437513,-1.089135,2.525852,3.275328,1.572162,3.357423,0.000000,0.000000,-0.000000,0.000000,0.000000,0.000000,0.252893,-2.009972,-0.582141,-0.192773,-0.024527,-0.040297,-0.000000,-2.260973,-0.418639,-0.238795,-0.000099,0.000000,0.086296,-0.363166,0.250120,0.000055,-0.000054,-3.053700,0.000000,0.000000,0.000000,0.000000,0.000000,0.000000,-4.378309,3.649503,0.199879,-0.054511,0.074257,0.046629,0.086290,-0.363187,0.250113,0.000000,-0.000000,-3.053753,0.000000,0.000000,0.000000,0.000000,0.000000,0.000000,0,28.375000,29.187500,27.687500,31.812500,35.000000,36.250000,0.645120,7,253,253,253,253,253,253,1,0.153229,0.076614,9.461885,0.000000,1.000000,0.000000,47.519409,47.577621,0.659090,47.498932,47.384270,47.556267,47.513268,47.355606,47.384270,0,1,-0.000000,-0.000000,0.004000,0.004000,1,1,-648.022944,148.771264,19379.170214,-33.663402,-11.281446,33.971661,0.000002,0.000002,0.000002,0.000000,0.000000,0.000000,0,0,0,0,0,0,0,0,0,0.000000,0.000000,0.000000,0.000000,0.000000,0.000000,0.000000,0.000000
241535.916000,1.437494,-1.089114,2.525809,3.275377,1.572121,3.357390,0.000000,0.000000,0.000000,0.000000,0.000000,0.000000,0.000000,0.000000,0.000000,0.000000,0.000000,0.000000,0.000000,-2.260918,-0.418482,-0.238799,-0.000101,0.000000,0.000000,-23.522556,-4.324080,-1.846355,-0.000793,0.000000,1.437490,-1.089127,2.525794,3.275398,1.572124,3.357348,0.000000,0.000000,-0.000000,0.000000,0.000000,0.000000,0.276418,-2.026294,-0.527307,-0.186302,-0.045654,-0.025575,0.000000,-2.260918,-0.418482,-0.238799,-0.000101,0.000000,0.086288,-0.363193,0.250118,0.000003,-0.000012,-3.053798,0.000000,0.000000,0.000000,0.000000,0.000000,0.000000,-4.270620,3.688281,0.403386,-0.053366,0.070058,0.049535,0.086290,-0.363187,0.250113,0.000000,-0.000000,-3.053753,0.000000,0.000000,0.000000,0.000000,0.000000,0.000000,0,28.375000,29.187500,27.687500,31.812500,35.000000,36.250000,0.643128,7,253,253,253,253,253,253,1,0.172383,0.134075,9.385271,0.000000,1.000000,0.000000,47.520306,47.576725,0.582997,47.484600,47.441601,47.541931,47.484600,47.312607,47.427269,0,1,-0.000000,-0.000000,0.004000,0.004000,1,1,-648.133297,148.742539,19379.373474,-33.664164,-11.277157,33.974563,0.000002,0.000002,0.000002,0.000000,0.000000,0.000000,0,0,0,0,0,0,0,0,0,0.000000,0.000000,0.000000,0.000000,0.000000,0.000000,0.000000,0.000000
241535.918000,1.437494,-1.089114,2.525809,3.275377,1.572121,3.357390,0.000000,0.000000,0.000000,0.000000,0.000000,0.000000,0.000000,0.000000,0.000000,0.000000,0.000000,0.000000,-0.000000,-2.261036,-0.418570,-0.238801,-0.000098,0.000000,-0.000000,-23.523790,-4.324990,-1.846368,-0.000771,0.000000,1.437477,-1.089135,2.525852,3.275373,1.572158,3.357410,0.000000,0.000000,-0.000000,0.000000,0.000000,0.000000,0.330180,-2.040672,-0.493888,-0.175702,-0.028835,-0.028988,-0.000000,-2.261036,-0.418570,-0.238801,-0.000098,0.000000,0.086283,-0.363173,0.250115,0.000060,0.000015,-3.053748,0.000000,0.000000,0.000000,0.000000,0.000000,0.000000,-4.486081,3.359787,0.331047,-0.063000,0.075951,0.042071,0.086290,-0.363187,0.250113,0.000000,-0.000000,-3.053753,0.000000,0.000000,0.000000,0.000000,0.000000,0.000000,0,28.375000,29.187500,27.687500,31.812500,35.000000,36.250000,0.644844,7,253,253,253,253,253,253,1,0.210690,0.134075,9.423578,0.000000,1.000000,0.000000,47.490749,47.551651,0.614330,47.470268,47.398605,47.513268,47.484600,47.298275,47.398605,0,1,-0.000000,-0.000000,0.004000,0.004000,1,1,-647.889971,149.050699,19379.301232,-33.655089,-11.283878,33.967100,0.000002,0.000002,0.000002,0.000000,0.000000,0.000000,0,0,0,0,0,0,0,0,0,0.000000,0.000000,0.000000,0.000000,0.000000,0.000000,0.000000,0.000000
241535.920000,1.437494,-1.089114,2.525809,3.275377,1.572121,3.357390,0.000000,0.000000,0.000000,0.000000,0.000000,0.000000,0.000000,0.000000,0.000000,0.000000,0.000000,0.000000,-0.000000,-2.260920,-0.418485,-0.238803,-0.000100,0.000000,-0.000000,-23.522582,-4.324106,-1.846382,-0.000791,0.000000,1.437448,-1.089110,2.525832,3.275377,1.572129,3.357366,0.000000,0.000000,-0.000000,0.000000,0.000000,0.000000,0.236663,-2.041076,-0.517424,-0.181874,-0.012847,-0.048544,-0.000000,-2.260920,-0.418485,-0.238803,-0.000100,0.000000,0.086274,-0.363185,0.250109,0.000019,0.000037,-3.053822,0.000000,0.000000,0.000000,0.000000,0.000000,0.000000,-4.419132,3.716790,0.554038,-0.050455,0.073929,0.048277,0.086290,-0.363187,0.250113,0.000000,-0.000000,-3.053753,0.000000,0.000000,0.000000,0.000000,0.000000,0.000000,0,28.375000,29.187500,27.687500,31.812500,35.000000,36.250000,0.643464,7,253,253,253,253,253,253,1,0.229843,0.210690,9.442732,0.000000,1.000000,0.000000,47.497913,47.552544,0.614330,47.484600,47.412937,47.527599,47.484600,47.355606,47.412937,0,1,-0.000000,-0.000000,0.004000,0.004000,1,1,-647.987736,148.701275,19379.524046,-33.667401,-11.280760,33.973303,0.000002,0.000002,0.000002,0.000000,0.000000,0.000000,0,0,0,0,0,0,0,0,0,0.000000,0.000000,0.000000,0.000000,0.000000,0.000000,0.000000,0.000000
241535.922000,1.437494,-1.089114,2.525809,3.275377,1.572121,3.357390,0.000000,0.000000,0.000000,0.000000,0.000000,0.000000,0.000000,0.000000,0.000000,0.000000,0.000000,0.000000,0.000000,-2.261001,-0.418476,-0.238803,-0.000098,0.000000,0.000000,-23.523425,-4.324019,-1.846387,-0.000774,0.000000,1.437444,-1.089122,2.525823,3.275377,1.572087,3.357390,0.000000,0.000000,-0.000000,0.000000,0.000000,0.000000,0.279462,-2.063221,-0.538137,-0.193548,-0.018136,-0.042129,0.000000,-2.261001,-0.418476,-0.238803,-0.000098,0.000000,0.086276,-0.363187,0.250114,-0.000049,0.000016,-3.053803,0.000000,0.000000,0.000000,0.000000,0.000000,0.000000,-4.183607,3.681089,0.524619,-0.049335,0.071739,0.047943,0.086290,-0.363187,0.250113,0.000000,-0.000000,-3.053753,0.000000,0.000000,0.000000,0.000000,0.000000,0.000000,0,28.375000,29.187500,27.687500,31.812500,35.000000,36.250000,0.644964,7,253,253,253,253,253,253,1,0.191536,0.210690,9.423578,0.000000,1.000000,0.000000,47.522095,47.574039,0.645659,47.498932,47.398605,47.513268,47.498932,47.298275,47.398605,0,1,-0.000000,-0.000000,0.004000,0.004000,1,1,-648.219390,148.757387,19379.494499,-33.668324,-11.278478,33.972968,0.000002,0.000002,0.000002,0.000000,0.000000,0.000000,0,0,0,0,0,0,0,0,0,0.000000,0.000000,0.000000,0.000000,0.000000,0.000000,0.000000,0.000000
241535.924000,1.437494,-1.089114,2.525809,3.275377,1.572121,3.357390,0.000000,0.000000,0.000000,0.000000,0.000000,0.000000,0.000000,0.000000,0.000000,0.000000,0.000000,0.000000,-0.000000,-2.260994,-0.418512,-0.238802,-0.000095,0.000000,-0.000000,-23.523353,-4.324390,-1.846375,-0.000750,0.000000,1.437506,-1.089164,2.525782,3.275410,1.572111,3.357390,0.000000,0.000000,-0.000000,0.000000,0.000000,0.000000,0.278176,-2.030246,-0.583346,-0.178973,-0.031054,-0.041580,-0.000000,-2.260994,-0.418512,-0.238802,-0.000095,0.000000,0.086295,-0.363193,0.250132,-0.000027,-0.000064,-3.053740,0.000000,0.000000,0.000000,0.000000,0.000000,0.000000,-4.337739,3.537460,0.358297,-0.056215,0.071433,0.048388,0.086290,-0.363187,0.250113,0.000000,-0.000000,-3.053753,0.000000,0.000000,0.000000,0.000000,0.000000,0.000000,0,28.375000,29.187500,27.687500,31.812500,35.000000,36.250000,0.647376,7,253,253,253,253,253,253,1,0.172383,0.114922,9.404425,0.000000,1.000000,0.000000,47.540005,47.581200,0.600900,47.498932,47.384270,47.527599,47.498932,47.298275,47.398605,0,1,-0.000000,-0.000000,0.004000,0.004000,1,1,-648.053482,148.886593,19379.328429,-33.661451,-11.278778,33.973417,0.000002,0.000002,0.000002,0.000000,0.000000,0.000000,0,0,0,0,0,0,0,0,0,0.000000,0.000000,0.000000,0.000000,0.000000,0.000000,0.000000,0.000000
241535.926000,1.437494,-1.089114,2.525809,3.275377,1.572121,3.357390,0.000000,0.000000,0.000000,0.000000,0.000000,0.000000,0.000000,0.000000,0.000000,0.000000,0.000000,0.000000,0.000000,-2.260991,-0.418657,-0.238798,-0.000097,0.000000,0.000000,-23.523318,-4.325884,-1.846346,-0.000764,0.000000,1.437510,-1.089115,2.525819,3.275401,1.572066,3.357423,0.000000,0.000000,-0.000000,0.000000,0.000000,0.000000,0.290393,-2.027188,-0.559072,-0.189451,-0.015985,-0.040069,0.000000,-2.260991,-0.418657,-0.238798,-0.000097,0.000000,0.086302,-0.363186,0.250110,-0.000073,0.000063,-3.053703,0.000000,0.000000,0.000000,0.000000,0.000000,0.000000,-4.251338,3.586548,0.223713,-0.054968,0.071764,0.044639,0.086290,-0.363187,0.250113,0.000000,-0.000000,-3.053753,0.000000,0.000000,0.000000,0.000000,0.000000,0.000000,0,28.375000,29.187500,27.687500,31.812500,35.000000,36.250000,0.646333,7,253,253,253,253,253,253,1,0.229843,0.019154,9.481039,0.000000,1.000000,0.000000,47.505978,47.560604,0.623279,47.484600,47.398605,47.527599,47.484600,47.298275,47.384270,0,1,-0.000000,-0.000000,0.004000,0.004000,1,1,-648.144063,148.845310,19379.193410,-33.662720,-11.279002,33.969661,0.000002,0.000002,0.000002,0.000000,0.000000,0.000000,0,0,0,0,0,0,0,0,0,0.000000,0.000000,0.000000,0.000000,0.000000,0.000000,0.000000,0.000000
241535.928000,1.437494,-1.089114,2.525809,3.275377,1.572121,3.357390,0.000000,0.000000,0.000000,0.000000,0.000000,0.000000,0.000000,0.000000,0.000000,0.000000,0.000000,0.000000,-0.000000,-2.261017,-0.418508,-0.238804,-0.000094,0.000000,-0.000000,-23.523588,-4.324345,-1.846391,-0.000738,0.000000,1.437473,-1.089119,2.525810,3.275382,1.572115,3.357390,0.000000,0.000000,-0.000000,0.000000,0.000000,0.000000,0.310308,-2.014335,-0.573613,-0.163430,-0.035588,-0.036354,-0.000000,-2.261017,-0.418508,-0.238804,-0.000094,0.000000,0.086283,-0.363189,0.250115,-0.000008,0.000002,-3.053773,0.000000,0.000000,0.000000,0.000000,0.000000,0.000000,-4.325010,3.760444,0.294380,-0.050217,0.070611,0.048783,0.086290,-0.363187,0.250113,0.000000,-0.000000,-3.053753,0.000000,0.000000,0.000000,0.000000,0.000000,0.000000,0,28.375000,29.187500,27.687500,31.812500,35.000000,36.250000,0.649597,7,253,253,253,253,253,253,1,0.191536,0.172383,9.404425,0.000000,1.000000,0.000000,47.497913,47.546276,0.614330,47.484600,47.398605,47.556267,47.484600,47.355606,47.441601,0,1,-0.000000,-0.000000,0.004000,0.004000,1,1,-648.085562,148.665804,19379.264403,-33.667350,-11.277433,33.973810,0.000002,0.000002,0.000002,0.000000,0.000000,0.000000,0,0,0,0,0,0,0,0,0,0.000000,0.000000,0.000000,0.000000,0.000000,0.000000,0.000000,0.000000
241535.930000,1.437494,-1.089114,2.525809,3.275377,1.572121,3.357390,0.000000,0.000000,0.000000,0.000000,0.000000,0.000000,0.000000,0.000000,0.000000,0.000000,0.000000,0.000000,0.000000,-2.261023,-0.418529,-0.238801,-0.000097,0.000000,0.000000,-23.523647,-4.324564,-1.846372,-0.000766,0.000000,1.437477,-1.089110,2.525856,3.275356,1.572096,3.357414,0.000000,0.000000,-0.000000,0.000000,0.000000,0.000000,0.312512,-2.050558,-0.524529,-0.182084,-0.024024,-0.035885,0.000000,-2.261023,-0.418529,-0.238801,-0.000097,0.000000,0.086288,-0.363174,0.250107,-0.000029,0.000051,-3.053746,0.000000,0.000000,0.000000,0.000000,0.000000,0.000000,-4.563418,3.302447,0.413076,-0.060878,0.080128,0.046053,0.086290,-0.363187,0.250113,0.000000,-0.000000,-3.053753,0.000000,0.000000,0.000000,0.000000,0.000000,0.000000,0,28.375000,29.187500,27.687500,31.812500,35.000000,36.250000,0.646825,7,253,253,253,253,253,253,1,0.172383,0.153229,9.461885,0.000000,1.000000,0.000000,47.530155,47.584785,0.587474,47.484600,47.427269,47.498932,47.484600,47.298275,47.298275,0,1,-0.000000,-0.000000,0.004000,0.004000,1,1,-647.808028,149.101074,19379.382925,-33.657566,-11.287851,33.971077,0.000002,0.000002,0.000002,0.000000,0.000000,0.000000,0,0,0,0,0,0,0,0,0,0.000000,0.000000,0.000000,0.000000,0.000000,0.000000,0.000000,0.000000
241535.932000,1.437494,-1.089114,2.525809,3.275377,1.572121,3.357390,0.000000,0.000000,0.000000,0.000000,0.000000,0.000000,0.000000,0.000000,0.000000,0.000000,0.000000,0.000000,0.000000,-2.260958,-0.418433,-0.238804,-0.000096,0.000000,0.000000,-23.522976,-4.323570,-1.846389,-0.000755,0.000000,1.437534,-1.089140,2.525794,3.275340,1.572103,3.357415,0.000000,0.000000,-0.000000,0.000000,0.000000,0.000000,0.261766,-2.049048,-0.537759,-0.188092,-0.028111,-0.039769,0.000000,-2.260958,-0.418433,-0.238804,-0.000096,0.000000,0.086307,-0.363182,0.250129,-0.000047,-0.000114,-3.053687,0.000000,0.000000,0.000000,0.000000,0.000000,0.000000,-4.536165,3.669891,0.311014,-0.050889,0.074104,0.047950,0.086290,-0.363187,0.250113,0.000000,-0.000000,-3.053753,0.000000,0.000000,0.000000,0.000000,0.000000,0.000000,0,28.375000,29.187500,27.687500,31.812500,35.000000,36.250000,0.645264,7,253,253,253,253,253,253,1,0.134075,0.210690,9.538500,0.000000,1.000000,0.000000,47.555233,47.587475,0.674751,47.498932,47.441601,47.570599,47.513268,47.355606,47.412937,0,1,-0.000000,-0.000000,0.004000,0.004000,1,1,-647.867687,148.736971,19379.281218,-33.666995,-11.280971,33.972982,0.000002,0.000002,0.000002,0.000000,0.000000,0.000000,0,0,0,0,0,0,0,0,0,0.000000,0.000000,0.000000,0.000000,0.000000,0.000000,0.000000,0.000000
241535.934000,1.437494,-1.089114,2.525809,3.275377,1.572121,3.357390,0.000000,0.000000,0.000000,0.000000,0.000000,0.000000,0.000000,0.000000,0.000000,0.000000,0.000000,0.000000,0.000000,-2.261009,-0.418590,-0.238796,-0.000096,0.000000,0.000000,-23.523505,-4.325192,-1.846326,-0.000759,0.000000,1.437494,-1.089110,2.525840,3.275415,1.572108,3.357410,0.000000,0.000000,-0.000000,0.000000,0.000000,0.000000,0.268653,-2.041793,-0.578140,-0.181042,-0.026801,-0.037730,0.000000,-2.261009,-0.418590,-0.238796,-0.000096,0.000000,0.086292,-0.363183,0.250104,-0.000000,0.000111,-3.053732,0.000000,0.000000,0.000000,0.000000,0.000000,0.000000,-4.305658,3.632114,0.301176,-0.050882,0.074645,0.042504,0.086290,-0.363187,0.250113,0.000000,-0.000000,-3.053753,0.000000,0.000000,0.000000,0.000000,0.000000,0.000000,0,28.375000,29.187500,27.687500,31.812500,35.000000,36.250000,0.652380,7,253,253,253,253,253,253,1,0.153229,0.153229,9.519346,0.000000,1.000000,0.000000,47.514034,47.567768,0.603141,47.484600,47.398605,47.527599,47.484600,47.355606,47.412937,0,1,-0.000000,-0.000000,0.004000,0.004000,1,1,-648.093731,148.795322,19379.270948,-33.667042,-11.281515,33.967526,0.000002,0.000002,0.000002,0.000000,0.000000,0.000000,0,0,0,0,0,0,0,0,0,0.000000,0.000000,0.000000,0.000000,0.000000,0.000000,0.000000,0.000000
241535.936000,1.437494,-1.089114,2.525809,3.275377,1.572121,3.357390,0.000000,0.000000,0.000000,0.000000,0.000000,0.000000,0.000000,0.000000,0.000000,0.000000,0.000000,0.000000,0.000000,-2.260990,-0.418465,-0.238807,-0.000097,0.000000,0.000000,-23.523306,-4.323901,-1.846413,-0.000762,0.000000,1.437453,-1.089107,2.525807,3.275324,1.572120,3.357369,0.000000,0.000000,-0.000000,0.000000,0.000000,0.000000,0.272057,-2.051740,-0.523969,-0.178951,-0.017334,-0.043123,0.000000,-2.260990,-0.418465,-0.238807,-0.000097,0.000000,0.086276,-0.363187,0.250117,-0.000014,-0.000074,-3.053814,0.000000,0.000000,0.000000,0.000000,0.000000,0.000000,-4.346696,3.725928,0.189435,-0.052178,0.074182,0.047922,0.086290,-0.363187,0.250113,0.000000,-0.000000,-3.053753,0.000000,0.000000,0.000000,0.000000,0.000000,0.000000,0,28.375000,29.187500,27.687500,31.812500,35.000000,36.250000,0.652728,7,253,253,253,253,253,253,1,0.191536,0.134075,9.576807,0.000000,1.000000,0.000000,47.523888,47.559711,0.618802,47.470268,47.412937,47.541931,47.527599,47.298275,47.369938,0,1,-0.000000,-0.000000,0.004000,0.004000,1,1,-648.060778,148.698340,19379.159634,-33.665709,-11.281158,33.972953,0.000002,0.000002,0.000002,0.000000,0.000000,0.000000,0,0,0,0,0,0,0,0,0,0.000000,0.000000,0.000000,0.000000,0.000000,0.000000,0.000000,0.000000
241535.938000,1.437494,-1.089114,2.525809,3.275377,1.572121,3.357390,0.000000,0.000000,0.000000,0.000000,0.000000,0.000000,0.000000,0.000000,0.000000,0.000000,0.000000,0.000000,-0.000000,-2.261046,-0.418510,-0.238798,-0.000098,0.000000,-0.000000,-23.523891,-4.324368,-1.846344,-0.000769,0.000000,1.437477,-1.089181,2.525807,3.275361,1.572141,3.357386,0.000000,0.000000,-0.000000,0.000000,0.000000,0.000000,0.278251,-2.039107,-0.493484,-0.175494,-0.033946,-0.051564,-0.000000,-2.261046,-0.418510,-0.238798,-0.000098,0.000000,0.086283,-0.363181,0.250139,0.000008,-0.000135,-3.053774,0.000000,0.000000,0.000000,0.000000,0.000000,0.000000,-4.339438,3.702441,0.091474,-0.052256,0.071484,0.047481,0.086290,-0.363187,0.250113,0.000000,-0.000000,-3.053753,0.000000,0.000000,0.000000,0.000000,0.000000,0.000000,0,28.375000,29.187500,27.687500,31.812500,35.000000,36.250000,0.664812,7,253,253,253,253,253,253,1,0.191536,0.114922,9.461885,0.000000,1.000000,0.000000,47.523888,47.589264,0.591951,47.527599,47.412937,47.541931,47.484600,47.355606,47.412937,0,1,-0.000000,-0.000000,0.004000,0.004000,1,1,-648.066085,148.722112,19379.061889,-33.665400,-11.278478,33.972515,0.000002,0.000002,0.000002,0.000000,0.000000,0.000000,0,0,0,0,0,0,0,0,0,0.000000,0.000000,0.000000,0.000000,0.000000,0.000000,0.000000,0.000000
241535.940000,1.437494,-1.089114,2.525809,3.275377,1.572121,3.357390,0.000000,0.000000,0.000000,0.000000,0.000000,0.000000,0.000000,0.000000,0.000000,0.000000,0.000000,0.000000,-0.000000,-2.260912,-0.418640,-0.238795,-0.000099,0.000000,-0.000000,-23.522501,-4.325715,-1.846322,-0.000781,0.000000,1.437509,-1.089159,2.525803,3.275326,1.572103,3.357423,0.000000,0.000000,-0.000000,0.000000,0.000000,0.000000,0.253293,-2.036580,-0.498237,-0.181642,-0.028477,-0.040106,-0.000000,-2.260912,-0.418640,-0.238795,-0.000099,0.000000,0.086298,-0.363179,0.250135,-0.000053,-0.000150,-3.053704,0.000000,0.000000,0.000000,0.000000,0.000000,0.000000,-4.400962,3.699061,0.288895,-0.052787,0.073644,0.049071,0.086290,-0.363187,0.250113,0.000000,-0.000000,-3.053753,0.000000,0.000000,0.000000,0.000000,0.000000,0.000000,0,28.375000,29.187500,27.687500,31.812500,35.000000,36.250000,0.650184,7,253,253,253,253,253,253,1,0.210690,0.210690,9.500193,0.000000,1.000000,0.000000,47.542694,47.600906,0.645659,47.513268,47.398605,47.527599,47.541931,47.355606,47.412937,0,1,-0.000000,-0.000000,0.004000,0.004000,1,1,-648.004870,148.719802,19379.259179,-33.665064,-11.280677,33.974104,0.000002,0.000002,0.000002,0.000000,0.000000,0.000000,0,0,0,0,0,0,0,0,0,0.000000,0.000000,0.000000,0.000000,0.000000,0.000000,0.000000,0.000000
241535.942000,1.437494,-1.089114,2.525809,3.275377,1.572121,3.357390,0.000000,0.000000,0.000000,0.000000,0.000000,0.000000,0.000000,0.000000,0.000000,0.000000,0.000000,0.000000,-0.000000,-2.260958,-0.418608,-0.238794,-0.000096,0.000000,-0.000000,-23.522975,-4.325379,-1.846312,-0.000759,0.000000,1.437481,-1.089168,2.525807,3.275340,1.572066,3.357410,0.000000,0.000000,-0.000000,0.000000,0.000000,0.000000,0.289503,-2.014015,-0.511759,-0.193146,-0.030855,-0.039811,-0.000000,-2.260958,-0.418608,-0.238794,-0.000096,0.000000,0.086292,-0.363181,0.250137,-0.000107,-0.000127,-3.053745,0.000000,0.000000,0.000000,0.000000,0.000000,0.000000,-4.329750,3.561333,0.357233,-0.057526,0.070850,0.044773,0.086290,-0.363187,0.250113,0.000000,-0.000000,-3.053753,0.000000,0.000000,0.000000,0.000000,0.000000,0.000000,0,28.375000,29.187500,27.687500,31.812500,35.000000,36.250000,0.654288,7,253,253,253,253,253,253,1,0.210690,0.172383,9.653421,0.000000,1.000000,0.000000,47.518509,47.568668,0.641182,47.513268,47.412937,47.556267,47.484600,47.355606,47.412937,0,1,-0.000000,-0.000000,0.004000,0.004000,1,1,-648.063628,148.863451,19379.327302,-33.660093,-11.278308,33.969803,0.000002,0.000002,0.000002,0.000000,0.000000,0.000000,0,0,0,0,0,0,0,0,0,0.000000,0.000000,0.000000,0.000000,0.000000,0.000000,0.000000,0.000000
241535.944000,1.437494,-1.089114,2.525809,3.275377,1.572121,3.357390,0.000000,0.000000,0.000000,0.000000,0.000000,0.000000,0.000000,0.000000,0.000000,0.000000,0.000000,0.000000,-0.000000,-2.260936,-0.418616,-0.238794,-0.000094,0.000000,-0.000000,-23.522741,-4.325466,-1.846317,-0.000738,0.000000,1.437469,-1.089135,2.525812,3.275356,1.572148,3.357390,0.000000,0.000000,-0.000000,0.000000,0.000000,0.000000,0.260419,-2.047894,-0.518699,-0.179363,-0.029875,-0.052008,-0.000000,-2.260936,-0.418616,-0.238794,-0.000094,0.000000,0.086279,-0.363184,0.250123,0.000031,-0.000068,-3.053777,0.000000,0.000000,0.000000,0.000000,0.000000,0.000000,-4.553239,3.409565,0.400048,-0.058030,0.076387,0.040139,0.086290,-0.363187,0.250113,0.000000,-0.000000,-3.053753,0.000000,0.000000,0.000000,0.000000,0.000000,0.000000,0,28.375000,29.187500,27.687500,31.812500,35.000000,36.250000,0.653856,7,253,253,253,253,253,253,1,0.287304,0.095768,9.500193,0.000000,1.000000,0.000000,47.507767,47.572247,0.663561,47.441601,47.398605,47.527599,47.484600,47.298275,47.398605,0,1,-0.000000,-0.000000,0.004000,0.004000,1,1,-647.827373,148.995238,19379.370347,-33.660077,-11.283871,33.965170,0.000002,0.000002,0.000002,0.000000,0.000000,0.000000,0,0,0,0,0,0,0,0,0,0.000000,0.000000,0.000000,0.000000,0.000000,0.000000,0.000000,0.000000
241535.946000,1.437494,-1.089114,2.525809,3.275377,1.572121,3.357390,0.000000,0.000000,0.000000,0.000000,0.000000,0.000000,0.000000,0.000000,0.000000,0.000000,0.000000,0.000000,0.000000,-2.260988,-0.418553,-0.238798,-0.000100,0.000000,0.000000,-23.523289,-4.324814,-1.846349,-0.000786,0.000000,1.437444,-1.089106,2.525823,3.275380,1.572137,3.357427,0.000000,0.000000,-0.000000,0.000000,0.000000,0.000000,0.311487,-2.049181,-0.560595,-0.175202,-0.018983,-0.047559,0.000000,-2.260988,-0.418553,-0.238798,-0.000100,0.000000,0.086271,-0.363188,0.250108,0.000031,0.000033,-3.053766,0.000000,0.000000,0.000000,0.000000,0.000000,0.000000,-4.283434,3.611058,0.378422,-0.054242,0.070515,0.045517,0.086290,-0.363187,0.250113,0.000000,-0.000000,-3.053753,0.000000,0.000000,0.000000,0.000000,0.000000,0.000000,0,28.375000,29.187500,27.687500,31.812500,35.000000,36.250000,0.653137,7,253,253,253,253,253,253,1,0.153229,0.057461,9.366117,0.000000,1.000000,0.000000,47.534634,47.578518,0.589710,47.513268,47.427269,47.541931,47.513268,47.355606,47.441601,0,1,-0.000000,-0.000000,0.004000,0.004000,1,1,-648.113852,148.818269,19379.348473,-33.663334,-11.277693,33.970544,0.000002,0.000002,0.000002,0.000000,0.000000,0.000000,0,0,0,0,0,0,0,0,0,0.000000,0.000000,0.000000,0.000000,0.000000,0.000000,0.000000,0.000000
241535.948000,1.437494,-1.089114,2.525809,3.275377,1.572121,3.357390,0.000000,0.000000,0.000000,0.000000,0.000000,0.000000,0.000000,0.000000,0.000000,0.000000,0.000000,0.000000,-0.000000,-2.261024,-0.418484,-0.238803,-0.000099,0.000000,-0.000000,-23.523666,-4.324100,-1.846386,-0.000779,0.000000,1.437473,-1.089086,2.525819,3.275356,1.572078,3.357366,0.000000,0.000000,-0.000000,0.000000,0.000000,0.000000,0.310518,-2.019354,-0.483407,-0.184285,-0.023479,-0.037638,-0.000000,-2.261024,-0.418484,-0.238803,-0.000099,0.000000,0.086287,-0.363187,0.250104,-0.000060,0.000036,-3.053797,0.000000,0.000000,0.000000,0.000000,0.000000,0.000000,-4.227136,3.567185,0.191726,-0.053732,0.071283,0.048955,0.086290,-0.363187,0.250113,0.000000,-0.000000,-3.053753,0.000000,0.000000,0.000000,0.000000,0.000000,0.000000,0,28.375000,29.187500,27.687500,31.812500,35.000000,36.250000,0.657529,7,253,253,253,253,253,253,1,0.172383,0.000000,9.404425,0.000000,1.000000,0.000000,47.522095,47.595535,0.647900,47.498932,47.441601,47.556267,47.513268,47.355606,47.427269,0,1,-0.000000,-0.000000,0.004000,0.004000,1,1,-648.166087,148.867048,19379.161530,-33.663903,-11.278410,33.973978,0.000002,0.000002,0.000002,0.000000,0.000000,0.000000,0,0,0,0,0,0,0,0,0,0.000000,0.000000,0.000000,0.000000,0.000000,0.000000,0.000000,0.000000
241535.950000,1.437494,-1.089114,2.525809,3.275377,1.572121,3.357390,0.000000,0.000000,0.000000,0.000000,0.000000,0.000000,0.000000,0.000000,0.000000,0.000000,0.000000,0.000000,0.000000,-2.261066,-0.418456,-0.238803,-0.000094,0.000000,0.000000,-23.524102,-4.323812,-1.846381,-0.000745,0.000000,1.437457,-1.089135,2.525840,3.275373,1.572128,3.357332,0.000000,0.000000,-0.000000,0.000000,0.000000,0.000000,0.280418,-2.038253,-0.533788,-0.187525,-0.026681,-0.033552,0.000000,-2.261066,-0.418456,-0.238803,-0.000094,0.000000,0.086277,-0.363179,0.250117,0.000012,0.000004,-3.053847,0.000000,0.000000,0.000000,0.000000,0.000000,0.000000,-4.346533,3.535029,0.220664,-0.056206,0.071051,0.049033,0.086290,-0.363187,0.250113,0.000000,-0.000000,-3.053753,0.000000,0.000000,0.000000,0.000000,0.000000,0.000000,0,28.375000,29.187500,27.687500,31.812500,35.000000,36.250000,0.653749,7,253,253,253,253,253,253,1,0.229843,0.095768,9.481039,0.000000,1.000000,0.000000,47.501499,47.540005,0.656848,47.470268,47.384270,47.527599,47.484600,47.355606,47.341274,0,1,-0.000000,-0.000000,0.004000,0.004000,1,1,-648.044034,148.888762,19379.190736,-33.661418,-11.278394,33.974061,0.000002,0.000002,0.000002,0.000000,0.000000,0.000000,0,0,0,0,0,0,0,0,0,0.000000,0.000000,0.000000,0.000000,0.000000,0.000000,0.000000,0.000000
241535.952000,1.437494,-1.089114,2.525809,3.275377,1.572121,3.357390,0.000000,0.000000,0.000000,0.000000,0.000000,0.000000,0.000000,0.000000,0.000000,0.000000,0.000000,0.000000,0.000000,-2.260941,-0.418506,-0.238802,-0.000098,0.000000,0.000000,-23.522802,-4.324327,-1.846374,-0.000774,0.000000,1.437464,-1.089111,2.525827,3.275361,1.572115,3.357362,0.000000,0.000000,-0.000000,0.000000,0.000000,0.000000,0.252471,-2.039981,-0.516614,-0.177881,-0.022354,-0.043411,0.000000,-2.260941,-0.418506,-0.238802,-0.000098,0.000000,0.086281,-0.363183,0.250112,-0.000007,0.000008,-3.053810,0.000000,0.000000,0.000000,0.000000,0.000000,0.000000,-4.381846,3.502792,0.210930,-0.056465,0.073198,0.045482,0.086290,-0.363187,0.250113,0.000000,-0.000000,-3.053753,0.000000,0.000000,0.000000,0.000000,0.000000,0.000000,0,28.375000,29.187500,27.687500,31.812500,35.000000,36.250000,0.649308,7,253,253,253,253,253,253,1,0.134075,0.076614,9.557653,0.000000,1.000000,0.000000,47.505077,47.557919,0.636710,47.455936,47.412937,47.513268,47.513268,47.298275,47.384270,0,1,-0.000000,-0.000000,0.004000,0.004000,1,1,-648.006202,148.917637,19379.180942,-33.661351,-11.280557,33.970509,0.000002,0.000002,0.000002,0.000000,0.000000,0.000000,0,0,0,0,0,0,0,0,0,0.000000,0.000000,0.000000,0.000000,0.000000,0.000000,0.000000,0.000000
241535.954000,1.437494,-1.089114,2.525809,3.275377,1.572121,3.357390,0.000000,0.000000,0.000000,0.000000,0.000000,0.000000,0.000000,0.000000,0.000000,0.000000,0.000000,0.000000,-0.000000,-2.261005,-0.418485,-0.238802,-0.000097,0.000000,-0.000000,-23.523469,-4.324107,-1.846374,-0.000766,0.000000,1.437424,-1.089107,2.525786,3.275352,1.572099,3.357353,0.000000,0.000000,-0.000000,0.000000,0.000000,0.000000,0.295292,-2.066482,-0.525111,-0.173595,-0.022700,-0.033138,-0.000000,-2.261005,-0.418485,-0.238802,-0.000097,0.000000,0.086266,-0.363198,0.250117,-0.000044,-0.000058,-3.053859,0.000000,0.000000,0.000000,0.000000,0.000000,0.000000,-4.278140,3.762346,0.413881,-0.050516,0.073384,0.049236,0.086290,-0.363187,0.250113,0.000000,-0.000000,-3.053753,0.000000,0.000000,0.000000,0.000000,0.000000,0.000000,0,28.375000,29.187500,27.687500,31.812500,35.000000,36.250000,0.664632,7,253,253,253,253,253,253,1,0.172383,0.153229,9.404425,0.000000,1.000000,0.000000,47.548962,47.586578,0.645659,47.513268,47.427269,47.570599,47.513268,47.355606,47.441601,0,1,-0.000000,-0.000000,0.004000,0.004000,1,1,-648.132113,148.668282,19379.383960,-33.667289,-11.280215,33.974265,0.000002,0.000002,0.000002,0.000000,0.000000,0.000000,0,0,0,0,0,0,0,0,0,0.000000,0.000000,0.000000,0.000000,0.000000,0.000000,0.000000,0.000000
241535.956000,1.437494,-1.089114,2.525809,3.275377,1.572121,3.357390,0.000000,0.000000,0.000000,0.000000,0.000000,0.000000,0.000000,0.000000,0.000000,0.000000,0.000000,0.000000,-0.000000,-2.261084,-0.418548,-0.238798,-0.000096,0.000000,-0.000000,-23.524285,-4.324761,-1.846348,-0.000757,0.000000,1.437456,-1.089110,2.525819,3.275368,1.572120,3.357414,0.000000,0.000000,-0.000000,0.000000,0.000000,0.000000,0.353620,-2.033562,-0.526034,-0.189949,-0.042139,-0.038734,-0.000000,-2.261084,-0.418548,-0.238798,-0.000096,0.000000,0.086277,-0.363187,0.250112,-0.000000,0.000006,-3.053767,0.000000,0.000000,0.000000,0.000000,0.000000,0.000000,-4.417068,3.636914,0.389646,-0.050629,0.073811,0.047193,0.086290,-0.363187,0.250113,0.000000,-0.000000,-3.053753,0.000000,0.000000,0.000000,0.000000,0.000000,0.000000,0,28.375000,29.187500,27.687500,31.812500,35.000000,36.250000,0.645732,7,253,253,253,253,253,253,1,0.172383,0.229843,9.461885,0.000000,1.000000,0.000000,47.531944,47.588367,0.681469,47.513268,47.441601,47.570599,47.541931,47.355606,47.427269,0,1,-0.000000,-0.000000,0.004000,0.004000,1,1,-647.983039,148.780762,19379.359680,-33.667221,-11.280658,33.972220,0.000002,0.000002,0.000002,0.000000,0.000000,0.000000,0,0,0,0,0,0,0,0,0,0.000000,0.000000,0.000000,0.000000,0.000000,0.000000,0.000000,0.000000
241535.958000,1.437494,-1.089114,2.525809,3.275377,1.572121,3.357390,0.000000,0.000000,0.000000,0.000000,0.000000,0.000000,0.000000,0.000000,0.000000,0.000000,0.000000,0.000000,-0.000000,-2.261023,-0.418498,-0.238802,-0.000098,0.000000,-0.000000,-23.523652,-4.324248,-1.846374,-0.000769,0.000000,1.437436,-1.089131,2.525814,3.275382,1.572115,3.357378,0.000000,0.000000,-0.000000,0.000000,0.000000,0.000000,0.246515,-2.042863,-0.517459,-0.181216,-0.034640,-0.036645,-0.000000,-2.261023,-0.418498,-0.238802,-0.000098,0.000000,0.086270,-0.363190,0.250118,-0.000010,-0.000010,-3.053822,0.000000,0.000000,0.000000,0.000000,0.000000,0.000000,-4.453890,3.720712,0.313611,-0.053576,0.073154,0.045433,0.086290,-0.363187,0.250113,0.000000,-0.000000,-3.053753,0.000000,0.000000,0.000000,0.000000,0.000000,0.000000,0,28.375000,29.187500,27.687500,31.812500,35.000000,36.250000,0.644868,7,253,253,253,253,253,253,1,0.210690,0.248997,9.481039,0.000000,1.000000,0.000000,47.526573,47.566872,0.616566,47.513268,47.441601,47.513268,47.484600,47.312607,47.427269,0,1,-0.000000,-0.000000,0.004000,0.004000,1,1,-647.953497,148.694263,19379.283657,-33.664224,-11.280259,33.970460,0.000002,0.000002,0.000002,0.000000,0.000000,0.000000,0,0,0,0,0,0,0,0,0,0.000000,0.000000,0.000000,0.000000,0.000000,0.000000,0.000000,0.000000
241535.960000,1.437494,-1.089114,2.525809,3.275377,1.572121,3.357390,0.000000,0.000000,0.000000,0.000000,0.000000,0.000000,0.000000,0.000000,0.000000,0.000000,0.000000,0.000000,-0.000000,-2.260993,-0.418542,-0.238801,-0.000097,0.000000,-0.000000,-23.523342,-4.324702,-1.846367,-0.000766,0.000000,1.437484,-1.089082,2.525803,3.275365,1.572153,3.357402,0.000000,0.000000,-0.000000,0.000000,0.000000,0.000000,0.296102,-2.034899,-0.544061,-0.167161,-0.039815,-0.046085,-0.000000,-2.260993,-0.418542,-0.238801,-0.000097,0.000000,0.086283,-0.363191,0.250104,0.000053,0.000012,-3.053750,0.000000,0.000000,0.000000,0.000000,0.000000,0.000000,-4.520126,3.786623,0.214120,-0.048988,0.074190,0.045554,0.086290,-0.363187,0.250113,0.000000,-0.000000,-3.053753,0.000000,0.000000,0.000000,0.000000,0.000000,0.000000,0,28.375000,29.187500,27.687500,31.812500,35.000000,36.250000,0.661992,7,253,253,253,253,253,253,1,0.229843,0.268151,9.442732,0.000000,1.000000,0.000000,47.508659,47.574039,0.672515,47.498932,47.412937,47.541931,47.484600,47.298275,47.398605,0,1,-0.000000,-0.000000,0.004000,0.004000,1,1,-647.893503,148.622527,19379.184288,-33.668892,-11.280893,33.970582,0.000002,0.000002,0.000002,0.000000,0.000000,0.000000,0,0,0,0,0,0,0,0,0,0.000000,0.000000,0.000000,0.000000,0.000000,0.000000,0.000000,0.000000
241535.962000,1.437494,-1.089114,2.525809,3.275377,1.572121,3.357390,0.000000,0.000000,0.000000,0.000000,0.000000,0.000000,0.000000,0.000000,0.000000,0.000000,0.000000,0.000000,-0.000000,-2.261102,-0.418476,-0.238802,-0.000100,0.000000,-0.000000,-23.524472,-4.324017,-1.846380,-0.000788,0.000000,1.437494,-1.089147,2.525848,3.275349,1.572115,3.357406,0.000000,0.000000,-0.000000,0.000000,0.000000,0.000000,0.262453,-2.028091,-0.543087,-0.184772,-0.029801,-0.035503,-0.000000,-2.261102,-0.418476,-0.238802,-0.000100,0.000000,0.086293,-0.363170,0.250122,-0.000014,-0.000034,-3.053736,0.000000,0.000000,0.000000,0.000000,0.000000,0.000000,-4.473165,3.494496,0.281492,-0.057793,0.074939,0.046113,0.086290,-0.363187,0.250113,0.000000,-0.000000,-3.053753,0.000000,0.000000,0.000000,0.000000,0.000000,0.000000,0,28.375000,29.187500,27.687500,31.812500,35.000000,36.250000,0.635592,7,253,253,253,253,253,253,1,0.210690,0.114922,9.634268,0.000000,1.000000,0.000000,47.526573,47.561501,0.685941,47.498932,47.427269,47.527599,47.484600,47.355606,47.427269,0,1,-0.000000,-0.000000,0.004000,0.004000,1,1,-647.914807,148.917529,19379.251583,-33.660186,-11.282409,33.971142,0.000002,0.000002,0.000002,0.000000,0.000000,0.000000,0,0,0,0,0,0,0,0,0,0.000000,0.000000,0.000000,0.000000,0.000000,0.000000,0.000000,0.000000
