timestamp,target_q_0,target_q_1,target_q_2,target_q_3,target_q_4,target_q_5,target_qd_0,target_qd_1,target_qd_2,target_qd_3,target_qd_4,target_qd_5,target_qdd_0,target_qdd_1,target_qdd_2,target_qdd_3,target_qdd_4,target_qdd_5,target_current_0,target_current_1,target_current_2,target_current_3,target_current_4,target_current_5,target_moment_0,target_moment_1,target_moment_2,target_moment_3,target_moment_4,target_moment_5,actual_q_0,actual_q_1,actual_q_2,actual_q_3,actual_q_4,actual_q_5,actual_qd_0,actual_qd_1,actual_qd_2,actual_qd_3,actual_qd_4,actual_qd_5,actual_current_0,actual_current_1,actual_current_2,actual_current_3,actual_current_4,actual_current_5,joint_control_output_0,joint_control_output_1,joint_control_output_2,joint_control_output_3,joint_control_output_4,joint_control_output_5,actual_TCP_pose_0,actual_TCP_pose_1,actual_TCP_pose_2,actual_TCP_pose_3,actual_TCP_pose_4,actual_TCP_pose_5,actual_TCP_speed_0,actual_TCP_speed_1,actual_TCP_speed_2,actual_TCP_speed_3,actual_TCP_speed_4,actual_TCP_speed_5,actual_TCP_force_0,actual_TCP_force_1,actual_TCP_force_2,actual_TCP_force_3,actual_TCP_force_4,actual_TCP_force_5,target_TCP_pose_0,target_TCP_pose_1,target_TCP_pose_2,target_TCP_pose_3,target_TCP_pose_4,target_TCP_pose_5,target_TCP_speed_0,target_TCP_speed_1,target_TCP_speed_2,target_TCP_speed_3,target_TCP_speed_4,target_TCP_speed_5,actual_digital_input_bits,joint_temperatures_0,joint_temperatures_1,joint_temperatures_2,joint_temperatures_3,joint_temperatures_4,joint_temperatures_5,actual_execution_time,robot_mode,joint_mode_0,joint_mode_1,joint_mode_2,joint_mode_3,joint_mode_4,joint_mode_5,safety_mode,actual_tool_accelerometer_0,actual_tool_accelerometer_1,actual_tool_accelerometer_2,speed_scaling,target_speed_fraction,actual_momentum,actual_main_voltage,actual_robot_voltage,actual_robot_current,actual_joint_voltage_0,actual_joint_voltage_1,actual_joint_voltage_2,actual_joint_voltage_3,actual_joint_voltage_4,actual_joint_voltage_5,actual_digital_output_bits,runtime_state,standard_analog_input0,standard_analog_input1,standard_analog_output0,standard_analog_output1,robot_status_bits,safety_status_bits,ft_raw_wrench_0,ft_raw_wrench_1,ft_raw_wrench_2,ft_raw_wrench_3,ft_raw_wrench_4,ft_raw_wrench_5,payload_inertia_0,payload_inertia_1,payload_inertia_2,payload_inertia_3,payload_inertia_4,payload_inertia_5,output_int_register_2,output_int_register_12,output_int_register_13,output_int_register_14,output_int_register_15,output_int_register_16,output_int_register_17,output_int_register_18,output_int_register_19,output_double_register_12,output_double_register_13,output_double_register_14,output_double_register_15,output_double_register_16,output_double_register_17,output_double_register_18,output_double_register_19
241555.644000,1.437494,-1.089114,2.525809,3.275377,1.572121,3.357390,0.000000,0.000000,0.000000,0.000000,0.000000,0.000000,0.000000,0.000000,0.000000,0.000000,0.000000,0.000000,0.000000,-2.260965,-0.418413,-0.238806,-0.000099,0.000000,0.000000,-23.523048,-4.323363,-1.846405,-0.000781,0.000000,1.437502,-1.089086,2.525827,3.275385,1.572103,3.357365,0.000000,0.000000,-0.000000,-0.000000,-0.000000,0.000000,0.316866,-1.999651,-0.558458,-0.167730,-0.024720,-0.034784,0.000000,-2.260965,-0.418413,-0.238806,-0.000099,0.000000,0.086295,-0.363185,0.250100,-0.000012,0.000084,-3.053770,0.000000,0.000000,0.000000,0.000000,0.000000,0.000000,-4.533664,3.394538,0.553038,-0.060723,0.077887,0.044964,0.086290,-0.363187,0.250113,0.000000,-0.000000,-3.053753,0.000000,0.000000,0.000000,0.000000,0.000000,0.000000,0,28.437500,29.250000,27.687500,31.875000,35.062500,36.187500,0.657696,7,253,253,253,253,253,253,1,0.287304,0.038307,9.519346,0.000000,1.000000,0.000000,47.514931,47.580307,0.618802,47.513268,47.412937,47.513268,47.556267,47.341274,47.427269,0,1,-0.000000,-0.000000,0.004000,0.004000,1,1,-647.845630,149.012086,19379.522855,-33.657521,-11.285605,33.969986,0.000002,0.000002,0.000002,0.000000,0.000000,0.000000,0,0,0,0,0,0,0,0,0,0.000000,0.000000,0.000000,0.000000,0.000000,0.000000,0.000000,0.000000
241555.646000,1.437494,-1.089114,2.525809,3.275377,1.572121,3.357390,0.000000,0.000000,0.000000,0.000000,0.000000,0.000000,0.000000,0.000000,0.000000,0.000000,0.000000,0.000000,0.000000,-2.261053,-0.418443,-0.238805,-0.000096,0.000000,0.000000,-23.523960,-4.323673,-1.846403,-0.000759,0.000000,1.437481,-1.089138,2.525844,3.275328,1.572133,3.357402,0.000000,0.000000,-0.000000,-0.000000,-0.000000,0.000000,0.353818,-1.979531,-0.498848,-0.165096,-0.035654,-0.044965,0.000000,-2.261053,-0.418443,-0.238805,-0.000096,0.000000,0.086286,-0.363171,0.250122,0.000009,-0.000062,-3.053753,0.000000,0.000000,0.000000,0.000000,0.000000,0.000000,-4.505571,3.310530,0.350521,-0.063012,0.075781,0.045120,0.086290,-0.363187,0.250113,0.000000,-0.000000,-3.053753,0.000000,0.000000,0.000000,0.000000,0.000000,0.000000,0,28.437500,29.250000,27.687500,31.875000,35.062500,36.187500,0.654240,7,253,253,253,253,253,253,1,0.210690,0.057461,9.519346,0.000000,1.000000,0.000000,47.506870,47.566872,0.565094,47.484600,47.412937,47.513268,47.513268,47.312607,47.412937,0,1,-0.000000,-0.000000,0.004000,0.004000,1,1,-647.866290,149.097978,19379.320737,-33.655061,-11.283705,33.970151,0.000002,0.000002,0.000002,0.000000,0.000000,0.000000,0,0,0,0,0,0,0,0,0,0.000000,0.000000,0.000000,0.000000,0.000000,0.000000,0.000000,0.000000
241555.648000,1.437494,-1.089114,2.525809,3.275377,1.572121,3.357390,0.000000,0.000000,0.000000,0.000000,0.000000,0.000000,0.000000,0.000000,0.000000,0.000000,0.000000,0.000000,-0.000000,-2.260926,-0.418501,-0.238799,-0.000099,0.000000,-0.000000,-23.522638,-4.324275,-1.846349,-0.000777,0.000000,1.437481,-1.089119,2.525786,3.275385,1.572079,3.357390,0.000000,0.000000,-0.000000,-0.000000,-0.000000,0.000000,0.289193,-1.973916,-0.566804,-0.173989,-0.019860,-0.046831,-0.000000,-2.260926,-0.418501,-0.238799,-0.000099,0.000000,0.086289,-0.363196,0.250118,-0.000068,-0.000021,-3.053765,0.000000,0.000000,0.000000,0.000000,0.000000,0.000000,-4.392092,3.586767,0.323620,-0.056833,0.073924,0.042732,0.086290,-0.363187,0.250113,0.000000,-0.000000,-3.053753,0.000000,0.000000,0.000000,0.000000,0.000000,0.000000,0,28.437500,29.250000,27.687500,31.875000,35.062500,36.187500,0.656244,7,253,253,253,253,253,253,1,0.191536,0.134075,9.461885,0.000000,1.000000,0.000000,47.511349,47.575829,0.632233,47.513268,47.384270,47.527599,47.498932,47.326939,47.398605,0,1,-0.000000,-0.000000,0.004000,0.004000,1,1,-648.003619,148.832869,19379.293534,-33.661050,-11.281312,33.967758,0.000002,0.000002,0.000002,0.000000,0.000000,0.000000,0,0,0,0,0,0,0,0,0,0.000000,0.000000,0.000000,0.000000,0.000000,0.000000,0.000000,0.000000
241555.650000,1.437494,-1.089114,2.525809,3.275377,1.572121,3.357390,0.000000,0.000000,0.000000,0.000000,0.000000,0.000000,0.000000,0.000000,0.000000,0.000000,0.000000,0.000000,0.000000,-2.261064,-0.418571,-0.238800,-0.000095,0.000000,0.000000,-23.524076,-4.324995,-1.846360,-0.000745,0.000000,1.437403,-1.089098,2.525765,3.275361,1.572121,3.357357,0.000000,0.000000,-0.000000,-0.000000,-0.000000,0.000000,0.328042,-1.958742,-0.528715,-0.157374,-0.018976,-0.046170,0.000000,-2.261064,-0.418571,-0.238800,-0.000095,0.000000,0.086256,-0.363207,0.250116,-0.000011,-0.000068,-3.053876,0.000000,0.000000,0.000000,0.000000,0.000000,0.000000,-4.545738,3.405676,0.338089,-0.059991,0.079145,0.045689,0.086290,-0.363187,0.250113,0.000000,-0.000000,-3.053753,0.000000,0.000000,0.000000,0.000000,0.000000,0.000000,0,28.437500,29.250000,27.687500,31.875000,35.062500,36.187500,0.657709,7,253,253,253,253,253,253,1,0.248997,0.191536,9.442732,0.000000,1.000000,0.000000,47.507767,47.547173,0.659090,47.484600,47.427269,47.527599,47.498932,47.341274,47.398605,0,1,-0.000000,-0.000000,0.004000,0.004000,1,1,-647.834188,149.000185,19379.308267,-33.658356,-11.286784,33.970719,0.000002,0.000002,0.000002,0.000000,0.000000,0.000000,0,0,0,0,0,0,0,0,0,0.000000,0.000000,0.000000,0.000000,0.000000,0.000000,0.000000,0.000000
241555.652000,1.437494,-1.089114,2.525809,3.275377,1.572121,3.357390,0.000000,0.000000,0.000000,0.000000,0.000000,0.000000,0.000000,0.000000,0.000000,0.000000,0.000000,0.000000,0.000000,-2.261136,-0.418570,-0.238798,-0.000098,0.000000,0.000000,-23.524829,-4.324984,-1.846346,-0.000770,0.000000,1.437461,-1.089086,2.525786,3.275352,1.572096,3.357397,0.000000,0.000000,-0.000000,-0.000000,-0.000000,0.000000,0.375974,-1.964729,-0.537120,-0.168789,-0.019707,-0.045248,0.000000,-2.261136,-0.418570,-0.238798,-0.000098,0.000000,0.086280,-0.363197,0.250110,-0.000043,-0.000025,-3.053778,0.000000,0.000000,0.000000,0.000000,0.000000,0.000000,-4.555403,3.413384,0.467432,-0.061366,0.078106,0.041797,0.086290,-0.363187,0.250113,0.000000,-0.000000,-3.053753,0.000000,0.000000,0.000000,0.000000,0.000000,0.000000,0,28.437500,29.250000,27.687500,31.875000,35.062500,36.187500,0.657445,7,253,253,253,253,253,253,1,0.210690,0.191536,9.576807,0.000000,1.000000,0.000000,47.522987,47.594635,0.654613,47.527599,47.427269,47.556267,47.513268,47.341274,47.398605,0,1,-0.000000,-0.000000,0.004000,0.004000,1,1,-647.825644,148.991306,19379.437417,-33.656901,-11.285875,33.966824,0.000002,0.000002,0.000002,0.000000,0.000000,0.000000,0,0,0,0,0,0,0,0,0,0.000000,0.000000,0.000000,0.000000,0.000000,0.000000,0.000000,0.000000
241555.654000,1.437494,-1.089114,2.525809,3.275377,1.572121,3.357390,0.000000,0.000000,0.000000,0.000000,0.000000,0.000000,0.000000,0.000000,0.000000,0.000000,0.000000,0.000000,0.000000,-2.261122,-0.418512,-0.238800,-0.000096,0.000000,0.000000,-23.524678,-4.324393,-1.846360,-0.000755,0.000000,1.437502,-1.089156,2.525769,3.275336,1.572066,3.357444,0.000000,0.000000,-0.000000,-0.000000,-0.000000,0.000000,0.323794,-1.957788,-0.561987,-0.151158,-0.030637,-0.038563,0.000000,-2.261122,-0.418512,-0.238800,-0.000096,0.000000,0.086298,-0.363191,0.250138,-0.000115,-0.000172,-3.053691,0.000000,0.000000,0.000000,0.000000,0.000000,0.000000,-4.508956,3.396767,0.469816,-0.059858,0.078748,0.043801,0.086290,-0.363187,0.250113,0.000000,-0.000000,-3.053753,0.000000,0.000000,0.000000,0.000000,0.000000,0.000000,0,28.437500,29.250000,27.687500,31.875000,35.062500,36.187500,0.655765,7,253,253,253,253,253,253,1,0.248997,0.114922,9.500193,0.000000,1.000000,0.000000,47.544483,47.584785,0.616566,47.470268,47.384270,47.527599,47.470268,47.412937,47.398605,0,1,-0.000000,-0.000000,0.004000,0.004000,1,1,-647.870884,149.011387,19379.439939,-33.658468,-11.286381,33.968833,0.000002,0.000002,0.000002,0.000000,0.000000,0.000000,0,0,0,0,0,0,0,0,0,0.000000,0.000000,0.000000,0.000000,0.000000,0.000000,0.000000,0.000000
241555.656000,1.437494,-1.089114,2.525809,3.275377,1.572121,3.357390,0.000000,0.000000,0.000000,0.000000,0.000000,0.000000,0.000000,0.000000,0.000000,0.000000,0.000000,0.000000,-0.000000,-2.261022,-0.418661,-0.238792,-0.000094,0.000000,-0.000000,-23.523642,-4.325923,-1.846300,-0.000738,0.000000,1.437497,-1.089159,2.525843,3.275402,1.572124,3.357423,0.000000,0.000000,-0.000000,-0.000000,-0.000000,0.000000,0.300615,-1.984672,-0.582188,-0.158061,-0.023338,-0.049048,-0.000000,-2.261022,-0.418661,-0.238792,-0.000094,0.000000,0.086293,-0.363176,0.250122,0.000009,0.000019,-3.053716,0.000000,0.000000,0.000000,0.000000,0.000000,0.000000,-4.448762,3.361992,0.387040,-0.060847,0.075872,0.047161,0.086290,-0.363187,0.250113,0.000000,-0.000000,-3.053753,0.000000,0.000000,0.000000,0.000000,0.000000,0.000000,0,28.437500,29.250000,27.687500,31.875000,35.062500,36.187500,0.653892,7,253,253,253,253,253,253,1,0.191536,0.095768,9.557653,0.000000,1.000000,0.000000,47.504181,47.568668,0.627756,47.527599,47.398605,47.513268,47.527599,47.355606,47.384270,0,1,-0.000000,-0.000000,0.004000,0.004000,1,1,-647.927529,149.051653,19379.357069,-33.657227,-11.283610,33.972188,0.000002,0.000002,0.000002,0.000000,0.000000,0.000000,0,0,0,0,0,0,0,0,0,0.000000,0.000000,0.000000,0.000000,0.000000,0.000000,0.000000,0.000000
241555.658000,1.437494,-1.089114,2.525809,3.275377,1.572121,3.357390,0.000000,0.000000,0.000000,0.000000,0.000000,0.000000,0.000000,0.000000,0.000000,0.000000,0.000000,0.000000,-0.000000,-2.260893,-0.418542,-0.238802,-0.000098,0.000000,-0.000000,-23.522299,-4.324701,-1.846380,-0.000771,0.000000,1.437464,-1.089179,2.525840,3.275365,1.572082,3.357397,0.000000,0.000000,-0.000000,-0.000000,-0.000000,0.000000,0.336179,-1.958164,-0.545193,-0.153030,-0.012932,-0.028176,-0.000000,-2.260893,-0.418542,-0.238802,-0.000098,0.000000,0.086285,-0.363175,0.250133,-0.000070,-0.000061,-3.053775,0.000000,0.000000,0.000000,0.000000,0.000000,0.000000,-4.409800,3.535730,0.343108,-0.057389,0.077203,0.046123,0.086290,-0.363187,0.250113,0.000000,-0.000000,-3.053753,0.000000,0.000000,0.000000,0.000000,0.000000,0.000000,0,28.437500,29.250000,27.687500,31.875000,35.062500,36.187500,0.665724,7,253,253,253,253,253,253,1,0.153229,0.134075,9.538500,0.000000,1.000000,0.000000,47.513138,47.554333,0.625520,47.498932,47.427269,47.484600,47.412937,47.326939,47.398605,0,1,-0.000000,-0.000000,0.004000,0.004000,1,1,-647.981471,148.882140,19379.313110,-33.660783,-11.284625,33.971151,0.000002,0.000002,0.000002,0.000000,0.000000,0.000000,0,0,0,0,0,0,0,0,0,0.000000,0.000000,0.000000,0.000000,0.000000,0.000000,0.000000,0.000000
241555.658000,1.437494,-1.089114,2.525809,3.275377,1.572121,3.357390,0.000000,0.000000,0.000000,0.000000,0.000000,0.000000,0.000000,0.000000,0.000000,0.000000,0.000000,0.000000,-0.000000,-2.260893,-0.418542,-0.238802,-0.000098,0.000000,-0.000000,-23.522299,-4.324701,-1.846380,-0.000771,0.000000,1.437464,-1.089179,2.525840,3.275365,1.572082,3.357397,0.000000,0.000000,-0.000000,-0.000000,-0.000000,0.000000,0.336179,-1.958164,-0.545193,-0.153030,-0.012932,-0.028176,-0.000000,-2.260893,-0.418542,-0.238802,-0.000098,0.000000,0.086285,-0.363175,0.250133,-0.000070,-0.000061,-3.053775,0.000000,0.000000,0.000000,0.000000,0.000000,0.000000,-4.409800,3.535730,0.343108,-0.057389,0.077203,0.046123,0.086290,-0.363187,0.250113,0.000000,-0.000000,-3.053753,0.000000,0.000000,0.000000,0.000000,0.000000,0.000000,0,28.437500,29.250000,27.687500,31.875000,35.062500,36.187500,0.665724,7,253,253,253,253,253,253,1,0.153229,0.134075,9.538500,0.000000,1.000000,0.000000,47.513138,47.554333,0.625520,47.498932,47.427269,47.484600,47.412937,47.326939,47.398605,0,1,-0.000000,-0.000000,0.004000,0.004000,1,1,-648.163190,149.048078,19379.281848,-33.654627,-11.279358,33.969176,0.000002,0.000002,0.000002,0.000000,0.000000,0.000000,0,0,0,0,0,0,0,0,0,0.000000,0.000000,0.000000,0.000000,0.000000,0.000000,0.000000,0.000000
241555.662000,1.437494,-1.089114,2.525809,3.275377,1.572121,3.357390,0.000000,0.000000,0.000000,0.000000,0.000000,0.000000,0.000000,0.000000,0.000000,0.000000,0.000000,0.000000,0.000000,-2.261008,-0.418514,-0.238802,-0.000099,0.000000,0.000000,-23.523495,-4.324414,-1.846379,-0.000779,0.000000,1.437456,-1.089127,2.525782,3.275364,1.572137,3.357374,0.000000,0.000000,-0.000000,-0.000000,-0.000000,0.000000,0.321686,-1.975003,-0.555637,-0.158806,-0.021458,-0.038861,0.000000,-2.261008,-0.418514,-0.238802,-0.000099,0.000000,0.086274,-0.363196,0.250124,0.000010,-0.000085,-3.053807,0.000000,0.000000,0.000000,0.000000,0.000000,0.000000,-4.242449,3.510288,0.459581,-0.060496,0.073314,0.048521,0.086290,-0.363187,0.250113,0.000000,-0.000000,-3.053753,0.000000,0.000000,0.000000,0.000000,0.000000,0.000000,0,28.437500,29.250000,27.687500,31.875000,35.062500,36.187500,0.654180,7,253,253,253,253,253,253,1,0.191536,0.114922,9.519346,0.000000,1.000000,0.000000,47.546276,47.612545,0.605377,47.527599,47.441601,47.556267,47.527599,47.384270,47.427269,0,1,-0.000000,-0.000000,0.004000,0.004000,1,1,-648.145715,148.922256,19379.429862,-33.657348,-11.281023,33.973553,0.000002,0.000002,0.000002,0.000000,0.000000,0.000000,0,0,0,0,0,0,0,0,0,0.000000,0.000000,0.000000,0.000000,0.000000,0.000000,0.000000,0.000000
241555.664000,1.437494,-1.089114,2.525809,3.275377,1.572121,3.357390,0.000000,0.000000,0.000000,0.000000,0.000000,0.000000,0.000000,0.000000,0.000000,0.000000,0.000000,0.000000,0.000000,-2.261056,-0.418590,-0.238797,-0.000099,0.000000,0.000000,-23.523994,-4.325196,-1.846341,-0.000779,0.000000,1.437432,-1.089139,2.525831,3.275434,1.572138,3.357373,0.000000,0.000000,-0.000000,-0.000000,-0.000000,0.000000,0.327225,-1.980163,-0.524688,-0.159115,-0.012455,-0.035979,0.000000,-2.261056,-0.418590,-0.238797,-0.000099,0.000000,0.086266,-0.363189,0.250113,0.000040,0.000076,-3.053831,0.000000,0.000000,0.000000,0.000000,0.000000,0.000000,-4.332403,3.586744,0.487549,-0.052981,0.073849,0.049517,0.086290,-0.363187,0.250113,0.000000,-0.000000,-3.053753,0.000000,0.000000,0.000000,0.000000,0.000000,0.000000,0,28.437500,29.250000,27.687500,31.875000,35.062500,36.187500,0.647652,7,253,253,253,253,253,253,1,0.191536,0.134075,9.461885,0.000000,1.000000,0.000000,47.498810,47.559711,0.632233,47.470268,47.398605,47.527599,47.498932,47.326939,47.369938,0,1,-0.000000,-0.000000,0.004000,0.004000,1,1,-648.062669,148.838507,19379.457519,-33.664877,-11.280903,33.974541,0.000002,0.000002,0.000002,0.000000,0.000000,0.000000,0,0,0,0,0,0,0,0,0,0.000000,0.000000,0.000000,0.000000,0.000000,0.000000,0.000000,0.000000
241555.666000,1.437494,-1.089114,2.525809,3.275377,1.572121,3.357390,0.000000,0.000000,0.000000,0.000000,0.000000,0.000000,0.000000,0.000000,0.000000,0.000000,0.000000,0.000000,-0.000000,-2.260954,-0.418530,-0.238805,-0.000099,0.000000,-0.000000,-23.522932,-4.324570,-1.846403,-0.000779,0.000000,1.437453,-1.089115,2.525786,3.275340,1.572099,3.357299,0.000000,0.000000,-0.000000,-0.000000,-0.000000,0.000000,0.323290,-1.938790,-0.547759,-0.154159,-0.016114,-0.039087,-0.000000,-2.260954,-0.418530,-0.238805,-0.000099,0.000000,0.086277,-0.363194,0.250121,-0.000049,-0.000086,-3.053885,0.000000,0.000000,0.000000,0.000000,0.000000,0.000000,-4.323574,3.614131,0.397842,-0.055337,0.074665,0.049378,0.086290,-0.363187,0.250113,0.000000,-0.000000,-3.053753,0.000000,0.000000,0.000000,0.000000,0.000000,0.000000,0,28.437500,29.250000,27.687500,31.875000,35.062500,36.187500,0.654348,7,253,253,253,253,253,253,1,0.210690,0.191536,9.404425,0.000000,1.000000,0.000000,47.489853,47.561501,0.647900,47.498932,47.398605,47.484600,47.527599,47.326939,47.355606,0,1,-0.000000,-0.000000,0.004000,0.004000,1,1,-648.073772,148.812011,19379.367972,-33.662598,-11.281912,33.974408,0.000002,0.000002,0.000002,0.000000,0.000000,0.000000,0,0,0,0,0,0,0,0,0,0.000000,0.000000,0.000000,0.000000,0.000000,0.000000,0.000000,0.000000
241555.668000,1.437494,-1.089114,2.525809,3.275377,1.572121,3.357390,0.000000,0.000000,0.000000,0.000000,0.000000,0.000000,0.000000,0.000000,0.000000,0.000000,0.000000,0.000000,0.000000,-2.261069,-0.418561,-0.238797,-0.000096,0.000000,0.000000,-23.524134,-4.324890,-1.846336,-0.000757,0.000000,1.437469,-1.089151,2.525822,3.275361,1.572132,3.357424,0.000000,0.000000,-0.000000,-0.000000,-0.000000,0.000000,0.307676,-1.930922,-0.552433,-0.167278,-0.014916,-0.038395,0.000000,-2.261069,-0.418561,-0.238797,-0.000096,0.000000,0.086281,-0.363181,0.250126,0.000007,-0.000064,-3.053743,0.000000,0.000000,0.000000,0.000000,0.000000,0.000000,-4.207573,3.597965,0.347709,-0.054772,0.072078,0.052271,0.086290,-0.363187,0.250113,0.000000,-0.000000,-3.053753,0.000000,0.000000,0.000000,0.000000,0.000000,0.000000,0,28.437500,29.250000,27.687500,31.875000,35.062500,36.187500,0.661608,7,253,253,253,253,253,253,1,0.191536,0.134075,9.423578,0.000000,1.000000,0.000000,47.545380,47.574932,0.616566,47.470268,47.384270,47.541931,47.513268,47.369938,47.412937,0,1,-0.000000,-0.000000,0.004000,0.004000,1,1,-648.188397,148.837753,19379.317933,-33.662946,-11.279294,33.977302,0.000002,0.000002,0.000002,0.000000,0.000000,0.000000,0,0,0,0,0,0,0,0,0,0.000000,0.000000,0.000000,0.000000,0.000000,0.000000,0.000000,0.000000
241555.670000,1.437494,-1.089114,2.525809,3.275377,1.572121,3.357390,0.000000,0.000000,0.000000,0.000000,0.000000,0.000000,0.000000,0.000000,0.000000,0.000000,0.000000,0.000000,0.000000,-2.260942,-0.418561,-0.238798,-0.000098,0.000000,0.000000,-23.522814,-4.324895,-1.846349,-0.000776,0.000000,1.437497,-1.089146,2.525799,3.275343,1.572099,3.357427,0.000000,0.000000,-0.000000,-0.000000,-0.000000,0.000000,0.337131,-1.943625,-0.575894,-0.164402,-0.022077,-0.036222,0.000000,-2.260942,-0.418561,-0.238798,-0.000098,0.000000,0.086294,-0.363184,0.250130,-0.000053,-0.000111,-3.053712,0.000000,0.000000,0.000000,0.000000,0.000000,0.000000,-4.180290,3.614336,0.420826,-0.056620,0.071784,0.046138,0.086290,-0.363187,0.250113,0.000000,-0.000000,-3.053753,0.000000,0.000000,0.000000,0.000000,0.000000,0.000000,0,28.437500,29.250000,27.687500,31.875000,35.062500,36.187500,0.653929,7,253,253,253,253,253,253,1,0.287304,0.114922,9.500193,0.000000,1.000000,0.000000,47.540901,47.599113,0.685941,47.527599,47.398605,47.556267,47.527599,47.369938,47.427269,0,1,-0.000000,-0.000000,0.004000,0.004000,1,1,-648.217218,148.823662,19379.391009,-33.661081,-11.279162,33.971169,0.000002,0.000002,0.000002,0.000000,0.000000,0.000000,0,0,0,0,0,0,0,0,0,0.000000,0.000000,0.000000,0.000000,0.000000,0.000000,0.000000,0.000000
241555.672000,1.437494,-1.089114,2.525809,3.275377,1.572121,3.357390,0.000000,0.000000,0.000000,0.000000,0.000000,0.000000,0.000000,0.000000,0.000000,0.000000,0.000000,0.000000,-0.000000,-2.260990,-0.418593,-0.238796,-0.000096,0.000000,-0.000000,-23.523312,-4.325230,-1.846327,-0.000757,0.000000,1.437444,-1.089156,2.525852,3.275389,1.572174,3.357439,0.000000,0.000000,-0.000000,-0.000000,-0.000000,0.000000,0.315436,-1.981103,-0.567541,-0.172117,-0.021561,-0.040932,-0.000000,-2.260990,-0.418593,-0.238796,-0.000096,0.000000,0.086269,-0.363176,0.250121,0.000084,0.000004,-3.053753,0.000000,0.000000,0.000000,0.000000,0.000000,0.000000,-4.209872,3.767805,0.356611,-0.049405,0.071538,0.047931,0.086290,-0.363187,0.250113,0.000000,-0.000000,-3.053753,0.000000,0.000000,0.000000,0.000000,0.000000,0.000000,0,28.437500,29.250000,27.687500,31.875000,35.062500,36.187500,0.644857,7,253,253,253,253,253,253,1,0.229843,0.076614,9.500193,0.000000,1.000000,0.000000,47.507767,47.565979,0.612089,47.484600,47.398605,47.513268,47.541931,47.341274,47.384270,0,1,-0.000000,-0.000000,0.004000,0.004000,1,1,-648.200861,148.668489,19379.326870,-33.668244,-11.278289,33.972961,0.000002,0.000002,0.000002,0.000000,0.000000,0.000000,0,0,0,0,0,0,0,0,0,0.000000,0.000000,0.000000,0.000000,0.000000,0.000000,0.000000,0.000000
241555.674000,1.437494,-1.089114,2.525809,3.275377,1.572121,3.357390,0.000000,0.000000,0.000000,0.000000,0.000000,0.000000,0.000000,0.000000,0.000000,0.000000,0.000000,0.000000,-0.000000,-2.260884,-0.418521,-0.238802,-0.000102,0.000000,-0.000000,-23.522202,-4.324481,-1.846379,-0.000800,0.000000,1.437439,-1.089159,2.525872,3.275368,1.572146,3.357403,0.000000,0.000000,-0.000000,-0.000000,-0.000000,0.000000,0.312897,-1.987627,-0.524977,-0.151500,-0.019280,-0.040778,-0.000000,-2.260884,-0.418521,-0.238802,-0.000102,0.000000,0.086271,-0.363169,0.250121,0.000040,0.000006,-3.053793,0.000000,0.000000,0.000000,0.000000,0.000000,0.000000,-4.422950,3.555255,0.464687,-0.056168,0.074794,0.049259,0.086290,-0.363187,0.250113,0.000000,-0.000000,-3.053753,0.000000,0.000000,0.000000,0.000000,0.000000,0.000000,0,28.437500,29.250000,27.687500,31.875000,35.062500,36.187500,0.662533,7,253,253,253,253,253,253,1,0.229843,0.038307,9.385271,0.000000,1.000000,0.000000,47.484482,47.552544,0.618802,47.441601,47.369938,47.498932,47.527599,47.326939,47.369938,0,1,-0.000000,-0.000000,0.004000,0.004000,1,1,-647.969860,148.861698,19379.434834,-33.661789,-11.282123,33.974287,0.000002,0.000002,0.000002,0.000000,0.000000,0.000000,0,0,0,0,0,0,0,0,0,0.000000,0.000000,0.000000,0.000000,0.000000,0.000000,0.000000,0.000000
241555.676000,1.437494,-1.089114,2.525809,3.275377,1.572121,3.357390,0.000000,0.000000,0.000000,0.000000,0.000000,0.000000,0.000000,0.000000,0.000000,0.000000,0.000000,0.000000,0.000000,-2.260842,-0.418491,-0.238802,-0.000099,0.000000,0.000000,-23.521767,-4.324168,-1.846377,-0.000784,0.000000,1.437518,-1.089135,2.525816,3.275397,1.572115,3.357423,0.000000,0.000000,-0.000000,-0.000000,-0.000000,0.000000,0.322735,-1.974706,-0.544542,-0.157511,-0.026751,-0.048600,0.000000,-2.260842,-0.418491,-0.238802,-0.000099,0.000000,0.086300,-0.363183,0.250118,-0.000007,0.000009,-3.053696,0.000000,0.000000,0.000000,0.000000,0.000000,0.000000,-4.412626,3.478738,0.338414,-0.057623,0.074254,0.043446,0.086290,-0.363187,0.250113,0.000000,-0.000000,-3.053753,0.000000,0.000000,0.000000,0.000000,0.000000,0.000000,0,28.437500,29.250000,27.687500,31.875000,35.062500,36.187500,0.674328,7,253,253,253,253,253,253,1,0.153229,0.076614,9.423578,0.000000,1.000000,0.000000,47.511349,47.569561,0.645659,47.484600,47.441601,47.541931,47.513268,47.355606,47.355606,0,1,-0.000000,-0.000000,0.004000,0.004000,1,1,-647.973873,148.938432,19379.308422,-33.660298,-11.281717,33.968472,0.000002,0.000002,0.000002,0.000000,0.000000,0.000000,0,0,0,0,0,0,0,0,0,0.000000,0.000000,0.000000,0.000000,0.000000,0.000000,0.000000,0.000000
241555.678000,1.437494,-1.089114,2.525809,3.275377,1.572121,3.357390,0.000000,0.000000,0.000000,0.000000,0.000000,0.000000,0.000000,0.000000,0.000000,0.000000,0.000000,0.000000,-0.000000,-2.260983,-0.418548,-0.238802,-0.000097,0.000000,-0.000000,-23.523238,-4.324760,-1.846375,-0.000766,0.000000,1.437513,-1.089094,2.525888,3.275385,1.572120,3.357420,0.000000,0.000000,-0.000000,-0.000000,-0.000000,0.000000,0.311467,-1.925603,-0.540758,-0.157656,-0.017961,-0.025938,-0.000000,-2.260983,-0.418548,-0.238802,-0.000097,0.000000,0.086300,-0.363165,0.250094,0.000027,0.000160,-3.053703,0.000000,0.000000,0.000000,0.000000,0.000000,0.000000,-4.341043,3.581590,0.114157,-0.056842,0.070679,0.045833,0.086290,-0.363187,0.250113,0.000000,-0.000000,-3.053753,0.000000,0.000000,0.000000,0.000000,0.000000,0.000000,0,28.437500,29.250000,27.687500,31.875000,35.062500,36.187500,0.675060,7,253,253,253,253,253,253,1,0.248997,0.000000,9.442732,0.000000,1.000000,0.000000,47.516720,47.582996,0.719510,47.484600,47.427269,47.556267,47.527599,47.369938,47.398605,0,1,-0.000000,-0.000000,0.004000,0.004000,1,1,-648.054118,148.842516,19379.083888,-33.660759,-11.278091,33.970854,0.000002,0.000002,0.000002,0.000000,0.000000,0.000000,0,0,0,0,0,0,0,0,0,0.000000,0.000000,0.000000,0.000000,0.000000,0.000000,0.000000,0.000000
241555.680000,1.437494,-1.089114,2.525809,3.275377,1.572121,3.357390,0.000000,0.000000,0.000000,0.000000,0.000000,0.000000,0.000000,0.000000,0.000000,0.000000,0.000000,0.000000,0.000000,-2.260935,-0.418352,-0.238809,-0.000098,0.000000,0.000000,-23.522737,-4.322732,-1.846434,-0.000769,0.000000,1.437460,-1.089127,2.525795,3.275377,1.572103,3.357453,0.000000,0.000000,-0.000000,-0.000000,-0.000000,0.000000,0.292502,-1.965434,-0.578296,-0.171870,-0.020411,-0.037190,0.000000,-2.260935,-0.418352,-0.238809,-0.000098,0.000000,0.086279,-0.363193,0.250120,-0.000033,-0.000037,-3.053724,0.000000,0.000000,0.000000,0.000000,0.000000,0.000000,-4.212852,3.484851,0.330248,-0.058653,0.069645,0.047668,0.086290,-0.363187,0.250113,0.000000,-0.000000,-3.053753,0.000000,0.000000,0.000000,0.000000,0.000000,0.000000,0,28.437500,29.250000,27.687500,31.875000,35.062500,36.187500,0.657564,7,253,253,253,253,253,253,1,0.191536,0.134075,9.308656,0.000000,1.000000,0.000000,47.515827,47.562393,0.663561,47.498932,47.441601,47.541931,47.513268,47.341274,47.398605,0,1,-0.000000,-0.000000,0.004000,0.004000,1,1,-648.173343,148.949927,19379.300298,-33.658866,-11.277212,33.972696,0.000002,0.000002,0.000002,0.000000,0.000000,0.000000,0,0,0,0,0,0,0,0,0,0.000000,0.000000,0.000000,0.000000,0.000000,0.000000,0.000000,0.000000
241555.682000,1.437494,-1.089114,2.525809,3.275377,1.572121,3.357390,0.000000,0.000000,0.000000,0.000000,0.000000,0.000000,0.000000,0.000000,0.000000,0.000000,0.000000,0.000000,0.000000,-2.261034,-0.418568,-0.238799,-0.000096,0.000000,0.000000,-23.523770,-4.324970,-1.846356,-0.000759,0.000000,1.437477,-1.089110,2.525773,3.275380,1.572115,3.357373,0.000000,0.000000,-0.000000,-0.000000,-0.000000,0.000000,0.310151,-1.966168,-0.551120,-0.157427,-0.016259,-0.052695,0.000000,-2.261034,-0.418568,-0.238799,-0.000096,0.000000,0.086283,-0.363200,0.250117,-0.000016,-0.000043,-3.053786,0.000000,0.000000,0.000000,0.000000,0.000000,0.000000,-4.218822,3.743072,0.198956,-0.050673,0.071915,0.048137,0.086290,-0.363187,0.250113,0.000000,-0.000000,-3.053753,0.000000,0.000000,0.000000,0.000000,0.000000,0.000000,0,28.437500,29.250000,27.687500,31.875000,35.062500,36.187500,0.659712,7,253,253,253,253,253,253,1,0.248997,0.095768,9.404425,0.000000,1.000000,0.000000,47.505077,47.569561,0.618802,47.498932,47.412937,47.527599,47.513268,47.326939,47.369938,0,1,-0.000000,-0.000000,0.004000,0.004000,1,1,-648.189780,148.692408,19379.169073,-33.667010,-11.278770,33.973165,0.000002,0.000002,0.000002,0.000000,0.000000,0.000000,0,0,0,0,0,0,0,0,0,0.000000,0.000000,0.000000,0.000000,0.000000,0.000000,0.000000,0.000000
241555.684000,1.437494,-1.089114,2.525809,3.275377,1.572121,3.357390,0.000000,0.000000,0.000000,0.000000,0.000000,0.000000,0.000000,0.000000,0.000000,0.000000,0.000000,0.000000,-0.000000,-2.261101,-0.418578,-0.238799,-0.000097,0.000000,-0.000000,-23.524466,-4.325067,-1.846355,-0.000766,0.000000,1.437448,-1.089131,2.525840,3.275410,1.572158,3.357420,0.000000,0.000000,-0.000000,-0.000000,-0.000000,0.000000,0.268860,-1.939337,-0.564818,-0.169513,-0.022254,-0.045222,-0.000000,-2.261101,-0.418578,-0.238799,-0.000097,0.000000,0.086271,-0.363184,0.250112,0.000068,0.000059,-3.053768,0.000000,0.000000,0.000000,0.000000,0.000000,0.000000,-4.295871,3.759083,0.221854,-0.053794,0.072762,0.046027,0.086290,-0.363187,0.250113,0.000000,-0.000000,-3.053753,0.000000,0.000000,0.000000,0.000000,0.000000,0.000000,0,28.437500,29.250000,27.687500,31.875000,35.062500,36.187500,0.655332,7,253,253,253,253,253,253,1,0.210690,0.076614,9.423578,0.000000,1.000000,0.000000,47.527466,47.591057,0.656848,47.513268,47.441601,47.541931,47.556267,47.341274,47.398605,0,1,-0.000000,-0.000000,0.004000,0.004000,1,1,-648.114377,148.669773,19379.191935,-33.663977,-11.279894,33.971053,0.000002,0.000002,0.000002,0.000000,0.000000,0.000000,0,0,0,0,0,0,0,0,0,0.000000,0.000000,0.000000,0.000000,0.000000,0.000000,0.000000,0.000000
241555.686000,1.437494,-1.089114,2.525809,3.275377,1.572121,3.357390,0.000000,0.000000,0.000000,0.000000,0.000000,0.000000,0.000000,0.000000,0.000000,0.000000,0.000000,0.000000,-0.000000,-2.260952,-0.418500,-0.238805,-0.000100,0.000000,-0.000000,-23.522909,-4.324269,-1.846399,-0.000791,0.000000,1.437460,-1.089122,2.525807,3.275401,1.572146,3.357394,0.000000,0.000000,-0.000000,-0.000000,-0.000000,0.000000,0.327910,-1.936520,-0.497122,-0.178698,-0.021628,-0.033301,-0.000000,-2.260952,-0.418500,-0.238805,-0.000100,0.000000,0.086275,-0.363192,0.250114,0.000041,0.000014,-3.053782,0.000000,0.000000,0.000000,0.000000,0.000000,0.000000,-4.217046,3.797118,0.374230,-0.050902,0.071509,0.049049,0.086290,-0.363187,0.250113,0.000000,-0.000000,-3.053753,0.000000,0.000000,0.000000,0.000000,0.000000,0.000000,0,28.437500,29.250000,27.687500,31.875000,35.062500,36.187500,0.653736,7,253,253,253,253,253,253,1,0.248997,0.172383,9.404425,0.000000,1.000000,0.000000,47.525677,47.568668,0.634469,47.527599,47.427269,47.513268,47.556267,47.369938,47.427269,0,1,-0.000000,-0.000000,0.004000,0.004000,1,1,-648.196225,148.638786,19379.344353,-33.666747,-11.278389,33.974077,0.000002,0.000002,0.000002,0.000000,0.000000,0.000000,0,0,0,0,0,0,0,0,0,0.000000,0.000000,0.000000,0.000000,0.000000,0.000000,0.000000,0.000000
241555.688000,1.437494,-1.089114,2.525809,3.275377,1.572121,3.357390,0.000000,0.000000,0.000000,0.000000,0.000000,0.000000,0.000000,0.000000,0.000000,0.000000,0.000000,0.000000,0.000000,-2.261022,-0.418541,-0.238802,-0.000099,0.000000,0.000000,-23.523646,-4.324686,-1.846380,-0.000784,0.000000,1.437472,-1.089155,2.525794,3.275373,1.572115,3.357381,0.000000,0.000000,-0.000000,-0.000000,-0.000000,0.000000,0.323850,-1.936793,-0.522461,-0.169836,-0.013445,-0.039229,0.000000,-2.261022,-0.418541,-0.238802,-0.000099,0.000000,0.086283,-0.363189,0.250131,-0.000025,-0.000090,-3.053783,0.000000,0.000000,0.000000,0.000000,0.000000,0.000000,-4.586381,3.497073,0.195301,-0.057957,0.079417,0.043907,0.086290,-0.363187,0.250113,0.000000,-0.000000,-3.053753,0.000000,0.000000,0.000000,0.000000,0.000000,0.000000,0,28.437500,29.250000,27.687500,31.875000,35.062500,36.187500,0.653713,7,253,253,253,253,253,253,1,0.229843,0.134075,9.557653,0.000000,1.000000,0.000000,47.533737,47.594635,0.600900,47.484600,47.441601,47.513268,47.527599,47.369938,47.384270,0,1,-0.000000,-0.000000,0.004000,0.004000,1,1,-647.802092,148.905146,19379.165496,-33.660413,-11.286880,33.968938,0.000002,0.000002,0.000002,0.000000,0.000000,0.000000,0,0,0,0,0,0,0,0,0,0.000000,0.000000,0.000000,0.000000,0.000000,0.000000,0.000000,0.000000
241555.690000,1.437494,-1.089114,2.525809,3.275377,1.572121,3.357390,0.000000,0.000000,0.000000,0.000000,0.000000,0.000000,0.000000,0.000000,0.000000,0.000000,0.000000,0.000000,-0.000000,-2.260983,-0.418618,-0.238797,-0.000097,0.000000,-0.000000,-23.523239,-4.325480,-1.846337,-0.000766,0.000000,1.437464,-1.089123,2.525835,3.275393,1.572115,3.357385,0.000000,0.000000,-0.000000,-0.000000,-0.000000,0.000000,0.330555,-1.942460,-0.553360,-0.163819,-0.029021,-0.035742,-0.000000,-2.260983,-0.418618,-0.238797,-0.000097,0.000000,0.086281,-0.363183,0.250111,0.000000,0.000050,-3.053786,0.000000,0.000000,0.000000,0.000000,0.000000,0.000000,-4.396110,3.535108,0.164638,-0.056379,0.076415,0.044082,0.086290,-0.363187,0.250113,0.000000,-0.000000,-3.053753,0.000000,0.000000,0.000000,0.000000,0.000000,0.000000,0,28.437500,29.250000,27.687500,31.875000,35.062500,36.187500,0.661849,7,253,253,253,253,253,253,1,0.172383,0.191536,9.576807,0.000000,1.000000,0.000000,47.523888,47.569561,0.656848,47.484600,47.398605,47.527599,47.498932,47.341274,47.470268,0,1,-0.000000,-0.000000,0.004000,0.004000,1,1,-647.994906,148.884160,19379.134566,-33.661719,-11.283756,33.969107,0.000002,0.000002,0.000002,0.000000,0.000000,0.000000,0,0,0,0,0,0,0,0,0,0.000000,0.000000,0.000000,0.000000,0.000000,0.000000,0.000000,0.000000
241555.692000,1.437494,-1.089114,2.525809,3.275377,1.572121,3.357390,0.000000,0.000000,0.000000,0.000000,0.000000,0.000000,0.000000,0.000000,0.000000,0.000000,0.000000,0.000000,-0.000000,-2.260972,-0.418494,-0.238804,-0.000097,0.000000,-0.000000,-23.523120,-4.324200,-1.846391,-0.000766,0.000000,1.437494,-1.089127,2.525795,3.275356,1.572112,3.357411,0.000000,0.000000,-0.000000,-0.000000,-0.000000,0.000000,0.349644,-1.993007,-0.570318,-0.155621,-0.020212,-0.036773,-0.000000,-2.260972,-0.418494,-0.238804,-0.000097,0.000000,0.086291,-0.363188,0.250122,-0.000025,-0.000070,-3.053731,0.000000,0.000000,0.000000,0.000000,0.000000,0.000000,-4.585069,3.477622,0.260291,-0.056467,0.079339,0.041794,0.086290,-0.363187,0.250113,0.000000,-0.000000,-3.053753,0.000000,0.000000,0.000000,0.000000,0.000000,0.000000,0,28.437500,29.250000,27.687500,31.875000,35.062500,36.187500,0.650893,7,253,253,253,253,253,253,1,0.191536,0.134075,9.442732,0.000000,1.000000,0.000000,47.514034,47.570457,0.609854,47.527599,47.484600,47.541931,47.570599,47.384270,47.412937,0,1,-0.000000,-0.000000,0.004000,0.004000,1,1,-647.801890,148.924450,19379.230436,-33.661894,-11.286676,33.966824,0.000002,0.000002,0.000002,0.000000,0.000000,0.000000,0,0,0,0,0,0,0,0,0,0.000000,0.000000,0.000000,0.000000,0.000000,0.000000,0.000000,0.000000
241555.694000,1.437494,-1.089114,2.525809,3.275377,1.572121,3.357390,0.000000,0.000000,0.000000,0.000000,0.000000,0.000000,0.000000,0.000000,0.000000,0.000000,0.000000,0.000000,-0.000000,-2.261033,-0.418567,-0.238798,-0.000097,0.000000,-0.000000,-23.523758,-4.324958,-1.846344,-0.000765,0.000000,1.437481,-1.089189,2.525786,3.275361,1.572158,3.357365,0.000000,0.000000,-0.000000,-0.000000,-0.000000,0.000000,0.342091,-1.924587,-0.520279,-0.141985,-0.027351,-0.043803,-0.000000,-2.261033,-0.418567,-0.238798,-0.000097,0.000000,0.086282,-0.363186,0.250145,0.000025,-0.000182,-3.053791,0.000000,0.000000,0.000000,0.000000,0.000000,0.000000,-4.399208,3.278877,0.229305,-0.064024,0.076729,0.041887,0.086290,-0.363187,0.250113,0.000000,-0.000000,-3.053753,0.000000,0.000000,0.000000,0.000000,0.000000,0.000000,0,28.437500,29.250000,27.687500,31.875000,35.062500,36.187500,0.647184,7,253,253,253,253,253,253,1,0.248997,0.153229,9.423578,0.000000,1.000000,0.000000,47.507767,47.562393,0.634469,47.498932,47.441601,47.541931,47.527599,47.355606,47.412937,0,1,-0.000000,-0.000000,0.004000,0.004000,1,1,-647.969314,149.138814,19379.199838,-33.654138,-11.284734,33.966925,0.000002,0.000002,0.000002,0.000000,0.000000,0.000000,0,0,0,0,0,0,0,0,0,0.000000,0.000000,0.000000,0.000000,0.000000,0.000000,0.000000,0.000000
241555.696000,1.437494,-1.089114,2.525809,3.275377,1.572121,3.357390,0.000000,0.000000,0.000000,0.000000,0.000000,0.000000,0.000000,0.000000,0.000000,0.000000,0.000000,0.000000,0.000000,-2.260936,-0.418689,-0.238793,-0.000100,0.000000,0.000000,-23.522741,-4.326222,-1.846305,-0.000791,0.000000,1.437448,-1.089144,2.525865,3.275368,1.572137,3.357385,0.000000,0.000000,-0.000000,-0.000000,-0.000000,0.000000,0.313098,-1.940870,-0.552134,-0.154636,-0.017364,-0.038184,0.000000,-2.260936,-0.418689,-0.238793,-0.000100,0.000000,0.086275,-0.363171,0.250117,0.000029,0.000021,-3.053803,0.000000,0.000000,0.000000,0.000000,0.000000,0.000000,-4.224001,3.549705,0.444632,-0.055746,0.072178,0.043037,0.086290,-0.363187,0.250113,0.000000,-0.000000,-3.053753,0.000000,0.000000,0.000000,0.000000,0.000000,0.000000,0,28.437500,29.250000,27.687500,31.875000,35.062500,36.187500,0.643632,7,253,253,253,253,253,253,1,0.306458,0.057461,9.519346,0.000000,1.000000,0.000000,47.515827,47.571350,0.585233,47.498932,47.398605,47.527599,47.513268,47.341274,47.398605,0,1,-0.000000,-0.000000,0.004000,0.004000,1,1,-648.167534,148.884726,19379.414708,-33.661979,-11.279479,33.968064,0.000002,0.000002,0.000002,0.000000,0.000000,0.000000,0,0,0,0,0,0,0,0,0,0.000000,0.000000,0.000000,0.000000,0.000000,0.000000,0.000000,0.000000
241555.698000,1.437494,-1.089114,2.525809,3.275377,1.572121,3.357390,0.000000,0.000000,0.000000,0.000000,0.000000,0.000000,0.000000,0.000000,0.000000,0.000000,0.000000,0.000000,0.000000,-2.260881,-0.418477,-0.238803,-0.000099,0.000000,0.000000,-23.522180,-4.324027,-1.846382,-0.000779,0.000000,1.437534,-1.089159,2.525807,3.275427,1.572078,3.357415,0.000000,0.000000,-0.000000,-0.000000,-0.000000,0.000000,0.324688,-1.969841,-0.546134,-0.168932,-0.020346,-0.044550,0.000000,-2.260881,-0.418477,-0.238803,-0.000099,0.000000,0.086309,-0.363186,0.250125,-0.000064,0.000014,-3.053687,0.000000,0.000000,0.000000,0.000000,0.000000,0.000000,-4.038783,3.772412,0.362295,-0.050514,0.065741,0.046981,0.086290,-0.363187,0.250113,0.000000,-0.000000,-3.053753,0.000000,0.000000,0.000000,0.000000,0.000000,0.000000,0,28.437500,29.250000,27.687500,31.875000,35.062500,36.187500,0.646176,7,253,253,253,253,253,253,1,0.268151,0.134075,9.634268,0.000000,1.000000,0.000000,47.519409,47.567768,0.654613,47.484600,47.398605,47.527599,47.541931,47.384270,47.398605,0,1,-0.000000,-0.000000,0.004000,0.004000,1,1,-648.372163,148.678687,19379.332147,-33.666631,-11.272611,33.972005,0.000002,0.000002,0.000002,0.000000,0.000000,0.000000,0,0,0,0,0,0,0,0,0,0.000000,0.000000,0.000000,0.000000,0.000000,0.000000,0.000000,0.000000
241555.700000,1.437494,-1.089114,2.525809,3.275377,1.572121,3.357390,0.000000,0.000000,0.000000,0.000000,0.000000,0.000000,0.000000,0.000000,0.000000,0.000000,0.000000,0.000000,0.000000,-2.260956,-0.418606,-0.238802,-0.000094,0.000000,0.000000,-23.522958,-4.325360,-1.846373,-0.000745,0.000000,1.437481,-1.089164,2.525848,3.275343,1.572099,3.357369,0.000000,0.000000,-0.000000,-0.000000,-0.000000,0.000000,0.266926,-1.935849,-0.526878,-0.165416,-0.024581,-0.028839,0.000000,-2.260956,-0.418606,-0.238802,-0.000094,0.000000,0.086290,-0.363170,0.250129,-0.000045,-0.000063,-3.053786,0.000000,0.000000,0.000000,0.000000,0.000000,0.000000,-4.232972,3.666954,0.160697,-0.054372,0.069762,0.046800,0.086290,-0.363187,0.250113,0.000000,-0.000000,-3.053753,0.000000,0.000000,0.000000,0.000000,0.000000,0.000000,0,28.437500,29.250000,27.687500,31.875000,35.062500,36.187500,0.648876,7,253,253,253,253,253,253,1,0.172383,0.114922,9.538500,0.000000,1.000000,0.000000,47.512241,47.579411,0.634469,47.527599,47.412937,47.556267,47.527599,47.369938,47.412937,0,1,-0.000000,-0.000000,0.004000,0.004000,1,1,-648.169052,148.766964,19379.130786,-33.663136,-11.276949,33.971828,0.000002,0.000002,0.000002,0.000000,0.000000,0.000000,0,0,0,0,0,0,0,0,0,0.000000,0.000000,0.000000,0.000000,0.000000,0.000000,0.000000,0.000000
241555.702000,1.437494,-1.089114,2.525809,3.275377,1.572121,3.357390,0.000000,0.000000,0.000000,0.000000,0.000000,0.000000,0.000000,0.000000,0.000000,0.000000,0.000000,0.000000,-0.000000,-2.260874,-0.418539,-0.238798,-0.000096,0.000000,-0.000000,-23.522106,-4.324668,-1.846345,-0.000757,0.000000,1.437473,-1.089156,2.525839,3.275389,1.572137,3.357332,0.000000,0.000000,-0.000000,-0.000000,-0.000000,0.000000,0.337668,-1.960817,-0.539891,-0.164955,-0.019632,-0.040841,-0.000000,-2.260874,-0.418539,-0.238798,-0.000096,0.000000,0.086283,-0.363178,0.250123,0.000024,-0.000005,-3.053831,0.000000,0.000000,0.000000,0.000000,0.000000,0.000000,-4.278870,3.657490,0.152496,-0.054237,0.071280,0.044040,0.086290,-0.363187,0.250113,0.000000,-0.000000,-3.053753,0.000000,0.000000,0.000000,0.000000,0.000000,0.000000,0,28.437500,29.250000,27.687500,31.875000,35.062500,36.187500,0.646500,7,253,253,253,253,253,253,1,0.210690,0.191536,9.423578,0.000000,1.000000,0.000000,47.544483,47.587475,0.663561,47.484600,47.441601,47.484600,47.556267,47.355606,47.412937,0,1,-0.000000,-0.000000,0.004000,0.004000,1,1,-648.122214,148.772625,19379.122624,-33.663401,-11.278450,33.969068,0.000002,0.000002,0.000002,0.000000,0.000000,0.000000,0,0,0,0,0,0,0,0,0,0.000000,0.000000,0.000000,0.000000,0.000000,0.000000,0.000000,0.000000
241555.704000,1.437494,-1.089114,2.525809,3.275377,1.572121,3.357390,0.000000,0.000000,0.000000,0.000000,0.000000,0.000000,0.000000,0.000000,0.000000,0.000000,0.000000,0.000000,-0.000000,-2.260906,-0.418543,-0.238801,-0.000099,0.000000,-0.000000,-23.522431,-4.324710,-1.846372,-0.000779,0.000000,1.437473,-1.089143,2.525807,3.275377,1.572111,3.357411,0.000000,0.000000,-0.000000,-0.000000,-0.000000,0.000000,0.316288,-1.970946,-0.573139,-0.157216,-0.012871,-0.039147,-0.000000,-2.260906,-0.418543,-0.238801,-0.000099,0.000000,0.086284,-0.363187,0.250124,-0.000023,-0.000045,-3.053752,0.000000,0.000000,0.000000,0.000000,0.000000,0.000000,-4.339456,3.737621,0.153263,-0.050459,0.074890,0.049199,0.086290,-0.363187,0.250113,0.000000,-0.000000,-3.053753,0.000000,0.000000,0.000000,0.000000,0.000000,0.000000,0,28.437500,29.250000,27.687500,31.875000,35.062500,36.187500,0.642312,7,253,253,253,253,253,253,1,0.095768,0.095768,9.442732,0.000000,1.000000,0.000000,47.525677,47.578518,0.594187,47.484600,47.398605,47.513268,47.498932,47.326939,47.398605,0,1,-0.000000,-0.000000,0.004000,0.004000,1,1,-648.069281,148.687122,19379.123363,-33.667486,-11.281716,33.974228,0.000002,0.000002,0.000002,0.000000,0.000000,0.000000,0,0,0,0,0,0,0,0,0,0.000000,0.000000,0.000000,0.000000,0.000000,0.000000,0.000000,0.000000
241555.706000,1.437494,-1.089114,2.525809,3.275377,1.572121,3.357390,0.000000,0.000000,0.000000,0.000000,0.000000,0.000000,0.000000,0.000000,0.000000,0.000000,0.000000,0.000000,0.000000,-2.260983,-0.418575,-0.238799,-0.000097,0.000000,0.000000,-23.523242,-4.325038,-1.846354,-0.000764,0.000000,1.437460,-1.089132,2.525754,3.275402,1.572087,3.357460,0.000000,0.000000,-0.000000,-0.000000,-0.000000,0.000000,0.346587,-1.948395,-0.564968,-0.160479,-0.016386,-0.040066,0.000000,-2.260983,-0.418575,-0.238799,-0.000097,0.000000,0.086279,-0.363207,0.250126,-0.000064,-0.000065,-3.053716,0.000000,0.000000,0.000000,0.000000,0.000000,0.000000,-4.252825,3.666098,0.318582,-0.055184,0.074855,0.047161,0.086290,-0.363187,0.250113,0.000000,-0.000000,-3.053753,0.000000,0.000000,0.000000,0.000000,0.000000,0.000000,0,28.437500,29.250000,27.687500,31.875000,35.062500,36.187500,0.645744,7,253,253,253,253,253,253,1,0.248997,0.153229,9.481039,0.000000,1.000000,0.000000,47.505978,47.561501,0.656848,47.484600,47.384270,47.513268,47.527599,47.326939,47.369938,0,1,-0.000000,-0.000000,0.004000,0.004000,1,1,-648.149504,148.765806,19379.288624,-33.662779,-11.282096,33.972189,0.000002,0.000002,0.000002,0.000000,0.000000,0.000000,0,0,0,0,0,0,0,0,0,0.000000,0.000000,0.000000,0.000000,0.000000,0.000000,0.000000,0.000000
241555.708000,1.437494,-1.089114,2.525809,3.275377,1.572121,3.357390,0.000000,0.000000,0.000000,0.000000,0.000000,0.000000,0.000000,0.000000,0.000000,0.000000,0.000000,0.000000,0.000000,-2.261096,-0.418650,-0.238798,-0.000095,0.000000,0.000000,-23.524414,-4.325815,-1.846343,-0.000750,0.000000,1.437460,-1.089164,2.525782,3.275352,1.572115,3.357427,0.000000,0.000000,-0.000000,-0.000000,-0.000000,0.000000,0.322254,-1.942753,-0.550245,-0.155379,-0.018372,-0.044589,0.000000,-2.261096,-0.418650,-0.238798,-0.000095,0.000000,0.086278,-0.363191,0.250138,-0.000036,-0.000153,-3.053749,0.000000,0.000000,0.000000,0.000000,0.000000,0.000000,-4.315344,3.556669,0.334858,-0.056830,0.073726,0.050276,0.086290,-0.363187,0.250113,0.000000,-0.000000,-3.053753,0.000000,0.000000,0.000000,0.000000,0.000000,0.000000,0,28.437500,29.250000,27.687500,31.875000,35.062500,36.187500,0.657469,7,253,253,253,253,253,253,1,0.191536,0.114922,9.404425,0.000000,1.000000,0.000000,47.498810,47.559711,0.627756,47.484600,47.398605,47.541931,47.527599,47.312607,47.398605,0,1,-0.000000,-0.000000,0.004000,0.004000,1,1,-648.077460,148.869336,19379.305184,-33.661040,-11.281112,33.975310,0.000002,0.000002,0.000002,0.000000,0.000000,0.000000,0,0,0,0,0,0,0,0,0,0.000000,0.000000,0.000000,0.000000,0.000000,0.000000,0.000000,0.000000
241555.710000,1.437494,-1.089114,2.525809,3.275377,1.572121,3.357390,0.000000,0.000000,0.000000,0.000000,0.000000,0.000000,0.000000,0.000000,0.000000,0.000000,0.000000,0.000000,0.000000,-2.260988,-0.418653,-0.238794,-0.000097,0.000000,0.000000,-23.523287,-4.325847,-1.846312,-0.000766,0.000000,1.437457,-1.089131,2.525844,3.275401,1.572165,3.357394,0.000000,0.000000,-0.000000,-0.000000,-0.000000,0.000000,0.301040,-1.934378,-0.546513,-0.156008,-0.028972,-0.037156,0.000000,-2.260988,-0.418653,-0.238794,-0.000097,0.000000,0.086274,-0.363181,0.250112,0.000078,0.000051,-3.053785,0.000000,0.000000,0.000000,0.000000,0.000000,0.000000,-4.323270,3.529483,0.239960,-0.054877,0.077046,0.049051,0.086290,-0.363187,0.250113,0.000000,-0.000000,-3.053753,0.000000,0.000000,0.000000,0.000000,0.000000,0.000000,0,28.437500,29.250000,27.687500,31.875000,35.062500,36.187500,0.648589,7,253,253,253,253,253,253,1,0.210690,0.076614,9.461885,0.000000,1.000000,0.000000,47.534634,47.588367,0.618802,47.441601,47.398605,47.527599,47.527599,47.355606,47.398605,0,1,-0.000000,-0.000000,0.004000,0.004000,1,1,-648.066868,148.896139,19379.210097,-33.663273,-11.284255,33.974079,0.000002,0.000002,0.000002,0.000000,0.000000,0.000000,0,0,0,0,0,0,0,0,0,0.000000,0.000000,0.000000,0.000000,0.000000,0.000000,0.000000,0.000000
241555.712000,1.437494,-1.089114,2.525809,3.275377,1.572121,3.357390,0.000000,0.000000,0.000000,0.000000,0.000000,0.000000,0.000000,0.000000,0.000000,0.000000,0.000000,0.000000,-0.000000,-2.260943,-0.418492,-0.238805,-0.000101,0.000000,-0.000000,-23.522823,-4.324184,-1.846396,-0.000795,0.000000,1.437416,-1.089131,2.525861,3.275385,1.572062,3.357419,0.000000,0.000000,-0.000000,-0.000000,-0.000000,0.000000,0.353996,-1.927652,-0.534734,-0.168494,-0.019897,-0.043285,-0.000000,-2.260943,-0.418492,-0.238805,-0.000101,0.000000,0.086270,-0.363179,0.250111,-0.000078,0.000078,-3.053802,0.000000,0.000000,0.000000,0.000000,0.000000,0.000000,-4.251700,3.608872,0.177735,-0.056820,0.074311,0.047355,0.086290,-0.363187,0.250113,0.000000,-0.000000,-3.053753,0.000000,0.000000,0.000000,0.000000,0.000000,0.000000,0,28.437500,29.250000,27.687500,31.875000,35.062500,36.187500,0.646164,7,253,253,253,253,253,253,1,0.229843,0.057461,9.595961,0.000000,1.000000,0.000000,47.511349,47.555233,0.609854,47.470268,47.398605,47.527599,47.513268,47.341274,47.369938,0,1,-0.000000,-0.000000,0.004000,0.004000,1,1,-648.145277,148.823450,19379.147383,-33.661091,-11.281698,33.972376,0.000002,0.000002,0.000002,0.000000,0.000000,0.000000,0,0,0,0,0,0,0,0,0,0.000000,0.000000,0.000000,0.000000,0.000000,0.000000,0.000000,0.000000
241555.714000,1.437494,-1.089114,2.525809,3.275377,1.572121,3.357390,0.000000,0.000000,0.000000,0.000000,0.000000,0.000000,0.000000,0.000000,0.000000,0.000000,0.000000,0.000000,-0.000000,-2.260914,-0.418463,-0.238805,-0.000093,0.000000,-0.000000,-23.522516,-4.323877,-1.846396,-0.000735,0.000000,1.437493,-1.089088,2.525835,3.275389,1.572170,3.357419,0.000000,0.000000,-0.000000,-0.000000,-0.000000,0.000000,0.312564,-1.968670,-0.594579,-0.176330,-0.023876,-0.043790,-0.000000,-2.260914,-0.418463,-0.238805,-0.000093,0.000000,0.086286,-0.363182,0.250100,0.000091,0.000082,-3.053725,0.000000,0.000000,0.000000,0.000000,0.000000,0.000000,-4.429886,3.711162,0.349108,-0.053060,0.075181,0.048143,0.086290,-0.363187,0.250113,0.000000,-0.000000,-3.053753,0.000000,0.000000,0.000000,0.000000,0.000000,0.000000,0,28.437500,29.250000,27.687500,31.875000,35.062500,36.187500,0.649380,7,253,253,253,253,253,253,1,0.210690,0.076614,9.481039,0.000000,1.000000,0.000000,47.486271,47.552544,0.663561,47.455936,47.398605,47.513268,47.513268,47.298275,47.384270,0,1,-0.000000,-0.000000,0.004000,0.004000,1,1,-647.976827,148.705602,19379.319201,-33.664924,-11.282242,33.973169,0.000002,0.000002,0.000002,0.000000,0.000000,0.000000,0,0,0,0,0,0,0,0,0,0.000000,0.000000,0.000000,0.000000,0.000000,0.000000,0.000000,0.000000
241555.716000,1.437494,-1.089114,2.525809,3.275377,1.572121,3.357390,0.000000,0.000000,0.000000,0.000000,0.000000,0.000000,0.000000,0.000000,0.000000,0.000000,0.000000,0.000000,-0.000000,-2.261035,-0.418433,-0.238806,-0.000101,0.000000,-0.000000,-23.523780,-4.323575,-1.846409,-0.000798,0.000000,1.437461,-1.089119,2.525840,3.275331,1.572091,3.357435,0.000000,0.000000,-0.000000,-0.000000,-0.000000,0.000000,0.306652,-1.930480,-0.570035,-0.155025,-0.018493,-0.038823,-0.000000,-2.261035,-0.418433,-0.238806,-0.000101,0.000000,0.086283,-0.363177,0.250115,-0.000049,-0.000024,-3.053740,0.000000,0.000000,0.000000,0.000000,0.000000,0.000000,-4.225988,3.724880,0.406057,-0.053541,0.073814,0.047171,0.086290,-0.363187,0.250113,0.000000,-0.000000,-3.053753,0.000000,0.000000,0.000000,0.000000,0.000000,0.000000,0,28.437500,29.250000,27.687500,31.875000,35.062500,36.187500,0.647436,7,253,253,253,253,253,253,1,0.172383,0.095768,9.461885,0.000000,1.000000,0.000000,47.484482,47.544483,0.609854,47.470268,47.384270,47.527599,47.498932,47.341274,47.369938,0,1,-0.000000,-0.000000,0.004000,0.004000,1,1,-648.181271,148.709757,19379.376037,-33.664322,-11.280915,33.972198,0.000002,0.000002,0.000002,0.000000,0.000000,0.000000,0,0,0,0,0,0,0,0,0,0.000000,0.000000,0.000000,0.000000,0.000000,0.000000,0.000000,0.000000
241555.718000,1.437494,-1.089114,2.525809,3.275377,1.572121,3.357390,0.000000,0.000000,0.000000,0.000000,0.000000,0.000000,0.000000,0.000000,0.000000,0.000000,0.000000,0.000000,-0.000000,-2.260969,-0.418475,-0.238800,-0.000095,0.000000,-0.000000,-23.523091,-4.324009,-1.846360,-0.000752,0.000000,1.437497,-1.089114,2.525790,3.275393,1.572120,3.357390,0.000000,0.000000,-0.000000,-0.000000,-0.000000,0.000000,0.346138,-1.954427,-0.591352,-0.163933,-0.030306,-0.041124,-0.000000,-2.260969,-0.418475,-0.238800,-0.000095,0.000000,0.086290,-0.363194,0.250115,-0.000002,-0.000005,-3.053749,0.000000,0.000000,0.000000,0.000000,0.000000,0.000000,-4.399063,3.810179,0.453971,-0.051903,0.075837,0.049946,0.086290,-0.363187,0.250113,0.000000,-0.000000,-3.053753,0.000000,0.000000,0.000000,0.000000,0.000000,0.000000,0,28.437500,29.250000,27.687500,31.875000,35.062500,36.187500,0.649608,7,253,253,253,253,253,253,1,0.210690,0.134075,9.500193,0.000000,1.000000,0.000000,47.511349,47.575829,0.636710,47.513268,47.412937,47.556267,47.527599,47.355606,47.398605,0,1,-0.000000,-0.000000,0.004000,0.004000,1,1,-648.016248,148.609660,19379.424026,-33.666132,-11.282789,33.974973,0.000002,0.000002,0.000002,0.000000,0.000000,0.000000,0,0,0,0,0,0,0,0,0,0.000000,0.000000,0.000000,0.000000,0.000000,0.000000,0.000000,0.000000
241555.720000,1.437494,-1.089114,2.525809,3.275377,1.572121,3.357390,0.000000,0.000000,0.000000,0.000000,0.000000,0.000000,0.000000,0.000000,0.000000,0.000000,0.000000,0.000000,-0.000000,-2.261067,-0.418555,-0.238801,-0.000098,0.000000,-0.000000,-23.524111,-4.324832,-1.846370,-0.000769,0.000000,1.437485,-1.089172,2.525827,3.275348,1.572087,3.357377,0.000000,0.000000,-0.000000,-0.000000,-0.000000,0.000000,0.349824,-1.959282,-0.563035,-0.167927,-0.033642,-0.043430,-0.000000,-2.261067,-0.418555,-0.238801,-0.000098,0.000000,0.086292,-0.363175,0.250134,-0.000069,-0.000096,-3.053774,0.000000,0.000000,0.000000,0.000000,0.000000,0.000000,-4.465704,3.764370,0.293154,-0.048980,0.077125,0.045162,0.086290,-0.363187,0.250113,0.000000,-0.000000,-3.053753,0.000000,0.000000,0.000000,0.000000,0.000000,0.000000,0,28.437500,29.250000,27.687500,31.875000,35.062500,36.187500,0.645636,7,253,253,253,253,253,253,1,0.191536,0.210690,9.481039,0.000000,1.000000,0.000000,47.534634,47.582996,0.652371,47.498932,47.427269,47.556267,47.556267,47.369938,47.427269,0,1,-0.000000,-0.000000,0.004000,0.004000,1,1,-647.945839,148.649426,19379.263259,-33.669154,-11.283809,33.970192,0.000002,0.000002,0.000002,0.000000,0.000000,0.000000,0,0,0,0,0,0,0,0,0,0.000000,0.000000,0.000000,0.000000,0.000000,0.000000,0.000000,0.000000
241555.722000,1.437494,-1.089114,2.525809,3.275377,1.572121,3.357390,0.000000,0.000000,0.000000,0.000000,0.000000,0.000000,0.000000,0.000000,0.000000,0.000000,0.000000,0.000000,0.000000,-2.260893,-0.418589,-0.238796,-0.000095,0.000000,0.000000,-23.522304,-4.325187,-1.846331,-0.000750,0.000000,1.437464,-1.089135,2.525765,3.275377,1.572124,3.357352,0.000000,0.000000,-0.000000,-0.000000,-0.000000,0.000000,0.296793,-1.931841,-0.531643,-0.153416,-0.022465,-0.054387,0.000000,-2.260893,-0.418589,-0.238796,-0.000095,0.000000,0.086278,-0.363200,0.250128,-0.000013,-0.000101,-3.053819,0.000000,0.000000,0.000000,0.000000,0.000000,0.000000,-4.296003,3.580856,0.303018,-0.056953,0.074338,0.044696,0.086290,-0.363187,0.250113,0.000000,-0.000000,-3.053753,0.000000,0.000000,0.000000,0.000000,0.000000,0.000000,0,28.437500,29.250000,27.687500,31.875000,35.062500,36.187500,0.647256,7,253,253,253,253,253,253,1,0.153229,0.153229,9.442732,0.000000,1.000000,0.000000,47.513138,47.559711,0.627756,47.470268,47.427269,47.527599,47.527599,47.341274,47.384270,0,1,-0.000000,-0.000000,0.004000,0.004000,1,1,-648.098536,148.847287,19379.273281,-33.660966,-11.281732,33.969728,0.000002,0.000002,0.000002,0.000000,0.000000,0.000000,0,0,0,0,0,0,0,0,0,0.000000,0.000000,0.000000,0.000000,0.000000,0.000000,0.000000,0.000000
241555.724000,1.437494,-1.089114,2.525809,3.275377,1.572121,3.357390,0.000000,0.000000,0.000000,0.000000,0.000000,0.000000,0.000000,0.000000,0.000000,0.000000,0.000000,0.000000,-0.000000,-2.261069,-0.418635,-0.238796,-0.000098,0.000000,-0.000000,-23.524134,-4.325655,-1.846333,-0.000771,0.000000,1.437481,-1.089160,2.525822,3.275397,1.572103,3.357381,0.000000,0.000000,-0.000000,-0.000000,-0.000000,0.000000,0.288707,-1.999459,-0.544331,-0.154074,-0.018721,-0.046832,-0.000000,-2.261069,-0.418635,-0.238796,-0.000098,0.000000,0.086288,-0.363183,0.250126,-0.000030,-0.000016,-3.053774,0.000000,0.000000,0.000000,0.000000,0.000000,0.000000,-4.418395,3.665023,0.317191,-0.053440,0.077328,0.045703,0.086290,-0.363187,0.250113,0.000000,-0.000000,-3.053753,0.000000,0.000000,0.000000,0.000000,0.000000,0.000000,0,28.437500,29.250000,27.687500,31.875000,35.062500,36.187500,0.650184,7,253,253,253,253,253,253,1,0.191536,0.019154,9.461885,0.000000,1.000000,0.000000,47.501499,47.551651,0.636710,47.484600,47.384270,47.513268,47.498932,47.326939,47.384270,0,1,-0.000000,-0.000000,0.004000,0.004000,1,1,-647.984194,148.752648,19379.287198,-33.664728,-11.284406,33.970730,0.000002,0.000002,0.000002,0.000000,0.000000,0.000000,0,0,0,0,0,0,0,0,0,0.000000,0.000000,0.000000,0.000000,0.000000,0.000000,0.000000,0.000000
241555.726000,1.437494,-1.089114,2.525809,3.275377,1.572121,3.357390,0.000000,0.000000,0.000000,0.000000,0.000000,0.000000,0.000000,0.000000,0.000000,0.000000,0.000000,0.000000,-0.000000,-2.260927,-0.418580,-0.238800,-0.000096,0.000000,-0.000000,-23.522649,-4.325090,-1.846364,-0.000759,0.000000,1.437464,-1.089159,2.525782,3.275377,1.572146,3.357409,0.000000,0.000000,-0.000000,-0.000000,-0.000000,0.000000,0.337813,-1.941834,-0.575031,-0.170805,-0.020939,-0.051731,-0.000000,-2.260927,-0.418580,-0.238800,-0.000096,0.000000,0.086276,-0.363193,0.250134,0.000018,-0.000117,-3.053762,0.000000,0.000000,0.000000,0.000000,0.000000,0.000000,-4.317602,3.570400,0.500161,-0.056487,0.075340,0.045590,0.086290,-0.363187,0.250113,0.000000,-0.000000,-3.053753,0.000000,0.000000,0.000000,0.000000,0.000000,0.000000,0,28.437500,29.250000,27.687500,31.875000,35.062500,36.187500,0.683989,7,253,253,253,253,253,253,1,0.172383,0.134075,9.461885,0.000000,1.000000,0.000000,47.518509,47.570457,0.618802,47.484600,47.398605,47.556267,47.584930,47.355606,47.412937,0,1,-0.000000,-0.000000,0.004000,0.004000,1,1,-648.076288,148.855572,19379.470548,-33.661523,-11.282692,33.970624,0.000002,0.000002,0.000002,0.000000,0.000000,0.000000,0,0,0,0,0,0,0,0,0,0.000000,0.000000,0.000000,0.000000,0.000000,0.000000,0.000000,0.000000
241555.728000,1.437494,-1.089114,2.525809,3.275377,1.572121,3.357390,0.000000,0.000000,0.000000,0.000000,0.000000,0.000000,0.000000,0.000000,0.000000,0.000000,0.000000,0.000000,0.000000,-2.260997,-0.418647,-0.238796,-0.000099,0.000000,0.000000,-23.523384,-4.325784,-1.846329,-0.000784,0.000000,1.437481,-1.089155,2.525795,3.275406,1.572073,3.357397,0.000000,0.000000,-0.000000,-0.000000,-0.000000,0.000000,0.314156,-1.956295,-0.572501,-0.154313,-0.024674,-0.036030,0.000000,-2.260997,-0.418647,-0.238796,-0.000099,0.000000,0.086290,-0.363192,0.250127,-0.000078,-0.000029,-3.053758,0.000000,0.000000,0.000000,0.000000,0.000000,0.000000,-4.443051,3.685661,0.550283,-0.054678,0.077894,0.047473,0.086290,-0.363187,0.250113,0.000000,-0.000000,-3.053753,0.000000,0.000000,0.000000,0.000000,0.000000,0.000000,0,28.437500,29.250000,27.687500,31.875000,35.062500,36.187500,0.663457,7,253,253,253,253,253,253,1,0.210690,0.114922,9.519346,0.000000,1.000000,0.000000,47.513138,47.577621,0.690418,47.527599,47.441601,47.527599,47.527599,47.369938,47.470268,0,1,-0.000000,-0.000000,0.004000,0.004000,1,1,-647.961564,148.729849,19379.520186,-33.663545,-11.285077,33.972499,0.000002,0.000002,0.000002,0.000000,0.000000,0.000000,0,0,0,0,0,0,0,0,0,0.000000,0.000000,0.000000,0.000000,0.000000,0.000000,0.000000,0.000000
241555.730000,1.437494,-1.089114,2.525809,3.275377,1.572121,3.357390,0.000000,0.000000,0.000000,0.000000,0.000000,0.000000,0.000000,0.000000,0.000000,0.000000,0.000000,0.000000,-0.000000,-2.260984,-0.418619,-0.238799,-0.000094,0.000000,-0.000000,-23.523250,-4.325490,-1.846356,-0.000742,0.000000,1.437444,-1.089119,2.525807,3.275377,1.572129,3.357406,0.000000,0.000000,-0.000000,-0.000000,-0.000000,0.000000,0.307372,-1.950020,-0.535575,-0.184052,-0.026673,-0.050496,-0.000000,-2.260984,-0.418619,-0.238799,-0.000094,0.000000,0.086271,-0.363191,0.250116,0.000010,-0.000014,-3.053786,0.000000,0.000000,0.000000,0.000000,0.000000,0.000000,-4.450025,3.707221,0.308556,-0.050928,0.078478,0.045931,0.086290,-0.363187,0.250113,0.000000,-0.000000,-3.053753,0.000000,0.000000,0.000000,0.000000,0.000000,0.000000,0,28.437500,29.250000,27.687500,31.875000,35.062500,36.187500,0.662053,7,253,253,253,253,253,253,1,0.191536,0.095768,9.576807,0.000000,1.000000,0.000000,47.492542,47.554333,0.638946,47.484600,47.398605,47.513268,47.541931,47.326939,47.369938,0,1,-0.000000,-0.000000,0.004000,0.004000,1,1,-647.956285,148.707887,19379.278668,-33.667332,-11.285332,33.970959,0.000002,0.000002,0.000002,0.000000,0.000000,0.000000,0,0,0,0,0,0,0,0,0,0.000000,0.000000,0.000000,0.000000,0.000000,0.000000,0.000000,0.000000
241555.732000,1.437494,-1.089114,2.525809,3.275377,1.572121,3.357390,0.000000,0.000000,0.000000,0.000000,0.000000,0.000000,0.000000,0.000000,0.000000,0.000000,0.000000,0.000000,-0.000000,-2.261027,-0.418534,-0.238801,-0.000098,0.000000,-0.000000,-23.523694,-4.324613,-1.846368,-0.000774,0.000000,1.437477,-1.089110,2.525872,3.275348,1.572087,3.357423,0.000000,0.000000,-0.000000,-0.000000,-0.000000,0.000000,0.305801,-1.986649,-0.516218,-0.163295,-0.022237,-0.058516,-0.000000,-2.261027,-0.418534,-0.238801,-0.000098,0.000000,0.086290,-0.363168,0.250106,-0.000040,0.000064,-3.053737,0.000000,0.000000,0.000000,0.000000,0.000000,0.000000,-4.359438,3.509344,0.106353,-0.057609,0.075017,0.041688,0.086290,-0.363187,0.250113,0.000000,-0.000000,-3.053753,0.000000,0.000000,0.000000,0.000000,0.000000,0.000000,0,28.437500,29.250000,27.687500,31.875000,35.062500,36.187500,0.651792,7,253,253,253,253,253,253,1,0.172383,0.153229,9.519346,0.000000,1.000000,0.000000,47.483585,47.540005,0.645659,47.470268,47.384270,47.527599,47.498932,47.326939,47.398605,0,1,-0.000000,-0.000000,0.004000,0.004000,1,1,-648.029430,148.912865,19379.076135,-33.660374,-11.282473,33.966711,0.000002,0.000002,0.000002,0.000000,0.000000,0.000000,0,0,0,0,0,0,0,0,0,0.000000,0.000000,0.000000,0.000000,0.000000,0.000000,0.000000,0.000000
241555.734000,1.437494,-1.089114,2.525809,3.275377,1.572121,3.357390,0.000000,0.000000,0.000000,0.000000,0.000000,0.000000,0.000000,0.000000,0.000000,0.000000,0.000000,0.000000,0.000000,-2.260931,-0.418405,-0.238804,-0.000095,0.000000,0.000000,-23.522689,-4.323287,-1.846393,-0.000750,0.000000,1.437490,-1.089094,2.525843,3.275343,1.572162,3.357373,0.000000,0.000000,-0.000000,-0.000000,-0.000000,0.000000,0.320507,-1.980786,-0.599117,-0.161970,-0.020658,-0.041532,0.000000,-2.260931,-0.418405,-0.238804,-0.000095,0.000000,0.086286,-0.363176,0.250105,0.000068,0.000019,-3.053773,0.000000,0.000000,0.000000,0.000000,0.000000,0.000000,-4.487372,3.450310,0.510638,-0.059338,0.075779,0.044043,0.086290,-0.363187,0.250113,0.000000,-0.000000,-3.053753,0.000000,0.000000,0.000000,0.000000,0.000000,0.000000,0,28.437500,29.250000,27.687500,31.875000,35.062500,36.187500,0.657288,7,253,253,253,253,253,253,1,0.248997,0.114922,9.557653,0.000000,1.000000,0.000000,47.527466,47.574932,0.708320,47.527599,47.427269,47.513268,47.527599,47.355606,47.398605,0,1,-0.000000,-0.000000,0.004000,0.004000,1,1,-647.896528,148.960519,19379.480835,-33.658720,-11.283383,33.969072,0.000002,0.000002,0.000002,0.000000,0.000000,0.000000,0,0,0,0,0,0,0,0,0,0.000000,0.000000,0.000000,0.000000,0.000000,0.000000,0.000000,0.000000
241555.736000,1.437494,-1.089114,2.525809,3.275377,1.572121,3.357390,0.000000,0.000000,0.000000,0.000000,0.000000,0.000000,0.000000,0.000000,0.000000,0.000000,0.000000,0.000000,0.000000,-2.261009,-0.418426,-0.238803,-0.000101,0.000000,0.000000,-23.523506,-4.323501,-1.846384,-0.000793,0.000000,1.437502,-1.089102,2.525827,3.275377,1.572103,3.357397,0.000000,0.000000,-0.000000,-0.000000,-0.000000,0.000000,0.292923,-1.956216,-0.573151,-0.151072,-0.026588,-0.051831,0.000000,-2.261009,-0.418426,-0.238803,-0.000101,0.000000,0.086295,-0.363183,0.250107,-0.000018,0.000047,-3.053737,0.000000,0.000000,0.000000,0.000000,0.000000,0.000000,-4.049366,3.688741,0.449200,-0.056107,0.067236,0.047340,0.086290,-0.363187,0.250113,0.000000,-0.000000,-3.053753,0.000000,0.000000,0.000000,0.000000,0.000000,0.000000,0,28.437500,29.250000,27.687500,31.875000,35.062500,36.187500,0.652392,7,253,253,253,253,253,253,1,0.229843,0.172383,9.634268,0.000000,1.000000,0.000000,47.492542,47.566872,0.638946,47.513268,47.398605,47.513268,47.470268,47.369938,47.398605,0,1,-0.000000,-0.000000,0.004000,0.004000,1,1,-648.354009,148.761332,19379.419083,-33.661188,-11.274591,33.972365,0.000002,0.000002,0.000002,0.000000,0.000000,0.000000,0,0,0,0,0,0,0,0,0,0.000000,0.000000,0.000000,0.000000,0.000000,0.000000,0.000000,0.000000
241555.738000,1.437494,-1.089114,2.525809,3.275377,1.572121,3.357390,0.000000,0.000000,0.000000,0.000000,0.000000,0.000000,0.000000,0.000000,0.000000,0.000000,0.000000,0.000000,0.000000,-2.261024,-0.418472,-0.238804,-0.000096,0.000000,0.000000,-23.523658,-4.323973,-1.846388,-0.000759,0.000000,1.437432,-1.089189,2.525782,3.275368,1.572050,3.357336,0.000000,0.000000,-0.000000,-0.000000,-0.000000,0.000000,0.315249,-1.941308,-0.551988,-0.163108,-0.035547,-0.041574,0.000000,-2.261024,-0.418472,-0.238804,-0.000096,0.000000,0.086275,-0.363194,0.250145,-0.000137,-0.000149,-3.053868,0.000000,0.000000,0.000000,0.000000,0.000000,0.000000,-4.395093,3.713926,0.612645,-0.056592,0.074163,0.047811,0.086290,-0.363187,0.250113,0.000000,-0.000000,-3.053753,0.000000,0.000000,0.000000,0.000000,0.000000,0.000000,0,28.437500,29.250000,27.687500,31.875000,35.062500,36.187500,0.659160,7,253,253,253,253,253,253,1,0.248997,0.172383,9.461885,0.000000,1.000000,0.000000,47.514931,47.573143,0.618802,47.498932,47.412937,47.513268,47.498932,47.341274,47.412937,0,1,-0.000000,-0.000000,0.004000,0.004000,1,1,-648.011436,148.706211,19379.582696,-33.661303,-11.281518,33.972841,0.000002,0.000002,0.000002,0.000000,0.000000,0.000000,0,0,0,0,0,0,0,0,0,0.000000,0.000000,0.000000,0.000000,0.000000,0.000000,0.000000,0.000000
241555.740000,1.437494,-1.089114,2.525809,3.275377,1.572121,3.357390,0.000000,0.000000,0.000000,0.000000,0.000000,0.000000,0.000000,0.000000,0.000000,0.000000,0.000000,0.000000,-0.000000,-2.260943,-0.418697,-0.238793,-0.000092,0.000000,-0.000000,-23.522824,-4.326300,-1.846307,-0.000728,0.000000,1.437399,-1.089138,2.525790,3.275365,1.572128,3.357426,0.000000,0.000000,-0.000000,-0.000000,-0.000000,0.000000,0.376608,-1.990582,-0.533846,-0.165259,-0.017561,-0.041618,-0.000000,-2.260943,-0.418697,-0.238793,-0.000092,0.000000,0.086255,-0.363197,0.250126,-0.000004,-0.000087,-3.053811,0.000000,0.000000,0.000000,0.000000,0.000000,0.000000,-4.314028,3.588834,0.229329,-0.056971,0.072561,0.048273,0.086290,-0.363187,0.250113,0.000000,-0.000000,-3.053753,0.000000,0.000000,0.000000,0.000000,0.000000,0.000000,0,28.437500,29.250000,27.687500,31.875000,35.062500,36.187500,0.665520,7,253,253,253,253,253,253,1,0.191536,0.076614,9.404425,0.000000,1.000000,0.000000,47.504181,47.566872,0.650136,47.498932,47.384270,47.513268,47.513268,47.326939,47.384270,0,1,-0.000000,-0.000000,0.004000,0.004000,1,1,-648.081301,148.837741,19379.199580,-33.660793,-11.279963,33.973304,0.000002,0.000002,0.000002,0.000000,0.000000,0.000000,0,0,0,0,0,0,0,0,0,0.000000,0.000000,0.000000,0.000000,0.000000,0.000000,0.000000,0.000000
241555.742000,1.437494,-1.089114,2.525809,3.275377,1.572121,3.357390,0.000000,0.000000,0.000000,0.000000,0.000000,0.000000,0.000000,0.000000,0.000000,0.000000,0.000000,0.000000,-0.000000,-2.261020,-0.418596,-0.238797,-0.000098,0.000000,-0.000000,-23.523622,-4.325259,-1.846339,-0.000774,0.000000,1.437481,-1.089131,2.525799,3.275336,1.572120,3.357360,0.000000,0.000000,-0.000000,-0.000000,-0.000000,0.000000,0.346197,-1.950957,-0.567696,-0.171829,-0.032578,-0.045447,-0.000000,-2.261020,-0.418596,-0.238797,-0.000098,0.000000,0.086286,-0.363186,0.250125,-0.000020,-0.000104,-3.053795,0.000000,0.000000,0.000000,0.000000,0.000000,0.000000,-4.292454,3.599372,0.407046,-0.054703,0.074606,0.047076,0.086290,-0.363187,0.250113,0.000000,-0.000000,-3.053753,0.000000,0.000000,0.000000,0.000000,0.000000,0.000000,0,28.437500,29.250000,27.687500,31.875000,35.062500,36.187500,0.662004,7,253,253,253,253,253,253,1,0.095768,0.114922,9.461885,0.000000,1.000000,0.000000,47.503288,47.565979,0.632233,47.484600,47.398605,47.541931,47.556267,47.355606,47.384270,0,1,-0.000000,-0.000000,0.004000,0.004000,1,1,-648.103798,148.829059,19379.377300,-33.663232,-11.281801,33.972108,0.000002,0.000002,0.000002,0.000000,0.000000,0.000000,0,0,0,0,0,0,0,0,0,0.000000,0.000000,0.000000,0.000000,0.000000,0.000000,0.000000,0.000000
241555.744000,1.437494,-1.089114,2.525809,3.275377,1.572121,3.357390,0.000000,0.000000,0.000000,0.000000,0.000000,0.000000,0.000000,0.000000,0.000000,0.000000,0.000000,0.000000,-0.000000,-2.261017,-0.418567,-0.238796,-0.000098,0.000000,-0.000000,-23.523594,-4.324956,-1.846332,-0.000769,0.000000,1.437473,-1.089135,2.525835,3.275348,1.572103,3.357341,0.000000,0.000000,-0.000000,-0.000000,-0.000000,0.000000,0.338790,-1.931370,-0.572513,-0.166422,-0.019410,-0.044743,-0.000000,-2.261017,-0.418567,-0.238796,-0.000098,0.000000,0.086286,-0.363177,0.250120,-0.000032,-0.000033,-3.053823,0.000000,0.000000,0.000000,0.000000,0.000000,0.000000,-4.340295,3.502788,0.596957,-0.059218,0.075814,0.045705,0.086290,-0.363187,0.250113,0.000000,-0.000000,-3.053753,0.000000,0.000000,0.000000,0.000000,0.000000,0.000000,0,28.437500,29.250000,27.687500,31.875000,35.062500,36.187500,0.657829,7,253,253,253,253,253,253,1,0.191536,0.076614,9.461885,0.000000,1.000000,0.000000,47.505978,47.568668,0.605377,47.498932,47.398605,47.541931,47.470268,47.341274,47.412937,0,1,-0.000000,-0.000000,0.004000,0.004000,1,1,-648.047576,148.921284,19379.566997,-33.658836,-11.283401,33.970733,0.000002,0.000002,0.000002,0.000000,0.000000,0.000000,0,0,0,0,0,0,0,0,0,0.000000,0.000000,0.000000,0.000000,0.000000,0.000000,0.000000,0.000000
241555.746000,1.437494,-1.089114,2.525809,3.275377,1.572121,3.357390,0.000000,0.000000,0.000000,0.000000,0.000000,0.000000,0.000000,0.000000,0.000000,0.000000,0.000000,0.000000,-0.000000,-2.260947,-0.418512,-0.238800,-0.000096,0.000000,-0.000000,-23.522866,-4.324387,-1.846357,-0.000759,0.000000,1.437481,-1.089131,2.525818,3.275352,1.572141,3.357348,0.000000,0.000000,-0.000000,-0.000000,-0.000000,0.000000,0.334989,-1.953293,-0.547938,-0.150206,-0.019894,-0.045330,-0.000000,-2.260947,-0.418512,-0.238800,-0.000096,0.000000,0.086284,-0.363181,0.250121,0.000022,-0.000056,-3.053807,0.000000,0.000000,0.000000,0.000000,0.000000,0.000000,-4.500115,3.501250,0.525668,-0.057775,0.082555,0.044648,0.086290,-0.363187,0.250113,0.000000,-0.000000,-3.053753,0.000000,0.000000,0.000000,0.000000,0.000000,0.000000,0,28.437500,29.250000,27.687500,31.875000,35.062500,36.187500,0.657493,7,253,253,253,253,253,253,1,0.191536,0.114922,9.500193,0.000000,1.000000,0.000000,47.508659,47.567768,0.585233,47.498932,47.398605,47.556267,47.527599,47.326939,47.341274,0,1,-0.000000,-0.000000,0.004000,0.004000,1,1,-647.888231,148.908710,19379.495916,-33.660869,-11.289991,33.969679,0.000002,0.000002,0.000002,0.000000,0.000000,0.000000,0,0,0,0,0,0,0,0,0,0.000000,0.000000,0.000000,0.000000,0.000000,0.000000,0.000000,0.000000
241555.748000,1.437494,-1.089114,2.525809,3.275377,1.572121,3.357390,0.000000,0.000000,0.000000,0.000000,0.000000,0.000000,0.000000,0.000000,0.000000,0.000000,0.000000,0.000000,-0.000000,-2.260985,-0.418534,-0.238799,-0.000099,0.000000,-0.000000,-23.523257,-4.324617,-1.846353,-0.000781,0.000000,1.437526,-1.089127,2.525807,3.275406,1.572141,3.357348,0.000000,0.000000,-0.000000,-0.000000,-0.000000,0.000000,0.315328,-1.952678,-0.591433,-0.164273,-0.027461,-0.052530,-0.000000,-2.260985,-0.418534,-0.238799,-0.000099,0.000000,0.086300,-0.363186,0.250115,0.000034,0.000015,-3.053762,0.000000,0.000000,0.000000,0.000000,0.000000,0.000000,-4.186078,3.722126,0.708975,-0.051924,0.072860,0.046028,0.086290,-0.363187,0.250113,0.000000,-0.000000,-3.053753,0.000000,0.000000,0.000000,0.000000,0.000000,0.000000,0,28.437500,29.250000,27.687500,31.875000,35.062500,36.187500,0.655993,7,253,253,253,253,253,253,1,0.191536,0.210690,9.500193,0.000000,1.000000,0.000000,47.503288,47.554333,0.609854,47.455936,47.384270,47.527599,47.498932,47.269608,47.470268,0,1,-0.000000,-0.000000,0.004000,0.004000,1,1,-648.220594,148.716127,19379.679077,-33.665849,-11.279826,33.971055,0.000002,0.000002,0.000002,0.000000,0.000000,0.000000,0,0,0,0,0,0,0,0,0,0.000000,0.000000,0.000000,0.000000,0.000000,0.000000,0.000000,0.000000
241555.750000,1.437494,-1.089114,2.525809,3.275377,1.572121,3.357390,0.000000,0.000000,0.000000,0.000000,0.000000,0.000000,0.000000,0.000000,0.000000,0.000000,0.000000,0.000000,-0.000000,-2.261015,-0.418549,-0.238802,-0.000099,0.000000,-0.000000,-23.523565,-4.324766,-1.846380,-0.000781,0.000000,1.437436,-1.089098,2.525819,3.275364,1.572129,3.357378,0.000000,0.000000,-0.000000,-0.000000,-0.000000,0.000000,0.322839,-1.931261,-0.539957,-0.173048,-0.026709,-0.033859,-0.000000,-2.261015,-0.418549,-0.238802,-0.000099,0.000000,0.086269,-0.363189,0.250108,0.000015,0.000015,-3.053822,0.000000,0.000000,0.000000,0.000000,0.000000,0.000000,-4.043475,3.771025,0.350948,-0.050056,0.069753,0.048092,0.086290,-0.363187,0.250113,0.000000,-0.000000,-3.053753,0.000000,0.000000,0.000000,0.000000,0.000000,0.000000,0,28.437500,29.250000,27.687500,31.875000,35.062500,36.187500,0.650688,7,253,253,253,253,253,253,1,0.172383,0.172383,9.423578,0.000000,1.000000,0.000000,47.491642,47.549854,0.643423,47.498932,47.398605,47.484600,47.527599,47.312607,47.412937,0,1,-0.000000,-0.000000,0.004000,0.004000,1,1,-648.366707,148.680154,19379.320996,-33.667432,-11.276564,33.973119,0.000002,0.000002,0.000002,0.000000,0.000000,0.000000,0,0,0,0,0,0,0,0,0,0.000000,0.000000,0.000000,0.000000,0.000000,0.000000,0.000000,0.000000
241555.752000,1.437494,-1.089114,2.525809,3.275377,1.572121,3.357390,0.000000,0.000000,0.000000,0.000000,0.000000,0.000000,0.000000,0.000000,0.000000,0.000000,0.000000,0.000000,-0.000000,-2.261045,-0.418478,-0.238802,-0.000098,0.000000,-0.000000,-23.523876,-4.324033,-1.846379,-0.000774,0.000000,1.437472,-1.089123,2.525819,3.275373,1.572115,3.357369,0.000000,0.000000,-0.000000,-0.000000,-0.000000,0.000000,0.347844,-1.973318,-0.607637,-0.169838,-0.007478,-0.044278,-0.000000,-2.261045,-0.418478,-0.238802,-0.000098,0.000000,0.086283,-0.363185,0.250116,-0.000009,-0.000006,-3.053795,0.000000,0.000000,0.000000,0.000000,0.000000,0.000000,-4.113007,3.669773,0.336502,-0.052527,0.068459,0.049577,0.086290,-0.363187,0.250113,0.000000,-0.000000,-3.053753,0.000000,0.000000,0.000000,0.000000,0.000000,0.000000,0,28.437500,29.250000,27.687500,31.875000,35.062500,36.187500,0.649956,7,253,253,253,253,253,253,1,0.153229,0.172383,9.404425,0.000000,1.000000,0.000000,47.533737,47.568668,0.598664,47.484600,47.398605,47.484600,47.527599,47.298275,47.369938,0,1,-0.000000,-0.000000,0.004000,0.004000,1,1,-648.288711,148.774790,19379.306541,-33.664859,-11.275491,33.974605,0.000002,0.000002,0.000002,0.000000,0.000000,0.000000,0,0,0,0,0,0,0,0,0,0.000000,0.000000,0.000000,0.000000,0.000000,0.000000,0.000000,0.000000
241555.754000,1.437494,-1.089114,2.525809,3.275377,1.572121,3.357390,0.000000,0.000000,0.000000,0.000000,0.000000,0.000000,0.000000,0.000000,0.000000,0.000000,0.000000,0.000000,0.000000,-2.260999,-0.418521,-0.238801,-0.000097,0.000000,0.000000,-23.523405,-4.324485,-1.846369,-0.000766,0.000000,1.437464,-1.089138,2.525823,3.275381,1.572090,3.357381,0.000000,0.000000,-0.000000,-0.000000,-0.000000,0.000000,0.323248,-1.969648,-0.522836,-0.170567,-0.024499,-0.030928,0.000000,-2.260999,-0.418521,-0.238801,-0.000097,0.000000,0.086283,-0.363184,0.250120,-0.000048,-0.000003,-3.053791,0.000000,0.000000,0.000000,0.000000,0.000000,0.000000,-4.291227,3.743693,0.408018,-0.051874,0.071316,0.047318,0.086290,-0.363187,0.250113,0.000000,-0.000000,-3.053753,0.000000,0.000000,0.000000,0.000000,0.000000,0.000000,0,28.437500,29.250000,27.687500,31.875000,35.062500,36.187500,0.648972,7,253,253,253,253,253,253,1,0.172383,0.248997,9.442732,0.000000,1.000000,0.000000,47.526573,47.588367,0.618802,47.513268,47.369938,47.484600,47.498932,47.326939,47.412937,0,1,-0.000000,-0.000000,0.004000,0.004000,1,1,-648.117725,148.685519,19379.377944,-33.665759,-11.278279,33.972344,0.000002,0.000002,0.000002,0.000000,0.000000,0.000000,0,0,0,0,0,0,0,0,0,0.000000,0.000000,0.000000,0.000000,0.000000,0.000000,0.000000,0.000000
241555.756000,1.437494,-1.089114,2.525809,3.275377,1.572121,3.357390,0.000000,0.000000,0.000000,0.000000,0.000000,0.000000,0.000000,0.000000,0.000000,0.000000,0.000000,0.000000,0.000000,-2.260965,-0.418541,-0.238801,-0.000095,0.000000,0.000000,-23.523046,-4.324684,-1.846368,-0.000752,0.000000,1.437481,-1.089119,2.525823,3.275401,1.572099,3.357411,0.000000,0.000000,-0.000000,-0.000000,-0.000000,0.000000,0.331997,-1.931113,-0.579358,-0.171319,-0.031669,-0.031107,0.000000,-2.260965,-0.418541,-0.238801,-0.000095,0.000000,0.086288,-0.363187,0.250111,-0.000024,0.000054,-3.053745,0.000000,0.000000,0.000000,0.000000,0.000000,0.000000,-4.248761,3.657419,0.462009,-0.053838,0.072059,0.045531,0.086290,-0.363187,0.250113,0.000000,-0.000000,-3.053753,0.000000,0.000000,0.000000,0.000000,0.000000,0.000000,0,28.437500,29.250000,27.687500,31.875000,35.062500,36.187500,0.650760,7,253,253,253,253,253,253,1,0.172383,0.229843,9.557653,0.000000,1.000000,0.000000,47.498810,47.551651,0.692659,47.484600,47.412937,47.498932,47.527599,47.326939,47.312607,0,1,-0.000000,-0.000000,0.004000,0.004000,1,1,-648.152612,148.775075,19379.431857,-33.663871,-11.279196,33.970555,0.000002,0.000002,0.000002,0.000000,0.000000,0.000000,0,0,0,0,0,0,0,0,0,0.000000,0.000000,0.000000,0.000000,0.000000,0.000000,0.000000,0.000000
241555.758000,1.437494,-1.089114,2.525809,3.275377,1.572121,3.357390,0.000000,0.000000,0.000000,0.000000,0.000000,0.000000,0.000000,0.000000,0.000000,0.000000,0.000000,0.000000,0.000000,-2.261001,-0.418508,-0.238804,-0.000096,0.000000,0.000000,-23.523427,-4.324348,-1.846391,-0.000757,0.000000,1.437444,-1.089127,2.525827,3.275364,1.572148,3.357360,0.000000,0.000000,-0.000000,-0.000000,-0.000000,0.000000,0.366924,-1.945785,-0.543676,-0.145000,-0.023759,-0.047148,0.000000,-2.261001,-0.418508,-0.238804,-0.000096,0.000000,0.086270,-0.363183,0.250117,0.000040,-0.000019,-3.053832,0.000000,0.000000,0.000000,0.000000,0.000000,0.000000,-4.438014,3.561244,0.399459,-0.056366,0.077447,0.044973,0.086290,-0.363187,0.250113,0.000000,-0.000000,-3.053753,0.000000,0.000000,0.000000,0.000000,0.000000,0.000000,0,28.437500,29.250000,27.687500,31.875000,35.062500,36.187500,0.660048,7,253,253,253,253,253,253,1,0.248997,0.076614,9.595961,0.000000,1.000000,0.000000,47.495228,47.548962,0.645659,47.498932,47.398605,47.513268,47.513268,47.326939,47.355606,0,1,-0.000000,-0.000000,0.004000,0.004000,1,1,-647.955227,148.854537,19379.369667,-33.661821,-11.284780,33.970002,0.000002,0.000002,0.000002,0.000000,0.000000,0.000000,0,0,0,0,0,0,0,0,0,0.000000,0.000000,0.000000,0.000000,0.000000,0.000000,0.000000,0.000000
241555.760000,1.437494,-1.089114,2.525809,3.275377,1.572121,3.357390,0.000000,0.000000,0.000000,0.000000,0.000000,0.000000,0.000000,0.000000,0.000000,0.000000,0.000000,0.000000,-0.000000,-2.260978,-0.418511,-0.238801,-0.000100,0.000000,-0.000000,-23.523181,-4.324381,-1.846367,-0.000786,0.000000,1.437485,-1.089123,2.525814,3.275389,1.572120,3.357383,0.000000,0.000000,-0.000000,-0.000000,-0.000000,0.000000,0.297320,-1.984172,-0.530343,-0.165497,-0.023970,-0.028942,-0.000000,-2.260978,-0.418511,-0.238801,-0.000100,0.000000,0.086287,-0.363187,0.250115,0.000001,0.000011,-3.053768,0.000000,0.000000,0.000000,0.000000,0.000000,0.000000,-4.507673,3.406792,0.313137,-0.062400,0.076403,0.041635,0.086290,-0.363187,0.250113,0.000000,-0.000000,-3.053753,0.000000,0.000000,0.000000,0.000000,0.000000,0.000000,0,28.437500,29.250000,27.687500,31.875000,35.062500,36.187500,0.642876,7,253,253,253,253,253,253,1,0.248997,0.057461,9.481039,0.000000,1.000000,0.000000,47.548065,47.588367,0.688182,47.527599,47.427269,47.541931,47.513268,47.384270,47.398605,0,1,-0.000000,-0.000000,0.004000,0.004000,1,1,-647.872591,149.002064,19379.283162,-33.655723,-11.284272,33.966662,0.000002,0.000002,0.000002,0.000000,0.000000,0.000000,0,0,0,0,0,0,0,0,0,0.000000,0.000000,0.000000,0.000000,0.000000,0.000000,0.000000,0.000000
241555.762000,1.437494,-1.089114,2.525809,3.275377,1.572121,3.357390,0.000000,0.000000,0.000000,0.000000,0.000000,0.000000,0.000000,0.000000,0.000000,0.000000,0.000000,0.000000,0.000000,-2.261008,-0.418530,-0.238802,-0.000098,0.000000,0.000000,-23.523491,-4.324570,-1.846376,-0.000769,0.000000,1.437510,-1.089152,2.525884,3.275356,1.572096,3.357373,0.000000,0.000000,-0.000000,-0.000000,-0.000000,0.000000,0.325541,-1.997903,-0.547976,-0.171571,-0.022899,-0.026172,0.000000,-2.261008,-0.418530,-0.238802,-0.000098,0.000000,0.086302,-0.363159,0.250118,-0.000033,0.000030,-3.053752,0.000000,0.000000,0.000000,0.000000,0.000000,0.000000,-4.500182,3.546821,0.213704,-0.054181,0.079214,0.046041,0.086290,-0.363187,0.250113,0.000000,-0.000000,-3.053753,0.000000,0.000000,0.000000,0.000000,0.000000,0.000000,0,28.437500,29.250000,27.687500,31.875000,35.062500,36.187500,0.647556,7,253,253,253,253,253,253,1,0.210690,0.153229,9.442732,0.000000,1.000000,0.000000,47.514034,47.576725,0.585233,47.484600,47.441601,47.541931,47.527599,47.341274,47.398605,0,1,-0.000000,-0.000000,0.004000,0.004000,1,1,-647.892443,148.863196,19379.183587,-33.664156,-11.286352,33.971065,0.000002,0.000002,0.000002,0.000000,0.000000,0.000000,0,0,0,0,0,0,0,0,0,0.000000,0.000000,0.000000,0.000000,0.000000,0.000000,0.000000,0.000000
241555.764000,1.437494,-1.089114,2.525809,3.275377,1.572121,3.357390,0.000000,0.000000,0.000000,0.000000,0.000000,0.000000,0.000000,0.000000,0.000000,0.000000,0.000000,0.000000,0.000000,-2.260835,-0.418457,-0.238803,-0.000096,0.000000,0.000000,-23.521702,-4.323821,-1.846381,-0.000755,0.000000,1.437469,-1.089156,2.525819,3.275385,1.572080,3.357414,0.000000,0.000000,-0.000000,-0.000000,-0.000000,0.000000,0.284686,-1.983944,-0.560985,-0.154594,-0.013713,-0.034425,0.000000,-2.260835,-0.418457,-0.238803,-0.000096,0.000000,0.086286,-0.363184,0.250126,-0.000069,-0.000028,-3.053753,0.000000,0.000000,0.000000,0.000000,0.000000,0.000000,-4.461497,3.439195,0.406855,-0.057373,0.078106,0.049302,0.086290,-0.363187,0.250113,0.000000,-0.000000,-3.053753,0.000000,0.000000,0.000000,0.000000,0.000000,0.000000,0,28.437500,29.250000,27.687500,31.875000,35.062500,36.187500,0.643513,7,253,253,253,253,253,253,1,0.268151,0.114922,9.423578,0.000000,1.000000,0.000000,47.512241,47.562393,0.627756,47.441601,47.384270,47.427269,47.541931,47.298275,47.369938,0,1,-0.000000,-0.000000,0.004000,0.004000,1,1,-647.921581,148.973727,19379.376777,-33.660880,-11.285525,33.974328,0.000002,0.000002,0.000002,0.000000,0.000000,0.000000,0,0,0,0,0,0,0,0,0,0.000000,0.000000,0.000000,0.000000,0.000000,0.000000,0.000000,0.000000
241555.766000,1.437494,-1.089114,2.525809,3.275377,1.572121,3.357390,0.000000,0.000000,0.000000,0.000000,0.000000,0.000000,0.000000,0.000000,0.000000,0.000000,0.000000,0.000000,0.000000,-2.260940,-0.418578,-0.238800,-0.000095,0.000000,0.000000,-23.522792,-4.325074,-1.846357,-0.000746,0.000000,1.437477,-1.089184,2.525790,3.275406,1.572111,3.357352,0.000000,0.000000,-0.000000,-0.000000,-0.000000,0.000000,0.325479,-1.960319,-0.534133,-0.167483,-0.015938,-0.035730,0.000000,-2.260940,-0.418578,-0.238800,-0.000095,0.000000,0.086285,-0.363191,0.250138,-0.000032,-0.000090,-3.053807,0.000000,0.000000,0.000000,0.000000,0.000000,0.000000,-4.494869,3.383706,0.285406,-0.063513,0.075609,0.041915,0.086290,-0.363187,0.250113,0.000000,-0.000000,-3.053753,0.000000,0.000000,0.000000,0.000000,0.000000,0.000000,0,28.437500,29.250000,27.687500,31.875000,35.062500,36.187500,0.649333,7,253,253,253,253,253,253,1,0.191536,0.076614,9.461885,0.000000,1.000000,0.000000,47.478210,47.534634,0.629992,47.470268,47.412937,47.513268,47.470268,47.326939,47.398605,0,1,-0.000000,-0.000000,0.004000,0.004000,1,1,-647.883225,149.026209,19379.255575,-33.654543,-11.283573,33.966945,0.000002,0.000002,0.000002,0.000000,0.000000,0.000000,0,0,0,0,0,0,0,0,0,0.000000,0.000000,0.000000,0.000000,0.000000,0.000000,0.000000,0.000000
241555.768000,1.437494,-1.089114,2.525809,3.275377,1.572121,3.357390,0.000000,0.000000,0.000000,0.000000,0.000000,0.000000,0.000000,0.000000,0.000000,0.000000,0.000000,0.000000,-0.000000,-2.260939,-0.418677,-0.238797,-0.000097,0.000000,-0.000000,-23.522775,-4.326092,-1.846336,-0.000764,0.000000,1.437464,-1.089115,2.525855,3.275397,1.572082,3.357394,0.000000,0.000000,-0.000000,-0.000000,-0.000000,0.000000,0.338892,-1.949874,-0.559158,-0.166899,-0.026277,-0.045406,-0.000000,-2.260939,-0.418677,-0.238797,-0.000097,0.000000,0.086285,-0.363179,0.250105,-0.000040,0.000108,-3.053777,0.000000,0.000000,0.000000,0.000000,0.000000,0.000000,-4.266526,3.644043,0.444744,-0.054759,0.069521,0.047880,0.086290,-0.363187,0.250113,0.000000,-0.000000,-3.053753,0.000000,0.000000,0.000000,0.000000,0.000000,0.000000,0,28.437500,29.250000,27.687500,31.875000,35.062500,36.187500,0.655021,7,253,253,253,253,253,253,1,0.153229,0.134075,9.442732,0.000000,1.000000,0.000000,47.521198,47.573143,0.692659,47.441601,47.384270,47.527599,47.527599,47.341274,47.470268,0,1,-0.000000,-0.000000,0.004000,0.004000,1,1,-648.133629,148.787040,19379.414416,-33.662726,-11.276748,33.972901,0.000002,0.000002,0.000002,0.000000,0.000000,0.000000,0,0,0,0,0,0,0,0,0,0.000000,0.000000,0.000000,0.000000,0.000000,0.000000,0.000000,0.000000
241555.770000,1.437494,-1.089114,2.525809,3.275377,1.572121,3.357390,0.000000,0.000000,0.000000,0.000000,0.000000,0.000000,0.000000,0.000000,0.000000,0.000000,0.000000,0.000000,-0.000000,-2.260955,-0.418445,-0.238806,-0.000095,0.000000,-0.000000,-23.522940,-4.323699,-1.846410,-0.000747,0.000000,1.437432,-1.089103,2.525823,3.275372,1.572087,3.357373,0.000000,0.000000,-0.000000,-0.000000,-0.000000,0.000000,0.310855,-1.916919,-0.531384,-0.166598,-0.027386,-0.050079,-0.000000,-2.260955,-0.418445,-0.238806,-0.000095,0.000000,0.086271,-0.363189,0.250108,-0.000045,0.000038,-3.053831,0.000000,0.000000,0.000000,0.000000,0.000000,0.000000,-4.262694,3.817182,0.266757,-0.050853,0.074019,0.048129,0.086290,-0.363187,0.250113,0.000000,-0.000000,-3.053753,0.000000,0.000000,0.000000,0.000000,0.000000,0.000000,0,28.437500,29.250000,27.687500,31.875000,35.062500,36.187500,0.664488,7,253,253,253,253,253,253,1,0.172383,0.229843,9.404425,0.000000,1.000000,0.000000,47.533737,47.568668,0.632233,47.484600,47.398605,47.541931,47.527599,47.341274,47.412937,0,1,-0.000000,-0.000000,0.004000,0.004000,1,1,-648.152424,148.615028,19379.236586,-33.667010,-11.280882,33.973153,0.000002,0.000002,0.000002,0.000000,0.000000,0.000000,0,0,0,0,0,0,0,0,0,0.000000,0.000000,0.000000,0.000000,0.000000,0.000000,0.000000,0.000000
241555.772000,1.437494,-1.089114,2.525809,3.275377,1.572121,3.357390,0.000000,0.000000,0.000000,0.000000,0.000000,0.000000,0.000000,0.000000,0.000000,0.000000,0.000000,0.000000,-0.000000,-2.261029,-0.418478,-0.238803,-0.000095,0.000000,-0.000000,-23.523721,-4.324039,-1.846383,-0.000750,0.000000,1.437505,-1.089115,2.525823,3.275385,1.572115,3.357361,0.000000,0.000000,-0.000000,-0.000000,-0.000000,0.000000,0.307808,-1.977179,-0.576761,-0.148085,-0.025066,-0.028303,-0.000000,-2.261029,-0.418478,-0.238803,-0.000095,0.000000,0.086295,-0.363183,0.250111,-0.000003,0.000032,-3.053770,0.000000,0.000000,0.000000,0.000000,0.000000,0.000000,-4.363615,3.597515,0.238361,-0.054899,0.076353,0.046764,0.086290,-0.363187,0.250113,0.000000,-0.000000,-3.053753,0.000000,0.000000,0.000000,0.000000,0.000000,0.000000,0,28.437500,29.250000,27.687500,31.875000,35.062500,36.187500,0.657252,7,253,253,253,253,253,253,1,0.172383,0.095768,9.538500,0.000000,1.000000,0.000000,47.505077,47.563290,0.645659,47.484600,47.427269,47.541931,47.527599,47.355606,47.384270,0,1,-0.000000,-0.000000,0.004000,0.004000,1,1,-648.032818,148.824749,19379.208323,-33.663189,-11.283565,33.971789,0.000002,0.000002,0.000002,0.000000,0.000000,0.000000,0,0,0,0,0,0,0,0,0,0.000000,0.000000,0.000000,0.000000,0.000000,0.000000,0.000000,0.000000
241555.774000,1.437494,-1.089114,2.525809,3.275377,1.572121,3.357390,0.000000,0.000000,0.000000,0.000000,0.000000,0.000000,0.000000,0.000000,0.000000,0.000000,0.000000,0.000000,0.000000,-2.261009,-0.418499,-0.238803,-0.000097,0.000000,0.000000,-23.523502,-4.324259,-1.846384,-0.000766,0.000000,1.437464,-1.089156,2.525799,3.275380,1.572124,3.357402,0.000000,0.000000,-0.000000,-0.000000,-0.000000,0.000000,0.326921,-1.985474,-0.562699,-0.161730,-0.038452,-0.028376,0.000000,-2.261009,-0.418499,-0.238803,-0.000097,0.000000,0.086279,-0.363189,0.250130,-0.000008,-0.000076,-3.053771,0.000000,0.000000,0.000000,0.000000,0.000000,0.000000,-4.254519,3.649267,0.207211,-0.054846,0.070256,0.046409,0.086290,-0.363187,0.250113,0.000000,-0.000000,-3.053753,0.000000,0.000000,0.000000,0.000000,0.000000,0.000000,0,28.437500,29.250000,27.687500,31.875000,35.062500,36.187500,0.670680,7,253,253,253,253,253,253,1,0.153229,0.114922,9.423578,0.000000,1.000000,0.000000,47.497913,47.534634,0.625520,47.470268,47.384270,47.498932,47.498932,47.298275,47.369938,0,1,-0.000000,-0.000000,0.004000,0.004000,1,1,-648.146045,148.782614,19379.177429,-33.662711,-11.277483,33.971439,0.000002,0.000002,0.000002,0.000000,0.000000,0.000000,0,0,0,0,0,0,0,0,0,0.000000,0.000000,0.000000,0.000000,0.000000,0.000000,0.000000,0.000000
241555.776000,1.437494,-1.089114,2.525809,3.275377,1.572121,3.357390,0.000000,0.000000,0.000000,0.000000,0.000000,0.000000,0.000000,0.000000,0.000000,0.000000,0.000000,0.000000,-0.000000,-2.260974,-0.418612,-0.238798,-0.000098,0.000000,-0.000000,-23.523147,-4.325427,-1.846343,-0.000771,0.000000,1.437469,-1.089135,2.525807,3.275401,1.572141,3.357373,0.000000,0.000000,-0.000000,-0.000000,-0.000000,0.000000,0.300944,-1.962967,-0.538823,-0.165252,-0.015069,-0.041077,-0.000000,-2.260974,-0.418612,-0.238798,-0.000098,0.000000,0.086279,-0.363190,0.250119,0.000031,-0.000005,-3.053794,0.000000,0.000000,0.000000,0.000000,0.000000,0.000000,-4.142970,3.638531,0.198500,-0.055154,0.068631,0.043073,0.086290,-0.363187,0.250113,0.000000,-0.000000,-3.053753,0.000000,0.000000,0.000000,0.000000,0.000000,0.000000,0,28.437500,29.250000,27.687500,31.875000,35.062500,36.187500,0.652692,7,253,253,253,253,253,253,1,0.229843,0.095768,9.576807,0.000000,1.000000,0.000000,47.508659,47.569561,0.647900,47.498932,47.427269,47.556267,47.556267,47.384270,47.398605,0,1,-0.000000,-0.000000,0.004000,0.004000,1,1,-648.256070,148.803280,19379.168643,-33.662258,-11.275894,33.968101,0.000002,0.000002,0.000002,0.000000,0.000000,0.000000,0,0,0,0,0,0,0,0,0,0.000000,0.000000,0.000000,0.000000,0.000000,0.000000,0.000000,0.000000
241555.778000,1.437494,-1.089114,2.525809,3.275377,1.572121,3.357390,0.000000,0.000000,0.000000,0.000000,0.000000,0.000000,0.000000,0.000000,0.000000,0.000000,0.000000,0.000000,-0.000000,-2.260998,-0.418563,-0.238801,-0.000099,0.000000,-0.000000,-23.523396,-4.324920,-1.846372,-0.000781,0.000000,1.437436,-1.089164,2.525835,3.275369,1.572132,3.357390,0.000000,0.000000,-0.000000,-0.000000,-0.000000,0.000000,0.279095,-1.994794,-0.565666,-0.172805,-0.026175,-0.036224,-0.000000,-2.260998,-0.418563,-0.238801,-0.000099,0.000000,0.086270,-0.363179,0.250128,0.000009,-0.000051,-3.053810,0.000000,0.000000,0.000000,0.000000,0.000000,0.000000,-4.475971,3.452958,0.328174,-0.058749,0.074848,0.042803,0.086290,-0.363187,0.250113,0.000000,-0.000000,-3.053753,0.000000,0.000000,0.000000,0.000000,0.000000,0.000000,0,28.437500,29.250000,27.687500,31.875000,35.062500,36.187500,0.652416,7,253,253,253,253,253,253,1,0.191536,0.114922,9.634268,0.000000,1.000000,0.000000,47.528366,47.568668,0.656848,47.527599,47.441601,47.584930,47.556267,47.298275,47.412937,0,1,-0.000000,-0.000000,0.004000,0.004000,1,1,-647.908053,148.958945,19379.298370,-33.659222,-11.282399,33.967833,0.000002,0.000002,0.000002,0.000000,0.000000,0.000000,0,0,0,0,0,0,0,0,0,0.000000,0.000000,0.000000,0.000000,0.000000,0.000000,0.000000,0.000000
241555.780000,1.437494,-1.089114,2.525809,3.275377,1.572121,3.357390,0.000000,0.000000,0.000000,0.000000,0.000000,0.000000,0.000000,0.000000,0.000000,0.000000,0.000000,0.000000,-0.000000,-2.260897,-0.418562,-0.238799,-0.000098,0.000000,-0.000000,-23.522342,-4.324904,-1.846353,-0.000776,0.000000,1.437439,-1.089164,2.525844,3.275397,1.572146,3.357411,0.000000,0.000000,-0.000000,-0.000000,-0.000000,0.000000,0.308283,-1.961606,-0.531681,-0.156167,-0.013233,-0.039307,-0.000000,-2.260897,-0.418562,-0.238799,-0.000098,0.000000,0.086270,-0.363179,0.250124,0.000039,0.000001,-3.053786,0.000000,0.000000,0.000000,0.000000,0.000000,0.000000,-4.292470,3.591377,0.410039,-0.054833,0.069750,0.046027,0.086290,-0.363187,0.250113,0.000000,-0.000000,-3.053753,0.000000,0.000000,0.000000,0.000000,0.000000,0.000000,0,28.437500,29.250000,27.687500,31.875000,35.062500,36.187500,0.665640,7,253,253,253,253,253,253,1,0.153229,0.076614,9.519346,0.000000,1.000000,0.000000,47.505978,47.564190,0.612089,47.484600,47.412937,47.527599,47.541931,47.326939,47.341274,0,1,-0.000000,-0.000000,0.004000,0.004000,1,1,-648.103035,148.837121,19379.380191,-33.662677,-11.276981,33.971056,0.000002,0.000002,0.000002,0.000000,0.000000,0.000000,0,0,0,0,0,0,0,0,0,0.000000,0.000000,0.000000,0.000000,0.000000,0.000000,0.000000,0.000000
241555.782000,1.437494,-1.089114,2.525809,3.275377,1.572121,3.357390,0.000000,0.000000,0.000000,0.000000,0.000000,0.000000,0.000000,0.000000,0.000000,0.000000,0.000000,0.000000,-0.000000,-2.260884,-0.418548,-0.238802,-0.000099,0.000000,-0.000000,-23.522202,-4.324763,-1.846375,-0.000784,0.000000,1.437453,-1.089152,2.525803,3.275331,1.572153,3.357378,0.000000,0.000000,-0.000000,-0.000000,-0.000000,0.000000,0.301714,-1.988570,-0.562326,-0.162798,-0.034137,-0.031174,-0.000000,-2.260884,-0.418548,-0.238802,-0.000099,0.000000,0.086273,-0.363184,0.250132,0.000025,-0.000145,-3.053806,0.000000,0.000000,0.000000,0.000000,0.000000,0.000000,-4.399270,3.726495,0.221207,-0.051665,0.077776,0.044759,0.086290,-0.363187,0.250113,0.000000,-0.000000,-3.053753,0.000000,0.000000,0.000000,0.000000,0.000000,0.000000,0,28.437500,29.250000,27.687500,31.875000,35.062500,36.187500,0.678217,7,253,253,253,253,253,253,1,0.134075,0.057461,9.519346,0.000000,1.000000,0.000000,47.497913,47.559711,0.587474,47.484600,47.398605,47.527599,47.498932,47.326939,47.398605,0,1,-0.000000,-0.000000,0.004000,0.004000,1,1,-648.008440,148.693029,19379.191695,-33.666539,-11.284693,33.969794,0.000002,0.000002,0.000002,0.000000,0.000000,0.000000,0,0,0,0,0,0,0,0,0,0.000000,0.000000,0.000000,0.000000,0.000000,0.000000,0.000000,0.000000
241555.784000,1.437494,-1.089114,2.525809,3.275377,1.572121,3.357390,0.000000,0.000000,0.000000,0.000000,0.000000,0.000000,0.000000,0.000000,0.000000,0.000000,0.000000,0.000000,-0.000000,-2.260972,-0.418595,-0.238795,-0.000100,0.000000,-0.000000,-23.523124,-4.325245,-1.846319,-0.000788,0.000000,1.437521,-1.089101,2.525861,3.275385,1.572137,3.357439,0.000000,0.000000,-0.000000,-0.000000,-0.000000,0.000000,0.307881,-1.956835,-0.509276,-0.166979,-0.029121,-0.031738,-0.000000,-2.260972,-0.418595,-0.238795,-0.000100,0.000000,0.086300,-0.363172,0.250101,0.000044,0.000103,-3.053676,0.000000,0.000000,0.000000,0.000000,0.000000,0.000000,-4.307997,3.698972,0.127283,-0.053306,0.072805,0.048073,0.086290,-0.363187,0.250113,0.000000,-0.000000,-3.053753,0.000000,0.000000,0.000000,0.000000,0.000000,0.000000,0,28.437500,29.250000,27.687500,31.875000,35.062500,36.187500,0.658789,7,253,253,253,253,253,253,1,0.210690,0.210690,9.538500,0.000000,1.000000,0.000000,47.497913,47.557919,0.661325,47.470268,47.398605,47.527599,47.527599,47.341274,47.341274,0,1,-0.000000,-0.000000,0.004000,0.004000,1,1,-648.097431,148.728292,19379.097189,-33.664472,-11.279899,33.973096,0.000002,0.000002,0.000002,0.000000,0.000000,0.000000,0,0,0,0,0,0,0,0,0,0.000000,0.000000,0.000000,0.000000,0.000000,0.000000,0.000000,0.000000
241555.786000,1.437494,-1.089114,2.525809,3.275377,1.572121,3.357390,0.000000,0.000000,0.000000,0.000000,0.000000,0.000000,0.000000,0.000000,0.000000,0.000000,0.000000,0.000000,-0.000000,-2.260967,-0.418412,-0.238807,-0.000099,0.000000,-0.000000,-23.523075,-4.323353,-1.846413,-0.000779,0.000000,1.437497,-1.089138,2.525852,3.275377,1.572124,3.357411,0.000000,0.000000,-0.000000,-0.000000,-0.000000,0.000000,0.309458,-1.932353,-0.565335,-0.157257,-0.009184,-0.041699,-0.000000,-2.260967,-0.418412,-0.238807,-0.000099,0.000000,0.086293,-0.363172,0.250116,0.000010,0.000026,-3.053728,0.000000,0.000000,0.000000,0.000000,0.000000,0.000000,-4.504184,3.439791,0.274877,-0.057596,0.077580,0.043947,0.086290,-0.363187,0.250113,0.000000,-0.000000,-3.053753,0.000000,0.000000,0.000000,0.000000,0.000000,0.000000,0,28.437500,29.250000,27.687500,31.875000,35.062500,36.187500,0.653293,7,253,253,253,253,253,253,1,0.210690,0.210690,9.538500,0.000000,1.000000,0.000000,47.501499,47.563290,0.578520,47.470268,47.412937,47.541931,47.527599,47.355606,47.355606,0,1,-0.000000,-0.000000,0.004000,0.004000,1,1,-647.879099,148.969351,19379.244894,-33.660614,-11.285026,33.968973,0.000002,0.000002,0.000002,0.000000,0.000000,0.000000,0,0,0,0,0,0,0,0,0,0.000000,0.000000,0.000000,0.000000,0.000000,0.000000,0.000000,0.000000
241555.788000,1.437494,-1.089114,2.525809,3.275377,1.572121,3.357390,0.000000,0.000000,0.000000,0.000000,0.000000,0.000000,0.000000,0.000000,0.000000,0.000000,0.000000,0.000000,-0.000000,-2.260915,-0.418490,-0.238803,-0.000098,0.000000,-0.000000,-23.522527,-4.324163,-1.846382,-0.000771,0.000000,1.437448,-1.089135,2.525820,3.275336,1.572120,3.357429,0.000000,0.000000,-0.000000,-0.000000,-0.000000,0.000000,0.324496,-1.982474,-0.524595,-0.168542,-0.027746,-0.040968,-0.000000,-2.260915,-0.418490,-0.238803,-0.000098,0.000000,0.086275,-0.363182,0.250123,-0.000015,-0.000078,-3.053759,0.000000,0.000000,0.000000,0.000000,0.000000,0.000000,-4.316091,3.362309,0.456626,-0.059957,0.074088,0.047492,0.086290,-0.363187,0.250113,0.000000,-0.000000,-3.053753,0.000000,0.000000,0.000000,0.000000,0.000000,0.000000,0,28.437500,29.250000,27.687500,31.875000,35.062500,36.187500,0.652632,7,253,253,253,253,253,253,1,0.153229,0.191536,9.500193,0.000000,1.000000,0.000000,47.509556,47.548065,0.600900,47.455936,47.398605,47.513268,47.513268,47.326939,47.355606,0,1,-0.000000,-0.000000,0.004000,0.004000,1,1,-648.059590,149.063031,19379.426816,-33.657956,-11.281749,33.972523,0.000002,0.000002,0.000002,0.000000,0.000000,0.000000,0,0,0,0,0,0,0,0,0,0.000000,0.000000,0.000000,0.000000,0.000000,0.000000,0.000000,0.000000
241555.790000,1.437494,-1.089114,2.525809,3.275377,1.572121,3.357390,0.000000,0.000000,0.000000,0.000000,0.000000,0.000000,0.000000,0.000000,0.000000,0.000000,0.000000,0.000000,0.000000,-2.260972,-0.418537,-0.238798,-0.000098,0.000000,0.000000,-23.523126,-4.324648,-1.846342,-0.000769,0.000000,1.437513,-1.089138,2.525823,3.275361,1.572115,3.357453,0.000000,0.000000,-0.000000,-0.000000,-0.000000,0.000000,0.320859,-1.964836,-0.526993,-0.159479,-0.039678,-0.041028,0.000000,-2.260972,-0.418537,-0.238798,-0.000098,0.000000,0.086299,-0.363178,0.250122,-0.000016,-0.000040,-3.053670,0.000000,0.000000,0.000000,0.000000,0.000000,0.000000,-4.588191,3.477892,0.424585,-0.056305,0.076711,0.043431,0.086290,-0.363187,0.250113,0.000000,-0.000000,-3.053753,0.000000,0.000000,0.000000,0.000000,0.000000,0.000000,0,28.437500,29.250000,27.687500,31.875000,35.062500,36.187500,0.659616,7,253,253,253,253,253,253,1,0.191536,0.153229,9.538500,0.000000,1.000000,0.000000,47.493439,47.557022,0.629992,47.470268,47.398605,47.498932,47.527599,47.326939,47.355606,0,1,-0.000000,-0.000000,0.004000,0.004000,1,1,-647.799022,148.923691,19379.394686,-33.661830,-11.284047,33.968460,0.000002,0.000002,0.000002,0.000000,0.000000,0.000000,0,0,0,0,0,0,0,0,0,0.000000,0.000000,0.000000,0.000000,0.000000,0.000000,0.000000,0.000000
