timestamp,target_q_0,target_q_1,target_q_2,target_q_3,target_q_4,target_q_5,target_qd_0,target_qd_1,target_qd_2,target_qd_3,target_qd_4,target_qd_5,target_qdd_0,target_qdd_1,target_qdd_2,target_qdd_3,target_qdd_4,target_qdd_5,target_current_0,target_current_1,target_current_2,target_current_3,target_current_4,target_current_5,target_moment_0,target_moment_1,target_moment_2,target_moment_3,target_moment_4,target_moment_5,actual_q_0,actual_q_1,actual_q_2,actual_q_3,actual_q_4,actual_q_5,actual_qd_0,actual_qd_1,actual_qd_2,actual_qd_3,actual_qd_4,actual_qd_5,actual_current_0,actual_current_1,actual_current_2,actual_current_3,actual_current_4,actual_current_5,joint_control_output_0,joint_control_output_1,joint_control_output_2,joint_control_output_3,joint_control_output_4,joint_control_output_5,actual_TCP_pose_0,actual_TCP_pose_1,actual_TCP_pose_2,actual_TCP_pose_3,actual_TCP_pose_4,actual_TCP_pose_5,actual_TCP_speed_0,actual_TCP_speed_1,actual_TCP_speed_2,actual_TCP_speed_3,actual_TCP_speed_4,actual_TCP_speed_5,actual_TCP_force_0,actual_TCP_force_1,actual_TCP_force_2,actual_TCP_force_3,actual_TCP_force_4,actual_TCP_force_5,target_TCP_pose_0,target_TCP_pose_1,target_TCP_pose_2,target_TCP_pose_3,target_TCP_pose_4,target_TCP_pose_5,target_TCP_speed_0,target_TCP_speed_1,target_TCP_speed_2,target_TCP_speed_3,target_TCP_speed_4,target_TCP_speed_5,actual_digital_input_bits,joint_temperatures_0,joint_temperatures_1,joint_temperatures_2,joint_temperatures_3,joint_temperatures_4,joint_temperatures_5,actual_execution_time,robot_mode,joint_mode_0,joint_mode_1,joint_mode_2,joint_mode_3,joint_mode_4,joint_mode_5,safety_mode,actual_tool_accelerometer_0,actual_tool_accelerometer_1,actual_tool_accelerometer_2,speed_scaling,target_speed_fraction,actual_momentum,actual_main_voltage,actual_robot_voltage,actual_robot_current,actual_joint_voltage_0,actual_joint_voltage_1,actual_joint_voltage_2,actual_joint_voltage_3,actual_joint_voltage_4,actual_joint_voltage_5,actual_digital_output_bits,runtime_state,standard_analog_input0,standard_analog_input1,standard_analog_output0,standard_analog_output1,robot_status_bits,safety_status_bits,ft_raw_wrench_0,ft_raw_wrench_1,ft_raw_wrench_2,ft_raw_wrench_3,ft_raw_wrench_4,ft_raw_wrench_5,payload_inertia_0,payload_inertia_1,payload_inertia_2,payload_inertia_3,payload_inertia_4,payload_inertia_5,output_int_register_2,output_int_register_12,output_int_register_13,output_int_register_14,output_int_register_15,output_int_register_16,output_int_register_17,output_int_register_18,output_int_register_19,output_double_register_12,output_double_register_13,output_double_register_14,output_double_register_15,output_double_register_16,output_double_register_17,output_double_register_18,output_double_register_19
241578.780000,1.437494,-1.089114,2.525809,3.275377,1.572121,3.357390,0.000000,0.000000,0.000000,0.000000,0.000000,0.000000,0.000000,0.000000,0.000000,0.000000,0.000000,0.000000,-0.000000,-2.261026,-0.418548,-0.238800,-0.000097,0.000000,-0.000000,-23.523683,-4.324761,-1.846358,-0.000766,0.000000,1.437485,-1.089110,2.525823,3.275361,1.572174,3.357402,0.000000,0.000000,-0.000000,0.000000,0.000000,0.000000,0.358022,-1.969456,-0.484313,-0.192715,-0.038127,-0.021412,-0.000000,-2.261026,-0.418548,-0.238800,-0.000097,0.000000,0.086282,-0.363182,0.250112,0.000081,-0.000013,-3.053749,0.000000,0.000000,0.000000,0.000000,0.000000,0.000000,-4.400682,3.685605,0.743875,-0.050444,0.073932,0.045690,0.086290,-0.363187,0.250113,0.000000,-0.000000,-3.053753,0.000000,0.000000,0.000000,0.000000,0.000000,0.000000,0,28.437500,29.187500,27.687500,31.875000,35.062500,36.187500,0.668856,7,253,253,253,253,253,253,1,0.191536,0.019154,9.557653,0.000000,1.000000,0.000000,47.505077,47.566872,0.661325,47.498932,47.398605,47.513268,47.527599,47.326939,47.398605,0,1,-0.000000,-0.000000,0.004000,0.004000,1,1,-648.003618,148.733598,19379.714181,-33.667421,-11.280764,33.970720,0.000002,0.000002,0.000002,0.000000,0.000000,0.000000,0,0,0,0,0,0,0,0,0,0.000000,0.000000,0.000000,0.000000,0.000000,0.000000,0.000000,0.000000
241578.782000,1.437494,-1.089114,2.525809,3.275377,1.572121,3.357390,0.000000,0.000000,0.000000,0.000000,0.000000,0.000000,0.000000,0.000000,0.000000,0.000000,0.000000,0.000000,0.000000,-2.261015,-0.418491,-0.238802,-0.000102,0.000000,0.000000,-23.523570,-4.324169,-1.846372,-0.000800,0.000000,1.437505,-1.089115,2.525840,3.275365,1.572137,3.357341,0.000000,0.000000,-0.000000,0.000000,0.000000,0.000000,0.324681,-1.969044,-0.512632,-0.181863,-0.023196,-0.043296,0.000000,-2.261015,-0.418491,-0.238802,-0.000102,0.000000,0.086294,-0.363176,0.250110,0.000029,0.000022,-3.053791,0.000000,0.000000,0.000000,0.000000,0.000000,0.000000,-4.518821,3.528429,0.603410,-0.057617,0.079579,0.046573,0.086290,-0.363187,0.250113,0.000000,-0.000000,-3.053753,0.000000,0.000000,0.000000,0.000000,0.000000,0.000000,0,28.437500,29.187500,27.687500,31.875000,35.062500,36.187500,0.651120,7,253,253,253,253,253,253,1,0.229843,0.153229,9.500193,0.000000,1.000000,0.000000,47.498810,47.554333,0.645659,47.455936,47.412937,47.498932,47.484600,47.312607,47.384270,0,1,-0.000000,-0.000000,0.004000,0.004000,1,1,-647.872034,148.880020,19379.573490,-33.660765,-11.287016,33.971600,0.000002,0.000002,0.000002,0.000000,0.000000,0.000000,0,0,0,0,0,0,0,0,0,0.000000,0.000000,0.000000,0.000000,0.000000,0.000000,0.000000,0.000000
241578.784000,1.437494,-1.089114,2.525809,3.275377,1.572121,3.357390,0.000000,0.000000,0.000000,0.000000,0.000000,0.000000,0.000000,0.000000,0.000000,0.000000,0.000000,0.000000,-0.000000,-2.260979,-0.418470,-0.238803,-0.000099,0.000000,-0.000000,-23.523193,-4.323952,-1.846382,-0.000779,0.000000,1.437460,-1.089156,2.525827,3.275314,1.572115,3.357423,0.000000,0.000000,-0.000000,0.000000,0.000000,0.000000,0.352254,-1.970313,-0.525099,-0.187244,-0.025298,-0.040306,-0.000000,-2.260979,-0.418470,-0.238803,-0.000099,0.000000,0.086280,-0.363175,0.250132,-0.000031,-0.000129,-3.053753,0.000000,0.000000,0.000000,0.000000,0.000000,0.000000,-4.364554,3.629145,0.784197,-0.058630,0.074743,0.043769,0.086290,-0.363187,0.250113,0.000000,-0.000000,-3.053753,0.000000,0.000000,0.000000,0.000000,0.000000,0.000000,0,28.437500,29.187500,27.687500,31.875000,35.062500,36.187500,0.653268,7,253,253,253,253,253,253,1,0.153229,0.076614,9.481039,0.000000,1.000000,0.000000,47.512241,47.576725,0.576284,47.498932,47.412937,47.513268,47.513268,47.341274,47.384270,0,1,-0.000000,-0.000000,0.004000,0.004000,1,1,-648.034762,148.792910,19379.754483,-33.659336,-11.282284,33.968802,0.000002,0.000002,0.000002,0.000000,0.000000,0.000000,0,0,0,0,0,0,0,0,0,0.000000,0.000000,0.000000,0.000000,0.000000,0.000000,0.000000,0.000000
241578.786000,1.437494,-1.089114,2.525809,3.275377,1.572121,3.357390,0.000000,0.000000,0.000000,0.000000,0.000000,0.000000,0.000000,0.000000,0.000000,0.000000,0.000000,0.000000,-0.000000,-2.260922,-0.418559,-0.238795,-0.000097,0.000000,-0.000000,-23.522598,-4.324873,-1.846322,-0.000766,0.000000,1.437460,-1.089156,2.525816,3.275389,1.572120,3.357411,0.000000,0.000000,-0.000000,0.000000,0.000000,0.000000,0.368609,-1.967408,-0.510740,-0.193066,-0.037348,-0.028970,-0.000000,-2.260922,-0.418559,-0.238795,-0.000097,0.000000,0.086279,-0.363186,0.250126,-0.000008,-0.000036,-3.053765,0.000000,0.000000,0.000000,0.000000,0.000000,0.000000,-4.293094,3.716254,1.082468,-0.055670,0.074704,0.047924,0.086290,-0.363187,0.250113,0.000000,-0.000000,-3.053753,0.000000,0.000000,0.000000,0.000000,0.000000,0.000000,0,28.437500,29.187500,27.687500,31.875000,35.062500,36.187500,0.652296,7,253,253,253,253,253,253,1,0.287304,0.210690,9.595961,0.000000,1.000000,0.000000,47.540901,47.581200,0.629992,47.470268,47.341274,47.556267,47.527599,47.355606,47.384270,0,1,-0.000000,-0.000000,0.004000,0.004000,1,1,-648.113507,148.712559,19380.052588,-33.662279,-11.281988,33.972953,0.000002,0.000002,0.000002,0.000000,0.000000,0.000000,0,0,0,0,0,0,0,0,0,0.000000,0.000000,0.000000,0.000000,0.000000,0.000000,0.000000,0.000000
241578.786000,1.437494,-1.089114,2.525809,3.275377,1.572121,3.357390,0.000000,0.000000,0.000000,0.000000,0.000000,0.000000,0.000000,0.000000,0.000000,0.000000,0.000000,0.000000,-0.000000,-2.260922,-0.418559,-0.238795,-0.000097,0.000000,-0.000000,-23.522598,-4.324873,-1.846322,-0.000766,0.000000,1.437460,-1.089156,2.525816,3.275389,1.572120,3.357411,0.000000,0.000000,-0.000000,0.000000,0.000000,0.000000,0.368609,-1.967408,-0.510740,-0.193066,-0.037348,-0.028970,-0.000000,-2.260922,-0.418559,-0.238795,-0.000097,0.000000,0.086279,-0.363186,0.250126,-0.000008,-0.000036,-3.053765,0.000000,0.000000,0.000000,0.000000,0.000000,0.000000,-4.293094,3.716254,1.082468,-0.055670,0.074704,0.047924,0.086290,-0.363187,0.250113,0.000000,-0.000000,-3.053753,0.000000,0.000000,0.000000,0.000000,0.000000,0.000000,0,28.437500,29.187500,27.687500,31.875000,35.062500,36.187500,0.652296,7,253,253,253,253,253,253,1,0.287304,0.210690,9.595961,0.000000,1.000000,0.000000,47.540901,47.581200,0.629992,47.470268,47.341274,47.556267,47.527599,47.355606,47.384270,0,1,-0.000000,-0.000000,0.004000,0.004000,1,1,-648.113507,148.712559,19380.052588,-33.662279,-11.281988,33.972953,0.000002,0.000002,0.000002,0.000000,0.000000,0.000000,0,0,0,0,0,0,0,0,0,0.000000,0.000000,0.000000,0.000000,0.000000,0.000000,0.000000,0.000000
241578.790000,1.437494,-1.089114,2.525809,3.275377,1.572121,3.357390,0.000000,0.000000,0.000000,0.000000,0.000000,0.000000,0.000000,0.000000,0.000000,0.000000,0.000000,0.000000,0.000000,-2.260959,-0.418681,-0.238793,-0.000100,0.000000,0.000000,-23.522986,-4.326139,-1.846308,-0.000786,0.000000,1.437485,-1.089049,2.525807,3.275406,1.572141,3.357403,0.000000,0.000000,-0.000000,0.000000,0.000000,0.000000,0.320202,-1.967599,-0.524861,-0.180973,-0.026879,-0.043230,0.000000,-2.260959,-0.418681,-0.238793,-0.000100,0.000000,0.086284,-0.363197,0.250088,0.000055,0.000132,-3.053748,0.000000,0.000000,0.000000,0.000000,0.000000,0.000000,-4.618333,3.357729,0.856765,-0.060752,0.080090,0.043108,0.086290,-0.363187,0.250113,0.000000,-0.000000,-3.053753,0.000000,0.000000,0.000000,0.000000,0.000000,0.000000,0,28.437500,29.187500,27.687500,31.875000,35.062500,36.187500,0.652441,7,253,253,253,253,253,253,1,0.172383,0.134075,9.519346,0.000000,1.000000,0.000000,47.497913,47.531048,0.645659,47.455936,47.341274,47.484600,47.513268,47.269608,47.369938,0,1,-0.000000,-0.000000,0.004000,0.004000,1,1,-647.758071,149.041259,19379.826670,-33.657688,-11.287807,33.968130,0.000002,0.000002,0.000002,0.000000,0.000000,0.000000,0,0,0,0,0,0,0,0,0,0.000000,0.000000,0.000000,0.000000,0.000000,0.000000,0.000000,0.000000
241578.792000,1.437494,-1.089114,2.525809,3.275377,1.572121,3.357390,0.000000,0.000000,0.000000,0.000000,0.000000,0.000000,0.000000,0.000000,0.000000,0.000000,0.000000,0.000000,0.000000,-2.261155,-0.418415,-0.238808,-0.000099,0.000000,0.000000,-23.525031,-4.323390,-1.846425,-0.000781,0.000000,1.437448,-1.089155,2.525795,3.275335,1.572137,3.357411,0.000000,0.000000,-0.000000,0.000000,0.000000,0.000000,0.349275,-1.968050,-0.509041,-0.191269,-0.031443,-0.025789,0.000000,-2.261155,-0.418415,-0.238808,-0.000099,0.000000,0.086272,-0.363187,0.250134,-0.000002,-0.000151,-3.053777,0.000000,0.000000,0.000000,0.000000,0.000000,0.000000,-4.538070,3.623169,0.740183,-0.053887,0.079365,0.047409,0.086290,-0.363187,0.250113,0.000000,-0.000000,-3.053753,0.000000,0.000000,0.000000,0.000000,0.000000,0.000000,0,28.437500,29.187500,27.687500,31.875000,35.062500,36.187500,0.652021,7,253,253,253,253,253,253,1,0.153229,0.038307,9.481039,0.000000,1.000000,0.000000,47.526573,47.582100,0.629992,47.498932,47.384270,47.541931,47.527599,47.341274,47.412937,0,1,-0.000000,-0.000000,0.004000,0.004000,1,1,-647.861264,148.783713,19379.710605,-33.664466,-11.286471,33.972445,0.000002,0.000002,0.000002,0.000000,0.000000,0.000000,0,0,0,0,0,0,0,0,0,0.000000,0.000000,0.000000,0.000000,0.000000,0.000000,0.000000,0.000000
241578.794000,1.437494,-1.089114,2.525809,3.275377,1.572121,3.357390,0.000000,0.000000,0.000000,0.000000,0.000000,0.000000,0.000000,0.000000,0.000000,0.000000,0.000000,0.000000,0.000000,-2.260980,-0.418615,-0.238794,-0.000099,0.000000,0.000000,-23.523209,-4.325449,-1.846315,-0.000779,0.000000,1.437460,-1.089081,2.525831,3.275377,1.572115,3.357324,0.000000,0.000000,-0.000000,0.000000,0.000000,0.000000,0.329548,-1.975827,-0.539741,-0.183268,-0.035982,-0.027710,0.000000,-2.260980,-0.418615,-0.238794,-0.000099,0.000000,0.086279,-0.363187,0.250099,0.000006,0.000083,-3.053852,0.000000,0.000000,0.000000,0.000000,0.000000,0.000000,-4.286375,3.574961,0.690454,-0.054413,0.073281,0.044271,0.086290,-0.363187,0.250113,0.000000,-0.000000,-3.053753,0.000000,0.000000,0.000000,0.000000,0.000000,0.000000,0,28.437500,29.187500,27.687500,31.875000,35.062500,36.187500,0.672133,7,253,253,253,253,253,253,1,0.210690,0.114922,9.423578,0.000000,1.000000,0.000000,47.547173,47.584785,0.623279,47.498932,47.441601,47.541931,47.513268,47.269608,47.384270,0,1,-0.000000,-0.000000,0.004000,0.004000,1,1,-648.107448,148.854362,19379.660316,-33.663397,-11.280460,33.969294,0.000002,0.000002,0.000002,0.000000,0.000000,0.000000,0,0,0,0,0,0,0,0,0,0.000000,0.000000,0.000000,0.000000,0.000000,0.000000,0.000000,0.000000
241578.796000,1.437494,-1.089114,2.525809,3.275377,1.572121,3.357390,0.000000,0.000000,0.000000,0.000000,0.000000,0.000000,0.000000,0.000000,0.000000,0.000000,0.000000,0.000000,-0.000000,-2.261056,-0.418427,-0.238806,-0.000097,0.000000,-0.000000,-23.523992,-4.323511,-1.846404,-0.000766,0.000000,1.437500,-1.089168,2.525835,3.275364,1.572141,3.357406,0.000000,0.000000,-0.000000,0.000000,0.000000,0.000000,0.347875,-1.947012,-0.515105,-0.192103,-0.025079,-0.024964,-0.000000,-2.261056,-0.418427,-0.238806,-0.000097,0.000000,0.086292,-0.363173,0.250130,0.000020,-0.000068,-3.053730,0.000000,0.000000,0.000000,0.000000,0.000000,0.000000,-4.472672,3.768572,0.736294,-0.048983,0.076965,0.047677,0.086290,-0.363187,0.250113,0.000000,-0.000000,-3.053753,0.000000,0.000000,0.000000,0.000000,0.000000,0.000000,0,28.437500,29.187500,27.687500,31.875000,35.062500,36.187500,0.665472,7,253,253,253,253,253,253,1,0.268151,0.057461,9.500193,0.000000,1.000000,0.000000,47.501499,47.547173,0.641182,47.498932,47.398605,47.556267,47.484600,47.312607,47.384270,0,1,-0.000000,-0.000000,0.004000,0.004000,1,1,-647.939333,148.644498,19379.706577,-33.669143,-11.283655,33.972708,0.000002,0.000002,0.000002,0.000000,0.000000,0.000000,0,0,0,0,0,0,0,0,0,0.000000,0.000000,0.000000,0.000000,0.000000,0.000000,0.000000,0.000000
241578.798000,1.437494,-1.089114,2.525809,3.275377,1.572121,3.357390,0.000000,0.000000,0.000000,0.000000,0.000000,0.000000,0.000000,0.000000,0.000000,0.000000,0.000000,0.000000,0.000000,-2.260889,-0.418569,-0.238798,-0.000099,0.000000,0.000000,-23.522258,-4.324977,-1.846348,-0.000781,0.000000,1.437453,-1.089123,2.525835,3.275368,1.572137,3.357411,0.000000,0.000000,-0.000000,0.000000,0.000000,0.000000,0.348962,-1.964008,-0.520093,-0.193397,-0.019773,-0.030094,0.000000,-2.260889,-0.418569,-0.238798,-0.000099,0.000000,0.086275,-0.363181,0.250114,0.000027,0.000007,-3.053773,0.000000,0.000000,0.000000,0.000000,0.000000,0.000000,-4.411618,3.669006,0.883416,-0.053818,0.074227,0.048111,0.086290,-0.363187,0.250113,0.000000,-0.000000,-3.053753,0.000000,0.000000,0.000000,0.000000,0.000000,0.000000,0,28.437500,29.187500,27.687500,31.875000,35.062500,36.187500,0.652452,7,253,253,253,253,253,253,1,0.210690,0.134075,9.576807,0.000000,1.000000,0.000000,47.494331,47.529259,0.665802,47.470268,47.384270,47.470268,47.470268,47.312607,47.369938,0,1,-0.000000,-0.000000,0.004000,0.004000,1,1,-647.991231,148.749295,19379.853521,-33.664081,-11.281352,33.973139,0.000002,0.000002,0.000002,0.000000,0.000000,0.000000,0,0,0,0,0,0,0,0,0,0.000000,0.000000,0.000000,0.000000,0.000000,0.000000,0.000000,0.000000
241578.800000,1.437494,-1.089114,2.525809,3.275377,1.572121,3.357390,0.000000,0.000000,0.000000,0.000000,0.000000,0.000000,0.000000,0.000000,0.000000,0.000000,0.000000,0.000000,0.000000,-2.260970,-0.418492,-0.238802,-0.000099,0.000000,0.000000,-23.523106,-4.324185,-1.846376,-0.000779,0.000000,1.437494,-1.089098,2.525774,3.275389,1.572137,3.357328,0.000000,0.000000,-0.000000,0.000000,0.000000,0.000000,0.329531,-1.959888,-0.505854,-0.197967,-0.035220,-0.046033,0.000000,-2.260970,-0.418492,-0.238802,-0.000099,0.000000,0.086287,-0.363200,0.250112,0.000022,-0.000017,-3.053814,0.000000,0.000000,0.000000,0.000000,0.000000,0.000000,-4.402510,3.768703,0.877706,-0.051486,0.074709,0.050723,0.086290,-0.363187,0.250113,0.000000,-0.000000,-3.053753,0.000000,0.000000,0.000000,0.000000,0.000000,0.000000,0,28.437500,29.187500,27.687500,31.875000,35.062500,36.187500,0.643380,7,253,253,253,253,253,253,1,0.172383,0.153229,9.481039,0.000000,1.000000,0.000000,47.513138,47.575829,0.627756,47.484600,47.427269,47.498932,47.541931,47.326939,47.398605,0,1,-0.000000,-0.000000,0.004000,0.004000,1,1,-648.008882,148.650925,19379.847860,-33.666444,-11.281625,33.975751,0.000002,0.000002,0.000002,0.000000,0.000000,0.000000,0,0,0,0,0,0,0,0,0,0.000000,0.000000,0.000000,0.000000,0.000000,0.000000,0.000000,0.000000
241578.800000,1.437494,-1.089114,2.525809,3.275377,1.572121,3.357390,0.000000,0.000000,0.000000,0.000000,0.000000,0.000000,0.000000,0.000000,0.000000,0.000000,0.000000,0.000000,0.000000,-2.260970,-0.418492,-0.238802,-0.000099,0.000000,0.000000,-23.523106,-4.324185,-1.846376,-0.000779,0.000000,1.437494,-1.089098,2.525774,3.275389,1.572137,3.357328,0.000000,0.000000,-0.000000,0.000000,0.000000,0.000000,0.329531,-1.959888,-0.505854,-0.197967,-0.035220,-0.046033,0.000000,-2.260970,-0.418492,-0.238802,-0.000099,0.000000,0.086287,-0.363200,0.250112,0.000022,-0.000017,-3.053814,0.000000,0.000000,0.000000,0.000000,0.000000,0.000000,-4.402510,3.768703,0.877706,-0.051486,0.074709,0.050723,0.086290,-0.363187,0.250113,0.000000,-0.000000,-3.053753,0.000000,0.000000,0.000000,0.000000,0.000000,0.000000,0,28.437500,29.187500,27.687500,31.875000,35.062500,36.187500,0.643380,7,253,253,253,253,253,253,1,0.172383,0.153229,9.481039,0.000000,1.000000,0.000000,47.513138,47.575829,0.627756,47.484600,47.427269,47.498932,47.541931,47.326939,47.398605,0,1,-0.000000,-0.000000,0.004000,0.004000,1,1,-648.008882,148.650925,19379.847860,-33.666444,-11.281625,33.975751,0.000002,0.000002,0.000002,0.000000,0.000000,0.000000,0,0,0,0,0,0,0,0,0,0.000000,0.000000,0.000000,0.000000,0.000000,0.000000,0.000000,0.000000
241578.804000,1.437494,-1.089114,2.525809,3.275377,1.572121,3.357390,0.000000,0.000000,0.000000,0.000000,0.000000,0.000000,0.000000,0.000000,0.000000,0.000000,0.000000,0.000000,0.000000,-2.261008,-0.418530,-0.238803,-0.000098,0.000000,0.000000,-23.523498,-4.324578,-1.846383,-0.000769,0.000000,1.437506,-1.089082,2.525827,3.275368,1.572158,3.357374,0.000000,0.000000,-0.000000,0.000000,0.000000,0.000000,0.364214,-1.994154,-0.556149,-0.190928,-0.030212,-0.033046,0.000000,-2.261008,-0.418530,-0.238803,-0.000098,0.000000,0.086291,-0.363182,0.250100,0.000067,0.000052,-3.053757,0.000000,0.000000,0.000000,0.000000,0.000000,0.000000,-4.629575,3.552179,0.691177,-0.055246,0.079892,0.047030,0.086290,-0.363187,0.250113,0.000000,-0.000000,-3.053753,0.000000,0.000000,0.000000,0.000000,0.000000,0.000000,0,28.437500,29.187500,27.687500,31.875000,35.062500,36.187500,0.644040,7,253,253,253,253,253,253,1,0.268151,0.134075,9.442732,0.000000,1.000000,0.000000,47.516720,47.552544,0.641182,47.470268,47.412937,47.513268,47.556267,47.326939,47.412937,0,1,-0.000000,-0.000000,0.004000,0.004000,1,1,-647.763881,148.846535,19379.661294,-33.663157,-11.287124,33.972057,0.000002,0.000002,0.000002,0.000000,0.000000,0.000000,0,0,0,0,0,0,0,0,0,0.000000,0.000000,0.000000,0.000000,0.000000,0.000000,0.000000,0.000000
241578.806000,1.437494,-1.089114,2.525809,3.275377,1.572121,3.357390,0.000000,0.000000,0.000000,0.000000,0.000000,0.000000,0.000000,0.000000,0.000000,0.000000,0.000000,0.000000,0.000000,-2.261060,-0.418434,-0.238805,-0.000100,0.000000,0.000000,-23.524033,-4.323586,-1.846396,-0.000791,0.000000,1.437490,-1.089107,2.525816,3.275345,1.572099,3.357432,0.000000,0.000000,-0.000000,0.000000,0.000000,0.000000,0.360117,-1.961651,-0.539312,-0.188647,-0.021764,-0.025556,0.000000,-2.261060,-0.418434,-0.238805,-0.000100,0.000000,0.086291,-0.363183,0.250113,-0.000038,-0.000023,-3.053715,0.000000,0.000000,0.000000,0.000000,0.000000,0.000000,-4.601284,3.701180,0.754504,-0.051057,0.079952,0.051090,0.086290,-0.363187,0.250113,0.000000,-0.000000,-3.053753,0.000000,0.000000,0.000000,0.000000,0.000000,0.000000,0,28.437500,29.187500,27.687500,31.875000,35.062500,36.187500,0.651576,7,253,253,253,253,253,253,1,0.172383,0.134075,9.500193,0.000000,1.000000,0.000000,47.512241,47.572247,0.612089,47.498932,47.427269,47.527599,47.556267,47.326939,47.384270,0,1,-0.000000,-0.000000,0.004000,0.004000,1,1,-647.805424,148.700334,19379.724503,-33.667337,-11.286813,33.976117,0.000002,0.000002,0.000002,0.000000,0.000000,0.000000,0,0,0,0,0,0,0,0,0,0.000000,0.000000,0.000000,0.000000,0.000000,0.000000,0.000000,0.000000
241578.808000,1.437494,-1.089114,2.525809,3.275377,1.572121,3.357390,0.000000,0.000000,0.000000,0.000000,0.000000,0.000000,0.000000,0.000000,0.000000,0.000000,0.000000,0.000000,-0.000000,-2.261032,-0.418496,-0.238800,-0.000096,0.000000,-0.000000,-23.523745,-4.324224,-1.846361,-0.000757,0.000000,1.437480,-1.089081,2.525861,3.275368,1.572158,3.357427,0.000000,0.000000,-0.000000,0.000000,0.000000,0.000000,0.319480,-1.927266,-0.541241,-0.196395,-0.028340,-0.028864,-0.000000,-2.261032,-0.418496,-0.238800,-0.000096,0.000000,0.086283,-0.363175,0.250095,0.000076,0.000104,-3.053729,0.000000,0.000000,0.000000,0.000000,0.000000,0.000000,-4.420036,3.643401,0.978408,-0.056147,0.071566,0.048073,0.086290,-0.363187,0.250113,0.000000,-0.000000,-3.053753,0.000000,0.000000,0.000000,0.000000,0.000000,0.000000,0,28.437500,29.187500,27.687500,31.875000,35.062500,36.187500,0.641220,7,253,253,253,253,253,253,1,0.095768,0.076614,9.538500,0.000000,1.000000,0.000000,47.511349,47.559711,0.634469,47.513268,47.398605,47.527599,47.584930,47.326939,47.384270,0,1,-0.000000,-0.000000,0.004000,0.004000,1,1,-647.980726,148.773973,19379.948409,-33.661531,-11.278913,33.973098,0.000002,0.000002,0.000002,0.000000,0.000000,0.000000,0,0,0,0,0,0,0,0,0,0.000000,0.000000,0.000000,0.000000,0.000000,0.000000,0.000000,0.000000
241578.810000,1.437494,-1.089114,2.525809,3.275377,1.572121,3.357390,0.000000,0.000000,0.000000,0.000000,0.000000,0.000000,0.000000,0.000000,0.000000,0.000000,0.000000,0.000000,-0.000000,-2.261004,-0.418375,-0.238807,-0.000100,0.000000,-0.000000,-23.523455,-4.322977,-1.846416,-0.000791,0.000000,1.437502,-1.089130,2.525799,3.275382,1.572148,3.357415,0.000000,0.000000,-0.000000,0.000000,0.000000,0.000000,0.338062,-1.877237,-0.558009,-0.181659,-0.035653,-0.027010,-0.000000,-2.261004,-0.418375,-0.238807,-0.000100,0.000000,0.086290,-0.363188,0.250120,0.000036,-0.000041,-3.053720,0.000000,0.000000,0.000000,0.000000,0.000000,0.000000,-4.469607,3.454548,0.936791,-0.059130,0.075938,0.045976,0.086290,-0.363187,0.250113,0.000000,-0.000000,-3.053753,0.000000,0.000000,0.000000,0.000000,0.000000,0.000000,0,28.437500,29.187500,27.687500,31.875000,35.062500,36.187500,0.677341,7,253,253,253,253,253,253,1,0.229843,0.076614,9.461885,0.000000,1.000000,0.000000,47.503288,47.567768,0.683705,47.513268,47.427269,47.556267,47.556267,47.326939,47.398605,0,1,-0.000000,-0.000000,0.004000,0.004000,1,1,-647.914854,148.957573,19379.907039,-33.658945,-11.283524,33.971007,0.000002,0.000002,0.000002,0.000000,0.000000,0.000000,0,0,0,0,0,0,0,0,0,0.000000,0.000000,0.000000,0.000000,0.000000,0.000000,0.000000,0.000000
241578.812000,1.437494,-1.089114,2.525809,3.275377,1.572121,3.357390,0.000000,0.000000,0.000000,0.000000,0.000000,0.000000,0.000000,0.000000,0.000000,0.000000,0.000000,0.000000,0.000000,-2.261022,-0.418568,-0.238800,-0.000100,0.000000,0.000000,-23.523643,-4.324962,-1.846359,-0.000786,0.000000,1.437502,-1.089172,2.525814,3.275415,1.572162,3.357366,0.000000,0.000000,-0.000000,0.000000,0.000000,0.000000,0.310969,-1.942160,-0.550348,-0.185217,-0.042944,-0.031483,0.000000,-2.261022,-0.418568,-0.238800,-0.000100,0.000000,0.086289,-0.363183,0.250129,0.000058,-0.000034,-3.053769,0.000000,0.000000,0.000000,0.000000,0.000000,0.000000,-4.627976,3.563181,0.738949,-0.056649,0.080399,0.047499,0.086290,-0.363187,0.250113,0.000000,-0.000000,-3.053753,0.000000,0.000000,0.000000,0.000000,0.000000,0.000000,0,28.437500,29.187500,27.687500,31.875000,35.062500,36.187500,0.644857,7,253,253,253,253,253,253,1,0.325611,0.019154,9.442732,0.000000,1.000000,0.000000,47.533737,47.562393,0.629992,47.498932,47.412937,47.556267,47.484600,47.369938,47.412937,0,1,-0.000000,-0.000000,0.004000,0.004000,1,1,-647.766406,148.835673,19379.709252,-33.661805,-11.287748,33.972530,0.000002,0.000002,0.000002,0.000000,0.000000,0.000000,0,0,0,0,0,0,0,0,0,0.000000,0.000000,0.000000,0.000000,0.000000,0.000000,0.000000,0.000000
241578.816000,1.437494,-1.089114,2.525809,3.275377,1.572121,3.357390,0.000000,0.000000,0.000000,0.000000,0.000000,0.000000,0.000000,0.000000,0.000000,0.000000,0.000000,0.000000,-0.000000,-2.261052,-0.418455,-0.238803,-0.000091,0.000000,-0.000000,-23.523958,-4.323799,-1.846382,-0.000719,0.000000,1.437456,-1.089122,2.525814,3.275377,1.572062,3.357390,0.000000,0.000000,-0.000000,0.000000,0.000000,0.000000,0.346438,-1.946399,-0.499917,-0.188968,-0.035906,-0.034771,-0.000000,-2.261052,-0.418455,-0.238803,-0.000091,0.000000,0.086282,-0.363189,0.250116,-0.000090,0.000010,-3.053791,0.000000,0.000000,0.000000,0.000000,0.000000,0.000000,-4.514802,3.528257,0.708172,-0.057792,0.078915,0.049219,0.086290,-0.363187,0.250113,0.000000,-0.000000,-3.053753,0.000000,0.000000,0.000000,0.000000,0.000000,0.000000,0,28.437500,29.187500,27.687500,31.875000,35.062500,36.187500,0.641616,7,253,253,253,253,253,253,1,0.191536,0.306458,9.385271,0.000000,1.000000,0.000000,47.545380,47.594635,0.685941,47.513268,47.441601,47.570599,47.570599,47.312607,47.412937,0,1,-0.000000,-0.000000,0.004000,0.004000,1,1,-647.876157,148.880535,19379.677943,-33.660528,-11.286367,33.974243,0.000002,0.000002,0.000002,0.000000,0.000000,0.000000,0,0,0,0,0,0,0,0,0,0.000000,0.000000,0.000000,0.000000,0.000000,0.000000,0.000000,0.000000
241578.818000,1.437494,-1.089114,2.525809,3.275377,1.572121,3.357390,0.000000,0.000000,0.000000,0.000000,0.000000,0.000000,0.000000,0.000000,0.000000,0.000000,0.000000,0.000000,-0.000000,-2.261009,-0.418527,-0.238801,-0.000093,0.000000,-0.000000,-23.523503,-4.324545,-1.846370,-0.000735,0.000000,1.437497,-1.089110,2.525814,3.275373,1.572099,3.357361,0.000000,0.000000,-0.000000,0.000000,0.000000,0.000000,0.320373,-1.959679,-0.514023,-0.188376,-0.022849,-0.028445,-0.000000,-2.261009,-0.418527,-0.238801,-0.000093,0.000000,0.086294,-0.363186,0.250112,-0.000032,0.000012,-3.053778,0.000000,0.000000,0.000000,0.000000,0.000000,0.000000,-4.413504,3.667374,0.688262,-0.053666,0.077603,0.048038,0.086290,-0.363187,0.250113,0.000000,-0.000000,-3.053753,0.000000,0.000000,0.000000,0.000000,0.000000,0.000000,0,28.437500,29.187500,27.687500,31.875000,35.062500,36.187500,0.653508,7,253,253,253,253,253,253,1,0.172383,0.287304,9.423578,0.000000,1.000000,0.000000,47.521198,47.588367,0.645659,47.484600,47.441601,47.541931,47.541931,47.341274,47.427269,0,1,-0.000000,-0.000000,0.004000,0.004000,1,1,-647.989251,148.750784,19379.658194,-33.664527,-11.284700,33.973064,0.000002,0.000002,0.000002,0.000000,0.000000,0.000000,0,0,0,0,0,0,0,0,0,0.000000,0.000000,0.000000,0.000000,0.000000,0.000000,0.000000,0.000000
241578.820000,1.437494,-1.089114,2.525809,3.275377,1.572121,3.357390,0.000000,0.000000,0.000000,0.000000,0.000000,0.000000,0.000000,0.000000,0.000000,0.000000,0.000000,0.000000,-0.000000,-2.261030,-0.418506,-0.238802,-0.000096,0.000000,-0.000000,-23.523728,-4.324329,-1.846374,-0.000757,0.000000,1.437473,-1.089127,2.525812,3.275377,1.572165,3.357362,0.000000,0.000000,-0.000000,0.000000,0.000000,0.000000,0.353139,-1.958863,-0.502020,-0.182580,-0.035566,-0.015606,-0.000000,-2.261030,-0.418506,-0.238802,-0.000096,0.000000,0.086278,-0.363187,0.250118,0.000064,-0.000028,-3.053802,0.000000,0.000000,0.000000,0.000000,0.000000,0.000000,-4.356092,3.865385,0.953212,-0.052321,0.075208,0.045855,0.086290,-0.363187,0.250113,0.000000,-0.000000,-3.053753,0.000000,0.000000,0.000000,0.000000,0.000000,0.000000,0,28.437500,29.187500,27.687500,31.875000,35.062500,36.187500,0.652248,7,253,253,253,253,253,253,1,0.210690,0.248997,9.366117,0.000000,1.000000,0.000000,47.521198,47.581200,0.612089,47.498932,47.412937,47.513268,47.541931,47.326939,47.412937,0,1,-0.000000,-0.000000,0.004000,0.004000,1,1,-648.063613,148.558622,19379.923509,-33.665659,-11.282197,33.970886,0.000002,0.000002,0.000002,0.000000,0.000000,0.000000,0,0,0,0,0,0,0,0,0,0.000000,0.000000,0.000000,0.000000,0.000000,0.000000,0.000000,0.000000
241578.820000,1.437494,-1.089114,2.525809,3.275377,1.572121,3.357390,0.000000,0.000000,0.000000,0.000000,0.000000,0.000000,0.000000,0.000000,0.000000,0.000000,0.000000,0.000000,-0.000000,-2.261030,-0.418506,-0.238802,-0.000096,0.000000,-0.000000,-23.523728,-4.324329,-1.846374,-0.000757,0.000000,1.437473,-1.089127,2.525812,3.275377,1.572165,3.357362,0.000000,0.000000,-0.000000,0.000000,0.000000,0.000000,0.353139,-1.958863,-0.502020,-0.182580,-0.035566,-0.015606,-0.000000,-2.261030,-0.418506,-0.238802,-0.000096,0.000000,0.086278,-0.363187,0.250118,0.000064,-0.000028,-3.053802,0.000000,0.000000,0.000000,0.000000,0.000000,0.000000,-4.356092,3.865385,0.953212,-0.052321,0.075208,0.045855,0.086290,-0.363187,0.250113,0.000000,-0.000000,-3.053753,0.000000,0.000000,0.000000,0.000000,0.000000,0.000000,0,28.437500,29.187500,27.687500,31.875000,35.062500,36.187500,0.652248,7,253,253,253,253,253,253,1,0.210690,0.248997,9.366117,0.000000,1.000000,0.000000,47.521198,47.581200,0.612089,47.498932,47.412937,47.513268,47.541931,47.326939,47.412937,0,1,-0.000000,-0.000000,0.004000,0.004000,1,1,-648.063613,148.558622,19379.923509,-33.665659,-11.282197,33.970886,0.000002,0.000002,0.000002,0.000000,0.000000,0.000000,0,0,0,0,0,0,0,0,0,0.000000,0.000000,0.000000,0.000000,0.000000,0.000000,0.000000,0.000000
241578.824000,1.437494,-1.089114,2.525809,3.275377,1.572121,3.357390,0.000000,0.000000,0.000000,0.000000,0.000000,0.000000,0.000000,0.000000,0.000000,0.000000,0.000000,0.000000,-0.000000,-2.260916,-0.418476,-0.238804,-0.000100,0.000000,-0.000000,-23.522533,-4.324013,-1.846389,-0.000786,0.000000,1.437506,-1.089135,2.525807,3.275352,1.572178,3.357386,0.000000,0.000000,-0.000000,0.000000,0.000000,0.000000,0.352108,-1.949236,-0.528896,-0.186350,-0.024298,-0.032045,-0.000000,-2.260916,-0.418476,-0.238804,-0.000100,0.000000,0.086289,-0.363182,0.250124,0.000074,-0.000089,-3.053745,0.000000,0.000000,0.000000,0.000000,0.000000,0.000000,-4.348919,3.723984,0.702208,-0.053547,0.072760,0.047687,0.086290,-0.363187,0.250113,0.000000,-0.000000,-3.053753,0.000000,0.000000,0.000000,0.000000,0.000000,0.000000,0,28.437500,29.187500,27.687500,31.875000,35.062500,36.187500,0.650292,7,253,253,253,253,253,253,1,0.153229,0.076614,9.500193,0.000000,1.000000,0.000000,47.515827,47.565979,0.647900,47.498932,47.427269,47.541931,47.527599,47.355606,47.384270,0,1,-0.000000,-0.000000,0.004000,0.004000,1,1,-648.058575,148.699806,19379.672688,-33.664228,-11.279866,33.972721,0.000002,0.000002,0.000002,0.000000,0.000000,0.000000,0,0,0,0,0,0,0,0,0,0.000000,0.000000,0.000000,0.000000,0.000000,0.000000,0.000000,0.000000
241578.826000,1.437494,-1.089114,2.525809,3.275377,1.572121,3.357390,0.000000,0.000000,0.000000,0.000000,0.000000,0.000000,0.000000,0.000000,0.000000,0.000000,0.000000,0.000000,-0.000000,-2.260996,-0.418561,-0.238798,-0.000102,0.000000,-0.000000,-23.523369,-4.324890,-1.846343,-0.000803,0.000000,1.437498,-1.089143,2.525881,3.275406,1.572124,3.357369,0.000000,0.000000,-0.000000,0.000000,0.000000,0.000000,0.365435,-1.979419,-0.519560,-0.187425,-0.040885,-0.025418,-0.000000,-2.260996,-0.418561,-0.238798,-0.000102,0.000000,0.086294,-0.363166,0.250110,0.000024,0.000106,-3.053769,0.000000,0.000000,0.000000,0.000000,0.000000,0.000000,-4.458679,3.755138,0.709996,-0.051591,0.075907,0.046027,0.086290,-0.363187,0.250113,0.000000,-0.000000,-3.053753,0.000000,0.000000,0.000000,0.000000,0.000000,0.000000,0,28.437500,29.187500,27.687500,31.875000,35.062500,36.187500,0.646428,7,253,253,253,253,253,253,1,0.172383,0.095768,9.481039,0.000000,1.000000,0.000000,47.540005,47.578518,0.621043,47.498932,47.441601,47.541931,47.556267,47.355606,47.427269,0,1,-0.000000,-0.000000,0.004000,0.004000,1,1,-647.951917,148.659461,19379.679840,-33.666445,-11.282834,33.971050,0.000002,0.000002,0.000002,0.000000,0.000000,0.000000,0,0,0,0,0,0,0,0,0,0.000000,0.000000,0.000000,0.000000,0.000000,0.000000,0.000000,0.000000
241578.828000,1.437494,-1.089114,2.525809,3.275377,1.572121,3.357390,0.000000,0.000000,0.000000,0.000000,0.000000,0.000000,0.000000,0.000000,0.000000,0.000000,0.000000,0.000000,-0.000000,-2.260859,-0.418450,-0.238807,-0.000098,0.000000,-0.000000,-23.521947,-4.323745,-1.846413,-0.000771,0.000000,1.437448,-1.089110,2.525844,3.275385,1.572150,3.357418,0.000000,0.000000,-0.000000,0.000000,0.000000,0.000000,0.314973,-1.945193,-0.527770,-0.183920,-0.031148,-0.025911,-0.000000,-2.260859,-0.418450,-0.238807,-0.000098,0.000000,0.086272,-0.363182,0.250106,0.000057,0.000061,-3.053770,0.000000,0.000000,0.000000,0.000000,0.000000,0.000000,-4.516502,3.655501,0.930526,-0.052141,0.074451,0.048830,0.086290,-0.363187,0.250113,0.000000,-0.000000,-3.053753,0.000000,0.000000,0.000000,0.000000,0.000000,0.000000,0,28.437500,29.187500,27.687500,31.875000,35.062500,36.187500,0.646477,7,253,253,253,253,253,253,1,0.095768,0.095768,9.481039,0.000000,1.000000,0.000000,47.489853,47.557919,0.580761,47.484600,47.369938,47.484600,47.513268,47.298275,47.384270,0,1,-0.000000,-0.000000,0.004000,0.004000,1,1,-647.885549,148.753587,19379.900583,-33.665772,-11.281431,33.973856,0.000002,0.000002,0.000002,0.000000,0.000000,0.000000,0,0,0,0,0,0,0,0,0,0.000000,0.000000,0.000000,0.000000,0.000000,0.000000,0.000000,0.000000
241578.830000,1.437494,-1.089114,2.525809,3.275377,1.572121,3.357390,0.000000,0.000000,0.000000,0.000000,0.000000,0.000000,0.000000,0.000000,0.000000,0.000000,0.000000,0.000000,0.000000,-2.260980,-0.418456,-0.238805,-0.000100,0.000000,0.000000,-23.523206,-4.323806,-1.846399,-0.000786,0.000000,1.437513,-1.089159,2.525782,3.275364,1.572103,3.357411,0.000000,0.000000,-0.000000,0.000000,0.000000,0.000000,0.290151,-1.972202,-0.542116,-0.190474,-0.023445,-0.032586,0.000000,-2.260980,-0.418456,-0.238805,-0.000100,0.000000,0.086299,-0.363188,0.250135,-0.000049,-0.000126,-3.053712,0.000000,0.000000,0.000000,0.000000,0.000000,0.000000,-4.244947,3.879885,0.954972,-0.048150,0.072616,0.048313,0.086290,-0.363187,0.250113,0.000000,-0.000000,-3.053753,0.000000,0.000000,0.000000,0.000000,0.000000,0.000000,0,28.437500,29.187500,27.687500,31.875000,35.062500,36.187500,0.660277,7,253,253,253,253,253,253,1,0.210690,0.153229,9.519346,0.000000,1.000000,0.000000,47.486271,47.544483,0.634469,47.455936,47.398605,47.484600,47.484600,47.326939,47.398605,0,1,-0.000000,-0.000000,0.004000,0.004000,1,1,-648.176091,148.553487,19379.925226,-33.669591,-11.279247,33.973345,0.000002,0.000002,0.000002,0.000000,0.000000,0.000000,0,0,0,0,0,0,0,0,0,0.000000,0.000000,0.000000,0.000000,0.000000,0.000000,0.000000,0.000000
241578.832000,1.437494,-1.089114,2.525809,3.275377,1.572121,3.357390,0.000000,0.000000,0.000000,0.000000,0.000000,0.000000,0.000000,0.000000,0.000000,0.000000,0.000000,0.000000,-0.000000,-2.260997,-0.418646,-0.238795,-0.000096,0.000000,-0.000000,-23.523376,-4.325776,-1.846321,-0.000759,0.000000,1.437518,-1.089115,2.525823,3.275410,1.572158,3.357386,0.000000,0.000000,-0.000000,0.000000,0.000000,0.000000,0.347506,-1.993188,-0.520094,-0.198830,-0.024590,-0.029869,-0.000000,-2.260997,-0.418646,-0.238795,-0.000096,0.000000,0.086295,-0.363184,0.250108,0.000068,0.000059,-3.053733,0.000000,0.000000,0.000000,0.000000,0.000000,0.000000,-4.375491,3.824241,0.920783,-0.050668,0.075748,0.046584,0.086290,-0.363187,0.250113,0.000000,-0.000000,-3.053753,0.000000,0.000000,0.000000,0.000000,0.000000,0.000000,0,28.437500,29.187500,27.687500,31.875000,35.062500,36.187500,0.650233,7,253,253,253,253,253,253,1,0.248997,0.134075,9.557653,0.000000,1.000000,0.000000,47.506870,47.559711,0.625520,47.470268,47.384270,47.484600,47.527599,47.355606,47.384270,0,1,-0.000000,-0.000000,0.004000,0.004000,1,1,-648.040960,148.597714,19379.890863,-33.667356,-11.282596,33.971611,0.000002,0.000002,0.000002,0.000000,0.000000,0.000000,0,0,0,0,0,0,0,0,0,0.000000,0.000000,0.000000,0.000000,0.000000,0.000000,0.000000,0.000000
241578.834000,1.437494,-1.089114,2.525809,3.275377,1.572121,3.357390,0.000000,0.000000,0.000000,0.000000,0.000000,0.000000,0.000000,0.000000,0.000000,0.000000,0.000000,0.000000,-0.000000,-2.261010,-0.418501,-0.238805,-0.000100,0.000000,-0.000000,-23.523516,-4.324275,-1.846399,-0.000791,0.000000,1.437490,-1.089103,2.525786,3.275427,1.572162,3.357402,0.000000,0.000000,-0.000000,0.000000,0.000000,0.000000,0.304451,-1.959021,-0.548579,-0.185672,-0.018158,-0.025498,-0.000000,-2.261010,-0.418501,-0.238805,-0.000100,0.000000,0.086283,-0.363200,0.250108,0.000072,0.000045,-3.053745,0.000000,0.000000,0.000000,0.000000,0.000000,0.000000,-4.407707,3.683312,0.750417,-0.053077,0.074763,0.048095,0.086290,-0.363187,0.250113,0.000000,-0.000000,-3.053753,0.000000,0.000000,0.000000,0.000000,0.000000,0.000000,0,28.437500,29.187500,27.687500,31.875000,35.062500,36.187500,0.652548,7,253,253,253,253,253,253,1,0.210690,0.191536,9.576807,0.000000,1.000000,0.000000,47.519409,47.561501,0.607612,47.498932,47.384270,47.527599,47.541931,47.269608,47.398605,0,1,-0.000000,-0.000000,0.004000,0.004000,1,1,-647.996442,148.735313,19379.720551,-33.664869,-11.281825,33.973122,0.000002,0.000002,0.000002,0.000000,0.000000,0.000000,0,0,0,0,0,0,0,0,0,0.000000,0.000000,0.000000,0.000000,0.000000,0.000000,0.000000,0.000000
241578.836000,1.437494,-1.089114,2.525809,3.275377,1.572121,3.357390,0.000000,0.000000,0.000000,0.000000,0.000000,0.000000,0.000000,0.000000,0.000000,0.000000,0.000000,0.000000,0.000000,-2.261096,-0.418545,-0.238804,-0.000101,0.000000,0.000000,-23.524411,-4.324727,-1.846394,-0.000793,0.000000,1.437493,-1.089180,2.525807,3.275389,1.572129,3.357382,0.000000,0.000000,-0.000000,0.000000,0.000000,0.000000,0.378454,-1.955592,-0.509793,-0.204894,-0.025977,-0.031393,0.000000,-2.261096,-0.418545,-0.238804,-0.000101,0.000000,0.086290,-0.363183,0.250136,-0.000003,-0.000087,-3.053761,0.000000,0.000000,0.000000,0.000000,0.000000,0.000000,-4.201963,3.636555,0.657292,-0.057226,0.070032,0.047461,0.086290,-0.363187,0.250113,0.000000,-0.000000,-3.053753,0.000000,0.000000,0.000000,0.000000,0.000000,0.000000,0,28.437500,29.187500,27.687500,31.875000,35.062500,36.187500,0.652464,7,253,253,253,253,253,253,1,0.210690,0.038307,9.595961,0.000000,1.000000,0.000000,47.531944,47.594635,0.625520,47.498932,47.412937,47.527599,47.541931,47.384270,47.412937,0,1,-0.000000,-0.000000,0.004000,0.004000,1,1,-648.197314,148.799858,19379.627551,-33.660321,-11.277469,33.972493,0.000002,0.000002,0.000002,0.000000,0.000000,0.000000,0,0,0,0,0,0,0,0,0,0.000000,0.000000,0.000000,0.000000,0.000000,0.000000,0.000000,0.000000
241578.838000,1.437494,-1.089114,2.525809,3.275377,1.572121,3.357390,0.000000,0.000000,0.000000,0.000000,0.000000,0.000000,0.000000,0.000000,0.000000,0.000000,0.000000,0.000000,-0.000000,-2.260917,-0.418639,-0.238797,-0.000098,0.000000,-0.000000,-23.522547,-4.325703,-1.846339,-0.000774,0.000000,1.437444,-1.089152,2.525816,3.275343,1.572124,3.357378,0.000000,0.000000,-0.000000,0.000000,0.000000,0.000000,0.335993,-2.002431,-0.490181,-0.193740,-0.029665,-0.027874,-0.000000,-2.260917,-0.418639,-0.238797,-0.000098,0.000000,0.086273,-0.363183,0.250129,-0.000012,-0.000099,-3.053814,0.000000,0.000000,0.000000,0.000000,0.000000,0.000000,-4.101924,3.688011,0.890114,-0.051603,0.066908,0.047716,0.086290,-0.363187,0.250113,0.000000,-0.000000,-3.053753,0.000000,0.000000,0.000000,0.000000,0.000000,0.000000,0,28.437500,29.187500,27.687500,31.875000,35.062500,36.187500,0.649428,7,253,253,253,253,253,253,1,0.306458,0.057461,9.576807,0.000000,1.000000,0.000000,47.515827,47.559711,0.661325,47.484600,47.412937,47.541931,47.541931,47.341274,47.384270,0,1,-0.000000,-0.000000,0.004000,0.004000,1,1,-648.301275,148.757578,19379.860383,-33.665644,-11.273861,33.972747,0.000002,0.000002,0.000002,0.000000,0.000000,0.000000,0,0,0,0,0,0,0,0,0,0.000000,0.000000,0.000000,0.000000,0.000000,0.000000,0.000000,0.000000
241578.840000,1.437494,-1.089114,2.525809,3.275377,1.572121,3.357390,0.000000,0.000000,0.000000,0.000000,0.000000,0.000000,0.000000,0.000000,0.000000,0.000000,0.000000,0.000000,0.000000,-2.260951,-0.418573,-0.238797,-0.000098,0.000000,0.000000,-23.522900,-4.325017,-1.846334,-0.000771,0.000000,1.437448,-1.089074,2.525807,3.275368,1.572146,3.357414,0.000000,0.000000,-0.000000,0.000000,0.000000,0.000000,0.306120,-2.005972,-0.531414,-0.197886,-0.019468,-0.026715,0.000000,-2.260951,-0.418573,-0.238797,-0.000098,0.000000,0.086271,-0.363194,0.250101,0.000045,0.000036,-3.053774,0.000000,0.000000,0.000000,0.000000,0.000000,0.000000,-4.397813,3.723029,0.888936,-0.051363,0.075045,0.045515,0.086290,-0.363187,0.250113,0.000000,-0.000000,-3.053753,0.000000,0.000000,0.000000,0.000000,0.000000,0.000000,0,28.437500,29.187500,27.687500,31.875000,35.062500,36.187500,0.652008,7,253,253,253,253,253,253,1,0.306458,0.134075,9.481039,0.000000,1.000000,0.000000,47.505077,47.568668,0.650136,47.527599,47.412937,47.498932,47.541931,47.326939,47.412937,0,1,-0.000000,-0.000000,0.004000,0.004000,1,1,-648.009697,148.696724,19379.859018,-33.666598,-11.281953,33.970542,0.000002,0.000002,0.000002,0.000000,0.000000,0.000000,0,0,0,0,0,0,0,0,0,0.000000,0.000000,0.000000,0.000000,0.000000,0.000000,0.000000,0.000000
241578.842000,1.437494,-1.089114,2.525809,3.275377,1.572121,3.357390,0.000000,0.000000,0.000000,0.000000,0.000000,0.000000,0.000000,0.000000,0.000000,0.000000,0.000000,0.000000,0.000000,-2.261108,-0.418456,-0.238804,-0.000099,0.000000,0.000000,-23.524535,-4.323814,-1.846389,-0.000784,0.000000,1.437485,-1.089090,2.525840,3.275364,1.572144,3.357419,0.000000,0.000000,-0.000000,0.000000,0.000000,0.000000,0.350371,-1.987391,-0.527683,-0.200744,-0.020679,-0.032529,0.000000,-2.261108,-0.418456,-0.238804,-0.000099,0.000000,0.086286,-0.363180,0.250102,0.000047,0.000055,-3.053731,0.000000,0.000000,0.000000,0.000000,0.000000,0.000000,-4.366747,3.731143,0.986255,-0.048977,0.075893,0.047730,0.086290,-0.363187,0.250113,0.000000,-0.000000,-3.053753,0.000000,0.000000,0.000000,0.000000,0.000000,0.000000,0,28.437500,29.187500,27.687500,31.875000,35.062500,36.187500,0.651744,7,253,253,253,253,253,253,1,0.268151,0.057461,9.519346,0.000000,1.000000,0.000000,47.541798,47.603592,0.650136,47.527599,47.341274,47.527599,47.570599,47.355606,47.412937,0,1,-0.000000,-0.000000,0.004000,0.004000,1,1,-648.041530,148.691209,19379.956291,-33.669053,-11.282591,33.972756,0.000002,0.000002,0.000002,0.000000,0.000000,0.000000,0,0,0,0,0,0,0,0,0,0.000000,0.000000,0.000000,0.000000,0.000000,0.000000,0.000000,0.000000
241578.844000,1.437494,-1.089114,2.525809,3.275377,1.572121,3.357390,0.000000,0.000000,0.000000,0.000000,0.000000,0.000000,0.000000,0.000000,0.000000,0.000000,0.000000,0.000000,-0.000000,-2.261024,-0.418427,-0.238805,-0.000099,0.000000,-0.000000,-23.523666,-4.323506,-1.846396,-0.000783,0.000000,1.437472,-1.089122,2.525823,3.275431,1.572099,3.357369,0.000000,0.000000,-0.000000,0.000000,0.000000,0.000000,0.310592,-1.944388,-0.521512,-0.190251,-0.034336,-0.021598,-0.000000,-2.261024,-0.418427,-0.238805,-0.000099,0.000000,0.086284,-0.363190,0.250109,-0.000017,0.000095,-3.053795,0.000000,0.000000,0.000000,0.000000,0.000000,0.000000,-4.488427,3.794429,0.731993,-0.048870,0.077416,0.050787,0.086290,-0.363187,0.250113,0.000000,-0.000000,-3.053753,0.000000,0.000000,0.000000,0.000000,0.000000,0.000000,0,28.437500,29.187500,27.687500,31.875000,35.062500,36.187500,0.653952,7,253,253,253,253,253,253,1,0.210690,0.114922,9.538500,0.000000,1.000000,0.000000,47.529259,47.588367,0.567330,47.513268,47.441601,47.541931,47.556267,47.341274,47.384270,0,1,-0.000000,-0.000000,0.004000,0.004000,1,1,-647.925669,148.617808,19379.701746,-33.669285,-11.284097,33.975808,0.000002,0.000002,0.000002,0.000000,0.000000,0.000000,0,0,0,0,0,0,0,0,0,0.000000,0.000000,0.000000,0.000000,0.000000,0.000000,0.000000,0.000000
241578.844000,1.437494,-1.089114,2.525809,3.275377,1.572121,3.357390,0.000000,0.000000,0.000000,0.000000,0.000000,0.000000,0.000000,0.000000,0.000000,0.000000,0.000000,0.000000,-0.000000,-2.261024,-0.418427,-0.238805,-0.000099,0.000000,-0.000000,-23.523666,-4.323506,-1.846396,-0.000783,0.000000,1.437472,-1.089122,2.525823,3.275431,1.572099,3.357369,0.000000,0.000000,-0.000000,0.000000,0.000000,0.000000,0.310592,-1.944388,-0.521512,-0.190251,-0.034336,-0.021598,-0.000000,-2.261024,-0.418427,-0.238805,-0.000099,0.000000,0.086284,-0.363190,0.250109,-0.000017,0.000095,-3.053795,0.000000,0.000000,0.000000,0.000000,0.000000,0.000000,-4.488427,3.794429,0.731993,-0.048870,0.077416,0.050787,0.086290,-0.363187,0.250113,0.000000,-0.000000,-3.053753,0.000000,0.000000,0.000000,0.000000,0.000000,0.000000,0,28.437500,29.187500,27.687500,31.875000,35.062500,36.187500,0.653952,7,253,253,253,253,253,253,1,0.210690,0.114922,9.538500,0.000000,1.000000,0.000000,47.529259,47.588367,0.567330,47.513268,47.441601,47.541931,47.556267,47.341274,47.384270,0,1,-0.000000,-0.000000,0.004000,0.004000,1,1,-647.925669,148.617808,19379.701746,-33.669285,-11.284097,33.975808,0.000002,0.000002,0.000002,0.000000,0.000000,0.000000,0,0,0,0,0,0,0,0,0,0.000000,0.000000,0.000000,0.000000,0.000000,0.000000,0.000000,0.000000
241578.848000,1.437494,-1.089114,2.525809,3.275377,1.572121,3.357390,0.000000,0.000000,0.000000,0.000000,0.000000,0.000000,0.000000,0.000000,0.000000,0.000000,0.000000,0.000000,0.000000,-2.260931,-0.418421,-0.238805,-0.000097,0.000000,0.000000,-23.522692,-4.323450,-1.846398,-0.000764,0.000000,1.437485,-1.089098,2.525835,3.275386,1.572165,3.357374,0.000000,0.000000,-0.000000,0.000000,0.000000,0.000000,0.330558,-1.975444,-0.526495,-0.190920,-0.030829,-0.023202,0.000000,-2.260931,-0.418421,-0.238805,-0.000097,0.000000,0.086283,-0.363182,0.250103,0.000080,0.000064,-3.053777,0.000000,0.000000,0.000000,0.000000,0.000000,0.000000,-4.557296,3.300427,0.571262,-0.065500,0.076074,0.045578,0.086290,-0.363187,0.250113,0.000000,-0.000000,-3.053753,0.000000,0.000000,0.000000,0.000000,0.000000,0.000000,0,28.437500,29.187500,27.687500,31.875000,35.062500,36.187500,0.656785,7,253,253,253,253,253,253,1,0.172383,0.076614,9.461885,0.000000,1.000000,0.000000,47.484482,47.542694,0.609854,47.498932,47.398605,47.527599,47.484600,47.341274,47.384270,0,1,-0.000000,-0.000000,0.004000,0.004000,1,1,-647.813699,149.103762,19379.541396,-33.652606,-11.284219,33.970605,0.000002,0.000002,0.000002,0.000000,0.000000,0.000000,0,0,0,0,0,0,0,0,0,0.000000,0.000000,0.000000,0.000000,0.000000,0.000000,0.000000,0.000000
241578.850000,1.437494,-1.089114,2.525809,3.275377,1.572121,3.357390,0.000000,0.000000,0.000000,0.000000,0.000000,0.000000,0.000000,0.000000,0.000000,0.000000,0.000000,0.000000,0.000000,-2.261017,-0.418450,-0.238805,-0.000101,0.000000,0.000000,-23.523591,-4.323749,-1.846401,-0.000795,0.000000,1.437448,-1.089127,2.525786,3.275368,1.572141,3.357443,0.000000,0.000000,-0.000000,0.000000,0.000000,0.000000,0.294151,-1.973930,-0.532779,-0.193754,-0.031470,-0.033723,0.000000,-2.261017,-0.418450,-0.238805,-0.000101,0.000000,0.086271,-0.363196,0.250122,0.000019,-0.000073,-3.053745,0.000000,0.000000,0.000000,0.000000,0.000000,0.000000,-4.394694,3.659104,0.733127,-0.054184,0.073956,0.043579,0.086290,-0.363187,0.250113,0.000000,-0.000000,-3.053753,0.000000,0.000000,0.000000,0.000000,0.000000,0.000000,0,28.437500,29.187500,27.687500,31.875000,35.062500,36.187500,0.655741,7,253,253,253,253,253,253,1,0.210690,0.095768,9.442732,0.000000,1.000000,0.000000,47.530155,47.582996,0.627756,47.455936,47.441601,47.513268,47.541931,47.341274,47.412937,0,1,-0.000000,-0.000000,0.004000,0.004000,1,1,-648.007345,148.760442,19379.703414,-33.663697,-11.281113,33.968611,0.000002,0.000002,0.000002,0.000000,0.000000,0.000000,0,0,0,0,0,0,0,0,0,0.000000,0.000000,0.000000,0.000000,0.000000,0.000000,0.000000,0.000000
241578.852000,1.437494,-1.089114,2.525809,3.275377,1.572121,3.357390,0.000000,0.000000,0.000000,0.000000,0.000000,0.000000,0.000000,0.000000,0.000000,0.000000,0.000000,0.000000,0.000000,-2.261049,-0.418583,-0.238798,-0.000099,0.000000,0.000000,-23.523920,-4.325122,-1.846346,-0.000781,0.000000,1.437472,-1.089110,2.525795,3.275397,1.572099,3.357390,0.000000,0.000000,-0.000000,0.000000,0.000000,0.000000,0.346667,-1.983446,-0.503463,-0.191801,-0.030004,-0.030613,0.000000,-2.261049,-0.418583,-0.238798,-0.000099,0.000000,0.086284,-0.363196,0.250113,-0.000031,0.000019,-3.053774,0.000000,0.000000,0.000000,0.000000,0.000000,0.000000,-4.490157,3.706820,0.726539,-0.053941,0.074609,0.048657,0.086290,-0.363187,0.250113,0.000000,-0.000000,-3.053753,0.000000,0.000000,0.000000,0.000000,0.000000,0.000000,0,28.437500,29.187500,27.687500,31.875000,35.062500,36.187500,0.658644,7,253,253,253,253,253,253,1,0.287304,0.057461,9.423578,0.000000,1.000000,0.000000,47.536423,47.580307,0.643423,47.484600,47.441601,47.513268,47.556267,47.341274,47.384270,0,1,-0.000000,-0.000000,0.004000,0.004000,1,1,-647.916367,148.704759,19379.696453,-33.663990,-11.281742,33.973682,0.000002,0.000002,0.000002,0.000000,0.000000,0.000000,0,0,0,0,0,0,0,0,0,0.000000,0.000000,0.000000,0.000000,0.000000,0.000000,0.000000,0.000000
241578.854000,1.437494,-1.089114,2.525809,3.275377,1.572121,3.357390,0.000000,0.000000,0.000000,0.000000,0.000000,0.000000,0.000000,0.000000,0.000000,0.000000,0.000000,0.000000,0.000000,-2.261065,-0.418541,-0.238802,-0.000096,0.000000,0.000000,-23.524091,-4.324691,-1.846377,-0.000757,0.000000,1.437509,-1.089090,2.525799,3.275343,1.572120,3.357362,0.000000,0.000000,-0.000000,0.000000,0.000000,0.000000,0.373093,-1.996145,-0.503981,-0.195327,-0.030010,-0.032143,0.000000,-2.261065,-0.418541,-0.238802,-0.000096,0.000000,0.086296,-0.363188,0.250110,-0.000007,-0.000032,-3.053766,0.000000,0.000000,0.000000,0.000000,0.000000,0.000000,-4.294025,3.812367,0.754679,-0.051583,0.072204,0.044673,0.086290,-0.363187,0.250113,0.000000,-0.000000,-3.053753,0.000000,0.000000,0.000000,0.000000,0.000000,0.000000,0,28.437500,29.187500,27.687500,31.875000,35.062500,36.187500,0.654936,7,253,253,253,253,253,253,1,0.248997,0.114922,9.442732,0.000000,1.000000,0.000000,47.508659,47.569561,0.688182,47.455936,47.412937,47.556267,47.556267,47.355606,47.412937,0,1,-0.000000,-0.000000,0.004000,0.004000,1,1,-648.121010,148.616731,19379.724793,-33.666131,-11.279140,33.969701,0.000002,0.000002,0.000002,0.000000,0.000000,0.000000,0,0,0,0,0,0,0,0,0,0.000000,0.000000,0.000000,0.000000,0.000000,0.000000,0.000000,0.000000
241578.856000,1.437494,-1.089114,2.525809,3.275377,1.572121,3.357390,0.000000,0.000000,0.000000,0.000000,0.000000,0.000000,0.000000,0.000000,0.000000,0.000000,0.000000,0.000000,0.000000,-2.261093,-0.418496,-0.238800,-0.000098,0.000000,0.000000,-23.524383,-4.324223,-1.846360,-0.000769,0.000000,1.437436,-1.089131,2.525835,3.275394,1.572132,3.357386,0.000000,0.000000,-0.000000,0.000000,0.000000,0.000000,0.350746,-1.919374,-0.549107,-0.191950,-0.019048,-0.022891,0.000000,-2.261093,-0.418496,-0.238800,-0.000098,0.000000,0.086269,-0.363185,0.250114,0.000024,0.000035,-3.053814,0.000000,0.000000,0.000000,0.000000,0.000000,0.000000,-4.515250,3.812791,0.798017,-0.049010,0.078123,0.045822,0.086290,-0.363187,0.250113,0.000000,-0.000000,-3.053753,0.000000,0.000000,0.000000,0.000000,0.000000,0.000000,0,28.437500,29.187500,27.687500,31.875000,35.062500,36.187500,0.649788,7,253,253,253,253,253,253,1,0.210690,0.229843,9.519346,0.000000,1.000000,0.000000,47.540901,47.604488,0.692659,47.498932,47.398605,47.556267,47.513268,47.355606,47.384270,0,1,-0.000000,-0.000000,0.004000,0.004000,1,1,-647.900435,148.597177,19379.768044,-33.669208,-11.284811,33.970848,0.000002,0.000002,0.000002,0.000000,0.000000,0.000000,0,0,0,0,0,0,0,0,0,0.000000,0.000000,0.000000,0.000000,0.000000,0.000000,0.000000,0.000000
241578.858000,1.437494,-1.089114,2.525809,3.275377,1.572121,3.357390,0.000000,0.000000,0.000000,0.000000,0.000000,0.000000,0.000000,0.000000,0.000000,0.000000,0.000000,0.000000,-0.000000,-2.260958,-0.418507,-0.238803,-0.000098,0.000000,-0.000000,-23.522976,-4.324336,-1.846387,-0.000776,0.000000,1.437506,-1.089131,2.525803,3.275356,1.572120,3.357374,0.000000,0.000000,-0.000000,0.000000,0.000000,0.000000,0.324437,-1.927313,-0.517350,-0.184920,-0.023918,-0.040620,-0.000000,-2.260958,-0.418507,-0.238803,-0.000098,0.000000,0.086295,-0.363184,0.250123,-0.000013,-0.000067,-3.053757,0.000000,0.000000,0.000000,0.000000,0.000000,0.000000,-4.465626,3.599605,0.677088,-0.055209,0.074859,0.045314,0.086290,-0.363187,0.250113,0.000000,-0.000000,-3.053753,0.000000,0.000000,0.000000,0.000000,0.000000,0.000000,0,28.437500,29.187500,27.687500,31.875000,35.062500,36.187500,0.658788,7,253,253,253,253,253,253,1,0.210690,0.191536,9.538500,0.000000,1.000000,0.000000,47.523888,47.576725,0.676992,47.513268,47.455936,47.513268,47.570599,47.384270,47.441601,0,1,-0.000000,-0.000000,0.004000,0.004000,1,1,-647.931453,148.813543,19379.647266,-33.662753,-11.282101,33.970344,0.000002,0.000002,0.000002,0.000000,0.000000,0.000000,0,0,0,0,0,0,0,0,0,0.000000,0.000000,0.000000,0.000000,0.000000,0.000000,0.000000,0.000000
241578.860000,1.437494,-1.089114,2.525809,3.275377,1.572121,3.357390,0.000000,0.000000,0.000000,0.000000,0.000000,0.000000,0.000000,0.000000,0.000000,0.000000,0.000000,0.000000,0.000000,-2.261011,-0.418561,-0.238798,-0.000098,0.000000,0.000000,-23.523529,-4.324892,-1.846346,-0.000769,0.000000,1.437456,-1.089123,2.525794,3.275356,1.572165,3.357353,0.000000,0.000000,-0.000000,0.000000,0.000000,0.000000,0.360013,-1.933153,-0.492981,-0.188417,-0.027354,-0.033660,0.000000,-2.261011,-0.418561,-0.238798,-0.000098,0.000000,0.086272,-0.363191,0.250121,0.000055,-0.000080,-3.053828,0.000000,0.000000,0.000000,0.000000,0.000000,0.000000,-4.601097,3.493462,0.721263,-0.055408,0.079222,0.044917,0.086290,-0.363187,0.250113,0.000000,-0.000000,-3.053753,0.000000,0.000000,0.000000,0.000000,0.000000,0.000000,0,28.437500,29.187500,27.687500,31.875000,35.062500,36.187500,0.670128,7,253,253,253,253,253,253,1,0.229843,0.134075,9.519346,0.000000,1.000000,0.000000,47.533737,47.598217,0.770987,47.498932,47.441601,47.541931,47.556267,47.355606,47.341274,0,1,-0.000000,-0.000000,0.004000,0.004000,1,1,-647.786844,148.907682,19379.691664,-33.662934,-11.286462,33.969950,0.000002,0.000002,0.000002,0.000000,0.000000,0.000000,0,0,0,0,0,0,0,0,0,0.000000,0.000000,0.000000,0.000000,0.000000,0.000000,0.000000,0.000000
241578.860000,1.437494,-1.089114,2.525809,3.275377,1.572121,3.357390,0.000000,0.000000,0.000000,0.000000,0.000000,0.000000,0.000000,0.000000,0.000000,0.000000,0.000000,0.000000,0.000000,-2.261011,-0.418561,-0.238798,-0.000098,0.000000,0.000000,-23.523529,-4.324892,-1.846346,-0.000769,0.000000,1.437456,-1.089123,2.525794,3.275356,1.572165,3.357353,0.000000,0.000000,-0.000000,0.000000,0.000000,0.000000,0.360013,-1.933153,-0.492981,-0.188417,-0.027354,-0.033660,0.000000,-2.261011,-0.418561,-0.238798,-0.000098,0.000000,0.086272,-0.363191,0.250121,0.000055,-0.000080,-3.053828,0.000000,0.000000,0.000000,0.000000,0.000000,0.000000,-4.601097,3.493462,0.721263,-0.055408,0.079222,0.044917,0.086290,-0.363187,0.250113,0.000000,-0.000000,-3.053753,0.000000,0.000000,0.000000,0.000000,0.000000,0.000000,0,28.437500,29.187500,27.687500,31.875000,35.062500,36.187500,0.670128,7,253,253,253,253,253,253,1,0.229843,0.134075,9.519346,0.000000,1.000000,0.000000,47.533737,47.598217,0.770987,47.498932,47.441601,47.541931,47.556267,47.355606,47.341274,0,1,-0.000000,-0.000000,0.004000,0.004000,1,1,-647.786844,148.907682,19379.691664,-33.662934,-11.286462,33.969950,0.000002,0.000002,0.000002,0.000000,0.000000,0.000000,0,0,0,0,0,0,0,0,0,0.000000,0.000000,0.000000,0.000000,0.000000,0.000000,0.000000,0.000000
241578.864000,1.437494,-1.089114,2.525809,3.275377,1.572121,3.357390,0.000000,0.000000,0.000000,0.000000,0.000000,0.000000,0.000000,0.000000,0.000000,0.000000,0.000000,0.000000,-0.000000,-2.261002,-0.418698,-0.238793,-0.000097,0.000000,-0.000000,-23.523432,-4.326308,-1.846309,-0.000761,0.000000,1.437469,-1.089127,2.525823,3.275401,1.572099,3.357394,0.000000,0.000000,-0.000000,0.000000,0.000000,0.000000,0.340376,-1.959316,-0.498724,-0.197211,-0.031701,-0.039601,-0.000000,-2.261002,-0.418698,-0.238793,-0.000097,0.000000,0.086284,-0.363187,0.250114,-0.000026,0.000043,-3.053773,0.000000,0.000000,0.000000,0.000000,0.000000,0.000000,-4.466925,3.508003,1.176303,-0.058720,0.074828,0.041432,0.086290,-0.363187,0.250113,0.000000,-0.000000,-3.053753,0.000000,0.000000,0.000000,0.000000,0.000000,0.000000,0,28.437500,29.187500,27.687500,31.875000,35.062500,36.187500,0.637656,7,253,253,253,253,253,253,1,0.229843,0.114922,9.481039,0.000000,1.000000,0.000000,47.514931,47.575829,0.612089,47.484600,47.398605,47.527599,47.556267,47.341274,47.384270,0,1,-0.000000,-0.000000,0.004000,0.004000,1,1,-647.922061,148.904858,19380.146174,-33.659249,-11.282380,33.966456,0.000002,0.000002,0.000002,0.000000,0.000000,0.000000,0,0,0,0,0,0,0,0,0,0.000000,0.000000,0.000000,0.000000,0.000000,0.000000,0.000000,0.000000
241578.864000,1.437494,-1.089114,2.525809,3.275377,1.572121,3.357390,0.000000,0.000000,0.000000,0.000000,0.000000,0.000000,0.000000,0.000000,0.000000,0.000000,0.000000,0.000000,-0.000000,-2.261002,-0.418698,-0.238793,-0.000097,0.000000,-0.000000,-23.523432,-4.326308,-1.846309,-0.000761,0.000000,1.437469,-1.089127,2.525823,3.275401,1.572099,3.357394,0.000000,0.000000,-0.000000,0.000000,0.000000,0.000000,0.340376,-1.959316,-0.498724,-0.197211,-0.031701,-0.039601,-0.000000,-2.261002,-0.418698,-0.238793,-0.000097,0.000000,0.086284,-0.363187,0.250114,-0.000026,0.000043,-3.053773,0.000000,0.000000,0.000000,0.000000,0.000000,0.000000,-4.466925,3.508003,1.176303,-0.058720,0.074828,0.041432,0.086290,-0.363187,0.250113,0.000000,-0.000000,-3.053753,0.000000,0.000000,0.000000,0.000000,0.000000,0.000000,0,28.437500,29.187500,27.687500,31.875000,35.062500,36.187500,0.637656,7,253,253,253,253,253,253,1,0.229843,0.114922,9.481039,0.000000,1.000000,0.000000,47.514931,47.575829,0.612089,47.484600,47.398605,47.527599,47.556267,47.341274,47.384270,0,1,-0.000000,-0.000000,0.004000,0.004000,1,1,-647.922061,148.904858,19380.146174,-33.659249,-11.282380,33.966456,0.000002,0.000002,0.000002,0.000000,0.000000,0.000000,0,0,0,0,0,0,0,0,0,0.000000,0.000000,0.000000,0.000000,0.000000,0.000000,0.000000,0.000000
241578.868000,1.437494,-1.089114,2.525809,3.275377,1.572121,3.357390,0.000000,0.000000,0.000000,0.000000,0.000000,0.000000,0.000000,0.000000,0.000000,0.000000,0.000000,0.000000,-0.000000,-2.261009,-0.418647,-0.238796,-0.000100,0.000000,-0.000000,-23.523511,-4.325789,-1.846329,-0.000791,0.000000,1.437469,-1.089111,2.525819,3.275352,1.572103,3.357394,0.000000,0.000000,-0.000000,0.000000,0.000000,0.000000,0.359282,-1.948339,-0.543443,-0.193700,-0.022644,-0.027522,-0.000000,-2.261009,-0.418647,-0.238796,-0.000100,0.000000,0.086283,-0.363185,0.250114,-0.000029,-0.000016,-3.053773,0.000000,0.000000,0.000000,0.000000,0.000000,0.000000,-4.548910,3.630489,0.762117,-0.052698,0.078798,0.045029,0.086290,-0.363187,0.250113,0.000000,-0.000000,-3.053753,0.000000,0.000000,0.000000,0.000000,0.000000,0.000000,0,28.437500,29.187500,27.687500,31.875000,35.062500,36.187500,0.661585,7,253,253,253,253,253,253,1,0.153229,0.114922,9.519346,0.000000,1.000000,0.000000,47.508659,47.577621,0.659090,47.541931,47.441601,47.556267,47.556267,47.355606,47.427269,0,1,-0.000000,-0.000000,0.004000,0.004000,1,1,-647.851147,148.775601,19379.732123,-33.665596,-11.285805,33.970056,0.000002,0.000002,0.000002,0.000000,0.000000,0.000000,0,0,0,0,0,0,0,0,0,0.000000,0.000000,0.000000,0.000000,0.000000,0.000000,0.000000,0.000000
241578.870000,1.437494,-1.089114,2.525809,3.275377,1.572121,3.357390,0.000000,0.000000,0.000000,0.000000,0.000000,0.000000,0.000000,0.000000,0.000000,0.000000,0.000000,0.000000,0.000000,-2.261020,-0.418499,-0.238800,-0.000096,0.000000,0.000000,-23.523621,-4.324258,-1.846364,-0.000759,0.000000,1.437513,-1.089119,2.525816,3.275382,1.572087,3.357378,0.000000,0.000000,-0.000000,0.000000,0.000000,0.000000,0.331238,-1.920992,-0.546442,-0.177422,-0.036316,-0.017069,0.000000,-2.261020,-0.418499,-0.238800,-0.000096,0.000000,0.086301,-0.363184,0.250114,-0.000049,0.000018,-3.053745,0.000000,0.000000,0.000000,0.000000,0.000000,0.000000,-4.699864,3.606771,0.728148,-0.052409,0.084026,0.043171,0.086290,-0.363187,0.250113,0.000000,-0.000000,-3.053753,0.000000,0.000000,0.000000,0.000000,0.000000,0.000000,0,28.437500,29.187500,27.687500,31.875000,35.062500,36.187500,0.655417,7,253,253,253,253,253,253,1,0.229843,0.172383,9.423578,0.000000,1.000000,0.000000,47.512241,47.569561,0.654613,47.455936,47.398605,47.527599,47.541931,47.326939,47.412937,0,1,-0.000000,-0.000000,0.004000,0.004000,1,1,-647.698829,148.785903,19379.698008,-33.666344,-11.290990,33.968196,0.000002,0.000002,0.000002,0.000000,0.000000,0.000000,0,0,0,0,0,0,0,0,0,0.000000,0.000000,0.000000,0.000000,0.000000,0.000000,0.000000,0.000000
241578.872000,1.437494,-1.089114,2.525809,3.275377,1.572121,3.357390,0.000000,0.000000,0.000000,0.000000,0.000000,0.000000,0.000000,0.000000,0.000000,0.000000,0.000000,0.000000,0.000000,-2.261012,-0.418519,-0.238802,-0.000095,0.000000,0.000000,-23.523539,-4.324460,-1.846375,-0.000750,0.000000,1.437518,-1.089156,2.525769,3.275419,1.572103,3.357336,0.000000,0.000000,-0.000000,0.000000,0.000000,0.000000,0.300891,-1.980931,-0.543234,-0.170543,-0.025780,-0.011807,0.000000,-2.261012,-0.418519,-0.238802,-0.000095,0.000000,0.086299,-0.363197,0.250130,-0.000037,-0.000056,-3.053782,0.000000,0.000000,0.000000,0.000000,0.000000,0.000000,-4.590642,3.472682,1.016684,-0.055810,0.078105,0.040507,0.086290,-0.363187,0.250113,0.000000,-0.000000,-3.053753,0.000000,0.000000,0.000000,0.000000,0.000000,0.000000,0,28.437500,29.187500,27.687500,31.875000,35.062500,36.187500,0.663060,7,253,253,253,253,253,253,1,0.153229,0.134075,9.461885,0.000000,1.000000,0.000000,47.512241,47.576725,0.674751,47.498932,47.398605,47.556267,47.484600,47.326939,47.398605,0,1,-0.000000,-0.000000,0.004000,0.004000,1,1,-647.795704,148.929146,19379.986759,-33.662436,-11.285386,33.965535,0.000002,0.000002,0.000002,0.000000,0.000000,0.000000,0,0,0,0,0,0,0,0,0,0.000000,0.000000,0.000000,0.000000,0.000000,0.000000,0.000000,0.000000
241578.874000,1.437494,-1.089114,2.525809,3.275377,1.572121,3.357390,0.000000,0.000000,0.000000,0.000000,0.000000,0.000000,0.000000,0.000000,0.000000,0.000000,0.000000,0.000000,-0.000000,-2.261027,-0.418665,-0.238798,-0.000096,0.000000,-0.000000,-23.523694,-4.325969,-1.846349,-0.000759,0.000000,1.437453,-1.089159,2.525774,3.275322,1.572137,3.357402,0.000000,0.000000,-0.000000,0.000000,0.000000,0.000000,0.299267,-1.936781,-0.546204,-0.189043,-0.025233,-0.033433,-0.000000,-2.261027,-0.418665,-0.238798,-0.000096,0.000000,0.086273,-0.363191,0.250140,-0.000012,-0.000210,-3.053782,0.000000,0.000000,0.000000,0.000000,0.000000,0.000000,-4.365144,3.379846,0.860802,-0.059566,0.077450,0.040297,0.086290,-0.363187,0.250113,0.000000,-0.000000,-3.053753,0.000000,0.000000,0.000000,0.000000,0.000000,0.000000,0,28.437500,29.187500,27.687500,31.875000,35.062500,36.187500,0.646956,7,253,253,253,253,253,253,1,0.191536,0.038307,9.481039,0.000000,1.000000,0.000000,47.522987,47.555233,0.663561,47.498932,47.412937,47.513268,47.570599,47.355606,47.427269,0,1,-0.000000,-0.000000,0.004000,0.004000,1,1,-648.012180,149.041236,19379.831308,-33.658641,-11.285060,33.965334,0.000002,0.000002,0.000002,0.000000,0.000000,0.000000,0,0,0,0,0,0,0,0,0,0.000000,0.000000,0.000000,0.000000,0.000000,0.000000,0.000000,0.000000
241578.876000,1.437494,-1.089114,2.525809,3.275377,1.572121,3.357390,0.000000,0.000000,0.000000,0.000000,0.000000,0.000000,0.000000,0.000000,0.000000,0.000000,0.000000,0.000000,0.000000,-2.261008,-0.418658,-0.238791,-0.000099,0.000000,0.000000,-23.523496,-4.325897,-1.846293,-0.000779,0.000000,1.437490,-1.089147,2.525814,3.275385,1.572111,3.357369,0.000000,0.000000,-0.000000,0.000000,0.000000,0.000000,0.310230,-1.952863,-0.529278,-0.191748,-0.041625,-0.032540,0.000000,-2.261008,-0.418658,-0.238791,-0.000099,0.000000,0.086290,-0.363184,0.250124,-0.000021,-0.000029,-3.053777,0.000000,0.000000,0.000000,0.000000,0.000000,0.000000,-4.756046,3.525996,0.775562,-0.057398,0.085863,0.043175,0.086290,-0.363187,0.250113,0.000000,-0.000000,-3.053753,0.000000,0.000000,0.000000,0.000000,0.000000,0.000000,0,28.437500,29.187500,27.687500,31.875000,35.062500,36.187500,0.649860,7,253,253,253,253,253,253,1,0.153229,0.172383,9.500193,0.000000,1.000000,0.000000,47.514034,47.574039,0.589710,47.527599,47.384270,47.527599,47.541931,47.341274,47.412937,0,1,-0.000000,-0.000000,0.004000,0.004000,1,1,-647.635620,148.861530,19379.745621,-33.661534,-11.293255,33.968203,0.000002,0.000002,0.000002,0.000000,0.000000,0.000000,0,0,0,0,0,0,0,0,0,0.000000,0.000000,0.000000,0.000000,0.000000,0.000000,0.000000,0.000000
241578.876000,1.437494,-1.089114,2.525809,3.275377,1.572121,3.357390,0.000000,0.000000,0.000000,0.000000,0.000000,0.000000,0.000000,0.000000,0.000000,0.000000,0.000000,0.000000,0.000000,-2.261008,-0.418658,-0.238791,-0.000099,0.000000,0.000000,-23.523496,-4.325897,-1.846293,-0.000779,0.000000,1.437490,-1.089147,2.525814,3.275385,1.572111,3.357369,0.000000,0.000000,-0.000000,0.000000,0.000000,0.000000,0.310230,-1.952863,-0.529278,-0.191748,-0.041625,-0.032540,0.000000,-2.261008,-0.418658,-0.238791,-0.000099,0.000000,0.086290,-0.363184,0.250124,-0.000021,-0.000029,-3.053777,0.000000,0.000000,0.000000,0.000000,0.000000,0.000000,-4.756046,3.525996,0.775562,-0.057398,0.085863,0.043175,0.086290,-0.363187,0.250113,0.000000,-0.000000,-3.053753,0.000000,0.000000,0.000000,0.000000,0.000000,0.000000,0,28.437500,29.187500,27.687500,31.875000,35.062500,36.187500,0.649860,7,253,253,253,253,253,253,1,0.153229,0.172383,9.500193,0.000000,1.000000,0.000000,47.514034,47.574039,0.589710,47.527599,47.384270,47.527599,47.541931,47.341274,47.412937,0,1,-0.000000,-0.000000,0.004000,0.004000,1,1,-647.635620,148.861530,19379.745621,-33.661534,-11.293255,33.968203,0.000002,0.000002,0.000002,0.000000,0.000000,0.000000,0,0,0,0,0,0,0,0,0,0.000000,0.000000,0.000000,0.000000,0.000000,0.000000,0.000000,0.000000
241578.880000,1.437494,-1.089114,2.525809,3.275377,1.572121,3.357390,0.000000,0.000000,0.000000,0.000000,0.000000,0.000000,0.000000,0.000000,0.000000,0.000000,0.000000,0.000000,-0.000000,-2.261074,-0.418493,-0.238805,-0.000094,0.000000,-0.000000,-23.524187,-4.324187,-1.846402,-0.000740,0.000000,1.437424,-1.089181,2.525831,3.275406,1.572087,3.357426,0.000000,0.000000,-0.000000,0.000000,0.000000,0.000000,0.337066,-1.949517,-0.517060,-0.191646,-0.015403,-0.032943,-0.000000,-2.261074,-0.418493,-0.238805,-0.000094,0.000000,0.086270,-0.363184,0.250131,-0.000055,-0.000016,-3.053786,0.000000,0.000000,0.000000,0.000000,0.000000,0.000000,-4.294772,3.826963,0.702305,-0.050949,0.073272,0.049331,0.086290,-0.363187,0.250113,0.000000,-0.000000,-3.053753,0.000000,0.000000,0.000000,0.000000,0.000000,0.000000,0,28.437500,29.187500,27.687500,31.875000,35.062500,36.187500,0.654372,7,253,253,253,253,253,253,1,0.191536,0.114922,9.576807,0.000000,1.000000,0.000000,47.486271,47.552544,0.663561,47.484600,47.398605,47.455936,47.484600,47.312607,47.412937,0,1,-0.000000,-0.000000,0.004000,0.004000,1,1,-648.121515,148.602225,19379.672249,-33.666853,-11.280146,33.974357,0.000002,0.000002,0.000002,0.000000,0.000000,0.000000,0,0,0,0,0,0,0,0,0,0.000000,0.000000,0.000000,0.000000,0.000000,0.000000,0.000000,0.000000
241578.880000,1.437494,-1.089114,2.525809,3.275377,1.572121,3.357390,0.000000,0.000000,0.000000,0.000000,0.000000,0.000000,0.000000,0.000000,0.000000,0.000000,0.000000,0.000000,-0.000000,-2.261074,-0.418493,-0.238805,-0.000094,0.000000,-0.000000,-23.524187,-4.324187,-1.846402,-0.000740,0.000000,1.437424,-1.089181,2.525831,3.275406,1.572087,3.357426,0.000000,0.000000,-0.000000,0.000000,0.000000,0.000000,0.337066,-1.949517,-0.517060,-0.191646,-0.015403,-0.032943,-0.000000,-2.261074,-0.418493,-0.238805,-0.000094,0.000000,0.086270,-0.363184,0.250131,-0.000055,-0.000016,-3.053786,0.000000,0.000000,0.000000,0.000000,0.000000,0.000000,-4.294772,3.826963,0.702305,-0.050949,0.073272,0.049331,0.086290,-0.363187,0.250113,0.000000,-0.000000,-3.053753,0.000000,0.000000,0.000000,0.000000,0.000000,0.000000,0,28.437500,29.187500,27.687500,31.875000,35.062500,36.187500,0.654372,7,253,253,253,253,253,253,1,0.191536,0.114922,9.576807,0.000000,1.000000,0.000000,47.486271,47.552544,0.663561,47.484600,47.398605,47.455936,47.484600,47.312607,47.412937,0,1,-0.000000,-0.000000,0.004000,0.004000,1,1,-648.121515,148.602225,19379.672249,-33.666853,-11.280146,33.974357,0.000002,0.000002,0.000002,0.000000,0.000000,0.000000,0,0,0,0,0,0,0,0,0,0.000000,0.000000,0.000000,0.000000,0.000000,0.000000,0.000000,0.000000
241578.884000,1.437494,-1.089114,2.525809,3.275377,1.572121,3.357390,0.000000,0.000000,0.000000,0.000000,0.000000,0.000000,0.000000,0.000000,0.000000,0.000000,0.000000,0.000000,-0.000000,-2.260940,-0.418563,-0.238799,-0.000096,0.000000,-0.000000,-23.522793,-4.324911,-1.846355,-0.000754,0.000000,1.437502,-1.089168,2.525843,3.275389,1.572146,3.357374,0.000000,0.000000,-0.000000,0.000000,0.000000,0.000000,0.341563,-1.962286,-0.533511,-0.191375,-0.021665,-0.045550,-0.000000,-2.260940,-0.418563,-0.238799,-0.000096,0.000000,0.086292,-0.363173,0.250126,0.000035,-0.000019,-3.053761,0.000000,0.000000,0.000000,0.000000,0.000000,0.000000,-4.310102,3.523285,0.922878,-0.058269,0.072267,0.051520,0.086290,-0.363187,0.250113,0.000000,-0.000000,-3.053753,0.000000,0.000000,0.000000,0.000000,0.000000,0.000000,0,28.437500,29.187500,27.687500,31.875000,35.062500,36.187500,0.644892,7,253,253,253,253,253,253,1,0.191536,0.172383,9.615114,0.000000,1.000000,0.000000,47.519409,47.576725,0.612089,47.527599,47.398605,47.527599,47.498932,47.355606,47.398605,0,1,-0.000000,-0.000000,0.004000,0.004000,1,1,-648.079615,148.903285,19379.893070,-33.659478,-11.279790,33.976549,0.000002,0.000002,0.000002,0.000000,0.000000,0.000000,0,0,0,0,0,0,0,0,0,0.000000,0.000000,0.000000,0.000000,0.000000,0.000000,0.000000,0.000000
241578.886000,1.437494,-1.089114,2.525809,3.275377,1.572121,3.357390,0.000000,0.000000,0.000000,0.000000,0.000000,0.000000,0.000000,0.000000,0.000000,0.000000,0.000000,0.000000,-0.000000,-2.260877,-0.418556,-0.238801,-0.000099,0.000000,-0.000000,-23.522129,-4.324847,-1.846367,-0.000784,0.000000,1.437481,-1.089097,2.525786,3.275380,1.572124,3.357398,0.000000,0.000000,-0.000000,0.000000,0.000000,0.000000,0.281968,-1.952367,-0.520110,-0.196575,-0.013653,-0.028311,-0.000000,-2.260877,-0.418556,-0.238801,-0.000099,0.000000,0.086284,-0.363197,0.250111,0.000004,-0.000007,-3.053758,0.000000,0.000000,0.000000,0.000000,0.000000,0.000000,-4.378885,3.530804,0.947537,-0.057620,0.072820,0.050204,0.086290,-0.363187,0.250113,0.000000,-0.000000,-3.053753,0.000000,0.000000,0.000000,0.000000,0.000000,0.000000,0,28.437500,29.187500,27.687500,31.875000,35.062500,36.187500,0.655141,7,253,253,253,253,253,253,1,0.268151,0.057461,9.557653,0.000000,1.000000,0.000000,47.519409,47.574039,0.609854,47.470268,47.412937,47.484600,47.513268,47.240944,47.412937,0,1,-0.000000,-0.000000,0.004000,0.004000,1,1,-648.011799,148.889762,19379.917615,-33.660171,-11.280284,33.975232,0.000002,0.000002,0.000002,0.000000,0.000000,0.000000,0,0,0,0,0,0,0,0,0,0.000000,0.000000,0.000000,0.000000,0.000000,0.000000,0.000000,0.000000
241578.888000,1.437494,-1.089114,2.525809,3.275377,1.572121,3.357390,0.000000,0.000000,0.000000,0.000000,0.000000,0.000000,0.000000,0.000000,0.000000,0.000000,0.000000,0.000000,-0.000000,-2.261103,-0.418533,-0.238801,-0.000098,0.000000,-0.000000,-23.524485,-4.324606,-1.846370,-0.000771,0.000000,1.437472,-1.089151,2.525827,3.275345,1.572112,3.357399,0.000000,0.000000,-0.000000,0.000000,0.000000,0.000000,0.381318,-1.991321,-0.570465,-0.182650,-0.022396,-0.034926,-0.000000,-2.261103,-0.418533,-0.238801,-0.000098,0.000000,0.086285,-0.363177,0.250127,-0.000026,-0.000077,-3.053765,0.000000,0.000000,0.000000,0.000000,0.000000,0.000000,-4.275967,3.669077,0.863223,-0.056783,0.073729,0.048603,0.086290,-0.363187,0.250113,0.000000,-0.000000,-3.053753,0.000000,0.000000,0.000000,0.000000,0.000000,0.000000,0,28.437500,29.187500,27.687500,31.875000,35.062500,36.187500,0.650497,7,253,253,253,253,253,253,1,0.287304,0.153229,9.538500,0.000000,1.000000,0.000000,47.488960,47.545380,0.625520,47.455936,47.398605,47.498932,47.513268,47.298275,47.384270,0,1,-0.000000,-0.000000,0.004000,0.004000,1,1,-648.126454,148.761010,19379.833394,-33.661085,-11.281113,33.973633,0.000002,0.000002,0.000002,0.000000,0.000000,0.000000,0,0,0,0,0,0,0,0,0,0.000000,0.000000,0.000000,0.000000,0.000000,0.000000,0.000000,0.000000
241578.890000,1.437494,-1.089114,2.525809,3.275377,1.572121,3.357390,0.000000,0.000000,0.000000,0.000000,0.000000,0.000000,0.000000,0.000000,0.000000,0.000000,0.000000,0.000000,0.000000,-2.260931,-0.418553,-0.238798,-0.000097,0.000000,0.000000,-23.522698,-4.324813,-1.846342,-0.000765,0.000000,1.437435,-1.089134,2.525790,3.275380,1.572148,3.357369,0.000000,0.000000,-0.000000,0.000000,0.000000,0.000000,0.295772,-1.977299,-0.530334,-0.203315,-0.022613,-0.028758,0.000000,-2.260931,-0.418553,-0.238798,-0.000097,0.000000,0.086266,-0.363196,0.250123,0.000032,-0.000062,-3.053832,0.000000,0.000000,0.000000,0.000000,0.000000,0.000000,-4.455014,3.857352,0.668165,-0.050327,0.076004,0.047926,0.086290,-0.363187,0.250113,0.000000,-0.000000,-3.053753,0.000000,0.000000,0.000000,0.000000,0.000000,0.000000,0,28.437500,29.187500,27.687500,31.875000,35.062500,36.187500,0.652284,7,253,253,253,253,253,253,1,0.268151,0.153229,9.404425,0.000000,1.000000,0.000000,47.474632,47.532845,0.650136,47.470268,47.384270,47.484600,47.498932,47.312607,47.369938,0,1,-0.000000,-0.000000,0.004000,0.004000,1,1,-647.964265,148.558033,19379.638469,-33.667712,-11.282811,33.972957,0.000002,0.000002,0.000002,0.000000,0.000000,0.000000,0,0,0,0,0,0,0,0,0,0.000000,0.000000,0.000000,0.000000,0.000000,0.000000,0.000000,0.000000
241578.890000,1.437494,-1.089114,2.525809,3.275377,1.572121,3.357390,0.000000,0.000000,0.000000,0.000000,0.000000,0.000000,0.000000,0.000000,0.000000,0.000000,0.000000,0.000000,0.000000,-2.260931,-0.418553,-0.238798,-0.000097,0.000000,0.000000,-23.522698,-4.324813,-1.846342,-0.000765,0.000000,1.437435,-1.089134,2.525790,3.275380,1.572148,3.357369,0.000000,0.000000,-0.000000,0.000000,0.000000,0.000000,0.295772,-1.977299,-0.530334,-0.203315,-0.022613,-0.028758,0.000000,-2.260931,-0.418553,-0.238798,-0.000097,0.000000,0.086266,-0.363196,0.250123,0.000032,-0.000062,-3.053832,0.000000,0.000000,0.000000,0.000000,0.000000,0.000000,-4.455014,3.857352,0.668165,-0.050327,0.076004,0.047926,0.086290,-0.363187,0.250113,0.000000,-0.000000,-3.053753,0.000000,0.000000,0.000000,0.000000,0.000000,0.000000,0,28.437500,29.187500,27.687500,31.875000,35.062500,36.187500,0.652284,7,253,253,253,253,253,253,1,0.268151,0.153229,9.404425,0.000000,1.000000,0.000000,47.474632,47.532845,0.650136,47.470268,47.384270,47.484600,47.498932,47.312607,47.369938,0,1,-0.000000,-0.000000,0.004000,0.004000,1,1,-647.964265,148.558033,19379.638469,-33.667712,-11.282811,33.972957,0.000002,0.000002,0.000002,0.000000,0.000000,0.000000,0,0,0,0,0,0,0,0,0,0.000000,0.000000,0.000000,0.000000,0.000000,0.000000,0.000000,0.000000
241578.894000,1.437494,-1.089114,2.525809,3.275377,1.572121,3.357390,0.000000,0.000000,0.000000,0.000000,0.000000,0.000000,0.000000,0.000000,0.000000,0.000000,0.000000,0.000000,0.000000,-2.261059,-0.418620,-0.238799,-0.000094,0.000000,0.000000,-23.524023,-4.325503,-1.846351,-0.000740,0.000000,1.437477,-1.089135,2.525827,3.275410,1.572137,3.357394,0.000000,0.000000,-0.000000,0.000000,0.000000,0.000000,0.366933,-1.987279,-0.529558,-0.180680,-0.026337,-0.023525,0.000000,-2.261059,-0.418620,-0.238799,-0.000094,0.000000,0.086283,-0.363185,0.250115,0.000032,0.000039,-3.053765,0.000000,0.000000,0.000000,0.000000,0.000000,0.000000,-4.279995,3.685264,0.870101,-0.052041,0.074019,0.047124,0.086290,-0.363187,0.250113,0.000000,-0.000000,-3.053753,0.000000,0.000000,0.000000,0.000000,0.000000,0.000000,0,28.437500,29.187500,27.687500,31.875000,35.062500,36.187500,0.655224,7,253,253,253,253,253,253,1,0.191536,0.153229,9.423578,0.000000,1.000000,0.000000,47.518509,47.581200,0.625520,47.513268,47.427269,47.527599,47.541931,47.341274,47.384270,0,1,-0.000000,-0.000000,0.004000,0.004000,1,1,-648.123799,148.744644,19379.840137,-33.665834,-11.280991,33.972150,0.000002,0.000002,0.000002,0.000000,0.000000,0.000000,0,0,0,0,0,0,0,0,0,0.000000,0.000000,0.000000,0.000000,0.000000,0.000000,0.000000,0.000000
241578.896000,1.437494,-1.089114,2.525809,3.275377,1.572121,3.357390,0.000000,0.000000,0.000000,0.000000,0.000000,0.000000,0.000000,0.000000,0.000000,0.000000,0.000000,0.000000,-0.000000,-2.260966,-0.418530,-0.238804,-0.000099,0.000000,-0.000000,-23.523056,-4.324575,-1.846389,-0.000779,0.000000,1.437477,-1.089119,2.525799,3.275382,1.572120,3.357362,0.000000,0.000000,-0.000000,0.000000,0.000000,0.000000,0.308649,-1.966336,-0.545363,-0.192741,-0.020730,-0.017893,-0.000000,-2.260966,-0.418530,-0.238804,-0.000099,0.000000,0.086284,-0.363192,0.250116,-0.000004,-0.000017,-3.053798,0.000000,0.000000,0.000000,0.000000,0.000000,0.000000,-4.291443,3.597016,0.838365,-0.056959,0.071077,0.043736,0.086290,-0.363187,0.250113,0.000000,-0.000000,-3.053753,0.000000,0.000000,0.000000,0.000000,0.000000,0.000000,0,28.437500,29.187500,27.687500,31.875000,35.062500,36.187500,0.642744,7,253,253,253,253,253,253,1,0.229843,0.019154,9.423578,0.000000,1.000000,0.000000,47.505077,47.548065,0.589710,47.470268,47.384270,47.484600,47.527599,47.312607,47.369938,0,1,-0.000000,-0.000000,0.004000,0.004000,1,1,-648.104561,148.831625,19379.808445,-33.660674,-11.278487,33.968764,0.000002,0.000002,0.000002,0.000000,0.000000,0.000000,0,0,0,0,0,0,0,0,0,0.000000,0.000000,0.000000,0.000000,0.000000,0.000000,0.000000,0.000000
241578.898000,1.437494,-1.089114,2.525809,3.275377,1.572121,3.357390,0.000000,0.000000,0.000000,0.000000,0.000000,0.000000,0.000000,0.000000,0.000000,0.000000,0.000000,0.000000,-0.000000,-2.261042,-0.418549,-0.238801,-0.000098,0.000000,-0.000000,-23.523850,-4.324768,-1.846365,-0.000769,0.000000,1.437485,-1.089107,2.525825,3.275319,1.572115,3.357411,0.000000,0.000000,-0.000000,0.000000,0.000000,0.000000,0.302339,-1.970469,-0.541453,-0.186861,-0.032777,-0.038564,-0.000000,-2.261042,-0.418549,-0.238801,-0.000098,0.000000,0.086289,-0.363178,0.250115,-0.000017,-0.000053,-3.053740,0.000000,0.000000,0.000000,0.000000,0.000000,0.000000,-4.290769,3.677189,0.698881,-0.052763,0.074545,0.042460,0.086290,-0.363187,0.250113,0.000000,-0.000000,-3.053753,0.000000,0.000000,0.000000,0.000000,0.000000,0.000000,0,28.437500,29.187500,27.687500,31.875000,35.062500,36.187500,0.658056,7,253,253,253,253,253,253,1,0.134075,0.076614,9.500193,0.000000,1.000000,0.000000,47.469254,47.533737,0.609854,47.470268,47.398605,47.513268,47.484600,47.312607,47.398605,0,1,-0.000000,-0.000000,0.004000,0.004000,1,1,-648.112513,148.751550,19379.669017,-33.665163,-11.281576,33.967489,0.000002,0.000002,0.000002,0.000000,0.000000,0.000000,0,0,0,0,0,0,0,0,0,0.000000,0.000000,0.000000,0.000000,0.000000,0.000000,0.000000,0.000000
241578.900000,1.437494,-1.089114,2.525809,3.275377,1.572121,3.357390,0.000000,0.000000,0.000000,0.000000,0.000000,0.000000,0.000000,0.000000,0.000000,0.000000,0.000000,0.000000,-0.000000,-2.261016,-0.418480,-0.238799,-0.000097,0.000000,-0.000000,-23.523579,-4.324056,-1.846351,-0.000766,0.000000,1.437526,-1.089135,2.525812,3.275356,1.572094,3.357406,0.000000,0.000000,-0.000000,0.000000,0.000000,0.000000,0.358719,-1.970655,-0.548488,-0.179208,-0.015094,-0.029063,-0.000000,-2.261016,-0.418480,-0.238799,-0.000097,0.000000,0.086305,-0.363180,0.250123,-0.000050,-0.000053,-3.053704,0.000000,0.000000,0.000000,0.000000,0.000000,0.000000,-4.537272,3.653704,0.736961,-0.056156,0.076981,0.046519,0.086290,-0.363187,0.250113,0.000000,-0.000000,-3.053753,0.000000,0.000000,0.000000,0.000000,0.000000,0.000000,0,28.437500,29.187500,27.687500,31.875000,35.062500,36.187500,0.641076,7,253,253,253,253,253,253,1,0.229843,0.114922,9.442732,0.000000,1.000000,0.000000,47.537323,47.600906,0.650136,47.498932,47.412937,47.498932,47.584930,47.341274,47.384270,0,1,-0.000000,-0.000000,0.004000,0.004000,1,1,-647.865083,148.753164,19379.707001,-33.661998,-11.284300,33.971547,0.000002,0.000002,0.000002,0.000000,0.000000,0.000000,0,0,0,0,0,0,0,0,0,0.000000,0.000000,0.000000,0.000000,0.000000,0.000000,0.000000,0.000000
241578.902000,1.437494,-1.089114,2.525809,3.275377,1.572121,3.357390,0.000000,0.000000,0.000000,0.000000,0.000000,0.000000,0.000000,0.000000,0.000000,0.000000,0.000000,0.000000,-0.000000,-2.260988,-0.418553,-0.238798,-0.000096,0.000000,-0.000000,-23.523291,-4.324812,-1.846349,-0.000754,0.000000,1.437518,-1.089135,2.525799,3.275368,1.572137,3.357411,0.000000,0.000000,-0.000000,0.000000,0.000000,0.000000,0.331216,-2.001035,-0.530588,-0.184117,-0.038099,-0.037244,-0.000000,-2.260988,-0.418553,-0.238798,-0.000096,0.000000,0.086297,-0.363185,0.250123,0.000014,-0.000066,-3.053708,0.000000,0.000000,0.000000,0.000000,0.000000,0.000000,-4.618297,3.738258,0.769838,-0.050950,0.079554,0.047893,0.086290,-0.363187,0.250113,0.000000,-0.000000,-3.053753,0.000000,0.000000,0.000000,0.000000,0.000000,0.000000,0,28.437500,29.187500,27.687500,31.875000,35.062500,36.187500,0.641604,7,253,253,253,253,253,253,1,0.248997,0.191536,9.423578,0.000000,1.000000,0.000000,47.537323,47.590157,0.609854,47.455936,47.441601,47.541931,47.613598,47.369938,47.441601,0,1,-0.000000,-0.000000,0.004000,0.004000,1,1,-647.791707,148.661828,19379.740095,-33.667412,-11.286408,33.972924,0.000002,0.000002,0.000002,0.000000,0.000000,0.000000,0,0,0,0,0,0,0,0,0,0.000000,0.000000,0.000000,0.000000,0.000000,0.000000,0.000000,0.000000
241578.904000,1.437494,-1.089114,2.525809,3.275377,1.572121,3.357390,0.000000,0.000000,0.000000,0.000000,0.000000,0.000000,0.000000,0.000000,0.000000,0.000000,0.000000,0.000000,0.000000,-2.261011,-0.418575,-0.238798,-0.000099,0.000000,0.000000,-23.523522,-4.325044,-1.846348,-0.000779,0.000000,1.437457,-1.089127,2.525782,3.275389,1.572146,3.357348,0.000000,0.000000,-0.000000,0.000000,0.000000,0.000000,0.344068,-1.962095,-0.573222,-0.197586,-0.025537,-0.037267,0.000000,-2.261011,-0.418575,-0.238798,-0.000099,0.000000,0.086273,-0.363198,0.250121,0.000030,-0.000050,-3.053831,0.000000,0.000000,0.000000,0.000000,0.000000,0.000000,-4.422175,3.592048,0.689875,-0.054717,0.075385,0.044211,0.086290,-0.363187,0.250113,0.000000,-0.000000,-3.053753,0.000000,0.000000,0.000000,0.000000,0.000000,0.000000,0,28.437500,29.187500,27.687500,31.875000,35.062500,36.187500,0.638461,7,253,253,253,253,253,253,1,0.268151,0.172383,9.461885,0.000000,1.000000,0.000000,47.502392,47.566872,0.665802,47.455936,47.398605,47.513268,47.527599,47.312607,47.398605,0,1,-0.000000,-0.000000,0.004000,0.004000,1,1,-647.973729,148.825205,19379.660131,-33.663284,-11.282581,33.969242,0.000002,0.000002,0.000002,0.000000,0.000000,0.000000,0,0,0,0,0,0,0,0,0,0.000000,0.000000,0.000000,0.000000,0.000000,0.000000,0.000000,0.000000
241578.906000,1.437494,-1.089114,2.525809,3.275377,1.572121,3.357390,0.000000,0.000000,0.000000,0.000000,0.000000,0.000000,0.000000,0.000000,0.000000,0.000000,0.000000,0.000000,-0.000000,-2.261057,-0.418592,-0.238799,-0.000099,0.000000,-0.000000,-23.524008,-4.325211,-1.846355,-0.000784,0.000000,1.437444,-1.089171,2.525799,3.275380,1.572137,3.357345,0.000000,0.000000,-0.000000,0.000000,0.000000,0.000000,0.339239,-1.984966,-0.519492,-0.192231,-0.020604,-0.038085,-0.000000,-2.261057,-0.418592,-0.238799,-0.000099,0.000000,0.086271,-0.363190,0.250135,0.000007,-0.000101,-3.053847,0.000000,0.000000,0.000000,0.000000,0.000000,0.000000,-4.535850,3.603904,0.737618,-0.056338,0.077662,0.045490,0.086290,-0.363187,0.250113,0.000000,-0.000000,-3.053753,0.000000,0.000000,0.000000,0.000000,0.000000,0.000000,0,28.437500,29.187500,27.687500,31.875000,35.062500,36.187500,0.643801,7,253,253,253,253,253,253,1,0.248997,0.114922,9.538500,0.000000,1.000000,0.000000,47.513138,47.553440,0.605377,47.455936,47.412937,47.556267,47.556267,47.341274,47.412937,0,1,-0.000000,-0.000000,0.004000,0.004000,1,1,-647.861495,148.803446,19379.707940,-33.661868,-11.284988,33.970523,0.000002,0.000002,0.000002,0.000000,0.000000,0.000000,0,0,0,0,0,0,0,0,0,0.000000,0.000000,0.000000,0.000000,0.000000,0.000000,0.000000,0.000000
241578.908000,1.437494,-1.089114,2.525809,3.275377,1.572121,3.357390,0.000000,0.000000,0.000000,0.000000,0.000000,0.000000,0.000000,0.000000,0.000000,0.000000,0.000000,0.000000,0.000000,-2.260946,-0.418638,-0.238797,-0.000099,0.000000,0.000000,-23.522852,-4.325687,-1.846334,-0.000779,0.000000,1.437481,-1.089151,2.525819,3.275380,1.572103,3.357390,0.000000,0.000000,-0.000000,0.000000,0.000000,0.000000,0.361657,-1.975228,-0.547533,-0.197627,-0.022562,-0.038428,0.000000,-2.260946,-0.418638,-0.238797,-0.000099,0.000000,0.086288,-0.363183,0.250125,-0.000032,-0.000032,-3.053765,0.000000,0.000000,0.000000,0.000000,0.000000,0.000000,-4.502090,3.421726,0.757040,-0.060441,0.077896,0.042721,0.086290,-0.363187,0.250113,0.000000,-0.000000,-3.053753,0.000000,0.000000,0.000000,0.000000,0.000000,0.000000,0,28.437500,29.187500,27.687500,31.875000,35.062500,36.187500,0.641893,7,253,253,253,253,253,253,1,0.172383,0.076614,9.461885,0.000000,1.000000,0.000000,47.518509,47.595535,0.656848,47.513268,47.441601,47.541931,47.541931,47.341274,47.427269,0,1,-0.000000,-0.000000,0.004000,0.004000,1,1,-647.879511,148.987616,19379.727073,-33.657805,-11.285586,33.967749,0.000002,0.000002,0.000002,0.000000,0.000000,0.000000,0,0,0,0,0,0,0,0,0,0.000000,0.000000,0.000000,0.000000,0.000000,0.000000,0.000000,0.000000
241578.910000,1.437494,-1.089114,2.525809,3.275377,1.572121,3.357390,0.000000,0.000000,0.000000,0.000000,0.000000,0.000000,0.000000,0.000000,0.000000,0.000000,0.000000,0.000000,0.000000,-2.260950,-0.418569,-0.238800,-0.000096,0.000000,0.000000,-23.522893,-4.324975,-1.846358,-0.000759,0.000000,1.437444,-1.089143,2.525777,3.275393,1.572103,3.357418,0.000000,0.000000,-0.000000,0.000000,0.000000,0.000000,0.342770,-1.943259,-0.473652,-0.191685,-0.031049,-0.023664,0.000000,-2.260950,-0.418569,-0.238800,-0.000096,0.000000,0.086273,-0.363200,0.250127,-0.000038,-0.000064,-3.053774,0.000000,0.000000,0.000000,0.000000,0.000000,0.000000,-4.302746,3.674206,0.746148,-0.052971,0.072486,0.045398,0.086290,-0.363187,0.250113,0.000000,-0.000000,-3.053753,0.000000,0.000000,0.000000,0.000000,0.000000,0.000000,0,28.437500,29.187500,27.687500,31.875000,35.062500,36.187500,0.658248,7,253,253,253,253,253,253,1,0.172383,0.134075,9.481039,0.000000,1.000000,0.000000,47.527466,47.579411,0.728464,47.513268,47.427269,47.527599,47.556267,47.369938,47.427269,0,1,-0.000000,-0.000000,0.004000,0.004000,1,1,-648.100206,148.753595,19379.716255,-33.664772,-11.279540,33.970427,0.000002,0.000002,0.000002,0.000000,0.000000,0.000000,0,0,0,0,0,0,0,0,0,0.000000,0.000000,0.000000,0.000000,0.000000,0.000000,0.000000,0.000000
241578.912000,1.437494,-1.089114,2.525809,3.275377,1.572121,3.357390,0.000000,0.000000,0.000000,0.000000,0.000000,0.000000,0.000000,0.000000,0.000000,0.000000,0.000000,0.000000,0.000000,-2.261035,-0.418627,-0.238798,-0.000096,0.000000,0.000000,-23.523780,-4.325578,-1.846345,-0.000759,0.000000,1.437460,-1.089156,2.525814,3.275347,1.572099,3.357394,0.000000,0.000000,-0.000000,0.000000,0.000000,0.000000,0.326361,-1.971521,-0.500172,-0.187243,-0.017096,-0.025506,0.000000,-2.261035,-0.418627,-0.238798,-0.000096,0.000000,0.086281,-0.363182,0.250130,-0.000051,-0.000095,-3.053782,0.000000,0.000000,0.000000,0.000000,0.000000,0.000000,-4.291578,3.573161,0.688123,-0.054401,0.071311,0.049469,0.086290,-0.363187,0.250113,0.000000,-0.000000,-3.053753,0.000000,0.000000,0.000000,0.000000,0.000000,0.000000,0,28.437500,29.187500,27.687500,31.875000,35.062500,36.187500,0.638952,7,253,253,253,253,253,253,1,0.191536,0.076614,9.366117,0.000000,1.000000,0.000000,47.513138,47.575829,0.621043,47.498932,47.412937,47.527599,47.541931,47.341274,47.455936,0,1,-0.000000,-0.000000,0.004000,0.004000,1,1,-648.102455,148.855225,19379.658270,-33.663244,-11.278493,33.974499,0.000002,0.000002,0.000002,0.000000,0.000000,0.000000,0,0,0,0,0,0,0,0,0,0.000000,0.000000,0.000000,0.000000,0.000000,0.000000,0.000000,0.000000
241578.914000,1.437494,-1.089114,2.525809,3.275377,1.572121,3.357390,0.000000,0.000000,0.000000,0.000000,0.000000,0.000000,0.000000,0.000000,0.000000,0.000000,0.000000,0.000000,-0.000000,-2.260946,-0.418583,-0.238796,-0.000096,0.000000,-0.000000,-23.522849,-4.325127,-1.846333,-0.000757,0.000000,1.437444,-1.089115,2.525810,3.275364,1.572137,3.357406,0.000000,0.000000,-0.000000,0.000000,0.000000,0.000000,0.361087,-1.976247,-0.534614,-0.184071,-0.027620,-0.027544,-0.000000,-2.260946,-0.418583,-0.238796,-0.000096,0.000000,0.086271,-0.363190,0.250115,0.000021,-0.000025,-3.053786,0.000000,0.000000,0.000000,0.000000,0.000000,0.000000,-4.481789,3.596397,0.887278,-0.054584,0.076325,0.046876,0.086290,-0.363187,0.250113,0.000000,-0.000000,-3.053753,0.000000,0.000000,0.000000,0.000000,0.000000,0.000000,0,28.437500,29.187500,27.687500,31.875000,35.062500,36.187500,0.636816,7,253,253,253,253,253,253,1,0.191536,0.095768,9.404425,0.000000,1.000000,0.000000,47.519409,47.559711,0.647900,47.527599,47.384270,47.527599,47.556267,47.326939,47.384270,0,1,-0.000000,-0.000000,0.004000,0.004000,1,1,-647.914917,148.815494,19379.857448,-33.663502,-11.283508,33.971905,0.000002,0.000002,0.000002,0.000000,0.000000,0.000000,0,0,0,0,0,0,0,0,0,0.000000,0.000000,0.000000,0.000000,0.000000,0.000000,0.000000,0.000000
241578.914000,1.437494,-1.089114,2.525809,3.275377,1.572121,3.357390,0.000000,0.000000,0.000000,0.000000,0.000000,0.000000,0.000000,0.000000,0.000000,0.000000,0.000000,0.000000,-0.000000,-2.260946,-0.418583,-0.238796,-0.000096,0.000000,-0.000000,-23.522849,-4.325127,-1.846333,-0.000757,0.000000,1.437444,-1.089115,2.525810,3.275364,1.572137,3.357406,0.000000,0.000000,-0.000000,0.000000,0.000000,0.000000,0.361087,-1.976247,-0.534614,-0.184071,-0.027620,-0.027544,-0.000000,-2.260946,-0.418583,-0.238796,-0.000096,0.000000,0.086271,-0.363190,0.250115,0.000021,-0.000025,-3.053786,0.000000,0.000000,0.000000,0.000000,0.000000,0.000000,-4.481789,3.596397,0.887278,-0.054584,0.076325,0.046876,0.086290,-0.363187,0.250113,0.000000,-0.000000,-3.053753,0.000000,0.000000,0.000000,0.000000,0.000000,0.000000,0,28.437500,29.187500,27.687500,31.875000,35.062500,36.187500,0.636816,7,253,253,253,253,253,253,1,0.191536,0.095768,9.404425,0.000000,1.000000,0.000000,47.519409,47.559711,0.647900,47.527599,47.384270,47.527599,47.556267,47.326939,47.384270,0,1,-0.000000,-0.000000,0.004000,0.004000,1,1,-647.914917,148.815494,19379.857448,-33.663502,-11.283508,33.971905,0.000002,0.000002,0.000002,0.000000,0.000000,0.000000,0,0,0,0,0,0,0,0,0,0.000000,0.000000,0.000000,0.000000,0.000000,0.000000,0.000000,0.000000
241578.918000,1.437494,-1.089114,2.525809,3.275377,1.572121,3.357390,0.000000,0.000000,0.000000,0.000000,0.000000,0.000000,0.000000,0.000000,0.000000,0.000000,0.000000,0.000000,0.000000,-2.260868,-0.418533,-0.238800,-0.000095,0.000000,0.000000,-23.522041,-4.324601,-1.846358,-0.000752,0.000000,1.437464,-1.089165,2.525812,3.275319,1.572103,3.357406,0.000000,0.000000,-0.000000,0.000000,0.000000,0.000000,0.358322,-1.952840,-0.495061,-0.194199,-0.032965,-0.027965,0.000000,-2.260868,-0.418533,-0.238800,-0.000095,0.000000,0.086283,-0.363179,0.250137,-0.000054,-0.000156,-3.053766,0.000000,0.000000,0.000000,0.000000,0.000000,0.000000,-4.518914,3.578464,0.799615,-0.053496,0.080533,0.045848,0.086290,-0.363187,0.250113,0.000000,-0.000000,-3.053753,0.000000,0.000000,0.000000,0.000000,0.000000,0.000000,0,28.437500,29.187500,27.687500,31.875000,35.062500,36.187500,0.645252,7,253,253,253,253,253,253,1,0.210690,0.038307,9.442732,0.000000,1.000000,0.000000,47.514034,47.576725,0.634469,47.484600,47.412937,47.541931,47.513268,47.312607,47.398605,0,1,-0.000000,-0.000000,0.004000,0.004000,1,1,-647.876527,148.829880,19379.769894,-33.664958,-11.287599,33.970882,0.000002,0.000002,0.000002,0.000000,0.000000,0.000000,0,0,0,0,0,0,0,0,0,0.000000,0.000000,0.000000,0.000000,0.000000,0.000000,0.000000,0.000000
241578.920000,1.437494,-1.089114,2.525809,3.275377,1.572121,3.357390,0.000000,0.000000,0.000000,0.000000,0.000000,0.000000,0.000000,0.000000,0.000000,0.000000,0.000000,0.000000,-0.000000,-2.260933,-0.418601,-0.238793,-0.000096,0.000000,-0.000000,-23.522716,-4.325310,-1.846310,-0.000759,0.000000,1.437408,-1.089147,2.525835,3.275361,1.572129,3.357378,0.000000,0.000000,-0.000000,0.000000,0.000000,0.000000,0.346767,-1.941563,-0.556613,-0.192266,-0.017520,-0.026241,-0.000000,-2.260933,-0.418601,-0.238793,-0.000096,0.000000,0.086260,-0.363182,0.250123,0.000006,-0.000038,-3.053850,0.000000,0.000000,0.000000,0.000000,0.000000,0.000000,-4.193444,3.726993,0.760584,-0.051464,0.071850,0.050796,0.086290,-0.363187,0.250113,0.000000,-0.000000,-3.053753,0.000000,0.000000,0.000000,0.000000,0.000000,0.000000,0,28.437500,29.187500,27.687500,31.875000,35.062500,36.187500,0.639672,7,253,253,253,253,253,253,1,0.153229,0.114922,9.576807,0.000000,1.000000,0.000000,47.504181,47.564190,0.594187,47.484600,47.384270,47.513268,47.470268,47.355606,47.384270,0,1,-0.000000,-0.000000,0.004000,0.004000,1,1,-648.213356,148.710918,19379.730747,-33.666213,-11.278772,33.975825,0.000002,0.000002,0.000002,0.000000,0.000000,0.000000,0,0,0,0,0,0,0,0,0,0.000000,0.000000,0.000000,0.000000,0.000000,0.000000,0.000000,0.000000
241578.922000,1.437494,-1.089114,2.525809,3.275377,1.572121,3.357390,0.000000,0.000000,0.000000,0.000000,0.000000,0.000000,0.000000,0.000000,0.000000,0.000000,0.000000,0.000000,0.000000,-2.260927,-0.418533,-0.238800,-0.000098,0.000000,0.000000,-23.522649,-4.324605,-1.846358,-0.000774,0.000000,1.437472,-1.089110,2.525835,3.275418,1.572082,3.357362,0.000000,0.000000,-0.000000,0.000000,0.000000,0.000000,0.335950,-1.918085,-0.535450,-0.196062,-0.026698,-0.023757,0.000000,-2.260927,-0.418533,-0.238800,-0.000098,0.000000,0.086287,-0.363186,0.250104,-0.000039,0.000116,-3.053802,0.000000,0.000000,0.000000,0.000000,0.000000,0.000000,-4.391422,3.801754,0.803012,-0.050688,0.077015,0.049339,0.086290,-0.363187,0.250113,0.000000,-0.000000,-3.053753,0.000000,0.000000,0.000000,0.000000,0.000000,0.000000,0,28.437500,29.187500,27.687500,31.875000,35.062500,36.187500,0.642865,7,253,253,253,253,253,253,1,0.248997,0.114922,9.557653,0.000000,1.000000,0.000000,47.502392,47.568668,0.616566,47.455936,47.398605,47.513268,47.498932,47.326939,47.384270,0,1,-0.000000,-0.000000,0.004000,0.004000,1,1,-648.022931,148.619066,19379.772652,-33.667436,-11.283855,33.974359,0.000002,0.000002,0.000002,0.000000,0.000000,0.000000,0,0,0,0,0,0,0,0,0,0.000000,0.000000,0.000000,0.000000,0.000000,0.000000,0.000000,0.000000
241578.924000,1.437494,-1.089114,2.525809,3.275377,1.572121,3.357390,0.000000,0.000000,0.000000,0.000000,0.000000,0.000000,0.000000,0.000000,0.000000,0.000000,0.000000,0.000000,-0.000000,-2.260997,-0.418473,-0.238807,-0.000095,0.000000,-0.000000,-23.523381,-4.323982,-1.846413,-0.000747,0.000000,1.437485,-1.089164,2.525782,3.275324,1.572112,3.357415,0.000000,0.000000,-0.000000,0.000000,0.000000,0.000000,0.334510,-1.973670,-0.538205,-0.197125,-0.015562,-0.018624,-0.000000,-2.260997,-0.418473,-0.238807,-0.000095,0.000000,0.086288,-0.363186,0.250140,-0.000048,-0.000195,-3.053736,0.000000,0.000000,0.000000,0.000000,0.000000,0.000000,-4.391548,3.602596,0.891380,-0.058590,0.075504,0.048945,0.086290,-0.363187,0.250113,0.000000,-0.000000,-3.053753,0.000000,0.000000,0.000000,0.000000,0.000000,0.000000,0,28.437500,29.187500,27.687500,31.875000,35.062500,36.187500,0.644917,7,253,253,253,253,253,253,1,0.268151,0.076614,9.442732,0.000000,1.000000,0.000000,47.505077,47.540901,0.625520,47.484600,47.384270,47.513268,47.484600,47.326939,47.369938,0,1,-0.000000,-0.000000,0.004000,0.004000,1,1,-648.005628,148.816862,19379.861782,-33.659445,-11.283036,33.973980,0.000002,0.000002,0.000002,0.000000,0.000000,0.000000,0,0,0,0,0,0,0,0,0,0.000000,0.000000,0.000000,0.000000,0.000000,0.000000,0.000000,0.000000
241578.926000,1.437494,-1.089114,2.525809,3.275377,1.572121,3.357390,0.000000,0.000000,0.000000,0.000000,0.000000,0.000000,0.000000,0.000000,0.000000,0.000000,0.000000,0.000000,-0.000000,-2.260986,-0.418652,-0.238792,-0.000097,0.000000,-0.000000,-23.523271,-4.325830,-1.846296,-0.000765,0.000000,1.437538,-1.089099,2.525812,3.275377,1.572103,3.357399,0.000000,0.000000,-0.000000,0.000000,0.000000,0.000000,0.333317,-1.939226,-0.548122,-0.179363,-0.014750,-0.036698,-0.000000,-2.260986,-0.418652,-0.238792,-0.000097,0.000000,0.086308,-0.363184,0.250108,-0.000021,0.000030,-3.053699,0.000000,0.000000,0.000000,0.000000,0.000000,0.000000,-4.485844,3.540526,1.026727,-0.056515,0.079138,0.045249,0.086290,-0.363187,0.250113,0.000000,-0.000000,-3.053753,0.000000,0.000000,0.000000,0.000000,0.000000,0.000000,0,28.437500,29.187500,27.687500,31.875000,35.062500,36.187500,0.640777,7,253,253,253,253,253,253,1,0.229843,0.114922,9.461885,0.000000,1.000000,0.000000,47.514931,47.569561,0.665802,47.484600,47.427269,47.541931,47.541931,47.369938,47.412937,0,1,-0.000000,-0.000000,0.004000,0.004000,1,1,-647.906357,148.870485,19379.996643,-33.661829,-11.286484,33.970273,0.000002,0.000002,0.000002,0.000000,0.000000,0.000000,0,0,0,0,0,0,0,0,0,0.000000,0.000000,0.000000,0.000000,0.000000,0.000000,0.000000,0.000000
241578.928000,1.437494,-1.089114,2.525809,3.275377,1.572121,3.357390,0.000000,0.000000,0.000000,0.000000,0.000000,0.000000,0.000000,0.000000,0.000000,0.000000,0.000000,0.000000,-0.000000,-2.261055,-0.418492,-0.238803,-0.000096,0.000000,-0.000000,-23.523987,-4.324181,-1.846382,-0.000759,0.000000,1.437439,-1.089110,2.525819,3.275347,1.572129,3.357406,0.000000,0.000000,-0.000000,0.000000,0.000000,0.000000,0.356514,-1.967520,-0.516846,-0.198893,-0.037188,-0.032913,-0.000000,-2.261055,-0.418492,-0.238803,-0.000096,0.000000,0.086270,-0.363186,0.250114,0.000008,-0.000028,-3.053791,0.000000,0.000000,0.000000,0.000000,0.000000,0.000000,-4.689876,3.201599,0.882051,-0.065715,0.081912,0.044776,0.086290,-0.363187,0.250113,0.000000,-0.000000,-3.053753,0.000000,0.000000,0.000000,0.000000,0.000000,0.000000,0,28.437500,29.187500,27.687500,31.875000,35.062500,36.187500,0.638472,7,253,253,253,253,253,253,1,0.191536,0.134075,9.519346,0.000000,1.000000,0.000000,47.509556,47.556129,0.585233,47.455936,47.398605,47.498932,47.527599,47.326939,47.369938,0,1,-0.000000,-0.000000,0.004000,0.004000,1,1,-647.673007,149.190539,19379.852185,-33.652903,-11.290049,33.969806,0.000002,0.000002,0.000002,0.000000,0.000000,0.000000,0,0,0,0,0,0,0,0,0,0.000000,0.000000,0.000000,0.000000,0.000000,0.000000,0.000000,0.000000
