timestamp,target_q_0,target_q_1,target_q_2,target_q_3,target_q_4,target_q_5,target_qd_0,target_qd_1,target_qd_2,target_qd_3,target_qd_4,target_qd_5,target_qdd_0,target_qdd_1,target_qdd_2,target_qdd_3,target_qdd_4,target_qdd_5,target_current_0,target_current_1,target_current_2,target_current_3,target_current_4,target_current_5,target_moment_0,target_moment_1,target_moment_2,target_moment_3,target_moment_4,target_moment_5,actual_q_0,actual_q_1,actual_q_2,actual_q_3,actual_q_4,actual_q_5,actual_qd_0,actual_qd_1,actual_qd_2,actual_qd_3,actual_qd_4,actual_qd_5,actual_current_0,actual_current_1,actual_current_2,actual_current_3,actual_current_4,actual_current_5,joint_control_output_0,joint_control_output_1,joint_control_output_2,joint_control_output_3,joint_control_output_4,joint_control_output_5,actual_TCP_pose_0,actual_TCP_pose_1,actual_TCP_pose_2,actual_TCP_pose_3,actual_TCP_pose_4,actual_TCP_pose_5,actual_TCP_speed_0,actual_TCP_speed_1,actual_TCP_speed_2,actual_TCP_speed_3,actual_TCP_speed_4,actual_TCP_speed_5,actual_TCP_force_0,actual_TCP_force_1,actual_TCP_force_2,actual_TCP_force_3,actual_TCP_force_4,actual_TCP_force_5,target_TCP_pose_0,target_TCP_pose_1,target_TCP_pose_2,target_TCP_pose_3,target_TCP_pose_4,target_TCP_pose_5,target_TCP_speed_0,target_TCP_speed_1,target_TCP_speed_2,target_TCP_speed_3,target_TCP_speed_4,target_TCP_speed_5,actual_digital_input_bits,joint_temperatures_0,joint_temperatures_1,joint_temperatures_2,joint_temperatures_3,joint_temperatures_4,joint_temperatures_5,actual_execution_time,robot_mode,joint_mode_0,joint_mode_1,joint_mode_2,joint_mode_3,joint_mode_4,joint_mode_5,safety_mode,actual_tool_accelerometer_0,actual_tool_accelerometer_1,actual_tool_accelerometer_2,speed_scaling,target_speed_fraction,actual_momentum,actual_main_voltage,actual_robot_voltage,actual_robot_current,actual_joint_voltage_0,actual_joint_voltage_1,actual_joint_voltage_2,actual_joint_voltage_3,actual_joint_voltage_4,actual_joint_voltage_5,actual_digital_output_bits,runtime_state,standard_analog_input0,standard_analog_input1,standard_analog_output0,standard_analog_output1,robot_status_bits,safety_status_bits,ft_raw_wrench_0,ft_raw_wrench_1,ft_raw_wrench_2,ft_raw_wrench_3,ft_raw_wrench_4,ft_raw_wrench_5,payload_inertia_0,payload_inertia_1,payload_inertia_2,payload_inertia_3,payload_inertia_4,payload_inertia_5,output_int_register_2,output_int_register_12,output_int_register_13,output_int_register_14,output_int_register_15,output_int_register_16,output_int_register_17,output_int_register_18,output_int_register_19,output_double_register_12,output_double_register_13,output_double_register_14,output_double_register_15,output_double_register_16,output_double_register_17,output_double_register_18,output_double_register_19
241499.114000,1.437494,-1.089114,2.525809,3.275377,1.572121,3.357390,0.000000,0.000000,0.000000,0.000000,0.000000,0.000000,0.000000,0.000000,0.000000,0.000000,0.000000,0.000000,0.000000,-2.260921,-0.418570,-0.238800,-0.000095,0.000000,0.000000,-23.522587,-4.324992,-1.846362,-0.000752,0.000000,1.437473,-1.089144,2.525861,3.275365,1.572120,3.357390,0.000000,0.000000,-0.000000,-0.000000,0.000000,0.000000,0.224443,-1.843990,-0.693806,-0.175467,-0.021857,-0.036432,0.000000,-2.260921,-0.418570,-0.238800,-0.000095,0.000000,0.086285,-0.363170,0.250118,0.000001,0.000013,-3.053773,0.000000,0.000000,0.000000,0.000000,0.000000,0.000000,-4.026828,3.878158,1.136781,-0.045049,0.070108,0.048408,0.086290,-0.363187,0.250113,0.000000,-0.000000,-3.053753,0.000000,0.000000,0.000000,0.000000,0.000000,0.000000,0,28.375000,29.187500,27.687500,31.812500,35.000000,36.187500,0.645576,7,253,253,253,253,253,253,1,0.306458,0.134075,9.481039,0.000000,1.000000,0.000000,47.526573,47.581200,0.616566,47.470268,47.427269,47.541931,47.570599,47.384270,47.412937,0,1,-0.000000,-0.000000,0.004000,0.004000,1,1,-648.392906,148.574703,19380.106798,-33.672455,-11.276480,33.973435,0.000002,0.000002,0.000002,0.000000,0.000000,0.000000,0,0,0,0,0,0,0,0,0,0.000000,0.000000,0.000000,0.000000,0.000000,0.000000,0.000000,0.000000
241499.116000,1.437494,-1.089114,2.525809,3.275377,1.572121,3.357390,0.000000,0.000000,0.000000,0.000000,0.000000,0.000000,0.000000,0.000000,0.000000,0.000000,0.000000,0.000000,-0.000000,-2.260888,-0.418485,-0.238802,-0.000098,0.000000,-0.000000,-23.522251,-4.324105,-1.846377,-0.000769,0.000000,1.437502,-1.089164,2.525835,3.275332,1.572115,3.357349,0.000000,0.000000,-0.000000,-0.000000,0.000000,0.000000,0.271388,-1.816814,-0.742704,-0.185820,-0.005513,-0.031770,-0.000000,-2.260888,-0.418485,-0.238802,-0.000098,0.000000,0.086296,-0.363170,0.250132,-0.000026,-0.000104,-3.053785,0.000000,0.000000,0.000000,0.000000,0.000000,0.000000,-4.033350,3.863918,1.361752,-0.047670,0.069419,0.048055,0.086290,-0.363187,0.250113,0.000000,-0.000000,-3.053753,0.000000,0.000000,0.000000,0.000000,0.000000,0.000000,0,28.375000,29.187500,27.687500,31.812500,35.000000,36.187500,0.645852,7,253,253,253,253,253,253,1,0.287304,0.095768,9.538500,0.000000,1.000000,0.000000,47.531944,47.584785,0.603141,47.498932,47.412937,47.527599,47.527599,47.341274,47.398605,0,1,-0.000000,-0.000000,0.004000,0.004000,1,1,-648.385133,148.588281,19380.332008,-33.669784,-11.276019,33.973086,0.000002,0.000002,0.000002,0.000000,0.000000,0.000000,0,0,0,0,0,0,0,0,0,0.000000,0.000000,0.000000,0.000000,0.000000,0.000000,0.000000,0.000000
241499.118000,1.437494,-1.089114,2.525809,3.275377,1.572121,3.357390,0.000000,0.000000,0.000000,0.000000,0.000000,0.000000,0.000000,0.000000,0.000000,0.000000,0.000000,0.000000,0.000000,-2.260895,-0.418560,-0.238796,-0.000097,0.000000,0.000000,-23.522317,-4.324885,-1.846331,-0.000766,0.000000,1.437497,-1.089122,2.525822,3.275377,1.572104,3.357411,0.000000,0.000000,-0.000000,-0.000000,0.000000,0.000000,0.254792,-1.863693,-0.710086,-0.165291,-0.029644,-0.038994,0.000000,-2.260895,-0.418560,-0.238796,-0.000097,0.000000,0.086294,-0.363183,0.250114,-0.000024,0.000011,-3.053728,0.000000,0.000000,0.000000,0.000000,0.000000,0.000000,-4.054969,3.827100,1.191616,-0.050206,0.072780,0.046053,0.086290,-0.363187,0.250113,0.000000,-0.000000,-3.053753,0.000000,0.000000,0.000000,0.000000,0.000000,0.000000,0,28.375000,29.187500,27.687500,31.812500,35.000000,36.187500,0.642876,7,253,253,253,253,253,253,1,0.306458,0.229843,9.653421,0.000000,1.000000,0.000000,47.523888,47.561501,0.636710,47.470268,47.398605,47.556267,47.513268,47.341274,47.412937,0,1,-0.000000,-0.000000,0.004000,0.004000,1,1,-648.360603,148.622930,19380.161574,-33.667554,-11.279595,33.971079,0.000002,0.000002,0.000002,0.000000,0.000000,0.000000,0,0,0,0,0,0,0,0,0,0.000000,0.000000,0.000000,0.000000,0.000000,0.000000,0.000000,0.000000
241499.120000,1.437494,-1.089114,2.525809,3.275377,1.572121,3.357390,0.000000,0.000000,0.000000,0.000000,0.000000,0.000000,0.000000,0.000000,0.000000,0.000000,0.000000,0.000000,0.000000,-2.260995,-0.418513,-0.238802,-0.000096,0.000000,0.000000,-23.523364,-4.324397,-1.846375,-0.000759,0.000000,1.437485,-1.089156,2.525840,3.275336,1.572137,3.357394,0.000000,0.000000,-0.000000,-0.000000,0.000000,0.000000,0.249890,-1.891404,-0.748392,-0.181445,-0.019486,-0.033015,0.000000,-2.260995,-0.418513,-0.238802,-0.000096,0.000000,0.086288,-0.363171,0.250128,0.000011,-0.000085,-3.053756,0.000000,0.000000,0.000000,0.000000,0.000000,0.000000,-4.123983,3.839735,1.106701,-0.049338,0.073675,0.051496,0.086290,-0.363187,0.250113,0.000000,-0.000000,-3.053753,0.000000,0.000000,0.000000,0.000000,0.000000,0.000000,0,28.375000,29.187500,27.687500,31.812500,35.000000,36.187500,0.674340,7,253,253,253,253,253,253,1,0.248997,0.134075,9.519346,0.000000,1.000000,0.000000,47.487164,47.556129,0.663561,47.498932,47.412937,47.556267,47.527599,47.326939,47.369938,0,1,-0.000000,-0.000000,0.004000,0.004000,1,1,-648.292822,148.604312,19380.077001,-33.668498,-11.280407,33.976527,0.000002,0.000002,0.000002,0.000000,0.000000,0.000000,0,0,0,0,0,0,0,0,0,0.000000,0.000000,0.000000,0.000000,0.000000,0.000000,0.000000,0.000000
241499.122000,1.437494,-1.089114,2.525809,3.275377,1.572121,3.357390,0.000000,0.000000,0.000000,0.000000,0.000000,0.000000,0.000000,0.000000,0.000000,0.000000,0.000000,0.000000,0.000000,-2.260901,-0.418540,-0.238797,-0.000099,0.000000,0.000000,-23.522386,-4.324677,-1.846341,-0.000779,0.000000,1.437457,-1.089134,2.525827,3.275364,1.572111,3.357418,0.000000,0.000000,-0.000000,-0.000000,0.000000,0.000000,0.321916,-1.872240,-0.759430,-0.182854,-0.020684,-0.039155,0.000000,-2.260901,-0.418540,-0.238797,-0.000099,0.000000,0.086279,-0.363182,0.250119,-0.000019,-0.000022,-3.053761,0.000000,0.000000,0.000000,0.000000,0.000000,0.000000,-4.159514,3.667226,1.266076,-0.051442,0.072423,0.049872,0.086290,-0.363187,0.250113,0.000000,-0.000000,-3.053753,0.000000,0.000000,0.000000,0.000000,0.000000,0.000000,0,28.437500,29.187500,27.687500,31.812500,35.000000,36.187500,0.641377,7,253,253,253,253,253,253,1,0.210690,0.095768,9.442732,0.000000,1.000000,0.000000,47.518509,47.561501,0.607612,47.498932,47.470268,47.527599,47.527599,47.369938,47.341274,0,1,-0.000000,-0.000000,0.004000,0.004000,1,1,-648.242297,148.773113,19380.236130,-33.666290,-11.279345,33.974900,0.000002,0.000002,0.000002,0.000000,0.000000,0.000000,0,0,0,0,0,0,0,0,0,0.000000,0.000000,0.000000,0.000000,0.000000,0.000000,0.000000,0.000000
241499.124000,1.437494,-1.089114,2.525809,3.275377,1.572121,3.357390,0.000000,0.000000,0.000000,0.000000,0.000000,0.000000,0.000000,0.000000,0.000000,0.000000,0.000000,0.000000,-0.000000,-2.260966,-0.418525,-0.238800,-0.000097,0.000000,-0.000000,-23.523054,-4.324525,-1.846363,-0.000764,0.000000,1.437432,-1.089135,2.525814,3.275352,1.572144,3.357378,0.000000,0.000000,-0.000000,-0.000000,0.000000,0.000000,0.227923,-1.837953,-0.734953,-0.176552,-0.022579,-0.035703,-0.000000,-2.260966,-0.418525,-0.238800,-0.000097,0.000000,0.086266,-0.363186,0.250123,0.000024,-0.000069,-3.053826,0.000000,0.000000,0.000000,0.000000,0.000000,0.000000,-4.387948,3.642299,1.208422,-0.051779,0.078599,0.047975,0.086290,-0.363187,0.250113,0.000000,-0.000000,-3.053753,0.000000,0.000000,0.000000,0.000000,0.000000,0.000000,0,28.437500,29.187500,27.687500,31.812500,35.000000,36.187500,0.641809,7,253,253,253,253,253,253,1,0.248997,0.057461,9.461885,0.000000,1.000000,0.000000,47.513138,47.569561,0.565094,47.470268,47.398605,47.541931,47.513268,47.341274,47.384270,0,1,-0.000000,-0.000000,0.004000,0.004000,1,1,-648.012263,148.778131,19380.178711,-33.666493,-11.285523,33.973006,0.000002,0.000002,0.000002,0.000000,0.000000,0.000000,0,0,0,0,0,0,0,0,0,0.000000,0.000000,0.000000,0.000000,0.000000,0.000000,0.000000,0.000000
241499.126000,1.437494,-1.089114,2.525809,3.275377,1.572121,3.357390,0.000000,0.000000,0.000000,0.000000,0.000000,0.000000,0.000000,0.000000,0.000000,0.000000,0.000000,0.000000,-0.000000,-2.260983,-0.418548,-0.238798,-0.000099,0.000000,-0.000000,-23.523239,-4.324765,-1.846348,-0.000783,0.000000,1.437481,-1.089140,2.525799,3.275393,1.572120,3.357374,0.000000,0.000000,-0.000000,-0.000000,0.000000,0.000000,0.241498,-1.859104,-0.682179,-0.175784,-0.004290,-0.028561,-0.000000,-2.260983,-0.418548,-0.238798,-0.000099,0.000000,0.086285,-0.363191,0.250123,-0.000007,-0.000031,-3.053782,0.000000,0.000000,0.000000,0.000000,0.000000,0.000000,-4.456676,3.585815,1.226654,-0.056205,0.077443,0.042901,0.086290,-0.363187,0.250113,0.000000,-0.000000,-3.053753,0.000000,0.000000,0.000000,0.000000,0.000000,0.000000,0,28.437500,29.187500,27.687500,31.812500,35.000000,36.187500,0.643752,7,253,253,253,253,253,253,1,0.306458,0.076614,9.404425,0.000000,1.000000,0.000000,47.497913,47.552544,0.623279,47.484600,47.412937,47.513268,47.441601,47.355606,47.369938,0,1,-0.000000,-0.000000,0.004000,0.004000,1,1,-647.939049,148.828220,19380.196761,-33.661984,-11.284763,33.967930,0.000002,0.000002,0.000002,0.000000,0.000000,0.000000,0,0,0,0,0,0,0,0,0,0.000000,0.000000,0.000000,0.000000,0.000000,0.000000,0.000000,0.000000
241499.128000,1.437494,-1.089114,2.525809,3.275377,1.572121,3.357390,0.000000,0.000000,0.000000,0.000000,0.000000,0.000000,0.000000,0.000000,0.000000,0.000000,0.000000,0.000000,0.000000,-2.261004,-0.418586,-0.238800,-0.000098,0.000000,0.000000,-23.523458,-4.325149,-1.846360,-0.000769,0.000000,1.437485,-1.089119,2.525857,3.275389,1.572128,3.357406,0.000000,0.000000,-0.000000,-0.000000,0.000000,0.000000,0.219004,-1.865033,-0.717882,-0.193993,-0.021964,-0.029344,0.000000,-2.261004,-0.418586,-0.238800,-0.000098,0.000000,0.086288,-0.363175,0.250107,0.000025,0.000079,-3.053745,0.000000,0.000000,0.000000,0.000000,0.000000,0.000000,-4.428740,3.656168,1.000775,-0.051573,0.081534,0.043294,0.086290,-0.363187,0.250113,0.000000,-0.000000,-3.053753,0.000000,0.000000,0.000000,0.000000,0.000000,0.000000,0,28.437500,29.187500,27.687500,31.812500,35.000000,36.187500,0.640620,7,253,253,253,253,253,253,1,0.248997,0.076614,9.442732,0.000000,1.000000,0.000000,47.497913,47.555233,0.625520,47.470268,47.427269,47.541931,47.513268,47.341274,47.369938,0,1,-0.000000,-0.000000,0.004000,0.004000,1,1,-647.973163,148.760532,19379.970697,-33.666959,-11.288438,33.968318,0.000002,0.000002,0.000002,0.000000,0.000000,0.000000,0,0,0,0,0,0,0,0,0,0.000000,0.000000,0.000000,0.000000,0.000000,0.000000,0.000000,0.000000
241499.130000,1.437494,-1.089114,2.525809,3.275377,1.572121,3.357390,0.000000,0.000000,0.000000,0.000000,0.000000,0.000000,0.000000,0.000000,0.000000,0.000000,0.000000,0.000000,-0.000000,-2.260943,-0.418449,-0.238806,-0.000098,0.000000,-0.000000,-23.522823,-4.323742,-1.846403,-0.000774,0.000000,1.437448,-1.089152,2.525844,3.275361,1.572165,3.357406,0.000000,0.000000,-0.000000,-0.000000,0.000000,0.000000,0.241401,-1.884758,-0.719793,-0.171660,-0.020106,-0.032789,-0.000000,-2.260943,-0.418449,-0.238806,-0.000098,0.000000,0.086271,-0.363176,0.250123,0.000061,-0.000041,-3.053782,0.000000,0.000000,0.000000,0.000000,0.000000,0.000000,-4.357316,3.714663,0.957448,-0.049959,0.079109,0.041287,0.086290,-0.363187,0.250113,0.000000,-0.000000,-3.053753,0.000000,0.000000,0.000000,0.000000,0.000000,0.000000,0,28.437500,29.187500,27.687500,31.812500,35.000000,36.187500,0.642372,7,253,253,253,253,253,253,1,0.134075,0.210690,9.461885,0.000000,1.000000,0.000000,47.506870,47.551651,0.578520,47.484600,47.412937,47.513268,47.527599,47.341274,47.412937,0,1,-0.000000,-0.000000,0.004000,0.004000,1,1,-648.049263,148.708566,19379.927770,-33.668355,-11.285876,33.966318,0.000002,0.000002,0.000002,0.000000,0.000000,0.000000,0,0,0,0,0,0,0,0,0,0.000000,0.000000,0.000000,0.000000,0.000000,0.000000,0.000000,0.000000
241499.132000,1.437494,-1.089114,2.525809,3.275377,1.572121,3.357390,0.000000,0.000000,0.000000,0.000000,0.000000,0.000000,0.000000,0.000000,0.000000,0.000000,0.000000,0.000000,0.000000,-2.260903,-0.418526,-0.238800,-0.000101,0.000000,0.000000,-23.522405,-4.324531,-1.846361,-0.000795,0.000000,1.437518,-1.089156,2.525843,3.275377,1.572124,3.357357,0.000000,0.000000,-0.000000,-0.000000,0.000000,0.000000,0.318964,-1.861562,-0.719945,-0.183487,-0.022769,-0.030767,0.000000,-2.260903,-0.418526,-0.238800,-0.000101,0.000000,0.086300,-0.363172,0.250123,0.000003,-0.000014,-3.053761,0.000000,0.000000,0.000000,0.000000,0.000000,0.000000,-4.410245,3.600879,1.139238,-0.051358,0.080691,0.043113,0.086290,-0.363187,0.250113,0.000000,-0.000000,-3.053753,0.000000,0.000000,0.000000,0.000000,0.000000,0.000000,0,28.437500,29.187500,27.687500,31.812500,35.000000,36.187500,0.639984,7,253,253,253,253,253,253,1,0.191536,0.134075,9.519346,0.000000,1.000000,0.000000,47.523888,47.582100,0.627756,47.498932,47.412937,47.513268,47.498932,47.326939,47.398605,0,1,-0.000000,-0.000000,0.004000,0.004000,1,1,-647.986695,148.817214,19380.109330,-33.667100,-11.287575,33.968141,0.000002,0.000002,0.000002,0.000000,0.000000,0.000000,0,0,0,0,0,0,0,0,0,0.000000,0.000000,0.000000,0.000000,0.000000,0.000000,0.000000,0.000000
241499.134000,1.437494,-1.089114,2.525809,3.275377,1.572121,3.357390,0.000000,0.000000,0.000000,0.000000,0.000000,0.000000,0.000000,0.000000,0.000000,0.000000,0.000000,0.000000,-0.000000,-2.260897,-0.418536,-0.238801,-0.000098,0.000000,-0.000000,-23.522342,-4.324632,-1.846367,-0.000771,0.000000,1.437482,-1.089173,2.525794,3.275410,1.572087,3.357382,0.000000,0.000000,-0.000000,-0.000000,0.000000,0.000000,0.278199,-1.816810,-0.715776,-0.179990,-0.026134,-0.030163,-0.000000,-2.260897,-0.418536,-0.238801,-0.000098,0.000000,0.086289,-0.363191,0.250133,-0.000062,-0.000054,-3.053772,0.000000,0.000000,0.000000,0.000000,0.000000,0.000000,-4.256734,3.612461,1.373660,-0.052978,0.077279,0.045861,0.086290,-0.363187,0.250113,0.000000,-0.000000,-3.053753,0.000000,0.000000,0.000000,0.000000,0.000000,0.000000,0,28.437500,29.187500,27.687500,31.812500,35.000000,36.187500,0.643236,7,253,253,253,253,253,253,1,0.248997,0.076614,9.519346,0.000000,1.000000,0.000000,47.512241,47.550755,0.607612,47.455936,47.412937,47.527599,47.498932,47.355606,47.369938,0,1,-0.000000,-0.000000,0.004000,0.004000,1,1,-648.140632,148.819163,19380.343678,-33.665185,-11.284315,33.970889,0.000002,0.000002,0.000002,0.000000,0.000000,0.000000,0,0,0,0,0,0,0,0,0,0.000000,0.000000,0.000000,0.000000,0.000000,0.000000,0.000000,0.000000
241499.136000,1.437494,-1.089114,2.525809,3.275377,1.572121,3.357390,0.000000,0.000000,0.000000,0.000000,0.000000,0.000000,0.000000,0.000000,0.000000,0.000000,0.000000,0.000000,0.000000,-2.260953,-0.418651,-0.238798,-0.000095,0.000000,0.000000,-23.522926,-4.325824,-1.846348,-0.000750,0.000000,1.437539,-1.089110,2.525840,3.275336,1.572132,3.357402,0.000000,0.000000,-0.000000,-0.000000,0.000000,0.000000,0.254970,-1.838628,-0.725665,-0.164135,-0.018865,-0.034843,0.000000,-2.260953,-0.418651,-0.238798,-0.000095,0.000000,0.086307,-0.363171,0.250112,0.000016,-0.000014,-3.053696,0.000000,0.000000,0.000000,0.000000,0.000000,0.000000,-3.924616,3.908891,1.292240,-0.047768,0.067157,0.046189,0.086290,-0.363187,0.250113,0.000000,-0.000000,-3.053753,0.000000,0.000000,0.000000,0.000000,0.000000,0.000000,0,28.437500,29.187500,27.687500,31.812500,35.000000,36.187500,0.652356,7,253,253,253,253,253,253,1,0.172383,0.172383,9.519346,0.000000,1.000000,0.000000,47.494331,47.551651,0.625520,47.484600,47.412937,47.470268,47.484600,47.326939,47.369938,0,1,-0.000000,-0.000000,0.004000,0.004000,1,1,-648.497738,148.552757,19380.262365,-33.669493,-11.273781,33.971218,0.000002,0.000002,0.000002,0.000000,0.000000,0.000000,0,0,0,0,0,0,0,0,0,0.000000,0.000000,0.000000,0.000000,0.000000,0.000000,0.000000,0.000000
241499.138000,1.437494,-1.089114,2.525809,3.275377,1.572121,3.357390,0.000000,0.000000,0.000000,0.000000,0.000000,0.000000,0.000000,0.000000,0.000000,0.000000,0.000000,0.000000,-0.000000,-2.260985,-0.418460,-0.238801,-0.000098,0.000000,-0.000000,-23.523262,-4.323854,-1.846368,-0.000776,0.000000,1.437456,-1.089180,2.525819,3.275356,1.572108,3.357365,0.000000,0.000000,-0.000000,-0.000000,0.000000,0.000000,0.250464,-1.822632,-0.735163,-0.175435,-0.019325,-0.023214,-0.000000,-2.260985,-0.418460,-0.238801,-0.000098,0.000000,0.086279,-0.363180,0.250137,-0.000040,-0.000114,-3.053816,0.000000,0.000000,0.000000,0.000000,0.000000,0.000000,-4.097879,3.905084,1.155758,-0.046889,0.074126,0.048592,0.086290,-0.363187,0.250113,0.000000,-0.000000,-3.053753,0.000000,0.000000,0.000000,0.000000,0.000000,0.000000,0,28.437500,29.187500,27.687500,31.812500,35.000000,36.187500,0.648936,7,253,253,253,253,253,253,1,0.134075,0.153229,9.519346,0.000000,1.000000,0.000000,47.545380,47.588367,0.679228,47.470268,47.398605,47.541931,47.527599,47.398605,47.412937,0,1,-0.000000,-0.000000,0.004000,0.004000,1,1,-648.324348,148.541706,19380.126008,-33.670972,-11.280637,33.973624,0.000002,0.000002,0.000002,0.000000,0.000000,0.000000,0,0,0,0,0,0,0,0,0,0.000000,0.000000,0.000000,0.000000,0.000000,0.000000,0.000000,0.000000
241499.140000,1.437494,-1.089114,2.525809,3.275377,1.572121,3.357390,0.000000,0.000000,0.000000,0.000000,0.000000,0.000000,0.000000,0.000000,0.000000,0.000000,0.000000,0.000000,-0.000000,-2.260895,-0.418618,-0.238796,-0.000097,0.000000,-0.000000,-23.522318,-4.325487,-1.846327,-0.000762,0.000000,1.437448,-1.089204,2.525831,3.275409,1.572099,3.357366,0.000000,0.000000,-0.000000,-0.000000,0.000000,0.000000,0.303751,-1.813269,-0.695653,-0.179186,-0.021676,-0.023847,-0.000000,-2.260895,-0.418618,-0.238796,-0.000097,0.000000,0.086277,-0.363180,0.250139,-0.000043,-0.000050,-3.053822,0.000000,0.000000,0.000000,0.000000,0.000000,0.000000,-4.329466,3.762761,1.187583,-0.049147,0.078318,0.046691,0.086290,-0.363187,0.250113,0.000000,-0.000000,-3.053753,0.000000,0.000000,0.000000,0.000000,0.000000,0.000000,0,28.437500,29.187500,27.687500,31.812500,35.000000,36.187500,0.649261,7,253,253,253,253,253,253,1,0.210690,0.057461,9.538500,0.000000,1.000000,0.000000,47.509556,47.579411,0.612089,47.484600,47.412937,47.556267,47.513268,47.369938,47.369938,0,1,-0.000000,-0.000000,0.004000,0.004000,1,1,-648.081148,148.663259,19380.157645,-33.669088,-11.285012,33.971719,0.000002,0.000002,0.000002,0.000000,0.000000,0.000000,0,0,0,0,0,0,0,0,0,0.000000,0.000000,0.000000,0.000000,0.000000,0.000000,0.000000,0.000000
241499.142000,1.437494,-1.089114,2.525809,3.275377,1.572121,3.357390,0.000000,0.000000,0.000000,0.000000,0.000000,0.000000,0.000000,0.000000,0.000000,0.000000,0.000000,0.000000,-0.000000,-2.260833,-0.418641,-0.238799,-0.000096,0.000000,-0.000000,-23.521674,-4.325723,-1.846350,-0.000757,0.000000,1.437460,-1.089164,2.525835,3.275410,1.572137,3.357374,0.000000,0.000000,-0.000000,-0.000000,0.000000,0.000000,0.306880,-1.817349,-0.713979,-0.181298,-0.010476,-0.032530,-0.000000,-2.260833,-0.418641,-0.238799,-0.000096,0.000000,0.086277,-0.363181,0.250124,0.000026,0.000009,-3.053803,0.000000,0.000000,0.000000,0.000000,0.000000,0.000000,-4.156975,3.680004,1.323743,-0.051911,0.073648,0.048890,0.086290,-0.363187,0.250113,0.000000,-0.000000,-3.053753,0.000000,0.000000,0.000000,0.000000,0.000000,0.000000,0,28.437500,29.187500,27.625000,31.812500,35.000000,36.187500,0.659485,7,253,253,253,253,253,253,1,0.172383,0.000000,9.423578,0.000000,1.000000,0.000000,47.496120,47.551651,0.589710,47.498932,47.398605,47.541931,47.556267,47.312607,47.341274,0,1,-0.000000,-0.000000,0.004000,0.004000,1,1,-648.245746,148.760786,19380.293839,-33.665928,-11.280607,33.973918,0.000002,0.000002,0.000002,0.000000,0.000000,0.000000,0,0,0,0,0,0,0,0,0,0.000000,0.000000,0.000000,0.000000,0.000000,0.000000,0.000000,0.000000
241499.144000,1.437494,-1.089114,2.525809,3.275377,1.572121,3.357390,0.000000,0.000000,0.000000,0.000000,0.000000,0.000000,0.000000,0.000000,0.000000,0.000000,0.000000,0.000000,0.000000,-2.260899,-0.418564,-0.238802,-0.000099,0.000000,0.000000,-23.522362,-4.324930,-1.846377,-0.000779,0.000000,1.437473,-1.089152,2.525806,3.275397,1.572104,3.357369,0.000000,0.000000,-0.000000,-0.000000,0.000000,0.000000,0.292956,-1.856695,-0.699209,-0.171700,-0.030916,-0.025057,0.000000,-2.260899,-0.418564,-0.238802,-0.000099,0.000000,0.086284,-0.363189,0.250125,-0.000032,-0.000028,-3.053794,0.000000,0.000000,0.000000,0.000000,0.000000,0.000000,-4.066155,4.028862,1.355888,-0.044908,0.075431,0.049547,0.086290,-0.363187,0.250113,0.000000,-0.000000,-3.053753,0.000000,0.000000,0.000000,0.000000,0.000000,0.000000,0,28.437500,29.187500,27.625000,31.812500,35.000000,36.187500,0.654817,7,253,253,253,253,253,253,1,0.153229,0.153229,9.404425,0.000000,1.000000,0.000000,47.482689,47.544483,0.656848,47.470268,47.412937,47.513268,47.527599,47.326939,47.369938,0,1,-0.000000,-0.000000,0.004000,0.004000,1,1,-648.366882,148.421179,19380.325934,-33.673060,-11.281767,33.974575,0.000002,0.000002,0.000002,0.000000,0.000000,0.000000,0,0,0,0,0,0,0,0,0,0.000000,0.000000,0.000000,0.000000,0.000000,0.000000,0.000000,0.000000
241499.146000,1.437494,-1.089114,2.525809,3.275377,1.572121,3.357390,0.000000,0.000000,0.000000,0.000000,0.000000,0.000000,0.000000,0.000000,0.000000,0.000000,0.000000,0.000000,-0.000000,-2.260971,-0.418594,-0.238800,-0.000096,0.000000,-0.000000,-23.523114,-4.325239,-1.846359,-0.000759,0.000000,1.437493,-1.089122,2.525831,3.275344,1.572178,3.357414,0.000000,0.000000,-0.000000,-0.000000,0.000000,0.000000,0.236731,-1.836913,-0.740228,-0.172451,-0.010991,-0.043581,-0.000000,-2.260971,-0.418594,-0.238800,-0.000096,0.000000,0.086286,-0.363176,0.250116,0.000081,-0.000045,-3.053729,0.000000,0.000000,0.000000,0.000000,0.000000,0.000000,-4.073160,3.986785,1.162429,-0.045597,0.074651,0.052117,0.086290,-0.363187,0.250113,0.000000,-0.000000,-3.053753,0.000000,0.000000,0.000000,0.000000,0.000000,0.000000,0,28.437500,29.187500,27.625000,31.812500,35.000000,36.187500,0.671436,7,253,253,253,253,253,253,1,0.210690,0.134075,9.442732,0.000000,1.000000,0.000000,47.533737,47.594635,0.706085,47.498932,47.398605,47.541931,47.527599,47.341274,47.398605,0,1,-0.000000,-0.000000,0.004000,0.004000,1,1,-648.356408,148.462218,19380.132808,-33.672315,-11.281054,33.977149,0.000002,0.000002,0.000002,0.000000,0.000000,0.000000,0,0,0,0,0,0,0,0,0,0.000000,0.000000,0.000000,0.000000,0.000000,0.000000,0.000000,0.000000
241499.148000,1.437494,-1.089114,2.525809,3.275377,1.572121,3.357390,0.000000,0.000000,0.000000,0.000000,0.000000,0.000000,0.000000,0.000000,0.000000,0.000000,0.000000,0.000000,-0.000000,-2.260979,-0.418496,-0.238800,-0.000102,0.000000,-0.000000,-23.523191,-4.324225,-1.846360,-0.000803,0.000000,1.437485,-1.089127,2.525831,3.275303,1.572087,3.357357,0.000000,0.000000,-0.000000,-0.000000,0.000000,0.000000,0.275236,-1.797310,-0.719613,-0.171530,-0.010310,-0.034332,-0.000000,-2.260979,-0.418496,-0.238800,-0.000102,0.000000,0.086292,-0.363174,0.250122,-0.000067,-0.000090,-3.053794,0.000000,0.000000,0.000000,0.000000,0.000000,0.000000,-4.269566,3.934074,1.109631,-0.047406,0.077528,0.048500,0.086290,-0.363187,0.250113,0.000000,-0.000000,-3.053753,0.000000,0.000000,0.000000,0.000000,0.000000,0.000000,0,28.437500,29.187500,27.625000,31.812500,35.000000,36.187500,0.666912,7,253,253,253,253,253,253,1,0.172383,0.019154,9.538500,0.000000,1.000000,0.000000,47.525677,47.573143,0.582997,47.484600,47.398605,47.513268,47.513268,47.326939,47.427269,0,1,-0.000000,-0.000000,0.004000,0.004000,1,1,-648.155982,148.497709,19380.079742,-33.670755,-11.284072,33.973530,0.000002,0.000002,0.000002,0.000000,0.000000,0.000000,0,0,0,0,0,0,0,0,0,0.000000,0.000000,0.000000,0.000000,0.000000,0.000000,0.000000,0.000000
241499.150000,1.437494,-1.089114,2.525809,3.275377,1.572121,3.357390,0.000000,0.000000,0.000000,0.000000,0.000000,0.000000,0.000000,0.000000,0.000000,0.000000,0.000000,0.000000,-0.000000,-2.260968,-0.418502,-0.238797,-0.000095,0.000000,-0.000000,-23.523083,-4.324281,-1.846334,-0.000750,0.000000,1.437490,-1.089106,2.525835,3.275373,1.572055,3.357377,0.000000,0.000000,-0.000000,-0.000000,0.000000,0.000000,0.218828,-1.869530,-0.719393,-0.173155,-0.000823,-0.025504,-0.000000,-2.260968,-0.418502,-0.238797,-0.000095,0.000000,0.086296,-0.363181,0.250107,-0.000091,0.000062,-3.053770,0.000000,0.000000,0.000000,0.000000,0.000000,0.000000,-3.990300,3.803230,1.208874,-0.048185,0.069413,0.049715,0.086290,-0.363187,0.250113,0.000000,-0.000000,-3.053753,0.000000,0.000000,0.000000,0.000000,0.000000,0.000000,0,28.437500,29.187500,27.625000,31.812500,35.000000,36.187500,0.657828,7,253,253,253,253,253,253,1,0.153229,0.038307,9.481039,0.000000,1.000000,0.000000,47.501499,47.574932,0.652371,47.455936,47.412937,47.527599,47.513268,47.326939,47.369938,0,1,-0.000000,-0.000000,0.004000,0.004000,1,1,-648.422807,148.652574,19380.178535,-33.669265,-11.276062,33.974737,0.000002,0.000002,0.000002,0.000000,0.000000,0.000000,0,0,0,0,0,0,0,0,0,0.000000,0.000000,0.000000,0.000000,0.000000,0.000000,0.000000,0.000000
241499.152000,1.437494,-1.089114,2.525809,3.275377,1.572121,3.357390,0.000000,0.000000,0.000000,0.000000,0.000000,0.000000,0.000000,0.000000,0.000000,0.000000,0.000000,0.000000,0.000000,-2.261003,-0.418462,-0.238804,-0.000093,0.000000,0.000000,-23.523445,-4.323872,-1.846389,-0.000731,0.000000,1.437502,-1.089101,2.525840,3.275340,1.572137,3.357357,0.000000,0.000000,-0.000000,-0.000000,0.000000,0.000000,0.239291,-1.875914,-0.726438,-0.180841,-0.013716,-0.024800,0.000000,-2.261003,-0.418462,-0.238804,-0.000093,0.000000,0.086293,-0.363175,0.250108,0.000026,0.000005,-3.053777,0.000000,0.000000,0.000000,0.000000,0.000000,0.000000,-4.448681,3.710211,1.141264,-0.051825,0.078317,0.043483,0.086290,-0.363187,0.250113,0.000000,-0.000000,-3.053753,0.000000,0.000000,0.000000,0.000000,0.000000,0.000000,0,28.437500,29.187500,27.625000,31.812500,35.000000,36.187500,0.656532,7,253,253,253,253,253,253,1,0.210690,0.114922,9.423578,0.000000,1.000000,0.000000,47.530155,47.563290,0.614330,47.484600,47.412937,47.513268,47.513268,47.312607,47.369938,0,1,-0.000000,-0.000000,0.004000,0.004000,1,1,-647.957912,148.705014,19380.111375,-33.666425,-11.285251,33.968511,0.000002,0.000002,0.000002,0.000000,0.000000,0.000000,0,0,0,0,0,0,0,0,0,0.000000,0.000000,0.000000,0.000000,0.000000,0.000000,0.000000,0.000000
241499.154000,1.437494,-1.089114,2.525809,3.275377,1.572121,3.357390,0.000000,0.000000,0.000000,0.000000,0.000000,0.000000,0.000000,0.000000,0.000000,0.000000,0.000000,0.000000,-0.000000,-2.261002,-0.418445,-0.238802,-0.000099,0.000000,-0.000000,-23.523434,-4.323698,-1.846375,-0.000779,0.000000,1.437518,-1.089077,2.525840,3.275438,1.572104,3.357369,0.000000,0.000000,-0.000000,-0.000000,0.000000,0.000000,0.241995,-1.856363,-0.663859,-0.179842,-0.026090,-0.024774,-0.000000,-2.261002,-0.418445,-0.238802,-0.000099,0.000000,0.086301,-0.363186,0.250090,0.000008,0.000197,-3.053749,0.000000,0.000000,0.000000,0.000000,0.000000,0.000000,-4.345431,3.624104,1.194408,-0.054089,0.080367,0.044863,0.086290,-0.363187,0.250113,0.000000,-0.000000,-3.053753,0.000000,0.000000,0.000000,0.000000,0.000000,0.000000,0,28.437500,29.187500,27.625000,31.812500,35.000000,36.187500,0.657936,7,253,253,253,253,253,253,1,0.248997,0.153229,9.481039,0.000000,1.000000,0.000000,47.519409,47.576725,0.647900,47.498932,47.398605,47.556267,47.556267,47.355606,47.441601,0,1,-0.000000,-0.000000,0.004000,0.004000,1,1,-648.053333,148.799883,19380.163990,-33.664347,-11.287499,33.969880,0.000002,0.000002,0.000002,0.000000,0.000000,0.000000,0,0,0,0,0,0,0,0,0,0.000000,0.000000,0.000000,0.000000,0.000000,0.000000,0.000000,0.000000
241499.156000,1.437494,-1.089114,2.525809,3.275377,1.572121,3.357390,0.000000,0.000000,0.000000,0.000000,0.000000,0.000000,0.000000,0.000000,0.000000,0.000000,0.000000,0.000000,0.000000,-2.261051,-0.418409,-0.238811,-0.000096,0.000000,0.000000,-23.523948,-4.323325,-1.846446,-0.000759,0.000000,1.437510,-1.089065,2.525851,3.275377,1.572137,3.357357,0.000000,0.000000,-0.000000,-0.000000,0.000000,0.000000,0.314150,-1.872189,-0.743516,-0.184296,-0.030973,-0.039283,0.000000,-2.261051,-0.418409,-0.238811,-0.000096,0.000000,0.086296,-0.363178,0.250090,0.000048,0.000131,-3.053769,0.000000,0.000000,0.000000,0.000000,0.000000,0.000000,-4.196806,3.668393,1.118817,-0.053885,0.076023,0.042424,0.086290,-0.363187,0.250113,0.000000,-0.000000,-3.053753,0.000000,0.000000,0.000000,0.000000,0.000000,0.000000,0,28.437500,29.187500,27.625000,31.812500,35.000000,36.187500,0.669120,7,253,253,253,253,253,253,1,0.229843,0.095768,9.519346,0.000000,1.000000,0.000000,47.518509,47.563290,0.659090,47.498932,47.455936,47.541931,47.498932,47.369938,47.341274,0,1,-0.000000,-0.000000,0.004000,0.004000,1,1,-648.205159,148.768832,19380.088665,-33.664170,-11.283152,33.967447,0.000002,0.000002,0.000002,0.000000,0.000000,0.000000,0,0,0,0,0,0,0,0,0,0.000000,0.000000,0.000000,0.000000,0.000000,0.000000,0.000000,0.000000
241499.158000,1.437494,-1.089114,2.525809,3.275377,1.572121,3.357390,0.000000,0.000000,0.000000,0.000000,0.000000,0.000000,0.000000,0.000000,0.000000,0.000000,0.000000,0.000000,0.000000,-2.261051,-0.418366,-0.238808,-0.000099,0.000000,0.000000,-23.523943,-4.322883,-1.846424,-0.000779,0.000000,1.437494,-1.089085,2.525835,3.275368,1.572120,3.357394,0.000000,0.000000,-0.000000,-0.000000,0.000000,0.000000,0.295040,-1.840634,-0.769819,-0.186595,-0.005767,-0.031002,0.000000,-2.261051,-0.418366,-0.238808,-0.000099,0.000000,0.086291,-0.363181,0.250100,0.000011,0.000069,-3.053748,0.000000,0.000000,0.000000,0.000000,0.000000,0.000000,-4.439036,3.678460,1.015558,-0.050353,0.081053,0.041900,0.086290,-0.363187,0.250113,0.000000,-0.000000,-3.053753,0.000000,0.000000,0.000000,0.000000,0.000000,0.000000,0,28.437500,29.187500,27.625000,31.812500,35.000000,36.187500,0.645576,7,253,253,253,253,253,253,1,0.191536,0.229843,9.557653,0.000000,1.000000,0.000000,47.504181,47.560604,0.681469,47.498932,47.412937,47.513268,47.498932,47.341274,47.369938,0,1,-0.000000,-0.000000,0.004000,0.004000,1,1,-647.964864,148.737427,19379.985463,-33.668132,-11.287850,33.966924,0.000002,0.000002,0.000002,0.000000,0.000000,0.000000,0,0,0,0,0,0,0,0,0,0.000000,0.000000,0.000000,0.000000,0.000000,0.000000,0.000000,0.000000
241499.160000,1.437494,-1.089114,2.525809,3.275377,1.572121,3.357390,0.000000,0.000000,0.000000,0.000000,0.000000,0.000000,0.000000,0.000000,0.000000,0.000000,0.000000,0.000000,0.000000,-2.261042,-0.418427,-0.238805,-0.000098,0.000000,0.000000,-23.523848,-4.323505,-1.846399,-0.000769,0.000000,1.437469,-1.089135,2.525840,3.275431,1.572111,3.357374,0.000000,0.000000,-0.000000,-0.000000,0.000000,0.000000,0.265802,-1.899742,-0.743101,-0.176095,-0.000681,-0.035862,0.000000,-2.261042,-0.418427,-0.238805,-0.000098,0.000000,0.086283,-0.363184,0.250111,0.000002,0.000096,-3.053794,0.000000,0.000000,0.000000,0.000000,0.000000,0.000000,-4.587132,3.767977,1.066789,-0.049788,0.082436,0.040681,0.086290,-0.363187,0.250113,0.000000,-0.000000,-3.053753,0.000000,0.000000,0.000000,0.000000,0.000000,0.000000,0,28.437500,29.187500,27.625000,31.812500,35.000000,36.187500,0.644077,7,253,253,253,253,253,253,1,0.038307,0.153229,9.461885,0.000000,1.000000,0.000000,47.492542,47.542694,0.616566,47.455936,47.369938,47.513268,47.470268,47.341274,47.369938,0,1,-0.000000,-0.000000,0.004000,0.004000,1,1,-647.825008,148.635478,19380.036594,-33.668811,-11.289178,33.965703,0.000002,0.000002,0.000002,0.000000,0.000000,0.000000,0,0,0,0,0,0,0,0,0,0.000000,0.000000,0.000000,0.000000,0.000000,0.000000,0.000000,0.000000
241499.162000,1.437494,-1.089114,2.525809,3.275377,1.572121,3.357390,0.000000,0.000000,0.000000,0.000000,0.000000,0.000000,0.000000,0.000000,0.000000,0.000000,0.000000,0.000000,0.000000,-2.260945,-0.418509,-0.238806,-0.000097,0.000000,0.000000,-23.522836,-4.324361,-1.846408,-0.000764,0.000000,1.437509,-1.089094,2.525799,3.275417,1.572120,3.357390,0.000000,0.000000,-0.000000,-0.000000,0.000000,0.000000,0.268555,-1.882545,-0.705994,-0.187027,-0.025447,-0.030333,0.000000,-2.260945,-0.418509,-0.238806,-0.000097,0.000000,0.086295,-0.363195,0.250104,0.000012,0.000075,-3.053737,0.000000,0.000000,0.000000,0.000000,0.000000,0.000000,-4.249261,3.641596,1.133253,-0.053270,0.074325,0.043451,0.086290,-0.363187,0.250113,0.000000,-0.000000,-3.053753,0.000000,0.000000,0.000000,0.000000,0.000000,0.000000,0,28.437500,29.187500,27.625000,31.812500,35.000000,36.187500,0.645349,7,253,253,253,253,253,253,1,0.095768,0.095768,9.519346,0.000000,1.000000,0.000000,47.501499,47.558811,0.683705,47.484600,47.441601,47.527599,47.513268,47.312607,47.369938,0,1,-0.000000,-0.000000,0.004000,0.004000,1,1,-648.150715,148.790755,19380.103146,-33.664636,-11.281406,33.968475,0.000002,0.000002,0.000002,0.000000,0.000000,0.000000,0,0,0,0,0,0,0,0,0,0.000000,0.000000,0.000000,0.000000,0.000000,0.000000,0.000000,0.000000
241499.164000,1.437494,-1.089114,2.525809,3.275377,1.572121,3.357390,0.000000,0.000000,0.000000,0.000000,0.000000,0.000000,0.000000,0.000000,0.000000,0.000000,0.000000,0.000000,0.000000,-2.261090,-0.418507,-0.238805,-0.000098,0.000000,0.000000,-23.524351,-4.324338,-1.846401,-0.000769,0.000000,1.437490,-1.089152,2.525831,3.275377,1.572124,3.357374,0.000000,0.000000,-0.000000,-0.000000,0.000000,0.000000,0.270045,-1.837149,-0.671358,-0.187502,-0.015509,-0.028628,0.000000,-2.261090,-0.418507,-0.238805,-0.000098,0.000000,0.086290,-0.363178,0.250124,0.000001,-0.000026,-3.053773,0.000000,0.000000,0.000000,0.000000,0.000000,0.000000,-4.269188,3.598336,1.342370,-0.053141,0.073732,0.041851,0.086290,-0.363187,0.250113,0.000000,-0.000000,-3.053753,0.000000,0.000000,0.000000,0.000000,0.000000,0.000000,0,28.437500,29.187500,27.625000,31.812500,35.000000,36.187500,0.644568,7,253,253,253,253,253,253,1,0.172383,0.038307,9.481039,0.000000,1.000000,0.000000,47.509556,47.555233,0.656848,47.498932,47.427269,47.556267,47.556267,47.369938,47.470268,0,1,-0.000000,-0.000000,0.004000,0.004000,1,1,-648.126942,148.832160,19380.312486,-33.664712,-11.280798,33.966880,0.000002,0.000002,0.000002,0.000000,0.000000,0.000000,0,0,0,0,0,0,0,0,0,0.000000,0.000000,0.000000,0.000000,0.000000,0.000000,0.000000,0.000000
241499.166000,1.437494,-1.089114,2.525809,3.275377,1.572121,3.357390,0.000000,0.000000,0.000000,0.000000,0.000000,0.000000,0.000000,0.000000,0.000000,0.000000,0.000000,0.000000,0.000000,-2.260926,-0.418549,-0.238800,-0.000098,0.000000,0.000000,-23.522648,-4.324773,-1.846362,-0.000771,0.000000,1.437490,-1.089140,2.525806,3.275380,1.572083,3.357369,0.000000,0.000000,-0.000000,-0.000000,0.000000,0.000000,0.248557,-1.851505,-0.729892,-0.191670,-0.014917,-0.025664,0.000000,-2.260926,-0.418549,-0.238800,-0.000098,0.000000,0.086293,-0.363187,0.250123,-0.000064,-0.000031,-3.053777,0.000000,0.000000,0.000000,0.000000,0.000000,0.000000,-4.112142,3.964217,1.021774,-0.043502,0.072631,0.047287,0.086290,-0.363187,0.250113,0.000000,-0.000000,-3.053753,0.000000,0.000000,0.000000,0.000000,0.000000,0.000000,0,28.437500,29.187500,27.625000,31.812500,35.000000,36.187500,0.650640,7,253,253,253,253,253,253,1,0.095768,0.076614,9.423578,0.000000,1.000000,0.000000,47.503288,47.559711,0.605377,47.455936,47.412937,47.498932,47.527599,47.312607,47.369938,0,1,-0.000000,-0.000000,0.004000,0.004000,1,1,-648.315513,148.481473,19379.991741,-33.674216,-11.278854,33.972314,0.000002,0.000002,0.000002,0.000000,0.000000,0.000000,0,0,0,0,0,0,0,0,0,0.000000,0.000000,0.000000,0.000000,0.000000,0.000000,0.000000,0.000000
241499.168000,1.437494,-1.089114,2.525809,3.275377,1.572121,3.357390,0.000000,0.000000,0.000000,0.000000,0.000000,0.000000,0.000000,0.000000,0.000000,0.000000,0.000000,0.000000,-0.000000,-2.260992,-0.418573,-0.238799,-0.000095,0.000000,-0.000000,-23.523328,-4.325018,-1.846356,-0.000747,0.000000,1.437534,-1.089131,2.525827,3.275373,1.572141,3.357357,0.000000,0.000000,-0.000000,-0.000000,0.000000,0.000000,0.252546,-1.899868,-0.705715,-0.174296,-0.025225,-0.046998,-0.000000,-2.260992,-0.418573,-0.238799,-0.000095,0.000000,0.086304,-0.363176,0.250117,0.000030,-0.000012,-3.053745,0.000000,0.000000,0.000000,0.000000,0.000000,0.000000,-3.941893,3.855963,0.953924,-0.048628,0.069084,0.046887,0.086290,-0.363187,0.250113,0.000000,-0.000000,-3.053753,0.000000,0.000000,0.000000,0.000000,0.000000,0.000000,0,28.437500,29.187500,27.625000,31.812500,35.000000,36.187500,0.658260,7,253,253,253,253,253,253,1,0.114922,0.134075,9.500193,0.000000,1.000000,0.000000,47.490749,47.541798,0.625520,47.455936,47.398605,47.513268,47.498932,47.326939,47.369938,0,1,-0.000000,-0.000000,0.004000,0.004000,1,1,-648.475661,148.604137,19379.924078,-33.668803,-11.275775,33.971916,0.000002,0.000002,0.000002,0.000000,0.000000,0.000000,0,0,0,0,0,0,0,0,0,0.000000,0.000000,0.000000,0.000000,0.000000,0.000000,0.000000,0.000000
241499.170000,1.437494,-1.089114,2.525809,3.275377,1.572121,3.357390,0.000000,0.000000,0.000000,0.000000,0.000000,0.000000,0.000000,0.000000,0.000000,0.000000,0.000000,0.000000,-0.000000,-2.260971,-0.418521,-0.238801,-0.000099,0.000000,-0.000000,-23.523116,-4.324477,-1.846369,-0.000781,0.000000,1.437444,-1.089147,2.525812,3.275376,1.572108,3.357415,0.000000,0.000000,-0.000000,-0.000000,0.000000,0.000000,0.292268,-1.849190,-0.700516,-0.170791,-0.006755,-0.020333,-0.000000,-2.260971,-0.418521,-0.238801,-0.000099,0.000000,0.086274,-0.363188,0.250125,-0.000028,-0.000045,-3.053778,0.000000,0.000000,0.000000,0.000000,0.000000,0.000000,-4.070426,3.717013,1.088628,-0.052725,0.072547,0.046259,0.086290,-0.363187,0.250113,0.000000,-0.000000,-3.053753,0.000000,0.000000,0.000000,0.000000,0.000000,0.000000,0,28.437500,29.187500,27.625000,31.812500,35.000000,36.187500,0.679476,7,253,253,253,253,253,253,1,0.344765,0.172383,9.500193,0.000000,1.000000,0.000000,47.493439,47.548962,0.690418,47.484600,47.398605,47.556267,47.556267,47.369938,47.455936,0,1,-0.000000,-0.000000,0.004000,0.004000,1,1,-648.335352,148.731371,19380.058722,-33.665022,-11.279580,33.971288,0.000002,0.000002,0.000002,0.000000,0.000000,0.000000,0,0,0,0,0,0,0,0,0,0.000000,0.000000,0.000000,0.000000,0.000000,0.000000,0.000000,0.000000
241499.172000,1.437494,-1.089114,2.525809,3.275377,1.572121,3.357390,0.000000,0.000000,0.000000,0.000000,0.000000,0.000000,0.000000,0.000000,0.000000,0.000000,0.000000,0.000000,0.000000,-2.260967,-0.418575,-0.238799,-0.000097,0.000000,0.000000,-23.523075,-4.325037,-1.846353,-0.000762,0.000000,1.437469,-1.089114,2.525843,3.275393,1.572108,3.357381,0.000000,0.000000,-0.000000,-0.000000,0.000000,0.000000,0.230384,-1.851569,-0.721592,-0.195136,-0.019037,-0.029061,0.000000,-2.260967,-0.418575,-0.238799,-0.000097,0.000000,0.086283,-0.363181,0.250107,-0.000006,0.000078,-3.053786,0.000000,0.000000,0.000000,0.000000,0.000000,0.000000,-4.369567,3.595902,1.145963,-0.054943,0.077497,0.044397,0.086290,-0.363187,0.250113,0.000000,-0.000000,-3.053753,0.000000,0.000000,0.000000,0.000000,0.000000,0.000000,0,28.437500,29.187500,27.625000,31.812500,35.000000,36.187500,0.642600,7,253,253,253,253,253,253,1,0.287304,0.095768,9.481039,0.000000,1.000000,0.000000,47.526573,47.587475,0.636710,47.484600,47.441601,47.527599,47.556267,47.341274,47.412937,0,1,-0.000000,-0.000000,0.004000,0.004000,1,1,-648.026685,148.825917,19380.115804,-33.663243,-11.284709,33.969420,0.000002,0.000002,0.000002,0.000000,0.000000,0.000000,0,0,0,0,0,0,0,0,0,0.000000,0.000000,0.000000,0.000000,0.000000,0.000000,0.000000,0.000000
241499.174000,1.437494,-1.089114,2.525809,3.275377,1.572121,3.357390,0.000000,0.000000,0.000000,0.000000,0.000000,0.000000,0.000000,0.000000,0.000000,0.000000,0.000000,0.000000,0.000000,-2.260974,-0.418465,-0.238805,-0.000097,0.000000,0.000000,-23.523144,-4.323898,-1.846401,-0.000762,0.000000,1.437518,-1.089127,2.525844,3.275406,1.572104,3.357406,0.000000,0.000000,-0.000000,-0.000000,0.000000,0.000000,0.303721,-1.905942,-0.705964,-0.196127,-0.015741,-0.033022,0.000000,-2.260974,-0.418465,-0.238805,-0.000097,0.000000,0.086302,-0.363177,0.250110,-0.000012,0.000080,-3.053712,0.000000,0.000000,0.000000,0.000000,0.000000,0.000000,-4.239742,3.704752,1.108438,-0.052697,0.077591,0.044078,0.086290,-0.363187,0.250113,0.000000,-0.000000,-3.053753,0.000000,0.000000,0.000000,0.000000,0.000000,0.000000,0,28.437500,29.187500,27.625000,31.812500,35.000000,36.187500,0.650736,7,253,253,253,253,253,253,1,0.229843,0.076614,9.519346,0.000000,1.000000,0.000000,47.523888,47.572247,0.549428,47.484600,47.412937,47.541931,47.556267,47.369938,47.369938,0,1,-0.000000,-0.000000,0.004000,0.004000,1,1,-648.165861,148.728587,19380.078250,-33.665495,-11.284609,33.969101,0.000002,0.000002,0.000002,0.000000,0.000000,0.000000,0,0,0,0,0,0,0,0,0,0.000000,0.000000,0.000000,0.000000,0.000000,0.000000,0.000000,0.000000
241499.176000,1.437494,-1.089114,2.525809,3.275377,1.572121,3.357390,0.000000,0.000000,0.000000,0.000000,0.000000,0.000000,0.000000,0.000000,0.000000,0.000000,0.000000,0.000000,0.000000,-2.260952,-0.418485,-0.238805,-0.000096,0.000000,0.000000,-23.522910,-4.324107,-1.846401,-0.000759,0.000000,1.437481,-1.089185,2.525835,3.275349,1.572157,3.357423,0.000000,0.000000,-0.000000,-0.000000,0.000000,0.000000,0.230062,-1.855140,-0.734786,-0.180506,-0.008468,-0.026286,0.000000,-2.260952,-0.418485,-0.238805,-0.000096,0.000000,0.086284,-0.363171,0.250137,0.000036,-0.000120,-3.053732,0.000000,0.000000,0.000000,0.000000,0.000000,0.000000,-4.068499,3.661808,0.978034,-0.050280,0.071090,0.047976,0.086290,-0.363187,0.250113,0.000000,-0.000000,-3.053753,0.000000,0.000000,0.000000,0.000000,0.000000,0.000000,0,28.437500,29.187500,27.625000,31.812500,35.000000,36.187500,0.646200,7,253,253,253,253,253,253,1,0.248997,0.153229,9.481039,0.000000,1.000000,0.000000,47.509556,47.574039,0.609854,47.470268,47.398605,47.513268,47.541931,47.298275,47.398605,0,1,-0.000000,-0.000000,0.004000,0.004000,1,1,-648.332557,148.786289,19379.948476,-33.667337,-11.277915,33.973011,0.000002,0.000002,0.000002,0.000000,0.000000,0.000000,0,0,0,0,0,0,0,0,0,0.000000,0.000000,0.000000,0.000000,0.000000,0.000000,0.000000,0.000000
241499.178000,1.437494,-1.089114,2.525809,3.275377,1.572121,3.357390,0.000000,0.000000,0.000000,0.000000,0.000000,0.000000,0.000000,0.000000,0.000000,0.000000,0.000000,0.000000,-0.000000,-2.260858,-0.418597,-0.238796,-0.000100,0.000000,-0.000000,-23.521932,-4.325265,-1.846329,-0.000791,0.000000,1.437435,-1.089127,2.525807,3.275397,1.572116,3.357386,0.000000,0.000000,-0.000000,-0.000000,0.000000,0.000000,0.255064,-1.848114,-0.715134,-0.175634,-0.027657,-0.036115,-0.000000,-2.260858,-0.418597,-0.238796,-0.000100,0.000000,0.086269,-0.363194,0.250116,-0.000005,0.000009,-3.053816,0.000000,0.000000,0.000000,0.000000,0.000000,0.000000,-3.964429,3.955799,0.947644,-0.044092,0.069765,0.048215,0.086290,-0.363187,0.250113,0.000000,-0.000000,-3.053753,0.000000,0.000000,0.000000,0.000000,0.000000,0.000000,0,28.437500,29.187500,27.625000,31.812500,35.000000,36.187500,0.642025,7,253,253,253,253,253,253,1,0.229843,0.153229,9.481039,0.000000,1.000000,0.000000,47.497021,47.547173,0.576284,47.455936,47.412937,47.556267,47.527599,47.384270,47.412937,0,1,-0.000000,-0.000000,0.004000,0.004000,1,1,-648.461698,148.502985,19379.917657,-33.673375,-11.276052,33.973242,0.000002,0.000002,0.000002,0.000000,0.000000,0.000000,0,0,0,0,0,0,0,0,0,0.000000,0.000000,0.000000,0.000000,0.000000,0.000000,0.000000,0.000000
241499.180000,1.437494,-1.089114,2.525809,3.275377,1.572121,3.357390,0.000000,0.000000,0.000000,0.000000,0.000000,0.000000,0.000000,0.000000,0.000000,0.000000,0.000000,0.000000,0.000000,-2.261014,-0.418548,-0.238802,-0.000097,0.000000,0.000000,-23.523562,-4.324760,-1.846375,-0.000767,0.000000,1.437456,-1.089156,2.525840,3.275340,1.572124,3.357423,0.000000,0.000000,-0.000000,-0.000000,0.000000,0.000000,0.232538,-1.914519,-0.741649,-0.183435,-0.020729,-0.030496,0.000000,-2.261014,-0.418548,-0.238802,-0.000097,0.000000,0.086278,-0.363174,0.250127,-0.000008,-0.000075,-3.053758,0.000000,0.000000,0.000000,0.000000,0.000000,0.000000,-4.017274,3.828028,1.059209,-0.048720,0.071575,0.044120,0.086290,-0.363187,0.250113,0.000000,-0.000000,-3.053753,0.000000,0.000000,0.000000,0.000000,0.000000,0.000000,0,28.437500,29.187500,27.625000,31.812500,35.000000,36.187500,0.644053,7,253,253,253,253,253,253,1,0.134075,0.191536,9.538500,0.000000,1.000000,0.000000,47.514931,47.574039,0.553905,47.470268,47.427269,47.541931,47.527599,47.312607,47.412937,0,1,-0.000000,-0.000000,0.004000,0.004000,1,1,-648.398102,148.625346,19380.029436,-33.668929,-11.278261,33.969151,0.000002,0.000002,0.000002,0.000000,0.000000,0.000000,0,0,0,0,0,0,0,0,0,0.000000,0.000000,0.000000,0.000000,0.000000,0.000000,0.000000,0.000000
241499.182000,1.437494,-1.089114,2.525809,3.275377,1.572121,3.357390,0.000000,0.000000,0.000000,0.000000,0.000000,0.000000,0.000000,0.000000,0.000000,0.000000,0.000000,0.000000,0.000000,-2.260902,-0.418540,-0.238798,-0.000098,0.000000,0.000000,-23.522389,-4.324678,-1.846343,-0.000771,0.000000,1.437444,-1.089086,2.525863,3.275368,1.572112,3.357374,0.000000,0.000000,-0.000000,-0.000000,0.000000,0.000000,0.274275,-1.869800,-0.728168,-0.174133,0.004807,-0.037497,0.000000,-2.260902,-0.418540,-0.238798,-0.000098,0.000000,0.086275,-0.363178,0.250096,0.000007,0.000112,-3.053819,0.000000,0.000000,0.000000,0.000000,0.000000,0.000000,-3.991436,3.922854,1.073997,-0.046433,0.067664,0.046005,0.086290,-0.363187,0.250113,0.000000,-0.000000,-3.053753,0.000000,0.000000,0.000000,0.000000,0.000000,0.000000,0,28.437500,29.187500,27.625000,31.812500,35.000000,36.187500,0.646981,7,253,253,253,253,253,253,1,0.153229,0.191536,9.500193,0.000000,1.000000,0.000000,47.523888,47.574039,0.553905,47.470268,47.412937,47.541931,47.527599,47.355606,47.369938,0,1,-0.000000,-0.000000,0.004000,0.004000,1,1,-648.431878,148.533537,19380.043763,-33.670856,-11.274168,33.971027,0.000002,0.000002,0.000002,0.000000,0.000000,0.000000,0,0,0,0,0,0,0,0,0,0.000000,0.000000,0.000000,0.000000,0.000000,0.000000,0.000000,0.000000
241499.184000,1.437494,-1.089114,2.525809,3.275377,1.572121,3.357390,0.000000,0.000000,0.000000,0.000000,0.000000,0.000000,0.000000,0.000000,0.000000,0.000000,0.000000,0.000000,-0.000000,-2.260990,-0.418379,-0.238807,-0.000097,0.000000,-0.000000,-23.523314,-4.323019,-1.846415,-0.000764,0.000000,1.437420,-1.089052,2.525823,3.275332,1.572111,3.357394,0.000000,0.000000,-0.000000,-0.000000,0.000000,0.000000,0.320025,-1.813981,-0.694577,-0.173118,0.007427,-0.021556,-0.000000,-2.260990,-0.418379,-0.238807,-0.000097,0.000000,0.086265,-0.363191,0.250094,-0.000006,0.000048,-3.053822,0.000000,0.000000,0.000000,0.000000,0.000000,0.000000,-4.048787,3.903791,1.036708,-0.045857,0.073327,0.045908,0.086290,-0.363187,0.250113,0.000000,-0.000000,-3.053753,0.000000,0.000000,0.000000,0.000000,0.000000,0.000000,0,28.437500,29.187500,27.625000,31.812500,35.000000,36.187500,0.642312,7,253,253,253,253,253,253,1,0.153229,0.153229,9.481039,0.000000,1.000000,0.000000,47.503288,47.561501,0.618802,47.484600,47.398605,47.513268,47.527599,47.355606,47.369938,0,1,-0.000000,-0.000000,0.004000,0.004000,1,1,-648.373078,148.547456,19380.006615,-33.671927,-11.279756,33.970933,0.000002,0.000002,0.000002,0.000000,0.000000,0.000000,0,0,0,0,0,0,0,0,0,0.000000,0.000000,0.000000,0.000000,0.000000,0.000000,0.000000,0.000000
241499.186000,1.437494,-1.089114,2.525809,3.275377,1.572121,3.357390,0.000000,0.000000,0.000000,0.000000,0.000000,0.000000,0.000000,0.000000,0.000000,0.000000,0.000000,0.000000,0.000000,-2.261120,-0.418388,-0.238804,-0.000097,0.000000,0.000000,-23.524661,-4.323111,-1.846389,-0.000764,0.000000,1.437477,-1.089119,2.525814,3.275364,1.572067,3.357406,0.000000,0.000000,-0.000000,-0.000000,0.000000,0.000000,0.247620,-1.888810,-0.682897,-0.169092,-0.008630,-0.025838,0.000000,-2.261120,-0.418388,-0.238804,-0.000097,0.000000,0.086290,-0.363186,0.250116,-0.000085,-0.000006,-3.053753,0.000000,0.000000,0.000000,0.000000,0.000000,0.000000,-4.148332,3.795245,1.056797,-0.048898,0.074651,0.049793,0.086290,-0.363187,0.250113,0.000000,-0.000000,-3.053753,0.000000,0.000000,0.000000,0.000000,0.000000,0.000000,0,28.437500,29.187500,27.625000,31.812500,35.000000,36.187500,0.642300,7,253,253,253,253,253,253,1,0.191536,0.095768,9.500193,0.000000,1.000000,0.000000,47.512241,47.546276,0.594187,47.470268,47.427269,47.527599,47.527599,47.326939,47.341274,0,1,-0.000000,-0.000000,0.004000,0.004000,1,1,-648.264757,148.646553,19380.026641,-33.669018,-11.281341,33.974818,0.000002,0.000002,0.000002,0.000000,0.000000,0.000000,0,0,0,0,0,0,0,0,0,0.000000,0.000000,0.000000,0.000000,0.000000,0.000000,0.000000,0.000000
241499.188000,1.437494,-1.089114,2.525809,3.275377,1.572121,3.357390,0.000000,0.000000,0.000000,0.000000,0.000000,0.000000,0.000000,0.000000,0.000000,0.000000,0.000000,0.000000,-0.000000,-2.261014,-0.418521,-0.238800,-0.000094,0.000000,-0.000000,-23.523560,-4.324478,-1.846364,-0.000738,0.000000,1.437497,-1.089118,2.525879,3.275385,1.572128,3.357378,0.000000,0.000000,-0.000000,-0.000000,0.000000,0.000000,0.214536,-1.865627,-0.686877,-0.186847,-0.021807,-0.034985,-0.000000,-2.261014,-0.418521,-0.238800,-0.000094,0.000000,0.086293,-0.363167,0.250104,0.000032,0.000109,-3.053761,0.000000,0.000000,0.000000,0.000000,0.000000,0.000000,-4.271350,3.576296,0.938519,-0.056039,0.078163,0.045504,0.086290,-0.363187,0.250113,0.000000,-0.000000,-3.053753,0.000000,0.000000,0.000000,0.000000,0.000000,0.000000,0,28.437500,29.187500,27.625000,31.812500,35.000000,36.187500,0.642276,7,253,253,253,253,253,253,1,0.306458,0.134075,9.461885,0.000000,1.000000,0.000000,47.530155,47.584785,0.623279,47.484600,47.427269,47.541931,47.527599,47.341274,47.441601,0,1,-0.000000,-0.000000,0.004000,0.004000,1,1,-648.122866,148.854000,19379.908386,-33.662212,-11.285472,33.970527,0.000002,0.000002,0.000002,0.000000,0.000000,0.000000,0,0,0,0,0,0,0,0,0,0.000000,0.000000,0.000000,0.000000,0.000000,0.000000,0.000000,0.000000
241499.190000,1.437494,-1.089114,2.525809,3.275377,1.572121,3.357390,0.000000,0.000000,0.000000,0.000000,0.000000,0.000000,0.000000,0.000000,0.000000,0.000000,0.000000,0.000000,0.000000,-2.260906,-0.418408,-0.238807,-0.000098,0.000000,0.000000,-23.522439,-4.323309,-1.846415,-0.000774,0.000000,1.437457,-1.089106,2.525818,3.275365,1.572104,3.357451,0.000000,0.000000,-0.000000,-0.000000,0.000000,0.000000,0.227859,-1.854910,-0.696234,-0.177076,-0.015540,-0.035562,0.000000,-2.260906,-0.418408,-0.238807,-0.000098,0.000000,0.086279,-0.363188,0.250111,-0.000024,0.000011,-3.053728,0.000000,0.000000,0.000000,0.000000,0.000000,0.000000,-4.150502,3.917706,1.152730,-0.044770,0.072014,0.044297,0.086290,-0.363187,0.250113,0.000000,-0.000000,-3.053753,0.000000,0.000000,0.000000,0.000000,0.000000,0.000000,0,28.437500,29.187500,27.625000,31.812500,35.000000,36.187500,0.645708,7,253,253,253,253,253,253,1,0.229843,0.095768,9.538500,0.000000,1.000000,0.000000,47.543587,47.605385,0.634469,47.498932,47.427269,47.556267,47.556267,47.341274,47.412937,0,1,-0.000000,-0.000000,0.004000,0.004000,1,1,-648.273390,148.524290,19380.122685,-33.672902,-11.278355,33.969323,0.000002,0.000002,0.000002,0.000000,0.000000,0.000000,0,0,0,0,0,0,0,0,0,0.000000,0.000000,0.000000,0.000000,0.000000,0.000000,0.000000,0.000000
241499.192000,1.437494,-1.089114,2.525809,3.275377,1.572121,3.357390,0.000000,0.000000,0.000000,0.000000,0.000000,0.000000,0.000000,0.000000,0.000000,0.000000,0.000000,0.000000,0.000000,-2.261032,-0.418492,-0.238802,-0.000096,0.000000,0.000000,-23.523749,-4.324178,-1.846375,-0.000759,0.000000,1.437539,-1.089177,2.525827,3.275368,1.572092,3.357389,0.000000,0.000000,-0.000000,-0.000000,0.000000,0.000000,0.287788,-1.876774,-0.708088,-0.171920,-0.016038,-0.032011,0.000000,-2.261032,-0.418492,-0.238802,-0.000096,0.000000,0.086311,-0.363172,0.250134,-0.000058,-0.000075,-3.053709,0.000000,0.000000,0.000000,0.000000,0.000000,0.000000,-4.070806,3.845715,1.189695,-0.047655,0.074046,0.046585,0.086290,-0.363187,0.250113,0.000000,-0.000000,-3.053753,0.000000,0.000000,0.000000,0.000000,0.000000,0.000000,0,28.437500,29.187500,27.625000,31.812500,35.000000,36.187500,0.651456,7,253,253,253,253,253,253,1,0.191536,0.095768,9.404425,0.000000,1.000000,0.000000,47.497913,47.558811,0.600900,47.484600,47.412937,47.527599,47.556267,47.312607,47.412937,0,1,-0.000000,-0.000000,0.004000,0.004000,1,1,-648.346571,148.602858,19380.159794,-33.670209,-11.280629,33.971614,0.000002,0.000002,0.000002,0.000000,0.000000,0.000000,0,0,0,0,0,0,0,0,0,0.000000,0.000000,0.000000,0.000000,0.000000,0.000000,0.000000,0.000000
241499.194000,1.437494,-1.089114,2.525809,3.275377,1.572121,3.357390,0.000000,0.000000,0.000000,0.000000,0.000000,0.000000,0.000000,0.000000,0.000000,0.000000,0.000000,0.000000,-0.000000,-2.260887,-0.418600,-0.238797,-0.000096,0.000000,-0.000000,-23.522236,-4.325298,-1.846340,-0.000753,0.000000,1.437481,-1.089152,2.525852,3.275381,1.572108,3.357439,0.000000,0.000000,-0.000000,-0.000000,0.000000,0.000000,0.245381,-1.862484,-0.695149,-0.182244,-0.016105,-0.032153,-0.000000,-2.260887,-0.418600,-0.238797,-0.000096,0.000000,0.086289,-0.363173,0.250120,-0.000017,0.000016,-3.053716,0.000000,0.000000,0.000000,0.000000,0.000000,0.000000,-3.997427,3.969506,1.182640,-0.045962,0.069624,0.047000,0.086290,-0.363187,0.250113,0.000000,-0.000000,-3.053753,0.000000,0.000000,0.000000,0.000000,0.000000,0.000000,0,28.437500,29.187500,27.625000,31.812500,35.000000,36.187500,0.648432,7,253,253,253,253,253,253,1,0.229843,0.095768,9.481039,0.000000,1.000000,0.000000,47.519409,47.574039,0.612089,47.470268,47.412937,47.513268,47.513268,47.312607,47.412937,0,1,-0.000000,-0.000000,0.004000,0.004000,1,1,-648.430465,148.486082,19380.152603,-33.671506,-11.276080,33.972026,0.000002,0.000002,0.000002,0.000000,0.000000,0.000000,0,0,0,0,0,0,0,0,0,0.000000,0.000000,0.000000,0.000000,0.000000,0.000000,0.000000,0.000000
241499.196000,1.437494,-1.089114,2.525809,3.275377,1.572121,3.357390,0.000000,0.000000,0.000000,0.000000,0.000000,0.000000,0.000000,0.000000,0.000000,0.000000,0.000000,0.000000,0.000000,-2.260891,-0.418513,-0.238802,-0.000097,0.000000,0.000000,-23.522277,-4.324402,-1.846377,-0.000762,0.000000,1.437481,-1.089164,2.525786,3.275356,1.572115,3.357414,0.000000,0.000000,-0.000000,-0.000000,0.000000,0.000000,0.296246,-1.891216,-0.751007,-0.167441,-0.008568,-0.022085,0.000000,-2.260891,-0.418513,-0.238802,-0.000097,0.000000,0.086286,-0.363189,0.250137,-0.000033,-0.000140,-3.053741,0.000000,0.000000,0.000000,0.000000,0.000000,0.000000,-4.043602,3.732010,1.077855,-0.051979,0.072673,0.048336,0.086290,-0.363187,0.250113,0.000000,-0.000000,-3.053753,0.000000,0.000000,0.000000,0.000000,0.000000,0.000000,0,28.437500,29.187500,27.625000,31.812500,35.000000,36.187500,0.644941,7,253,253,253,253,253,253,1,0.268151,0.153229,9.538500,0.000000,1.000000,0.000000,47.549854,47.582996,0.645659,47.498932,47.427269,47.556267,47.498932,47.326939,47.369938,0,1,-0.000000,-0.000000,0.004000,0.004000,1,1,-648.363545,148.718568,19380.048179,-33.665781,-11.279638,33.973369,0.000002,0.000002,0.000002,0.000000,0.000000,0.000000,0,0,0,0,0,0,0,0,0,0.000000,0.000000,0.000000,0.000000,0.000000,0.000000,0.000000,0.000000
241499.198000,1.437494,-1.089114,2.525809,3.275377,1.572121,3.357390,0.000000,0.000000,0.000000,0.000000,0.000000,0.000000,0.000000,0.000000,0.000000,0.000000,0.000000,0.000000,0.000000,-2.260980,-0.418646,-0.238794,-0.000097,0.000000,0.000000,-23.523209,-4.325777,-1.846317,-0.000766,0.000000,1.437509,-1.089122,2.525773,3.275410,1.572133,3.357431,0.000000,0.000000,-0.000000,-0.000000,0.000000,0.000000,0.236029,-1.871324,-0.723688,-0.190281,-0.015463,-0.032646,0.000000,-2.260980,-0.418646,-0.238794,-0.000097,0.000000,0.086293,-0.363199,0.250119,0.000015,-0.000021,-3.053696,0.000000,0.000000,0.000000,0.000000,0.000000,0.000000,-4.077658,3.759126,0.942513,-0.051461,0.072853,0.047117,0.086290,-0.363187,0.250113,0.000000,-0.000000,-3.053753,0.000000,0.000000,0.000000,0.000000,0.000000,0.000000,0,28.437500,29.187500,27.625000,31.812500,35.000000,36.187500,0.644089,7,253,253,253,253,253,253,1,0.268151,0.114922,9.481039,0.000000,1.000000,0.000000,47.528366,47.597324,0.647900,47.513268,47.455936,47.527599,47.556267,47.384270,47.412937,0,1,-0.000000,-0.000000,0.004000,0.004000,1,1,-648.332139,148.688497,19379.912655,-33.666315,-11.279779,33.972146,0.000002,0.000002,0.000002,0.000000,0.000000,0.000000,0,0,0,0,0,0,0,0,0,0.000000,0.000000,0.000000,0.000000,0.000000,0.000000,0.000000,0.000000
241499.200000,1.437494,-1.089114,2.525809,3.275377,1.572121,3.357390,0.000000,0.000000,0.000000,0.000000,0.000000,0.000000,0.000000,0.000000,0.000000,0.000000,0.000000,0.000000,-0.000000,-2.261082,-0.418600,-0.238801,-0.000099,0.000000,-0.000000,-23.524265,-4.325298,-1.846365,-0.000776,0.000000,1.437502,-1.089085,2.525917,3.275368,1.572104,3.357390,0.000000,0.000000,-0.000000,-0.000000,0.000000,0.000000,0.252088,-1.882291,-0.698436,-0.176172,-0.025707,-0.045106,-0.000000,-2.261082,-0.418600,-0.238801,-0.000099,0.000000,0.086299,-0.363157,0.250088,0.000009,0.000197,-3.053745,0.000000,0.000000,0.000000,0.000000,0.000000,0.000000,-4.177643,3.752970,0.916220,-0.051077,0.074298,0.049280,0.086290,-0.363187,0.250113,0.000000,-0.000000,-3.053753,0.000000,0.000000,0.000000,0.000000,0.000000,0.000000,0,28.437500,29.187500,27.625000,31.812500,35.000000,36.187500,0.646657,7,253,253,253,253,253,253,1,0.172383,0.172383,9.461885,0.000000,1.000000,0.000000,47.518509,47.559711,0.614330,47.484600,47.412937,47.484600,47.556267,47.355606,47.369938,0,1,-0.000000,-0.000000,0.004000,0.004000,1,1,-648.231794,148.686253,19379.885786,-33.666815,-11.281189,33.974298,0.000002,0.000002,0.000002,0.000000,0.000000,0.000000,0,0,0,0,0,0,0,0,0,0.000000,0.000000,0.000000,0.000000,0.000000,0.000000,0.000000,0.000000
241499.202000,1.437494,-1.089114,2.525809,3.275377,1.572121,3.357390,0.000000,0.000000,0.000000,0.000000,0.000000,0.000000,0.000000,0.000000,0.000000,0.000000,0.000000,0.000000,0.000000,-2.260901,-0.418285,-0.238811,-0.000096,0.000000,0.000000,-23.522384,-4.322042,-1.846446,-0.000759,0.000000,1.437460,-1.089155,2.525831,3.275397,1.572083,3.357399,0.000000,0.000000,-0.000000,-0.000000,0.000000,0.000000,0.243313,-1.863175,-0.709311,-0.174676,-0.007935,-0.028634,0.000000,-2.260901,-0.418285,-0.238811,-0.000096,0.000000,0.086283,-0.363183,0.250123,-0.000057,0.000011,-3.053778,0.000000,0.000000,0.000000,0.000000,0.000000,0.000000,-4.084904,3.811716,1.126620,-0.052198,0.071928,0.049329,0.086290,-0.363187,0.250113,0.000000,-0.000000,-3.053753,0.000000,0.000000,0.000000,0.000000,0.000000,0.000000,0,28.437500,29.187500,27.625000,31.812500,35.000000,36.187500,0.645324,7,253,253,253,253,253,253,1,0.191536,0.191536,9.500193,0.000000,1.000000,0.000000,47.505077,47.556129,0.627756,47.470268,47.398605,47.513268,47.513268,47.326939,47.369938,0,1,-0.000000,-0.000000,0.004000,0.004000,1,1,-648.329257,148.635813,19380.096495,-33.665491,-11.278918,33.974354,0.000002,0.000002,0.000002,0.000000,0.000000,0.000000,0,0,0,0,0,0,0,0,0,0.000000,0.000000,0.000000,0.000000,0.000000,0.000000,0.000000,0.000000
241499.204000,1.437494,-1.089114,2.525809,3.275377,1.572121,3.357390,0.000000,0.000000,0.000000,0.000000,0.000000,0.000000,0.000000,0.000000,0.000000,0.000000,0.000000,0.000000,-0.000000,-2.260922,-0.418556,-0.238802,-0.000095,0.000000,-0.000000,-23.522600,-4.324841,-1.846372,-0.000747,0.000000,1.437502,-1.089122,2.525857,3.275352,1.572161,3.357406,0.000000,0.000000,-0.000000,-0.000000,0.000000,0.000000,0.228993,-1.864591,-0.707754,-0.181304,-0.011962,-0.030639,-0.000000,-2.260922,-0.418556,-0.238802,-0.000095,0.000000,0.086291,-0.363169,0.250112,0.000066,0.000010,-3.053728,0.000000,0.000000,0.000000,0.000000,0.000000,0.000000,-4.200300,3.599777,1.059025,-0.056595,0.076873,0.047043,0.086290,-0.363187,0.250113,0.000000,-0.000000,-3.053753,0.000000,0.000000,0.000000,0.000000,0.000000,0.000000,0,28.437500,29.187500,27.625000,31.812500,35.000000,36.187500,0.644700,7,253,253,253,253,253,253,1,0.229843,0.076614,9.576807,0.000000,1.000000,0.000000,47.522987,47.576725,0.603141,47.484600,47.455936,47.556267,47.556267,47.412937,47.441601,0,1,-0.000000,-0.000000,0.004000,0.004000,1,1,-648.195807,148.836619,19380.029223,-33.661552,-11.284235,33.972072,0.000002,0.000002,0.000002,0.000000,0.000000,0.000000,0,0,0,0,0,0,0,0,0,0.000000,0.000000,0.000000,0.000000,0.000000,0.000000,0.000000,0.000000
241499.206000,1.437494,-1.089114,2.525809,3.275377,1.572121,3.357390,0.000000,0.000000,0.000000,0.000000,0.000000,0.000000,0.000000,0.000000,0.000000,0.000000,0.000000,0.000000,0.000000,-2.260936,-0.418453,-0.238802,-0.000101,0.000000,0.000000,-23.522743,-4.323776,-1.846380,-0.000793,0.000000,1.437460,-1.089110,2.525799,3.275389,1.572107,3.357402,0.000000,0.000000,-0.000000,-0.000000,0.000000,0.000000,0.279493,-1.850080,-0.702655,-0.169537,-0.008328,-0.023845,0.000000,-2.260936,-0.418453,-0.238802,-0.000101,0.000000,0.086279,-0.363195,0.250113,-0.000020,0.000011,-3.053774,0.000000,0.000000,0.000000,0.000000,0.000000,0.000000,-4.378197,3.606168,1.066436,-0.050790,0.077721,0.046499,0.086290,-0.363187,0.250113,0.000000,-0.000000,-3.053753,0.000000,0.000000,0.000000,0.000000,0.000000,0.000000,0,28.437500,29.187500,27.625000,31.812500,35.000000,36.187500,0.649752,7,253,253,253,253,253,253,1,0.191536,0.153229,9.500193,0.000000,1.000000,0.000000,47.522095,47.582996,0.697131,47.498932,47.398605,47.541931,47.599262,47.326939,47.427269,0,1,-0.000000,-0.000000,0.004000,0.004000,1,1,-648.019049,148.814832,19380.036404,-33.667402,-11.284566,33.971525,0.000002,0.000002,0.000002,0.000000,0.000000,0.000000,0,0,0,0,0,0,0,0,0,0.000000,0.000000,0.000000,0.000000,0.000000,0.000000,0.000000,0.000000
241499.208000,1.437494,-1.089114,2.525809,3.275377,1.572121,3.357390,0.000000,0.000000,0.000000,0.000000,0.000000,0.000000,0.000000,0.000000,0.000000,0.000000,0.000000,0.000000,0.000000,-2.261059,-0.418534,-0.238802,-0.000097,0.000000,0.000000,-23.524022,-4.324614,-1.846375,-0.000761,0.000000,1.437494,-1.089106,2.525823,3.275377,1.572112,3.357365,0.000000,0.000000,-0.000000,-0.000000,0.000000,0.000000,0.264441,-1.809003,-0.715953,-0.173869,-0.015108,-0.039702,0.000000,-2.261059,-0.418534,-0.238802,-0.000097,0.000000,0.086292,-0.363184,0.250109,-0.000007,0.000035,-3.053777,0.000000,0.000000,0.000000,0.000000,0.000000,0.000000,-4.129290,3.679492,0.958546,-0.050746,0.072522,0.040356,0.086290,-0.363187,0.250113,0.000000,-0.000000,-3.053753,0.000000,0.000000,0.000000,0.000000,0.000000,0.000000,0,28.437500,29.187500,27.625000,31.812500,35.000000,36.187500,0.661584,7,253,253,253,253,253,253,1,0.191536,0.134075,9.461885,0.000000,1.000000,0.000000,47.503288,47.565979,0.674751,47.470268,47.398605,47.513268,47.513268,47.326939,47.412937,0,1,-0.000000,-0.000000,0.004000,0.004000,1,1,-648.273405,148.763655,19379.928490,-33.666990,-11.279384,33.965381,0.000002,0.000002,0.000002,0.000000,0.000000,0.000000,0,0,0,0,0,0,0,0,0,0.000000,0.000000,0.000000,0.000000,0.000000,0.000000,0.000000,0.000000
241499.210000,1.437494,-1.089114,2.525809,3.275377,1.572121,3.357390,0.000000,0.000000,0.000000,0.000000,0.000000,0.000000,0.000000,0.000000,0.000000,0.000000,0.000000,0.000000,-0.000000,-2.261024,-0.418484,-0.238803,-0.000097,0.000000,-0.000000,-23.523668,-4.324095,-1.846384,-0.000764,0.000000,1.437527,-1.089134,2.525835,3.275365,1.572128,3.357357,0.000000,0.000000,-0.000000,-0.000000,0.000000,0.000000,0.241153,-1.879535,-0.687439,-0.180239,-0.020818,-0.036147,-0.000000,-2.261024,-0.418484,-0.238803,-0.000097,0.000000,0.086303,-0.363174,0.250118,0.000010,-0.000012,-3.053752,0.000000,0.000000,0.000000,0.000000,0.000000,0.000000,-4.302130,3.660722,1.079326,-0.052677,0.074107,0.046924,0.086290,-0.363187,0.250113,0.000000,-0.000000,-3.053753,0.000000,0.000000,0.000000,0.000000,0.000000,0.000000,0,28.437500,29.187500,27.625000,31.812500,35.000000,36.187500,0.645060,7,253,253,253,253,253,253,1,0.210690,0.114922,9.442732,0.000000,1.000000,0.000000,47.508659,47.574039,0.650136,47.498932,47.427269,47.527599,47.513268,47.326939,47.384270,0,1,-0.000000,-0.000000,0.004000,0.004000,1,1,-648.099671,148.767053,19380.049432,-33.665209,-11.281133,33.971952,0.000002,0.000002,0.000002,0.000000,0.000000,0.000000,0,0,0,0,0,0,0,0,0,0.000000,0.000000,0.000000,0.000000,0.000000,0.000000,0.000000,0.000000
241499.212000,1.437494,-1.089114,2.525809,3.275377,1.572121,3.357390,0.000000,0.000000,0.000000,0.000000,0.000000,0.000000,0.000000,0.000000,0.000000,0.000000,0.000000,0.000000,-0.000000,-2.260951,-0.418511,-0.238801,-0.000098,0.000000,-0.000000,-23.522902,-4.324373,-1.846368,-0.000774,0.000000,1.437456,-1.089085,2.525868,3.275373,1.572104,3.357344,0.000000,0.000000,-0.000000,-0.000000,0.000000,0.000000,0.189280,-1.842073,-0.723281,-0.164721,-0.027525,-0.045255,-0.000000,-2.260951,-0.418511,-0.238801,-0.000098,0.000000,0.086280,-0.363176,0.250095,-0.000003,0.000130,-3.053837,0.000000,0.000000,0.000000,0.000000,0.000000,0.000000,-4.285989,3.526501,1.283978,-0.057308,0.074154,0.044159,0.086290,-0.363187,0.250113,0.000000,-0.000000,-3.053753,0.000000,0.000000,0.000000,0.000000,0.000000,0.000000,0,28.437500,29.187500,27.625000,31.812500,35.000000,36.187500,0.642132,7,253,253,253,253,253,253,1,0.229843,0.095768,9.442732,0.000000,1.000000,0.000000,47.538216,47.566872,0.676992,47.498932,47.441601,47.541931,47.541931,47.326939,47.398605,0,1,-0.000000,-0.000000,0.004000,0.004000,1,1,-648.103654,148.902611,19380.253704,-33.660590,-11.281586,33.969180,0.000002,0.000002,0.000002,0.000000,0.000000,0.000000,0,0,0,0,0,0,0,0,0,0.000000,0.000000,0.000000,0.000000,0.000000,0.000000,0.000000,0.000000
241499.214000,1.437494,-1.089114,2.525809,3.275377,1.572121,3.357390,0.000000,0.000000,0.000000,0.000000,0.000000,0.000000,0.000000,0.000000,0.000000,0.000000,0.000000,0.000000,-0.000000,-2.260985,-0.418370,-0.238808,-0.000096,0.000000,-0.000000,-23.523261,-4.322918,-1.846420,-0.000759,0.000000,1.437456,-1.089161,2.525812,3.275393,1.572141,3.357369,0.000000,0.000000,-0.000000,-0.000000,0.000000,0.000000,0.281663,-1.842176,-0.747132,-0.171770,-0.000870,-0.036528,-0.000000,-2.260985,-0.418370,-0.238808,-0.000096,0.000000,0.086275,-0.363187,0.250128,0.000023,-0.000049,-3.053811,0.000000,0.000000,0.000000,0.000000,0.000000,0.000000,-4.404257,3.550583,1.138463,-0.054501,0.078722,0.044267,0.086290,-0.363187,0.250113,0.000000,-0.000000,-3.053753,0.000000,0.000000,0.000000,0.000000,0.000000,0.000000,0,28.437500,29.187500,27.625000,31.812500,35.000000,36.187500,0.641688,7,253,253,253,253,253,253,1,0.210690,0.114922,9.519346,0.000000,1.000000,0.000000,47.522095,47.575829,0.645659,47.527599,47.427269,47.570599,47.584930,47.369938,47.455936,0,1,-0.000000,-0.000000,0.004000,0.004000,1,1,-647.988036,148.868017,19380.108694,-33.663793,-11.285886,33.969297,0.000002,0.000002,0.000002,0.000000,0.000000,0.000000,0,0,0,0,0,0,0,0,0,0.000000,0.000000,0.000000,0.000000,0.000000,0.000000,0.000000,0.000000
241499.216000,1.437494,-1.089114,2.525809,3.275377,1.572121,3.357390,0.000000,0.000000,0.000000,0.000000,0.000000,0.000000,0.000000,0.000000,0.000000,0.000000,0.000000,0.000000,0.000000,-2.260944,-0.418599,-0.238799,-0.000099,0.000000,0.000000,-23.522830,-4.325286,-1.846355,-0.000781,0.000000,1.437452,-1.089127,2.525857,3.275397,1.572150,3.357394,0.000000,0.000000,-0.000000,-0.000000,0.000000,0.000000,0.297659,-1.863612,-0.723886,-0.182217,-0.016786,-0.035015,0.000000,-2.260944,-0.418599,-0.238799,-0.000099,0.000000,0.086274,-0.363178,0.250109,0.000058,0.000075,-3.053790,0.000000,0.000000,0.000000,0.000000,0.000000,0.000000,-4.233204,3.872823,0.978623,-0.048066,0.075873,0.047873,0.086290,-0.363187,0.250113,0.000000,-0.000000,-3.053753,0.000000,0.000000,0.000000,0.000000,0.000000,0.000000,0,28.437500,29.187500,27.625000,31.812500,35.000000,36.187500,0.638569,7,253,253,253,253,253,253,1,0.210690,0.134075,9.519346,0.000000,1.000000,0.000000,47.524784,47.573143,0.585233,47.470268,47.427269,47.541931,47.513268,47.326939,47.412937,0,1,-0.000000,-0.000000,0.004000,0.004000,1,1,-648.186732,148.562038,19379.948629,-33.669953,-11.282490,33.972898,0.000002,0.000002,0.000002,0.000000,0.000000,0.000000,0,0,0,0,0,0,0,0,0,0.000000,0.000000,0.000000,0.000000,0.000000,0.000000,0.000000,0.000000
241499.218000,1.437494,-1.089114,2.525809,3.275377,1.572121,3.357390,0.000000,0.000000,0.000000,0.000000,0.000000,0.000000,0.000000,0.000000,0.000000,0.000000,0.000000,0.000000,0.000000,-2.260930,-0.418463,-0.238806,-0.000100,0.000000,0.000000,-23.522684,-4.323882,-1.846404,-0.000786,0.000000,1.437464,-1.089090,2.525859,3.275349,1.572067,3.357382,0.000000,0.000000,-0.000000,-0.000000,0.000000,0.000000,0.252324,-1.866638,-0.709156,-0.172705,0.005030,-0.026006,0.000000,-2.260930,-0.418463,-0.238806,-0.000100,0.000000,0.086287,-0.363175,0.250101,-0.000069,0.000081,-3.053790,0.000000,0.000000,0.000000,0.000000,0.000000,0.000000,-4.244542,3.833293,1.020613,-0.051606,0.072939,0.051974,0.086290,-0.363187,0.250113,0.000000,-0.000000,-3.053753,0.000000,0.000000,0.000000,0.000000,0.000000,0.000000,0,28.437500,29.187500,27.625000,31.812500,35.000000,36.187500,0.642637,7,253,253,253,253,253,253,1,0.210690,0.134075,9.538500,0.000000,1.000000,0.000000,47.498810,47.560604,0.625520,47.470268,47.427269,47.513268,47.513268,47.355606,47.412937,0,1,-0.000000,-0.000000,0.004000,0.004000,1,1,-648.172089,148.600431,19379.990264,-33.666165,-11.279874,33.976995,0.000002,0.000002,0.000002,0.000000,0.000000,0.000000,0,0,0,0,0,0,0,0,0,0.000000,0.000000,0.000000,0.000000,0.000000,0.000000,0.000000,0.000000
241499.220000,1.437494,-1.089114,2.525809,3.275377,1.572121,3.357390,0.000000,0.000000,0.000000,0.000000,0.000000,0.000000,0.000000,0.000000,0.000000,0.000000,0.000000,0.000000,-0.000000,-2.260989,-0.418393,-0.238805,-0.000094,0.000000,-0.000000,-23.523294,-4.323164,-1.846398,-0.000738,0.000000,1.437522,-1.089123,2.525822,3.275417,1.572153,3.357394,0.000000,0.000000,-0.000000,-0.000000,0.000000,0.000000,0.304148,-1.838562,-0.727547,-0.175991,-0.024888,-0.034759,-0.000000,-2.260989,-0.418393,-0.238805,-0.000094,0.000000,0.086297,-0.363184,0.250111,0.000060,0.000057,-3.053720,0.000000,0.000000,0.000000,0.000000,0.000000,0.000000,-4.168315,3.834856,1.379873,-0.046633,0.074979,0.045027,0.086290,-0.363187,0.250113,0.000000,-0.000000,-3.053753,0.000000,0.000000,0.000000,0.000000,0.000000,0.000000,0,28.437500,29.187500,27.625000,31.812500,35.000000,36.187500,0.661957,7,253,253,253,253,253,253,1,0.191536,0.114922,9.442732,0.000000,1.000000,0.000000,47.510452,47.567768,0.690418,47.498932,47.412937,47.541931,47.527599,47.369938,47.369938,0,1,-0.000000,-0.000000,0.004000,0.004000,1,1,-648.248350,148.605252,19380.349929,-33.671308,-11.281476,33.970053,0.000002,0.000002,0.000002,0.000000,0.000000,0.000000,0,0,0,0,0,0,0,0,0,0.000000,0.000000,0.000000,0.000000,0.000000,0.000000,0.000000,0.000000
241499.222000,1.437494,-1.089114,2.525809,3.275377,1.572121,3.357390,0.000000,0.000000,0.000000,0.000000,0.000000,0.000000,0.000000,0.000000,0.000000,0.000000,0.000000,0.000000,-0.000000,-2.260995,-0.418517,-0.238805,-0.000100,0.000000,-0.000000,-23.523362,-4.324444,-1.846397,-0.000788,0.000000,1.437466,-1.089155,2.525827,3.275377,1.572137,3.357427,0.000000,0.000000,-0.000000,-0.000000,0.000000,0.000000,0.246916,-1.893287,-0.721460,-0.188595,-0.014195,-0.035161,-0.000000,-2.260995,-0.418517,-0.238805,-0.000100,0.000000,0.086279,-0.363181,0.250125,0.000018,-0.000040,-3.053743,0.000000,0.000000,0.000000,0.000000,0.000000,0.000000,-4.325772,3.401736,1.401586,-0.059166,0.077931,0.042466,0.086290,-0.363187,0.250113,0.000000,-0.000000,-3.053753,0.000000,0.000000,0.000000,0.000000,0.000000,0.000000,0,28.437500,29.187500,27.625000,31.812500,35.000000,36.187500,0.640860,7,253,253,253,253,253,253,1,0.268151,0.172383,9.461885,0.000000,1.000000,0.000000,47.518509,47.576725,0.632233,47.513268,47.455936,47.527599,47.556267,47.341274,47.427269,0,1,-0.000000,-0.000000,0.004000,0.004000,1,1,-648.053432,149.022913,19380.371778,-33.659082,-11.285511,33.967496,0.000002,0.000002,0.000002,0.000000,0.000000,0.000000,0,0,0,0,0,0,0,0,0,0.000000,0.000000,0.000000,0.000000,0.000000,0.000000,0.000000,0.000000
241499.224000,1.437494,-1.089114,2.525809,3.275377,1.572121,3.357390,0.000000,0.000000,0.000000,0.000000,0.000000,0.000000,0.000000,0.000000,0.000000,0.000000,0.000000,0.000000,-0.000000,-2.260928,-0.418562,-0.238800,-0.000099,0.000000,-0.000000,-23.522665,-4.324905,-1.846358,-0.000779,0.000000,1.437444,-1.089122,2.525831,3.275406,1.572144,3.357419,0.000000,0.000000,-0.000000,-0.000000,0.000000,0.000000,0.271152,-1.851618,-0.754951,-0.179732,-0.018258,-0.029526,-0.000000,-2.260928,-0.418562,-0.238800,-0.000099,0.000000,0.086270,-0.363187,0.250110,0.000046,0.000057,-3.053773,0.000000,0.000000,0.000000,0.000000,0.000000,0.000000,-3.928900,3.738595,1.059302,-0.051951,0.070056,0.050720,0.086290,-0.363187,0.250113,0.000000,-0.000000,-3.053753,0.000000,0.000000,0.000000,0.000000,0.000000,0.000000,0,28.437500,29.187500,27.625000,31.812500,35.000000,36.187500,0.641160,7,253,253,253,253,253,253,1,0.268151,0.153229,9.442732,0.000000,1.000000,0.000000,47.514034,47.571350,0.549428,47.470268,47.427269,47.513268,47.527599,47.312607,47.412937,0,1,-0.000000,-0.000000,0.004000,0.004000,1,1,-648.478174,148.722356,19380.029321,-33.665575,-11.277036,33.975746,0.000002,0.000002,0.000002,0.000000,0.000000,0.000000,0,0,0,0,0,0,0,0,0,0.000000,0.000000,0.000000,0.000000,0.000000,0.000000,0.000000,0.000000
241499.226000,1.437494,-1.089114,2.525809,3.275377,1.572121,3.357390,0.000000,0.000000,0.000000,0.000000,0.000000,0.000000,0.000000,0.000000,0.000000,0.000000,0.000000,0.000000,0.000000,-2.260982,-0.418500,-0.238805,-0.000099,0.000000,0.000000,-23.523228,-4.324261,-1.846396,-0.000783,0.000000,1.437506,-1.089173,2.525827,3.275410,1.572145,3.357378,0.000000,0.000000,-0.000000,-0.000000,0.000000,0.000000,0.204843,-1.837011,-0.729025,-0.168356,-0.012441,-0.027642,0.000000,-2.260982,-0.418500,-0.238805,-0.000099,0.000000,0.086293,-0.363179,0.250128,0.000035,-0.000020,-3.053752,0.000000,0.000000,0.000000,0.000000,0.000000,0.000000,-4.125275,3.870884,0.876962,-0.045960,0.072635,0.044813,0.086290,-0.363187,0.250113,0.000000,-0.000000,-3.053753,0.000000,0.000000,0.000000,0.000000,0.000000,0.000000,0,28.437500,29.187500,27.625000,31.812500,35.000000,36.187500,0.640224,7,253,253,253,253,253,253,1,0.268151,0.114922,9.557653,0.000000,1.000000,0.000000,47.504181,47.548065,0.607612,47.455936,47.412937,47.513268,47.498932,47.326939,47.398605,0,1,-0.000000,-0.000000,0.004000,0.004000,1,1,-648.294257,148.573204,19379.847153,-33.671772,-11.279077,33.969842,0.000002,0.000002,0.000002,0.000000,0.000000,0.000000,0,0,0,0,0,0,0,0,0,0.000000,0.000000,0.000000,0.000000,0.000000,0.000000,0.000000,0.000000
241499.228000,1.437494,-1.089114,2.525809,3.275377,1.572121,3.357390,0.000000,0.000000,0.000000,0.000000,0.000000,0.000000,0.000000,0.000000,0.000000,0.000000,0.000000,0.000000,0.000000,-2.260897,-0.418595,-0.238801,-0.000099,0.000000,0.000000,-23.522346,-4.325242,-1.846367,-0.000784,0.000000,1.437452,-1.089156,2.525814,3.275361,1.572128,3.357381,0.000000,0.000000,-0.000000,-0.000000,0.000000,0.000000,0.274523,-1.853320,-0.787087,-0.182313,-0.008595,-0.030219,0.000000,-2.260897,-0.418595,-0.238801,-0.000099,0.000000,0.086275,-0.363184,0.250129,-0.000003,-0.000083,-3.053802,0.000000,0.000000,0.000000,0.000000,0.000000,0.000000,-4.161604,3.840088,0.978886,-0.047724,0.069036,0.044718,0.086290,-0.363187,0.250113,0.000000,-0.000000,-3.053753,0.000000,0.000000,0.000000,0.000000,0.000000,0.000000,0,28.437500,29.187500,27.625000,31.812500,35.000000,36.187500,0.643932,7,253,253,253,253,253,253,1,0.172383,0.038307,9.500193,0.000000,1.000000,0.000000,47.514931,47.574039,0.621043,47.498932,47.398605,47.541931,47.527599,47.384270,47.427269,0,1,-0.000000,-0.000000,0.004000,0.004000,1,1,-648.255197,148.600829,19379.949145,-33.669696,-11.275642,33.969749,0.000002,0.000002,0.000002,0.000000,0.000000,0.000000,0,0,0,0,0,0,0,0,0,0.000000,0.000000,0.000000,0.000000,0.000000,0.000000,0.000000,0.000000
241499.230000,1.437494,-1.089114,2.525809,3.275377,1.572121,3.357390,0.000000,0.000000,0.000000,0.000000,0.000000,0.000000,0.000000,0.000000,0.000000,0.000000,0.000000,0.000000,-0.000000,-2.260946,-0.418585,-0.238797,-0.000098,0.000000,-0.000000,-23.522850,-4.325140,-1.846341,-0.000774,0.000000,1.437481,-1.089147,2.525848,3.275410,1.572128,3.357406,0.000000,0.000000,-0.000000,-0.000000,0.000000,0.000000,0.240043,-1.880389,-0.737688,-0.171870,-0.008590,-0.041025,-0.000000,-2.260946,-0.418585,-0.238797,-0.000098,0.000000,0.086286,-0.363177,0.250116,0.000022,0.000054,-3.053749,0.000000,0.000000,0.000000,0.000000,0.000000,0.000000,-3.970902,3.805327,1.191322,-0.048841,0.072421,0.050166,0.086290,-0.363187,0.250113,0.000000,-0.000000,-3.053753,0.000000,0.000000,0.000000,0.000000,0.000000,0.000000,0,28.437500,29.187500,27.625000,31.812500,35.000000,36.187500,0.640632,7,253,253,253,253,253,253,1,0.172383,0.114922,9.423578,0.000000,1.000000,0.000000,47.533737,47.566872,0.567330,47.470268,47.398605,47.541931,47.527599,47.312607,47.412937,0,1,-0.000000,-0.000000,0.004000,0.004000,1,1,-648.442310,148.652104,19380.161284,-33.668882,-11.279120,33.975191,0.000002,0.000002,0.000002,0.000000,0.000000,0.000000,0,0,0,0,0,0,0,0,0,0.000000,0.000000,0.000000,0.000000,0.000000,0.000000,0.000000,0.000000
241499.232000,1.437494,-1.089114,2.525809,3.275377,1.572121,3.357390,0.000000,0.000000,0.000000,0.000000,0.000000,0.000000,0.000000,0.000000,0.000000,0.000000,0.000000,0.000000,-0.000000,-2.260908,-0.418515,-0.238804,-0.000098,0.000000,-0.000000,-23.522455,-4.324416,-1.846394,-0.000774,0.000000,1.437518,-1.089159,2.525840,3.275368,1.572132,3.357406,0.000000,0.000000,-0.000000,-0.000000,0.000000,0.000000,0.235298,-1.900030,-0.683002,-0.178233,-0.008600,-0.037030,-0.000000,-2.260908,-0.418515,-0.238804,-0.000098,0.000000,0.086300,-0.363171,0.250126,0.000011,-0.000040,-3.053712,0.000000,0.000000,0.000000,0.000000,0.000000,0.000000,-3.901071,3.805536,1.188650,-0.048880,0.068148,0.047931,0.086290,-0.363187,0.250113,0.000000,-0.000000,-3.053753,0.000000,0.000000,0.000000,0.000000,0.000000,0.000000,0,28.437500,29.187500,27.625000,31.812500,35.000000,36.187500,0.637704,7,253,253,253,253,253,253,1,0.191536,0.038307,9.461885,0.000000,1.000000,0.000000,47.527466,47.582996,0.603141,47.455936,47.412937,47.541931,47.527599,47.312607,47.369938,0,1,-0.000000,-0.000000,0.004000,0.004000,1,1,-648.512056,148.657816,19380.158828,-33.668472,-11.274864,33.972960,0.000002,0.000002,0.000002,0.000000,0.000000,0.000000,0,0,0,0,0,0,0,0,0,0.000000,0.000000,0.000000,0.000000,0.000000,0.000000,0.000000,0.000000
241499.234000,1.437494,-1.089114,2.525809,3.275377,1.572121,3.357390,0.000000,0.000000,0.000000,0.000000,0.000000,0.000000,0.000000,0.000000,0.000000,0.000000,0.000000,0.000000,0.000000,-2.260897,-0.418547,-0.238800,-0.000098,0.000000,0.000000,-23.522346,-4.324751,-1.846358,-0.000776,0.000000,1.437427,-1.089164,2.525848,3.275431,1.572124,3.357423,0.000000,0.000000,-0.000000,-0.000000,0.000000,0.000000,0.243272,-1.844833,-0.719303,-0.172395,-0.014638,-0.034575,0.000000,-2.260897,-0.418547,-0.238800,-0.000098,0.000000,0.086267,-0.363183,0.250120,0.000016,0.000062,-3.053786,0.000000,0.000000,0.000000,0.000000,0.000000,0.000000,-4.081162,3.888780,1.145215,-0.049544,0.071900,0.049878,0.086290,-0.363187,0.250113,0.000000,-0.000000,-3.053753,0.000000,0.000000,0.000000,0.000000,0.000000,0.000000,0,28.437500,29.187500,27.625000,31.812500,35.000000,36.187500,0.639469,7,253,253,253,253,253,253,1,0.229843,0.114922,9.576807,0.000000,1.000000,0.000000,47.512241,47.565979,0.600900,47.470268,47.398605,47.541931,47.498932,47.341274,47.412937,0,1,-0.000000,-0.000000,0.004000,0.004000,1,1,-648.339645,148.559445,19380.115140,-33.668133,-11.278661,33.974903,0.000002,0.000002,0.000002,0.000000,0.000000,0.000000,0,0,0,0,0,0,0,0,0,0.000000,0.000000,0.000000,0.000000,0.000000,0.000000,0.000000,0.000000
241499.236000,1.437494,-1.089114,2.525809,3.275377,1.572121,3.357390,0.000000,0.000000,0.000000,0.000000,0.000000,0.000000,0.000000,0.000000,0.000000,0.000000,0.000000,0.000000,0.000000,-2.260879,-0.418544,-0.238805,-0.000098,0.000000,0.000000,-23.522154,-4.324722,-1.846396,-0.000771,0.000000,1.437477,-1.089135,2.525840,3.275356,1.572140,3.357354,0.000000,0.000000,-0.000000,-0.000000,0.000000,0.000000,0.300062,-1.837522,-0.701103,-0.177532,-0.014085,-0.049436,0.000000,-2.260879,-0.418544,-0.238805,-0.000098,0.000000,0.086284,-0.363176,0.250119,0.000026,-0.000023,-3.053806,0.000000,0.000000,0.000000,0.000000,0.000000,0.000000,-4.245777,3.718066,0.999071,-0.049550,0.076170,0.047740,0.086290,-0.363187,0.250113,0.000000,-0.000000,-3.053753,0.000000,0.000000,0.000000,0.000000,0.000000,0.000000,0,28.437500,29.187500,27.625000,31.812500,35.000000,36.187500,0.647161,7,253,253,253,253,253,253,1,0.306458,0.114922,9.519346,0.000000,1.000000,0.000000,47.487164,47.554333,0.576284,47.470268,47.398605,47.513268,47.541931,47.326939,47.398605,0,1,-0.000000,-0.000000,0.004000,0.004000,1,1,-648.160606,148.715069,19379.969249,-33.668502,-11.282911,33.972769,0.000002,0.000002,0.000002,0.000000,0.000000,0.000000,0,0,0,0,0,0,0,0,0,0.000000,0.000000,0.000000,0.000000,0.000000,0.000000,0.000000,0.000000
241499.238000,1.437494,-1.089114,2.525809,3.275377,1.572121,3.357390,0.000000,0.000000,0.000000,0.000000,0.000000,0.000000,0.000000,0.000000,0.000000,0.000000,0.000000,0.000000,-0.000000,-2.260940,-0.418505,-0.238801,-0.000099,0.000000,-0.000000,-23.522793,-4.324318,-1.846365,-0.000781,0.000000,1.437488,-1.089110,2.525814,3.275414,1.572087,3.357374,0.000000,0.000000,-0.000000,-0.000000,0.000000,0.000000,0.279453,-1.863778,-0.742167,-0.183834,-0.018940,-0.047327,-0.000000,-2.260940,-0.418505,-0.238801,-0.000099,0.000000,0.086291,-0.363191,0.250108,-0.000038,0.000077,-3.053774,0.000000,0.000000,0.000000,0.000000,0.000000,0.000000,-4.049311,3.855660,0.762619,-0.047715,0.070222,0.048675,0.086290,-0.363187,0.250113,0.000000,-0.000000,-3.053753,0.000000,0.000000,0.000000,0.000000,0.000000,0.000000,0,28.437500,29.187500,27.625000,31.812500,35.000000,36.187500,0.658381,7,253,253,253,253,253,253,1,0.268151,0.191536,9.481039,0.000000,1.000000,0.000000,47.530155,47.589264,0.663561,47.470268,47.398605,47.527599,47.527599,47.326939,47.412937,0,1,-0.000000,-0.000000,0.004000,0.004000,1,1,-648.368571,148.595221,19379.732367,-33.669805,-11.276828,33.973697,0.000002,0.000002,0.000002,0.000000,0.000000,0.000000,0,0,0,0,0,0,0,0,0,0.000000,0.000000,0.000000,0.000000,0.000000,0.000000,0.000000,0.000000
241499.240000,1.437494,-1.089114,2.525809,3.275377,1.572121,3.357390,0.000000,0.000000,0.000000,0.000000,0.000000,0.000000,0.000000,0.000000,0.000000,0.000000,0.000000,0.000000,0.000000,-2.261033,-0.418508,-0.238805,-0.000095,0.000000,0.000000,-23.523757,-4.324349,-1.846399,-0.000750,0.000000,1.437463,-1.089143,2.525823,3.275389,1.572100,3.357406,0.000000,0.000000,-0.000000,-0.000000,0.000000,0.000000,0.241841,-1.840939,-0.770774,-0.174809,-0.017300,-0.036783,0.000000,-2.261033,-0.418508,-0.238805,-0.000095,0.000000,0.086282,-0.363185,0.250120,-0.000032,-0.000001,-3.053767,0.000000,0.000000,0.000000,0.000000,0.000000,0.000000,-4.056074,3.926527,1.004082,-0.046396,0.070226,0.052192,0.086290,-0.363187,0.250113,0.000000,-0.000000,-3.053753,0.000000,0.000000,0.000000,0.000000,0.000000,0.000000,0,28.437500,29.187500,27.625000,31.812500,35.000000,36.187500,0.645492,7,253,253,253,253,253,253,1,0.229843,0.134075,9.557653,0.000000,1.000000,0.000000,47.531944,47.588367,0.623279,47.484600,47.398605,47.513268,47.513268,47.326939,47.384270,0,1,-0.000000,-0.000000,0.004000,0.004000,1,1,-648.368074,148.523922,19379.974052,-33.671123,-11.276714,33.977218,0.000002,0.000002,0.000002,0.000000,0.000000,0.000000,0,0,0,0,0,0,0,0,0,0.000000,0.000000,0.000000,0.000000,0.000000,0.000000,0.000000,0.000000
241499.242000,1.437494,-1.089114,2.525809,3.275377,1.572121,3.357390,0.000000,0.000000,0.000000,0.000000,0.000000,0.000000,0.000000,0.000000,0.000000,0.000000,0.000000,0.000000,0.000000,-2.260957,-0.418549,-0.238801,-0.000096,0.000000,0.000000,-23.522967,-4.324766,-1.846370,-0.000758,0.000000,1.437481,-1.089122,2.525831,3.275385,1.572124,3.357337,0.000000,0.000000,-0.000000,-0.000000,0.000000,0.000000,0.257529,-1.860878,-0.735149,-0.169865,-0.006461,-0.028890,0.000000,-2.260957,-0.418549,-0.238801,-0.000096,0.000000,0.086286,-0.363182,0.250112,0.000011,0.000030,-3.053819,0.000000,0.000000,0.000000,0.000000,0.000000,0.000000,-4.286779,3.651341,1.090168,-0.052960,0.076952,0.050462,0.086290,-0.363187,0.250113,0.000000,-0.000000,-3.053753,0.000000,0.000000,0.000000,0.000000,0.000000,0.000000,0,28.437500,29.187500,27.625000,31.812500,35.000000,36.187500,0.667536,7,253,253,253,253,253,253,1,0.191536,0.191536,9.519346,0.000000,1.000000,0.000000,47.505978,47.558811,0.654613,47.484600,47.398605,47.541931,47.527599,47.326939,47.398605,0,1,-0.000000,-0.000000,0.004000,0.004000,1,1,-648.113872,148.778043,19380.060170,-33.665170,-11.283990,33.975488,0.000002,0.000002,0.000002,0.000000,0.000000,0.000000,0,0,0,0,0,0,0,0,0,0.000000,0.000000,0.000000,0.000000,0.000000,0.000000,0.000000,0.000000
241499.244000,1.437494,-1.089114,2.525809,3.275377,1.572121,3.357390,0.000000,0.000000,0.000000,0.000000,0.000000,0.000000,0.000000,0.000000,0.000000,0.000000,0.000000,0.000000,-0.000000,-2.260981,-0.418498,-0.238803,-0.000098,0.000000,-0.000000,-23.523215,-4.324249,-1.846384,-0.000771,0.000000,1.437551,-1.089143,2.525814,3.275344,1.572161,3.357345,0.000000,0.000000,-0.000000,-0.000000,0.000000,0.000000,0.283523,-1.898969,-0.741788,-0.175621,-0.016583,-0.027488,-0.000000,-2.260981,-0.418498,-0.238803,-0.000098,0.000000,0.086308,-0.363174,0.250126,0.000046,-0.000098,-3.053740,0.000000,0.000000,0.000000,0.000000,0.000000,0.000000,-4.247767,3.635163,0.900057,-0.051908,0.076834,0.044846,0.086290,-0.363187,0.250113,0.000000,-0.000000,-3.053753,0.000000,0.000000,0.000000,0.000000,0.000000,0.000000,0,28.437500,29.187500,27.625000,31.812500,35.000000,36.187500,0.647604,7,253,253,253,253,253,253,1,0.229843,0.172383,9.576807,0.000000,1.000000,0.000000,47.483585,47.548962,0.636710,47.455936,47.369938,47.527599,47.541931,47.312607,47.369938,0,1,-0.000000,-0.000000,0.004000,0.004000,1,1,-648.151598,148.797147,19379.870474,-33.666218,-11.283780,33.969879,0.000002,0.000002,0.000002,0.000000,0.000000,0.000000,0,0,0,0,0,0,0,0,0,0.000000,0.000000,0.000000,0.000000,0.000000,0.000000,0.000000,0.000000
241499.246000,1.437494,-1.089114,2.525809,3.275377,1.572121,3.357390,0.000000,0.000000,0.000000,0.000000,0.000000,0.000000,0.000000,0.000000,0.000000,0.000000,0.000000,0.000000,0.000000,-2.260969,-0.418561,-0.238797,-0.000101,0.000000,0.000000,-23.523093,-4.324893,-1.846338,-0.000793,0.000000,1.437505,-1.089206,2.525786,3.275349,1.572120,3.357394,0.000000,0.000000,-0.000000,-0.000000,0.000000,0.000000,0.309595,-1.831411,-0.723494,-0.181059,-0.010101,-0.034932,0.000000,-2.260969,-0.418561,-0.238797,-0.000101,0.000000,0.086295,-0.363182,0.250152,-0.000040,-0.000216,-3.053737,0.000000,0.000000,0.000000,0.000000,0.000000,0.000000,-4.195995,3.550792,0.795269,-0.056208,0.077481,0.039707,0.086290,-0.363187,0.250113,0.000000,-0.000000,-3.053753,0.000000,0.000000,0.000000,0.000000,0.000000,0.000000,0,28.437500,29.187500,27.625000,31.812500,35.000000,36.187500,0.653208,7,253,253,253,253,253,253,1,0.268151,0.057461,9.538500,0.000000,1.000000,0.000000,47.529259,47.591057,0.688182,47.484600,47.398605,47.541931,47.527599,47.384270,47.412937,0,1,-0.000000,-0.000000,0.004000,0.004000,1,1,-648.195873,148.885595,19379.765741,-33.661993,-11.284798,33.964744,0.000002,0.000002,0.000002,0.000000,0.000000,0.000000,0,0,0,0,0,0,0,0,0,0.000000,0.000000,0.000000,0.000000,0.000000,0.000000,0.000000,0.000000
241499.248000,1.437494,-1.089114,2.525809,3.275377,1.572121,3.357390,0.000000,0.000000,0.000000,0.000000,0.000000,0.000000,0.000000,0.000000,0.000000,0.000000,0.000000,0.000000,-0.000000,-2.260904,-0.418718,-0.238791,-0.000098,0.000000,-0.000000,-23.522411,-4.326517,-1.846288,-0.000769,0.000000,1.437547,-1.089110,2.525814,3.275320,1.572099,3.357325,0.000000,0.000000,-0.000000,-0.000000,0.000000,0.000000,0.277186,-1.845045,-0.706274,-0.177084,-0.009968,-0.020334,-0.000000,-2.260904,-0.418718,-0.238791,-0.000098,0.000000,0.086313,-0.363176,0.250117,-0.000045,-0.000068,-3.053764,0.000000,0.000000,0.000000,0.000000,0.000000,0.000000,-4.069996,3.871688,1.031350,-0.045880,0.070211,0.047013,0.086290,-0.363187,0.250113,0.000000,-0.000000,-3.053753,0.000000,0.000000,0.000000,0.000000,0.000000,0.000000,0,28.437500,29.187500,27.625000,31.812500,35.000000,36.187500,0.658920,7,253,253,253,253,253,253,1,0.191536,0.114922,9.615114,0.000000,1.000000,0.000000,47.547173,47.590157,0.656848,47.498932,47.427269,47.570599,47.556267,47.355606,47.412937,0,1,-0.000000,-0.000000,0.004000,0.004000,1,1,-648.349420,148.577260,19380.001464,-33.671637,-11.276652,33.972042,0.000002,0.000002,0.000002,0.000000,0.000000,0.000000,0,0,0,0,0,0,0,0,0,0.000000,0.000000,0.000000,0.000000,0.000000,0.000000,0.000000,0.000000
241499.250000,1.437494,-1.089114,2.525809,3.275377,1.572121,3.357390,0.000000,0.000000,0.000000,0.000000,0.000000,0.000000,0.000000,0.000000,0.000000,0.000000,0.000000,0.000000,-0.000000,-2.261028,-0.418503,-0.238798,-0.000096,0.000000,-0.000000,-23.523703,-4.324294,-1.846344,-0.000757,0.000000,1.437509,-1.089143,2.525848,3.275352,1.572115,3.357423,0.000000,0.000000,-0.000000,-0.000000,0.000000,0.000000,0.240604,-1.848574,-0.704904,-0.165956,-0.022612,-0.023782,-0.000000,-2.261028,-0.418503,-0.238798,-0.000096,0.000000,0.086298,-0.363170,0.250120,-0.000012,-0.000023,-3.053704,0.000000,0.000000,0.000000,0.000000,0.000000,0.000000,-4.331854,3.696292,0.935547,-0.052250,0.077965,0.048024,0.086290,-0.363187,0.250113,0.000000,-0.000000,-3.053753,0.000000,0.000000,0.000000,0.000000,0.000000,0.000000,0,28.437500,29.187500,27.625000,31.812500,35.000000,36.187500,0.646332,7,253,253,253,253,253,253,1,0.172383,0.038307,9.557653,0.000000,1.000000,0.000000,47.511349,47.566872,0.616566,47.484600,47.412937,47.541931,47.556267,47.326939,47.369938,0,1,-0.000000,-0.000000,0.004000,0.004000,1,1,-648.073399,148.728810,19379.905620,-33.665976,-11.284939,33.973052,0.000002,0.000002,0.000002,0.000000,0.000000,0.000000,0,0,0,0,0,0,0,0,0,0.000000,0.000000,0.000000,0.000000,0.000000,0.000000,0.000000,0.000000
241499.252000,1.437494,-1.089114,2.525809,3.275377,1.572121,3.357390,0.000000,0.000000,0.000000,0.000000,0.000000,0.000000,0.000000,0.000000,0.000000,0.000000,0.000000,0.000000,0.000000,-2.260913,-0.418504,-0.238800,-0.000097,0.000000,0.000000,-23.522505,-4.324304,-1.846363,-0.000766,0.000000,1.437488,-1.089144,2.525831,3.275389,1.572092,3.357382,0.000000,0.000000,-0.000000,-0.000000,0.000000,0.000000,0.294586,-1.885574,-0.712677,-0.181587,-0.009280,-0.037423,0.000000,-2.260913,-0.418504,-0.238800,-0.000097,0.000000,0.086292,-0.363180,0.250120,-0.000043,0.000012,-3.053766,0.000000,0.000000,0.000000,0.000000,0.000000,0.000000,-4.062975,3.767001,1.190634,-0.050672,0.073116,0.048679,0.086290,-0.363187,0.250113,0.000000,-0.000000,-3.053753,0.000000,0.000000,0.000000,0.000000,0.000000,0.000000,0,28.437500,29.187500,27.625000,31.812500,35.000000,36.187500,0.647448,7,253,253,253,253,253,253,1,0.229843,0.095768,9.461885,0.000000,1.000000,0.000000,47.505978,47.557919,0.627756,47.470268,47.412937,47.541931,47.541931,47.326939,47.398605,0,1,-0.000000,-0.000000,0.004000,0.004000,1,1,-648.347216,148.682234,19380.160544,-33.667116,-11.279968,33.973704,0.000002,0.000002,0.000002,0.000000,0.000000,0.000000,0,0,0,0,0,0,0,0,0,0.000000,0.000000,0.000000,0.000000,0.000000,0.000000,0.000000,0.000000
241499.254000,1.437494,-1.089114,2.525809,3.275377,1.572121,3.357390,0.000000,0.000000,0.000000,0.000000,0.000000,0.000000,0.000000,0.000000,0.000000,0.000000,0.000000,0.000000,0.000000,-2.260941,-0.418537,-0.238802,-0.000096,0.000000,0.000000,-23.522795,-4.324648,-1.846374,-0.000753,0.000000,1.437402,-1.089143,2.525790,3.275385,1.572104,3.357390,0.000000,0.000000,-0.000000,-0.000000,0.000000,0.000000,0.296933,-1.859834,-0.708381,-0.164215,-0.002030,-0.027778,0.000000,-2.260941,-0.418537,-0.238802,-0.000096,0.000000,0.086258,-0.363199,0.250126,-0.000035,-0.000057,-3.053844,0.000000,0.000000,0.000000,0.000000,0.000000,0.000000,-3.948448,3.809132,0.932509,-0.050234,0.067427,0.048013,0.086290,-0.363187,0.250113,0.000000,-0.000000,-3.053753,0.000000,0.000000,0.000000,0.000000,0.000000,0.000000,0,28.437500,29.187500,27.625000,31.812500,35.000000,36.187500,0.642133,7,253,253,253,253,253,253,1,0.248997,0.095768,9.538500,0.000000,1.000000,0.000000,47.531048,47.602695,0.627756,47.527599,47.455936,47.570599,47.470268,47.398605,47.455936,0,1,-0.000000,-0.000000,0.004000,0.004000,1,1,-648.464676,148.650528,19379.902619,-33.667049,-11.274257,33.973042,0.000002,0.000002,0.000002,0.000000,0.000000,0.000000,0,0,0,0,0,0,0,0,0,0.000000,0.000000,0.000000,0.000000,0.000000,0.000000,0.000000,0.000000
241499.256000,1.437494,-1.089114,2.525809,3.275377,1.572121,3.357390,0.000000,0.000000,0.000000,0.000000,0.000000,0.000000,0.000000,0.000000,0.000000,0.000000,0.000000,0.000000,-0.000000,-2.261013,-0.418604,-0.238798,-0.000096,0.000000,-0.000000,-23.523547,-4.325344,-1.846348,-0.000760,0.000000,1.437522,-1.089113,2.525871,3.275373,1.572148,3.357427,0.000000,0.000000,-0.000000,-0.000000,0.000000,0.000000,0.250576,-1.865499,-0.688348,-0.175590,-0.010477,-0.024705,-0.000000,-2.261013,-0.418604,-0.238798,-0.000096,0.000000,0.086300,-0.363166,0.250104,0.000057,0.000079,-3.053687,0.000000,0.000000,0.000000,0.000000,0.000000,0.000000,-4.259374,3.587002,0.900881,-0.051790,0.078775,0.050101,0.086290,-0.363187,0.250113,0.000000,-0.000000,-3.053753,0.000000,0.000000,0.000000,0.000000,0.000000,0.000000,0,28.437500,29.187500,27.625000,31.812500,35.000000,36.187500,0.645361,7,253,253,253,253,253,253,1,0.210690,0.095768,9.423578,0.000000,1.000000,0.000000,47.535526,47.581200,0.652371,47.484600,47.441601,47.570599,47.513268,47.369938,47.412937,0,1,-0.000000,-0.000000,0.004000,0.004000,1,1,-648.136003,148.844067,19379.870889,-33.666507,-11.285711,33.975126,0.000002,0.000002,0.000002,0.000000,0.000000,0.000000,0,0,0,0,0,0,0,0,0,0.000000,0.000000,0.000000,0.000000,0.000000,0.000000,0.000000,0.000000
241499.258000,1.437494,-1.089114,2.525809,3.275377,1.572121,3.357390,0.000000,0.000000,0.000000,0.000000,0.000000,0.000000,0.000000,0.000000,0.000000,0.000000,0.000000,0.000000,0.000000,-2.260929,-0.418414,-0.238806,-0.000100,0.000000,0.000000,-23.522674,-4.323379,-1.846405,-0.000786,0.000000,1.437481,-1.089155,2.525819,3.275364,1.572145,3.357427,0.000000,0.000000,-0.000000,-0.000000,0.000000,0.000000,0.237674,-1.827787,-0.733561,-0.178260,-0.008301,-0.020128,0.000000,-2.260929,-0.418414,-0.238806,-0.000100,0.000000,0.086284,-0.363180,0.250128,0.000025,-0.000074,-3.053728,0.000000,0.000000,0.000000,0.000000,0.000000,0.000000,-4.174632,3.764248,1.004502,-0.048968,0.072537,0.048255,0.086290,-0.363187,0.250113,0.000000,-0.000000,-3.053753,0.000000,0.000000,0.000000,0.000000,0.000000,0.000000,0,28.437500,29.187500,27.625000,31.812500,35.000000,36.187500,0.658633,7,253,253,253,253,253,253,1,0.229843,0.114922,9.461885,0.000000,1.000000,0.000000,47.522987,47.581200,0.625520,47.441601,47.398605,47.513268,47.527599,47.355606,47.398605,0,1,-0.000000,-0.000000,0.004000,0.004000,1,1,-648.235848,148.674959,19379.974808,-33.668770,-11.279243,33.973287,0.000002,0.000002,0.000002,0.000000,0.000000,0.000000,0,0,0,0,0,0,0,0,0,0.000000,0.000000,0.000000,0.000000,0.000000,0.000000,0.000000,0.000000
241499.260000,1.437494,-1.089114,2.525809,3.275377,1.572121,3.357390,0.000000,0.000000,0.000000,0.000000,0.000000,0.000000,0.000000,0.000000,0.000000,0.000000,0.000000,0.000000,-0.000000,-2.260941,-0.418575,-0.238798,-0.000099,0.000000,-0.000000,-23.522801,-4.325042,-1.846346,-0.000784,0.000000,1.437509,-1.089110,2.525799,3.275368,1.572104,3.357378,0.000000,0.000000,-0.000000,-0.000000,0.000000,0.000000,0.248750,-1.838213,-0.728474,-0.183182,-0.002985,-0.037182,-0.000000,-2.260941,-0.418575,-0.238798,-0.000099,0.000000,0.086297,-0.363189,0.250115,-0.000030,-0.000019,-3.053749,0.000000,0.000000,0.000000,0.000000,0.000000,0.000000,-4.081604,3.779851,1.134154,-0.052361,0.071583,0.046481,0.086290,-0.363187,0.250113,0.000000,-0.000000,-3.053753,0.000000,0.000000,0.000000,0.000000,0.000000,0.000000,0,28.437500,29.187500,27.625000,31.812500,35.000000,36.187500,0.643392,7,253,253,253,253,253,253,1,0.172383,0.114922,9.404425,0.000000,1.000000,0.000000,47.526573,47.563290,0.632233,47.513268,47.412937,47.556267,47.513268,47.326939,47.412937,0,1,-0.000000,-0.000000,0.004000,0.004000,1,1,-648.329845,148.667712,19380.104177,-33.665301,-11.278590,33.971508,0.000002,0.000002,0.000002,0.000000,0.000000,0.000000,0,0,0,0,0,0,0,0,0,0.000000,0.000000,0.000000,0.000000,0.000000,0.000000,0.000000,0.000000
