timestamp,target_q_0,target_q_1,target_q_2,target_q_3,target_q_4,target_q_5,target_qd_0,target_qd_1,target_qd_2,target_qd_3,target_qd_4,target_qd_5,target_qdd_0,target_qdd_1,target_qdd_2,target_qdd_3,target_qdd_4,target_qdd_5,target_current_0,target_current_1,target_current_2,target_current_3,target_current_4,target_current_5,target_moment_0,target_moment_1,target_moment_2,target_moment_3,target_moment_4,target_moment_5,actual_q_0,actual_q_1,actual_q_2,actual_q_3,actual_q_4,actual_q_5,actual_qd_0,actual_qd_1,actual_qd_2,actual_qd_3,actual_qd_4,actual_qd_5,actual_current_0,actual_current_1,actual_current_2,actual_current_3,actual_current_4,actual_current_5,joint_control_output_0,joint_control_output_1,joint_control_output_2,joint_control_output_3,joint_control_output_4,joint_control_output_5,actual_TCP_pose_0,actual_TCP_pose_1,actual_TCP_pose_2,actual_TCP_pose_3,actual_TCP_pose_4,actual_TCP_pose_5,actual_TCP_speed_0,actual_TCP_speed_1,actual_TCP_speed_2,actual_TCP_speed_3,actual_TCP_speed_4,actual_TCP_speed_5,actual_TCP_force_0,actual_TCP_force_1,actual_TCP_force_2,actual_TCP_force_3,actual_TCP_force_4,actual_TCP_force_5,target_TCP_pose_0,target_TCP_pose_1,target_TCP_pose_2,target_TCP_pose_3,target_TCP_pose_4,target_TCP_pose_5,target_TCP_speed_0,target_TCP_speed_1,target_TCP_speed_2,target_TCP_speed_3,target_TCP_speed_4,target_TCP_speed_5,actual_digital_input_bits,joint_temperatures_0,joint_temperatures_1,joint_temperatures_2,joint_temperatures_3,joint_temperatures_4,joint_temperatures_5,actual_execution_time,robot_mode,joint_mode_0,joint_mode_1,joint_mode_2,joint_mode_3,joint_mode_4,joint_mode_5,safety_mode,actual_tool_accelerometer_0,actual_tool_accelerometer_1,actual_tool_accelerometer_2,speed_scaling,target_speed_fraction,actual_momentum,actual_main_voltage,actual_robot_voltage,actual_robot_current,actual_joint_voltage_0,actual_joint_voltage_1,actual_joint_voltage_2,actual_joint_voltage_3,actual_joint_voltage_4,actual_joint_voltage_5,actual_digital_output_bits,runtime_state,standard_analog_input0,standard_analog_input1,standard_analog_output0,standard_analog_output1,robot_status_bits,safety_status_bits,ft_raw_wrench_0,ft_raw_wrench_1,ft_raw_wrench_2,ft_raw_wrench_3,ft_raw_wrench_4,ft_raw_wrench_5,payload_inertia_0,payload_inertia_1,payload_inertia_2,payload_inertia_3,payload_inertia_4,payload_inertia_5,output_int_register_2,output_int_register_12,output_int_register_13,output_int_register_14,output_int_register_15,output_int_register_16,output_int_register_17,output_int_register_18,output_int_register_19,output_double_register_12,output_double_register_13,output_double_register_14,output_double_register_15,output_double_register_16,output_double_register_17,output_double_register_18,output_double_register_19
241545.330000,1.437494,-1.089114,2.525809,3.275377,1.572121,3.357390,0.000000,0.000000,0.000000,0.000000,0.000000,0.000000,0.000000,0.000000,0.000000,0.000000,0.000000,0.000000,-0.000000,-2.261000,-0.418750,-0.238790,-0.000095,0.000000,-0.000000,-23.523410,-4.326851,-1.846285,-0.000747,0.000000,1.437489,-1.089131,2.525868,3.275356,1.572095,3.357365,0.000000,0.000000,-0.000000,0.000000,-0.000000,0.000000,0.294181,-1.924552,-0.533222,-0.201116,0.004241,-0.021343,-0.000000,-2.261000,-0.418750,-0.238790,-0.000095,0.000000,0.086294,-0.363168,0.250113,-0.000033,0.000037,-3.053783,0.000000,0.000000,0.000000,0.000000,0.000000,0.000000,-4.445873,3.658624,0.399954,-0.053878,0.077238,0.043066,0.086290,-0.363187,0.250113,0.000000,-0.000000,-3.053753,0.000000,0.000000,0.000000,0.000000,0.000000,0.000000,0,28.375000,29.187500,27.687500,31.875000,35.062500,36.187500,0.663541,7,253,253,253,253,253,253,1,0.306458,0.114922,9.538500,0.000000,1.000000,0.000000,47.540901,47.595535,0.594187,47.513268,47.412937,47.513268,47.541931,47.326939,47.441601,0,1,-0.000000,-0.000000,0.004000,0.004000,1,1,-647.956227,148.756717,19379.369816,-33.664282,-11.284356,33.968090,0.000002,0.000002,0.000002,0.000000,0.000000,0.000000,0,0,0,0,0,0,0,0,0,0.000000,0.000000,0.000000,0.000000,0.000000,0.000000,0.000000,0.000000
241545.332000,1.437494,-1.089114,2.525809,3.275377,1.572121,3.357390,0.000000,0.000000,0.000000,0.000000,0.000000,0.000000,0.000000,0.000000,0.000000,0.000000,0.000000,0.000000,-0.000000,-2.260900,-0.418449,-0.238803,-0.000096,0.000000,-0.000000,-23.522377,-4.323738,-1.846384,-0.000754,0.000000,1.437490,-1.089184,2.525765,3.275364,1.572096,3.357394,0.000000,0.000000,-0.000000,0.000000,-0.000000,0.000000,0.346050,-1.996876,-0.559691,-0.174512,-0.002437,-0.026041,-0.000000,-2.260900,-0.418449,-0.238803,-0.000096,0.000000,0.086290,-0.363193,0.250146,-0.000072,-0.000187,-3.053752,0.000000,0.000000,0.000000,0.000000,0.000000,0.000000,-4.564932,3.589586,0.557893,-0.052265,0.079394,0.047326,0.086290,-0.363187,0.250113,0.000000,-0.000000,-3.053753,0.000000,0.000000,0.000000,0.000000,0.000000,0.000000,0,28.375000,29.187500,27.687500,31.875000,35.062500,36.187500,0.663600,7,253,253,253,253,253,253,1,0.229843,0.172383,9.519346,0.000000,1.000000,0.000000,47.503288,47.569561,0.634469,47.470268,47.398605,47.513268,47.556267,47.255276,47.369938,0,1,-0.000000,-0.000000,0.004000,0.004000,1,1,-647.831748,148.814647,19379.528199,-33.666085,-11.286355,33.972361,0.000002,0.000002,0.000002,0.000000,0.000000,0.000000,0,0,0,0,0,0,0,0,0,0.000000,0.000000,0.000000,0.000000,0.000000,0.000000,0.000000,0.000000
241545.334000,1.437494,-1.089114,2.525809,3.275377,1.572121,3.357390,0.000000,0.000000,0.000000,0.000000,0.000000,0.000000,0.000000,0.000000,0.000000,0.000000,0.000000,0.000000,-0.000000,-2.260979,-0.418718,-0.238792,-0.000096,0.000000,-0.000000,-23.523199,-4.326518,-1.846297,-0.000755,0.000000,1.437403,-1.089164,2.525836,3.275368,1.572104,3.357349,0.000000,0.000000,-0.000000,0.000000,-0.000000,0.000000,0.328970,-2.005003,-0.529521,-0.189055,0.003385,-0.006075,-0.000000,-2.260979,-0.418718,-0.238792,-0.000096,0.000000,0.086261,-0.363182,0.250128,-0.000034,-0.000044,-3.053884,0.000000,0.000000,0.000000,0.000000,0.000000,0.000000,-4.289132,3.634350,0.303699,-0.054452,0.073028,0.048421,0.086290,-0.363187,0.250113,0.000000,-0.000000,-3.053753,0.000000,0.000000,0.000000,0.000000,0.000000,0.000000,0,28.375000,29.187500,27.687500,31.875000,35.062500,36.187500,0.666108,7,253,253,253,253,253,253,1,0.172383,0.191536,9.519346,0.000000,1.000000,0.000000,47.506870,47.574932,0.641182,47.498932,47.427269,47.498932,47.527599,47.326939,47.398605,0,1,-0.000000,-0.000000,0.004000,0.004000,1,1,-648.109837,148.794936,19379.273766,-33.663335,-11.280205,33.973449,0.000002,0.000002,0.000002,0.000000,0.000000,0.000000,0,0,0,0,0,0,0,0,0,0.000000,0.000000,0.000000,0.000000,0.000000,0.000000,0.000000,0.000000
241545.336000,1.437494,-1.089114,2.525809,3.275377,1.572121,3.357390,0.000000,0.000000,0.000000,0.000000,0.000000,0.000000,0.000000,0.000000,0.000000,0.000000,0.000000,0.000000,-0.000000,-2.260896,-0.418561,-0.238799,-0.000096,0.000000,-0.000000,-23.522329,-4.324890,-1.846353,-0.000759,0.000000,1.437464,-1.089119,2.525795,3.275382,1.572078,3.357398,0.000000,0.000000,-0.000000,0.000000,-0.000000,0.000000,0.365357,-1.977681,-0.495527,-0.194083,0.008791,-0.013070,-0.000000,-2.260896,-0.418561,-0.238799,-0.000096,0.000000,0.086283,-0.363194,0.250117,-0.000068,-0.000012,-3.053775,0.000000,0.000000,0.000000,0.000000,0.000000,0.000000,-4.352623,3.661989,0.391461,-0.054580,0.073607,0.049337,0.086290,-0.363187,0.250113,0.000000,-0.000000,-3.053753,0.000000,0.000000,0.000000,0.000000,0.000000,0.000000,0,28.375000,29.187500,27.687500,31.875000,35.062500,36.187500,0.649404,7,253,253,253,253,253,253,1,0.076614,0.153229,9.615114,0.000000,1.000000,0.000000,47.538216,47.583889,0.580761,47.455936,47.398605,47.527599,47.484600,47.312607,47.369938,0,1,-0.000000,-0.000000,0.004000,0.004000,1,1,-648.049490,148.761450,19379.361355,-33.663266,-11.280799,33.974362,0.000002,0.000002,0.000002,0.000000,0.000000,0.000000,0,0,0,0,0,0,0,0,0,0.000000,0.000000,0.000000,0.000000,0.000000,0.000000,0.000000,0.000000
241545.338000,1.437494,-1.089114,2.525809,3.275377,1.572121,3.357390,0.000000,0.000000,0.000000,0.000000,0.000000,0.000000,0.000000,0.000000,0.000000,0.000000,0.000000,0.000000,-0.000000,-2.261049,-0.418555,-0.238800,-0.000095,0.000000,-0.000000,-23.523918,-4.324836,-1.846363,-0.000745,0.000000,1.437502,-1.089073,2.525885,3.275389,1.572153,3.357341,0.000000,0.000000,-0.000000,0.000000,-0.000000,0.000000,0.342794,-1.961926,-0.540354,-0.196216,0.011287,-0.009076,-0.000000,-2.261049,-0.418555,-0.238800,-0.000095,0.000000,0.086292,-0.363169,0.250087,0.000083,0.000184,-3.053794,0.000000,0.000000,0.000000,0.000000,0.000000,0.000000,-4.318377,3.676024,0.206698,-0.053926,0.073972,0.049087,0.086290,-0.363187,0.250113,0.000000,-0.000000,-3.053753,0.000000,0.000000,0.000000,0.000000,0.000000,0.000000,0,28.375000,29.187500,27.687500,31.875000,35.062500,36.187500,0.652068,7,253,253,253,253,253,253,1,0.229843,0.172383,9.538500,0.000000,1.000000,0.000000,47.511349,47.580307,0.576284,47.470268,47.412937,47.498932,47.541931,47.369938,47.427269,0,1,-0.000000,-0.000000,0.004000,0.004000,1,1,-648.084539,148.750820,19379.176507,-33.663947,-11.281114,33.974108,0.000002,0.000002,0.000002,0.000000,0.000000,0.000000,0,0,0,0,0,0,0,0,0,0.000000,0.000000,0.000000,0.000000,0.000000,0.000000,0.000000,0.000000
241545.340000,1.437494,-1.089114,2.525809,3.275377,1.572121,3.357390,0.000000,0.000000,0.000000,0.000000,0.000000,0.000000,0.000000,0.000000,0.000000,0.000000,0.000000,0.000000,-0.000000,-2.260978,-0.418321,-0.238811,-0.000100,0.000000,-0.000000,-23.523185,-4.322416,-1.846447,-0.000788,0.000000,1.437477,-1.089193,2.525812,3.275347,1.572137,3.357369,0.000000,0.000000,-0.000000,0.000000,-0.000000,0.000000,0.303008,-1.917703,-0.504865,-0.200863,0.001045,-0.011310,-0.000000,-2.260978,-0.418321,-0.238811,-0.000100,0.000000,0.086284,-0.363178,0.250144,-0.000004,-0.000165,-3.053790,0.000000,0.000000,0.000000,0.000000,0.000000,0.000000,-4.530805,3.708130,0.324745,-0.052075,0.079446,0.045201,0.086290,-0.363187,0.250113,0.000000,-0.000000,-3.053753,0.000000,0.000000,0.000000,0.000000,0.000000,0.000000,0,28.375000,29.187500,27.687500,31.875000,35.062500,36.187500,0.644424,7,253,253,253,253,253,253,1,0.153229,0.114922,9.442732,0.000000,1.000000,0.000000,47.519409,47.556129,0.643423,47.470268,47.398605,47.527599,47.527599,47.326939,47.355606,0,1,-0.000000,-0.000000,0.004000,0.004000,1,1,-647.875907,148.699711,19379.295203,-33.666277,-11.286392,33.970237,0.000002,0.000002,0.000002,0.000000,0.000000,0.000000,0,0,0,0,0,0,0,0,0,0.000000,0.000000,0.000000,0.000000,0.000000,0.000000,0.000000,0.000000
241545.342000,1.437494,-1.089114,2.525809,3.275377,1.572121,3.357390,0.000000,0.000000,0.000000,0.000000,0.000000,0.000000,0.000000,0.000000,0.000000,0.000000,0.000000,0.000000,0.000000,-2.260883,-0.418652,-0.238793,-0.000099,0.000000,0.000000,-23.522193,-4.325833,-1.846310,-0.000779,0.000000,1.437448,-1.089131,2.525786,3.275335,1.572095,3.357427,0.000000,0.000000,-0.000000,0.000000,-0.000000,0.000000,0.295173,-2.002169,-0.546001,-0.183064,0.006041,-0.005614,0.000000,-2.260883,-0.418652,-0.238793,-0.000099,0.000000,0.086276,-0.363192,0.250127,-0.000061,-0.000117,-3.053761,0.000000,0.000000,0.000000,0.000000,0.000000,0.000000,-4.499469,3.601221,0.325029,-0.056101,0.076730,0.047306,0.086290,-0.363187,0.250113,0.000000,-0.000000,-3.053753,0.000000,0.000000,0.000000,0.000000,0.000000,0.000000,0,28.375000,29.187500,27.687500,31.875000,35.062500,36.187500,0.651648,7,253,253,253,253,253,253,1,0.153229,0.172383,9.461885,0.000000,1.000000,0.000000,47.480896,47.547173,0.645659,47.455936,47.384270,47.470268,47.498932,47.312607,47.384270,0,1,-0.000000,-0.000000,0.004000,0.004000,1,1,-647.897937,148.808903,19379.295196,-33.662028,-11.284041,33.972338,0.000002,0.000002,0.000002,0.000000,0.000000,0.000000,0,0,0,0,0,0,0,0,0,0.000000,0.000000,0.000000,0.000000,0.000000,0.000000,0.000000,0.000000
241545.344000,1.437494,-1.089114,2.525809,3.275377,1.572121,3.357390,0.000000,0.000000,0.000000,0.000000,0.000000,0.000000,0.000000,0.000000,0.000000,0.000000,0.000000,0.000000,-0.000000,-2.261039,-0.418589,-0.238795,-0.000096,0.000000,-0.000000,-23.523820,-4.325180,-1.846324,-0.000754,0.000000,1.437509,-1.089131,2.525848,3.275410,1.572104,3.357410,0.000000,0.000000,-0.000000,0.000000,-0.000000,0.000000,0.302618,-1.999718,-0.550764,-0.187371,-0.000892,-0.018225,-0.000000,-2.261039,-0.418589,-0.238795,-0.000096,0.000000,0.086299,-0.363177,0.250110,-0.000011,0.000087,-3.053717,0.000000,0.000000,0.000000,0.000000,0.000000,0.000000,-4.307105,3.672812,0.452253,-0.054771,0.073663,0.045733,0.086290,-0.363187,0.250113,0.000000,-0.000000,-3.053753,0.000000,0.000000,0.000000,0.000000,0.000000,0.000000,0,28.375000,29.187500,27.687500,31.875000,35.062500,36.187500,0.644028,7,253,253,253,253,253,253,1,0.134075,0.095768,9.346964,0.000000,1.000000,0.000000,47.532845,47.579411,0.632233,47.498932,47.412937,47.527599,47.541931,47.384270,47.412937,0,1,-0.000000,-0.000000,0.004000,0.004000,1,1,-648.095938,148.754554,19379.422052,-33.663084,-11.280878,33.970756,0.000002,0.000002,0.000002,0.000000,0.000000,0.000000,0,0,0,0,0,0,0,0,0,0.000000,0.000000,0.000000,0.000000,0.000000,0.000000,0.000000,0.000000
241545.346000,1.437494,-1.089114,2.525809,3.275377,1.572121,3.357390,0.000000,0.000000,0.000000,0.000000,0.000000,0.000000,0.000000,0.000000,0.000000,0.000000,0.000000,0.000000,-0.000000,-2.260936,-0.418485,-0.238806,-0.000096,0.000000,-0.000000,-23.522752,-4.324113,-1.846404,-0.000759,0.000000,1.437494,-1.089143,2.525807,3.275380,1.572137,3.357374,0.000000,0.000000,-0.000000,0.000000,-0.000000,0.000000,0.280980,-1.976128,-0.536381,-0.189844,-0.005807,-0.019708,-0.000000,-2.260936,-0.418485,-0.238806,-0.000096,0.000000,0.086289,-0.363185,0.250124,0.000017,-0.000047,-3.053769,0.000000,0.000000,0.000000,0.000000,0.000000,0.000000,-4.134340,3.686064,0.528199,-0.054069,0.072360,0.047609,0.086290,-0.363187,0.250113,0.000000,-0.000000,-3.053753,0.000000,0.000000,0.000000,0.000000,0.000000,0.000000,0,28.375000,29.187500,27.687500,31.875000,35.062500,36.187500,0.645169,7,253,253,253,253,253,253,1,0.268151,0.114922,9.500193,0.000000,1.000000,0.000000,47.544483,47.594635,0.598664,47.513268,47.441601,47.527599,47.513268,47.384270,47.427269,0,1,-0.000000,-0.000000,0.004000,0.004000,1,1,-648.268963,148.756542,19379.498409,-33.663669,-11.279513,33.972639,0.000002,0.000002,0.000002,0.000000,0.000000,0.000000,0,0,0,0,0,0,0,0,0,0.000000,0.000000,0.000000,0.000000,0.000000,0.000000,0.000000,0.000000
241545.348000,1.437494,-1.089114,2.525809,3.275377,1.572121,3.357390,0.000000,0.000000,0.000000,0.000000,0.000000,0.000000,0.000000,0.000000,0.000000,0.000000,0.000000,0.000000,-0.000000,-2.260984,-0.418575,-0.238799,-0.000099,0.000000,-0.000000,-23.523243,-4.325040,-1.846356,-0.000779,0.000000,1.437481,-1.089110,2.525803,3.275356,1.572083,3.357369,0.000000,0.000000,-0.000000,0.000000,-0.000000,0.000000,0.311557,-1.953522,-0.518815,-0.192946,-0.006504,-0.004496,-0.000000,-2.260984,-0.418575,-0.238799,-0.000099,0.000000,0.086289,-0.363189,0.250115,-0.000063,-0.000026,-3.053786,0.000000,0.000000,0.000000,0.000000,0.000000,0.000000,-4.351558,3.512608,0.379375,-0.057130,0.073232,0.048083,0.086290,-0.363187,0.250113,0.000000,-0.000000,-3.053753,0.000000,0.000000,0.000000,0.000000,0.000000,0.000000,0,28.375000,29.187500,27.687500,31.875000,35.062500,36.187500,0.643789,7,253,253,253,253,253,253,1,0.229843,0.153229,9.423578,0.000000,1.000000,0.000000,47.526573,47.579411,0.645659,47.513268,47.427269,47.484600,47.513268,47.298275,47.369938,0,1,-0.000000,-0.000000,0.004000,0.004000,1,1,-648.037404,148.910374,19379.349314,-33.660692,-11.280648,33.973109,0.000002,0.000002,0.000002,0.000000,0.000000,0.000000,0,0,0,0,0,0,0,0,0,0.000000,0.000000,0.000000,0.000000,0.000000,0.000000,0.000000,0.000000
241545.350000,1.437494,-1.089114,2.525809,3.275377,1.572121,3.357390,0.000000,0.000000,0.000000,0.000000,0.000000,0.000000,0.000000,0.000000,0.000000,0.000000,0.000000,0.000000,0.000000,-2.261049,-0.418525,-0.238800,-0.000095,0.000000,0.000000,-23.523924,-4.324522,-1.846358,-0.000747,0.000000,1.437456,-1.089102,2.525844,3.275422,1.572120,3.357414,0.000000,0.000000,-0.000000,0.000000,-0.000000,0.000000,0.296478,-1.977477,-0.533674,-0.187679,0.010932,-0.011287,0.000000,-2.261049,-0.418525,-0.238800,-0.000095,0.000000,0.086277,-0.363186,0.250100,0.000023,0.000137,-3.053767,0.000000,0.000000,0.000000,0.000000,0.000000,0.000000,-4.315354,3.731092,0.360015,-0.050923,0.069809,0.047222,0.086290,-0.363187,0.250113,0.000000,-0.000000,-3.053753,0.000000,0.000000,0.000000,0.000000,0.000000,0.000000,0,28.375000,29.187500,27.687500,31.875000,35.062500,36.187500,0.669745,7,253,253,253,253,253,253,1,0.248997,0.191536,9.481039,0.000000,1.000000,0.000000,47.501499,47.557022,0.614330,47.484600,47.398605,47.470268,47.527599,47.341274,47.412937,0,1,-0.000000,-0.000000,0.004000,0.004000,1,1,-648.092584,148.696042,19379.329775,-33.666574,-11.276701,33.972243,0.000002,0.000002,0.000002,0.000000,0.000000,0.000000,0,0,0,0,0,0,0,0,0,0.000000,0.000000,0.000000,0.000000,0.000000,0.000000,0.000000,0.000000
241545.352000,1.437494,-1.089114,2.525809,3.275377,1.572121,3.357390,0.000000,0.000000,0.000000,0.000000,0.000000,0.000000,0.000000,0.000000,0.000000,0.000000,0.000000,0.000000,-0.000000,-2.260996,-0.418444,-0.238808,-0.000098,0.000000,-0.000000,-23.523374,-4.323690,-1.846425,-0.000769,0.000000,1.437473,-1.089123,2.525848,3.275410,1.572124,3.357399,0.000000,0.000000,-0.000000,0.000000,-0.000000,0.000000,0.333440,-1.975279,-0.526103,-0.184701,0.001576,-0.019681,-0.000000,-2.260996,-0.418444,-0.238808,-0.000098,0.000000,0.086283,-0.363180,0.250108,0.000022,0.000092,-3.053765,0.000000,0.000000,0.000000,0.000000,0.000000,0.000000,-4.438343,3.657047,0.470054,-0.053073,0.073315,0.046851,0.086290,-0.363187,0.250113,0.000000,-0.000000,-3.053753,0.000000,0.000000,0.000000,0.000000,0.000000,0.000000,0,28.375000,29.187500,27.687500,31.875000,35.062500,36.187500,0.656736,7,253,253,253,253,253,253,1,0.248997,0.172383,9.557653,0.000000,1.000000,0.000000,47.526573,47.587475,0.650136,47.513268,47.441601,47.556267,47.556267,47.369938,47.412937,0,1,-0.000000,-0.000000,0.004000,0.004000,1,1,-647.963587,148.758940,19379.439932,-33.664742,-11.280381,33.971874,0.000002,0.000002,0.000002,0.000000,0.000000,0.000000,0,0,0,0,0,0,0,0,0,0.000000,0.000000,0.000000,0.000000,0.000000,0.000000,0.000000,0.000000
241545.354000,1.437494,-1.089114,2.525809,3.275377,1.572121,3.357390,0.000000,0.000000,0.000000,0.000000,0.000000,0.000000,0.000000,0.000000,0.000000,0.000000,0.000000,0.000000,0.000000,-2.260952,-0.418473,-0.238806,-0.000098,0.000000,0.000000,-23.522910,-4.323989,-1.846408,-0.000771,0.000000,1.437469,-1.089086,2.525794,3.275364,1.572104,3.357381,0.000000,0.000000,-0.000000,0.000000,-0.000000,0.000000,0.384868,-2.011086,-0.570218,-0.180294,0.014900,-0.007922,0.000000,-2.260952,-0.418473,-0.238806,-0.000098,0.000000,0.086282,-0.363195,0.250108,-0.000026,0.000003,-3.053786,0.000000,0.000000,0.000000,0.000000,0.000000,0.000000,-4.492699,3.298592,0.463124,-0.060633,0.075721,0.042290,0.086290,-0.363187,0.250113,0.000000,-0.000000,-3.053753,0.000000,0.000000,0.000000,0.000000,0.000000,0.000000,0,28.375000,29.187500,27.687500,31.875000,35.062500,36.187500,0.652272,7,253,253,253,253,253,253,1,0.191536,0.172383,9.615114,0.000000,1.000000,0.000000,47.536423,47.592846,0.634469,47.527599,47.441601,47.556267,47.556267,47.384270,47.412937,0,1,-0.000000,-0.000000,0.004000,0.004000,1,1,-647.877986,149.111224,19379.433093,-33.657421,-11.283436,33.967316,0.000002,0.000002,0.000002,0.000000,0.000000,0.000000,0,0,0,0,0,0,0,0,0,0.000000,0.000000,0.000000,0.000000,0.000000,0.000000,0.000000,0.000000
241545.356000,1.437494,-1.089114,2.525809,3.275377,1.572121,3.357390,0.000000,0.000000,0.000000,0.000000,0.000000,0.000000,0.000000,0.000000,0.000000,0.000000,0.000000,0.000000,-0.000000,-2.261108,-0.418499,-0.238801,-0.000096,0.000000,-0.000000,-23.524536,-4.324251,-1.846371,-0.000759,0.000000,1.437457,-1.089188,2.525795,3.275352,1.572153,3.357394,0.000000,0.000000,-0.000000,0.000000,-0.000000,0.000000,0.358495,-1.997543,-0.516882,-0.191084,0.005500,-0.018608,-0.000000,-2.261108,-0.418499,-0.238801,-0.000096,0.000000,0.086274,-0.363185,0.250144,0.000018,-0.000180,-3.053785,0.000000,0.000000,0.000000,0.000000,0.000000,0.000000,-4.537045,3.513482,0.528392,-0.056836,0.076916,0.043238,0.086290,-0.363187,0.250113,0.000000,-0.000000,-3.053753,0.000000,0.000000,0.000000,0.000000,0.000000,0.000000,0,28.375000,29.187500,27.687500,31.875000,35.062500,36.187500,0.646212,7,253,253,253,253,253,253,1,0.191536,0.057461,9.481039,0.000000,1.000000,0.000000,47.518509,47.565083,0.643423,47.498932,47.384270,47.484600,47.484600,47.312607,47.369938,0,1,-0.000000,-0.000000,0.004000,0.004000,1,1,-647.852614,148.893043,19379.498930,-33.661315,-11.284290,33.968276,0.000002,0.000002,0.000002,0.000000,0.000000,0.000000,0,0,0,0,0,0,0,0,0,0.000000,0.000000,0.000000,0.000000,0.000000,0.000000,0.000000,0.000000
241545.358000,1.437494,-1.089114,2.525809,3.275377,1.572121,3.357390,0.000000,0.000000,0.000000,0.000000,0.000000,0.000000,0.000000,0.000000,0.000000,0.000000,0.000000,0.000000,0.000000,-2.260922,-0.418672,-0.238793,-0.000100,0.000000,0.000000,-23.522599,-4.326040,-1.846306,-0.000788,0.000000,1.437484,-1.089140,2.525848,3.275394,1.572153,3.357369,0.000000,0.000000,-0.000000,0.000000,-0.000000,0.000000,0.342479,-1.997288,-0.521252,-0.178683,0.002123,-0.021253,0.000000,-2.260922,-0.418672,-0.238793,-0.000100,0.000000,0.086285,-0.363176,0.250115,0.000057,0.000036,-3.053783,0.000000,0.000000,0.000000,0.000000,0.000000,0.000000,-4.378632,3.331113,0.353070,-0.061835,0.075208,0.049819,0.086290,-0.363187,0.250113,0.000000,-0.000000,-3.053753,0.000000,0.000000,0.000000,0.000000,0.000000,0.000000,0,28.375000,29.187500,27.687500,31.875000,35.062500,36.187500,0.656292,7,253,253,253,253,253,253,1,0.268151,0.172383,9.538500,0.000000,1.000000,0.000000,47.532845,47.572247,0.627756,47.484600,47.398605,47.527599,47.556267,47.326939,47.369938,0,1,-0.000000,-0.000000,0.004000,0.004000,1,1,-647.994367,149.088857,19379.323193,-33.656181,-11.283034,33.974846,0.000002,0.000002,0.000002,0.000000,0.000000,0.000000,0,0,0,0,0,0,0,0,0,0.000000,0.000000,0.000000,0.000000,0.000000,0.000000,0.000000,0.000000
241545.360000,1.437494,-1.089114,2.525809,3.275377,1.572121,3.357390,0.000000,0.000000,0.000000,0.000000,0.000000,0.000000,0.000000,0.000000,0.000000,0.000000,0.000000,0.000000,-0.000000,-2.260920,-0.418499,-0.238804,-0.000100,0.000000,-0.000000,-23.522576,-4.324259,-1.846389,-0.000788,0.000000,1.437441,-1.089168,2.525786,3.275361,1.572132,3.357365,0.000000,0.000000,-0.000000,0.000000,-0.000000,0.000000,0.294609,-2.001721,-0.545914,-0.192490,-0.000964,-0.007810,-0.000000,-2.260920,-0.418499,-0.238804,-0.000100,0.000000,0.086270,-0.363192,0.250138,-0.000008,-0.000145,-3.053830,0.000000,0.000000,0.000000,0.000000,0.000000,0.000000,-4.282887,3.524851,0.313659,-0.058156,0.073052,0.047904,0.086290,-0.363187,0.250113,0.000000,-0.000000,-3.053753,0.000000,0.000000,0.000000,0.000000,0.000000,0.000000,0,28.375000,29.187500,27.687500,31.875000,35.062500,36.187500,0.650424,7,253,253,253,253,253,253,1,0.210690,0.153229,9.576807,0.000000,1.000000,0.000000,47.526573,47.588367,0.634469,47.498932,47.441601,47.513268,47.556267,47.341274,47.412937,0,1,-0.000000,-0.000000,0.004000,0.004000,1,1,-648.106645,148.904210,19379.284038,-33.659655,-11.280554,33.972938,0.000002,0.000002,0.000002,0.000000,0.000000,0.000000,0,0,0,0,0,0,0,0,0,0.000000,0.000000,0.000000,0.000000,0.000000,0.000000,0.000000,0.000000
241545.360000,1.437494,-1.089114,2.525809,3.275377,1.572121,3.357390,0.000000,0.000000,0.000000,0.000000,0.000000,0.000000,0.000000,0.000000,0.000000,0.000000,0.000000,0.000000,-0.000000,-2.260920,-0.418499,-0.238804,-0.000100,0.000000,-0.000000,-23.522576,-4.324259,-1.846389,-0.000788,0.000000,1.437441,-1.089168,2.525786,3.275361,1.572132,3.357365,0.000000,0.000000,-0.000000,0.000000,-0.000000,0.000000,0.294609,-2.001721,-0.545914,-0.192490,-0.000964,-0.007810,-0.000000,-2.260920,-0.418499,-0.238804,-0.000100,0.000000,0.086270,-0.363192,0.250138,-0.000008,-0.000145,-3.053830,0.000000,0.000000,0.000000,0.000000,0.000000,0.000000,-4.282887,3.524851,0.313659,-0.058156,0.073052,0.047904,0.086290,-0.363187,0.250113,0.000000,-0.000000,-3.053753,0.000000,0.000000,0.000000,0.000000,0.000000,0.000000,0,28.375000,29.187500,27.687500,31.875000,35.062500,36.187500,0.650424,7,253,253,253,253,253,253,1,0.210690,0.153229,9.576807,0.000000,1.000000,0.000000,47.526573,47.588367,0.634469,47.498932,47.441601,47.513268,47.556267,47.341274,47.412937,0,1,-0.000000,-0.000000,0.004000,0.004000,1,1,-648.106645,148.904210,19379.284038,-33.659655,-11.280554,33.972938,0.000002,0.000002,0.000002,0.000000,0.000000,0.000000,0,0,0,0,0,0,0,0,0,0.000000,0.000000,0.000000,0.000000,0.000000,0.000000,0.000000,0.000000
241545.364000,1.437494,-1.089114,2.525809,3.275377,1.572121,3.357390,0.000000,0.000000,0.000000,0.000000,0.000000,0.000000,0.000000,0.000000,0.000000,0.000000,0.000000,0.000000,0.000000,-2.260976,-0.418568,-0.238800,-0.000098,0.000000,0.000000,-23.523164,-4.324963,-1.846361,-0.000774,0.000000,1.437509,-1.089156,2.525819,3.275303,1.572095,3.357374,0.000000,0.000000,-0.000000,0.000000,-0.000000,0.000000,0.331012,-1.961162,-0.466222,-0.188156,0.004719,-0.015394,0.000000,-2.260976,-0.418568,-0.238800,-0.000098,0.000000,0.086300,-0.363172,0.250134,-0.000067,-0.000155,-3.053753,0.000000,0.000000,0.000000,0.000000,0.000000,0.000000,-4.352765,3.558320,0.511929,-0.057623,0.075732,0.049841,0.086290,-0.363187,0.250113,0.000000,-0.000000,-3.053753,0.000000,0.000000,0.000000,0.000000,0.000000,0.000000,0,28.375000,29.187500,27.687500,31.875000,35.062500,36.187500,0.642337,7,253,253,253,253,253,253,1,0.210690,0.210690,9.461885,0.000000,1.000000,0.000000,47.505077,47.566872,0.650136,47.498932,47.384270,47.484600,47.527599,47.269608,47.355606,0,1,-0.000000,-0.000000,0.004000,0.004000,1,1,-648.040344,148.864444,19379.482174,-33.660425,-11.283179,33.974874,0.000002,0.000002,0.000002,0.000000,0.000000,0.000000,0,0,0,0,0,0,0,0,0,0.000000,0.000000,0.000000,0.000000,0.000000,0.000000,0.000000,0.000000
241545.364000,1.437494,-1.089114,2.525809,3.275377,1.572121,3.357390,0.000000,0.000000,0.000000,0.000000,0.000000,0.000000,0.000000,0.000000,0.000000,0.000000,0.000000,0.000000,0.000000,-2.260976,-0.418568,-0.238800,-0.000098,0.000000,0.000000,-23.523164,-4.324963,-1.846361,-0.000774,0.000000,1.437509,-1.089156,2.525819,3.275303,1.572095,3.357374,0.000000,0.000000,-0.000000,0.000000,-0.000000,0.000000,0.331012,-1.961162,-0.466222,-0.188156,0.004719,-0.015394,0.000000,-2.260976,-0.418568,-0.238800,-0.000098,0.000000,0.086300,-0.363172,0.250134,-0.000067,-0.000155,-3.053753,0.000000,0.000000,0.000000,0.000000,0.000000,0.000000,-4.352765,3.558320,0.511929,-0.057623,0.075732,0.049841,0.086290,-0.363187,0.250113,0.000000,-0.000000,-3.053753,0.000000,0.000000,0.000000,0.000000,0.000000,0.000000,0,28.375000,29.187500,27.687500,31.875000,35.062500,36.187500,0.642337,7,253,253,253,253,253,253,1,0.210690,0.210690,9.461885,0.000000,1.000000,0.000000,47.505077,47.566872,0.650136,47.498932,47.384270,47.484600,47.527599,47.269608,47.355606,0,1,-0.000000,-0.000000,0.004000,0.004000,1,1,-648.040344,148.864444,19379.482174,-33.660425,-11.283179,33.974874,0.000002,0.000002,0.000002,0.000000,0.000000,0.000000,0,0,0,0,0,0,0,0,0,0.000000,0.000000,0.000000,0.000000,0.000000,0.000000,0.000000,0.000000
241545.368000,1.437494,-1.089114,2.525809,3.275377,1.572121,3.357390,0.000000,0.000000,0.000000,0.000000,0.000000,0.000000,0.000000,0.000000,0.000000,0.000000,0.000000,0.000000,0.000000,-2.260863,-0.418701,-0.238792,-0.000101,0.000000,0.000000,-23.521984,-4.326343,-1.846299,-0.000793,0.000000,1.437481,-1.089156,2.525786,3.275380,1.572157,3.357402,0.000000,0.000000,-0.000000,0.000000,-0.000000,0.000000,0.345977,-2.001549,-0.511724,-0.194992,-0.007719,-0.003892,0.000000,-2.260863,-0.418701,-0.238792,-0.000101,0.000000,0.086281,-0.363191,0.250131,0.000038,-0.000104,-3.053753,0.000000,0.000000,0.000000,0.000000,0.000000,0.000000,-4.428779,3.366168,0.503033,-0.061066,0.078034,0.045808,0.086290,-0.363187,0.250113,0.000000,-0.000000,-3.053753,0.000000,0.000000,0.000000,0.000000,0.000000,0.000000,0,28.375000,29.187500,27.687500,31.875000,35.062500,36.187500,0.677689,7,253,253,253,253,253,253,1,0.172383,0.134075,9.519346,0.000000,1.000000,0.000000,47.505978,47.576725,0.663561,47.498932,47.412937,47.541931,47.556267,47.312607,47.398605,0,1,-0.000000,-0.000000,0.004000,0.004000,1,1,-647.947633,149.049243,19379.473431,-33.657199,-11.285778,33.970842,0.000002,0.000002,0.000002,0.000000,0.000000,0.000000,0,0,0,0,0,0,0,0,0,0.000000,0.000000,0.000000,0.000000,0.000000,0.000000,0.000000,0.000000
241545.370000,1.437494,-1.089114,2.525809,3.275377,1.572121,3.357390,0.000000,0.000000,0.000000,0.000000,0.000000,0.000000,0.000000,0.000000,0.000000,0.000000,0.000000,0.000000,-0.000000,-2.260996,-0.418634,-0.238797,-0.000100,0.000000,-0.000000,-23.523371,-4.325652,-1.846336,-0.000791,0.000000,1.437522,-1.089119,2.525807,3.275335,1.572119,3.357443,0.000000,0.000000,-0.000000,0.000000,-0.000000,0.000000,0.323934,-2.006797,-0.524194,-0.188187,0.014429,-0.006611,-0.000000,-2.260996,-0.418634,-0.238797,-0.000100,0.000000,0.086301,-0.363181,0.250120,-0.000015,-0.000074,-3.053671,0.000000,0.000000,0.000000,0.000000,0.000000,0.000000,-4.304688,3.582419,0.241276,-0.054209,0.073431,0.047722,0.086290,-0.363187,0.250113,0.000000,-0.000000,-3.053753,0.000000,0.000000,0.000000,0.000000,0.000000,0.000000,0,28.375000,29.187500,27.687500,31.875000,35.062500,36.187500,0.637572,7,253,253,253,253,253,253,1,0.248997,0.095768,9.481039,0.000000,1.000000,0.000000,47.526573,47.580307,0.625520,47.470268,47.441601,47.556267,47.570599,47.312607,47.441601,0,1,-0.000000,-0.000000,0.004000,0.004000,1,1,-648.090609,148.844413,19379.211466,-33.663631,-11.280595,33.972753,0.000002,0.000002,0.000002,0.000000,0.000000,0.000000,0,0,0,0,0,0,0,0,0,0.000000,0.000000,0.000000,0.000000,0.000000,0.000000,0.000000,0.000000
241545.372000,1.437494,-1.089114,2.525809,3.275377,1.572121,3.357390,0.000000,0.000000,0.000000,0.000000,0.000000,0.000000,0.000000,0.000000,0.000000,0.000000,0.000000,0.000000,-0.000000,-2.261025,-0.418531,-0.238798,-0.000098,0.000000,-0.000000,-23.523670,-4.324589,-1.846343,-0.000769,0.000000,1.437484,-1.089160,2.525835,3.275368,1.572111,3.357402,0.000000,0.000000,-0.000000,0.000000,-0.000000,0.000000,0.332174,-1.976698,-0.513695,-0.183313,-0.009758,-0.011014,-0.000000,-2.261025,-0.418531,-0.238798,-0.000098,0.000000,0.086289,-0.363176,0.250127,-0.000023,-0.000043,-3.053750,0.000000,0.000000,0.000000,0.000000,0.000000,0.000000,-4.301933,3.598006,0.298515,-0.058672,0.074448,0.048463,0.086290,-0.363187,0.250113,0.000000,-0.000000,-3.053753,0.000000,0.000000,0.000000,0.000000,0.000000,0.000000,0,28.375000,29.187500,27.687500,31.875000,35.062500,36.187500,0.636264,7,253,253,253,253,253,253,1,0.229843,0.134075,9.404425,0.000000,1.000000,0.000000,47.512241,47.574039,0.582997,47.498932,47.398605,47.527599,47.513268,47.355606,47.398605,0,1,-0.000000,-0.000000,0.004000,0.004000,1,1,-648.094416,148.829488,19379.268609,-33.659267,-11.281996,33.973491,0.000002,0.000002,0.000002,0.000000,0.000000,0.000000,0,0,0,0,0,0,0,0,0,0.000000,0.000000,0.000000,0.000000,0.000000,0.000000,0.000000,0.000000
241545.374000,1.437494,-1.089114,2.525809,3.275377,1.572121,3.357390,0.000000,0.000000,0.000000,0.000000,0.000000,0.000000,0.000000,0.000000,0.000000,0.000000,0.000000,0.000000,0.000000,-2.260903,-0.418556,-0.238799,-0.000097,0.000000,0.000000,-23.522403,-4.324844,-1.846355,-0.000764,0.000000,1.437485,-1.089122,2.525819,3.275443,1.572132,3.357431,0.000000,0.000000,-0.000000,0.000000,-0.000000,0.000000,0.353715,-1.979105,-0.460284,-0.190173,-0.005463,-0.007970,0.000000,-2.260903,-0.418556,-0.238799,-0.000097,0.000000,0.086286,-0.363191,0.250108,0.000035,0.000098,-3.053720,0.000000,0.000000,0.000000,0.000000,0.000000,0.000000,-4.175223,3.756024,0.316174,-0.048985,0.071154,0.047329,0.086290,-0.363187,0.250113,0.000000,-0.000000,-3.053753,0.000000,0.000000,0.000000,0.000000,0.000000,0.000000,0,28.375000,29.187500,27.687500,31.875000,35.062500,36.187500,0.651552,7,253,253,253,253,253,253,1,0.229843,0.114922,9.481039,0.000000,1.000000,0.000000,47.515827,47.559711,0.582997,47.498932,47.412937,47.513268,47.556267,47.384270,47.384270,0,1,-0.000000,-0.000000,0.004000,0.004000,1,1,-648.234538,148.683267,19379.286064,-33.668629,-11.277872,33.972353,0.000002,0.000002,0.000002,0.000000,0.000000,0.000000,0,0,0,0,0,0,0,0,0,0.000000,0.000000,0.000000,0.000000,0.000000,0.000000,0.000000,0.000000
241545.376000,1.437494,-1.089114,2.525809,3.275377,1.572121,3.357390,0.000000,0.000000,0.000000,0.000000,0.000000,0.000000,0.000000,0.000000,0.000000,0.000000,0.000000,0.000000,-0.000000,-2.261005,-0.418523,-0.238806,-0.000098,0.000000,-0.000000,-23.523466,-4.324507,-1.846411,-0.000776,0.000000,1.437457,-1.089127,2.525799,3.275356,1.572111,3.357406,0.000000,0.000000,-0.000000,0.000000,-0.000000,0.000000,0.346040,-1.961935,-0.527402,-0.203644,-0.004801,-0.003144,-0.000000,-2.261005,-0.418523,-0.238806,-0.000098,0.000000,0.086278,-0.363190,0.250122,-0.000026,-0.000064,-3.053773,0.000000,0.000000,0.000000,0.000000,0.000000,0.000000,-4.543008,3.390956,0.485876,-0.057933,0.075575,0.043042,0.086290,-0.363187,0.250113,0.000000,-0.000000,-3.053753,0.000000,0.000000,0.000000,0.000000,0.000000,0.000000,0,28.375000,29.187500,27.687500,31.875000,35.062500,36.187500,0.639492,7,253,253,253,253,253,253,1,0.306458,0.153229,9.576807,0.000000,1.000000,0.000000,47.497913,47.559711,0.629992,47.470268,47.412937,47.527599,47.527599,47.326939,47.398605,0,1,-0.000000,-0.000000,0.004000,0.004000,1,1,-647.836022,149.014666,19379.456000,-33.660100,-11.283053,33.968071,0.000002,0.000002,0.000002,0.000000,0.000000,0.000000,0,0,0,0,0,0,0,0,0,0.000000,0.000000,0.000000,0.000000,0.000000,0.000000,0.000000,0.000000
241545.378000,1.437494,-1.089114,2.525809,3.275377,1.572121,3.357390,0.000000,0.000000,0.000000,0.000000,0.000000,0.000000,0.000000,0.000000,0.000000,0.000000,0.000000,0.000000,-0.000000,-2.261027,-0.418561,-0.238798,-0.000097,0.000000,-0.000000,-23.523689,-4.324890,-1.846346,-0.000764,0.000000,1.437485,-1.089110,2.525831,3.275361,1.572108,3.357369,0.000000,0.000000,-0.000000,0.000000,-0.000000,0.000000,0.325144,-2.024118,-0.516112,-0.175893,0.003733,-0.021319,-0.000000,-2.261027,-0.418561,-0.238798,-0.000097,0.000000,0.086289,-0.363180,0.250111,-0.000017,0.000016,-3.053781,0.000000,0.000000,0.000000,0.000000,0.000000,0.000000,-4.429139,3.273193,0.345498,-0.062836,0.078261,0.042204,0.086290,-0.363187,0.250113,0.000000,-0.000000,-3.053753,0.000000,0.000000,0.000000,0.000000,0.000000,0.000000,0,28.375000,29.187500,27.687500,31.875000,35.062500,36.187500,0.638868,7,253,253,253,253,253,253,1,0.172383,0.153229,9.481039,0.000000,1.000000,0.000000,47.526573,47.585678,0.659090,47.498932,47.427269,47.541931,47.513268,47.355606,47.412937,0,1,-0.000000,-0.000000,0.004000,0.004000,1,1,-647.939079,149.142099,19379.315463,-33.655450,-11.286161,33.967230,0.000002,0.000002,0.000002,0.000000,0.000000,0.000000,0,0,0,0,0,0,0,0,0,0.000000,0.000000,0.000000,0.000000,0.000000,0.000000,0.000000,0.000000
241545.380000,1.437494,-1.089114,2.525809,3.275377,1.572121,3.357390,0.000000,0.000000,0.000000,0.000000,0.000000,0.000000,0.000000,0.000000,0.000000,0.000000,0.000000,0.000000,-0.000000,-2.261001,-0.418477,-0.238802,-0.000097,0.000000,-0.000000,-23.523426,-4.324024,-1.846377,-0.000762,0.000000,1.437457,-1.089115,2.525769,3.275335,1.572153,3.357402,0.000000,0.000000,-0.000000,0.000000,-0.000000,0.000000,0.283592,-1.983652,-0.508755,-0.187523,0.010630,-0.007357,-0.000000,-2.261001,-0.418477,-0.238802,-0.000097,0.000000,0.086273,-0.363197,0.250124,0.000027,-0.000133,-3.053777,0.000000,0.000000,0.000000,0.000000,0.000000,0.000000,-4.508027,3.660138,0.261265,-0.053753,0.079908,0.047410,0.086290,-0.363187,0.250113,0.000000,-0.000000,-3.053753,0.000000,0.000000,0.000000,0.000000,0.000000,0.000000,0,28.375000,29.187500,27.687500,31.875000,35.062500,36.187500,0.640116,7,253,253,253,253,253,253,1,0.210690,0.172383,9.461885,0.000000,1.000000,0.000000,47.531048,47.591949,0.625520,47.470268,47.441601,47.513268,47.527599,47.341274,47.369938,0,1,-0.000000,-0.000000,0.004000,0.004000,1,1,-647.894395,148.749498,19379.231725,-33.664647,-11.287001,33.972446,0.000002,0.000002,0.000002,0.000000,0.000000,0.000000,0,0,0,0,0,0,0,0,0,0.000000,0.000000,0.000000,0.000000,0.000000,0.000000,0.000000,0.000000
241545.382000,1.437494,-1.089114,2.525809,3.275377,1.572121,3.357390,0.000000,0.000000,0.000000,0.000000,0.000000,0.000000,0.000000,0.000000,0.000000,0.000000,0.000000,0.000000,0.000000,-2.261097,-0.418589,-0.238795,-0.000100,0.000000,0.000000,-23.524427,-4.325185,-1.846324,-0.000788,0.000000,1.437485,-1.089152,2.525832,3.275371,1.572083,3.357394,0.000000,0.000000,-0.000000,0.000000,-0.000000,0.000000,0.375654,-1.988244,-0.555328,-0.189099,-0.009352,-0.011302,0.000000,-2.261097,-0.418589,-0.238795,-0.000100,0.000000,0.086292,-0.363178,0.250124,-0.000063,-0.000022,-3.053757,0.000000,0.000000,0.000000,0.000000,0.000000,0.000000,-4.520544,3.709168,0.313068,-0.050214,0.076721,0.049436,0.086290,-0.363187,0.250113,0.000000,-0.000000,-3.053753,0.000000,0.000000,0.000000,0.000000,0.000000,0.000000,0,28.375000,29.187500,27.687500,31.875000,35.062500,36.187500,0.653989,7,253,253,253,253,253,253,1,0.191536,0.172383,9.519346,0.000000,1.000000,0.000000,47.503288,47.568668,0.621043,47.470268,47.398605,47.455936,47.498932,47.369938,47.384270,0,1,-0.000000,-0.000000,0.004000,0.004000,1,1,-647.886427,148.699634,19379.282996,-33.667890,-11.283518,33.974462,0.000002,0.000002,0.000002,0.000000,0.000000,0.000000,0,0,0,0,0,0,0,0,0,0.000000,0.000000,0.000000,0.000000,0.000000,0.000000,0.000000,0.000000
241545.384000,1.437494,-1.089114,2.525809,3.275377,1.572121,3.357390,0.000000,0.000000,0.000000,0.000000,0.000000,0.000000,0.000000,0.000000,0.000000,0.000000,0.000000,0.000000,-0.000000,-2.260925,-0.418547,-0.238800,-0.000095,0.000000,-0.000000,-23.522635,-4.324754,-1.846360,-0.000747,0.000000,1.437506,-1.089159,2.525823,3.275397,1.572111,3.357369,0.000000,0.000000,-0.000000,0.000000,-0.000000,0.000000,0.308829,-1.958296,-0.531967,-0.189838,-0.001802,-0.004763,-0.000000,-2.260925,-0.418547,-0.238800,-0.000095,0.000000,0.086296,-0.363180,0.250125,-0.000018,-0.000016,-3.053761,0.000000,0.000000,0.000000,0.000000,0.000000,0.000000,-4.297698,3.701824,0.238860,-0.050459,0.072281,0.048292,0.086290,-0.363187,0.250113,0.000000,-0.000000,-3.053753,0.000000,0.000000,0.000000,0.000000,0.000000,0.000000,0,28.375000,29.187500,27.687500,31.875000,35.062500,36.187500,0.643285,7,253,253,253,253,253,253,1,0.134075,0.229843,9.481039,0.000000,1.000000,0.000000,47.530155,47.567768,0.627756,47.484600,47.412937,47.527599,47.527599,47.341274,47.369938,0,1,-0.000000,-0.000000,0.004000,0.004000,1,1,-648.107693,148.726520,19379.208901,-33.667257,-11.279118,33.973320,0.000002,0.000002,0.000002,0.000000,0.000000,0.000000,0,0,0,0,0,0,0,0,0,0.000000,0.000000,0.000000,0.000000,0.000000,0.000000,0.000000,0.000000
241545.386000,1.437494,-1.089114,2.525809,3.275377,1.572121,3.357390,0.000000,0.000000,0.000000,0.000000,0.000000,0.000000,0.000000,0.000000,0.000000,0.000000,0.000000,0.000000,-0.000000,-2.260928,-0.418577,-0.238801,-0.000097,0.000000,-0.000000,-23.522661,-4.325063,-1.846365,-0.000764,0.000000,1.437534,-1.089135,2.525786,3.275347,1.572169,3.357340,0.000000,0.000000,-0.000000,0.000000,-0.000000,0.000000,0.272358,-1.954214,-0.505135,-0.186757,-0.000282,-0.016029,-0.000000,-2.260928,-0.418577,-0.238801,-0.000097,0.000000,0.086300,-0.363185,0.250128,0.000053,-0.000125,-3.053762,0.000000,0.000000,0.000000,0.000000,0.000000,0.000000,-4.202695,3.574473,0.373149,-0.059813,0.071275,0.047615,0.086290,-0.363187,0.250113,0.000000,-0.000000,-3.053753,0.000000,0.000000,0.000000,0.000000,0.000000,0.000000,0,28.375000,29.187500,27.687500,31.875000,35.062500,36.187500,0.641713,7,253,253,253,253,253,253,1,0.172383,0.134075,9.576807,0.000000,1.000000,0.000000,47.548962,47.604488,0.609854,47.498932,47.398605,47.541931,47.513268,47.355606,47.398605,0,1,-0.000000,-0.000000,0.004000,0.004000,1,1,-648.191063,148.861571,19379.343647,-33.657855,-11.278934,33.972650,0.000002,0.000002,0.000002,0.000000,0.000000,0.000000,0,0,0,0,0,0,0,0,0,0.000000,0.000000,0.000000,0.000000,0.000000,0.000000,0.000000,0.000000
241545.388000,1.437494,-1.089114,2.525809,3.275377,1.572121,3.357390,0.000000,0.000000,0.000000,0.000000,0.000000,0.000000,0.000000,0.000000,0.000000,0.000000,0.000000,0.000000,0.000000,-2.261032,-0.418597,-0.238796,-0.000101,0.000000,0.000000,-23.523743,-4.325265,-1.846328,-0.000798,0.000000,1.437481,-1.089147,2.525786,3.275382,1.572115,3.357398,0.000000,0.000000,-0.000000,0.000000,-0.000000,0.000000,0.340611,-1.951527,-0.505457,-0.188242,0.013397,0.002054,0.000000,-2.261032,-0.418597,-0.238796,-0.000101,0.000000,0.086285,-0.363193,0.250128,-0.000022,-0.000077,-3.053758,0.000000,0.000000,0.000000,0.000000,0.000000,0.000000,-4.408335,3.602598,0.346440,-0.053607,0.072519,0.047633,0.086290,-0.363187,0.250113,0.000000,-0.000000,-3.053753,0.000000,0.000000,0.000000,0.000000,0.000000,0.000000,0,28.375000,29.187500,27.687500,31.875000,35.062500,36.187500,0.641820,7,253,253,253,253,253,253,1,0.191536,0.153229,9.461885,0.000000,1.000000,0.000000,47.556129,47.594635,0.616566,47.498932,47.441601,47.513268,47.527599,47.398605,47.412937,0,1,-0.000000,-0.000000,0.004000,0.004000,1,1,-647.988799,148.815564,19379.316619,-33.664144,-11.279630,33.972663,0.000002,0.000002,0.000002,0.000000,0.000000,0.000000,0,0,0,0,0,0,0,0,0,0.000000,0.000000,0.000000,0.000000,0.000000,0.000000,0.000000,0.000000
241545.390000,1.437494,-1.089114,2.525809,3.275377,1.572121,3.357390,0.000000,0.000000,0.000000,0.000000,0.000000,0.000000,0.000000,0.000000,0.000000,0.000000,0.000000,0.000000,-0.000000,-2.261012,-0.418619,-0.238798,-0.000097,0.000000,-0.000000,-23.523539,-4.325495,-1.846342,-0.000766,0.000000,1.437506,-1.089143,2.525814,3.275361,1.572107,3.357378,0.000000,0.000000,-0.000000,0.000000,-0.000000,0.000000,0.291247,-1.978166,-0.542201,-0.181503,0.000597,-0.024156,-0.000000,-2.261012,-0.418619,-0.238798,-0.000097,0.000000,0.086297,-0.363181,0.250125,-0.000032,-0.000058,-3.053752,0.000000,0.000000,0.000000,0.000000,0.000000,0.000000,-4.464739,3.498523,0.414143,-0.060009,0.077030,0.049513,0.086290,-0.363187,0.250113,0.000000,-0.000000,-3.053753,0.000000,0.000000,0.000000,0.000000,0.000000,0.000000,0,28.375000,29.187500,27.687500,31.875000,35.062500,36.187500,0.642684,7,253,253,253,253,253,253,1,0.229843,0.229843,9.557653,0.000000,1.000000,0.000000,47.512241,47.565979,0.625520,47.484600,47.441601,47.513268,47.513268,47.355606,47.355606,0,1,-0.000000,-0.000000,0.004000,0.004000,1,1,-647.923513,148.914298,19379.384241,-33.658161,-11.284685,33.974542,0.000002,0.000002,0.000002,0.000000,0.000000,0.000000,0,0,0,0,0,0,0,0,0,0.000000,0.000000,0.000000,0.000000,0.000000,0.000000,0.000000,0.000000
241545.392000,1.437494,-1.089114,2.525809,3.275377,1.572121,3.357390,0.000000,0.000000,0.000000,0.000000,0.000000,0.000000,0.000000,0.000000,0.000000,0.000000,0.000000,0.000000,-0.000000,-2.260970,-0.418562,-0.238798,-0.000097,0.000000,-0.000000,-23.523104,-4.324902,-1.846348,-0.000761,0.000000,1.437490,-1.089073,2.525803,3.275345,1.572173,3.357423,0.000000,0.000000,-0.000000,0.000000,-0.000000,0.000000,0.368245,-1.932220,-0.547661,-0.184042,-0.000217,-0.001542,-0.000000,-2.260970,-0.418562,-0.238798,-0.000097,0.000000,0.086283,-0.363189,0.250103,0.000080,-0.000011,-3.053724,0.000000,0.000000,0.000000,0.000000,0.000000,0.000000,-4.375901,3.464077,0.242412,-0.060284,0.072084,0.045257,0.086290,-0.363187,0.250113,0.000000,-0.000000,-3.053753,0.000000,0.000000,0.000000,0.000000,0.000000,0.000000,0,28.375000,29.187500,27.687500,31.875000,35.062500,36.187500,0.643716,7,253,253,253,253,253,253,1,0.287304,0.134075,9.557653,0.000000,1.000000,0.000000,47.510452,47.561501,0.623279,47.455936,47.427269,47.513268,47.556267,47.312607,47.341274,0,1,-0.000000,-0.000000,0.004000,0.004000,1,1,-648.008938,148.956343,19379.212708,-33.657458,-11.279788,33.970288,0.000002,0.000002,0.000002,0.000000,0.000000,0.000000,0,0,0,0,0,0,0,0,0,0.000000,0.000000,0.000000,0.000000,0.000000,0.000000,0.000000,0.000000
241545.394000,1.437494,-1.089114,2.525809,3.275377,1.572121,3.357390,0.000000,0.000000,0.000000,0.000000,0.000000,0.000000,0.000000,0.000000,0.000000,0.000000,0.000000,0.000000,0.000000,-2.261116,-0.418459,-0.238802,-0.000102,0.000000,0.000000,-23.524614,-4.323844,-1.846373,-0.000800,0.000000,1.437477,-1.089159,2.525807,3.275352,1.572120,3.357398,0.000000,0.000000,-0.000000,0.000000,-0.000000,0.000000,0.327257,-1.940028,-0.507608,-0.182607,-0.003831,-0.021808,0.000000,-2.261116,-0.418459,-0.238802,-0.000102,0.000000,0.086285,-0.363183,0.250132,-0.000021,-0.000110,-3.053762,0.000000,0.000000,0.000000,0.000000,0.000000,0.000000,-4.451569,3.453787,0.420099,-0.057160,0.075202,0.039813,0.086290,-0.363187,0.250113,0.000000,-0.000000,-3.053753,0.000000,0.000000,0.000000,0.000000,0.000000,0.000000,0,28.375000,29.187500,27.687500,31.875000,35.062500,36.187500,0.639672,7,253,253,253,253,253,253,1,0.210690,0.057461,9.481039,0.000000,1.000000,0.000000,47.540901,47.597324,0.638946,47.527599,47.441601,47.570599,47.570599,47.384270,47.427269,0,1,-0.000000,-0.000000,0.004000,0.004000,1,1,-647.932660,148.959988,19379.390353,-33.660841,-11.282613,33.964845,0.000002,0.000002,0.000002,0.000000,0.000000,0.000000,0,0,0,0,0,0,0,0,0,0.000000,0.000000,0.000000,0.000000,0.000000,0.000000,0.000000,0.000000
241545.396000,1.437494,-1.089114,2.525809,3.275377,1.572121,3.357390,0.000000,0.000000,0.000000,0.000000,0.000000,0.000000,0.000000,0.000000,0.000000,0.000000,0.000000,0.000000,-0.000000,-2.260952,-0.418602,-0.238796,-0.000098,0.000000,-0.000000,-23.522915,-4.325316,-1.846329,-0.000769,0.000000,1.437473,-1.089115,2.525844,3.275345,1.572145,3.357406,0.000000,0.000000,-0.000000,0.000000,-0.000000,0.000000,0.308182,-1.941492,-0.543875,-0.183288,0.005608,-0.015722,-0.000000,-2.260952,-0.418602,-0.238796,-0.000098,0.000000,0.086282,-0.363175,0.250112,0.000038,-0.000005,-3.053757,0.000000,0.000000,0.000000,0.000000,0.000000,0.000000,-4.516703,3.417757,0.460674,-0.060281,0.077866,0.044286,0.086290,-0.363187,0.250113,0.000000,-0.000000,-3.053753,0.000000,0.000000,0.000000,0.000000,0.000000,0.000000,0,28.375000,29.187500,27.687500,31.875000,35.062500,36.187500,0.644496,7,253,253,253,253,253,253,1,0.134075,0.248997,9.442732,0.000000,1.000000,0.000000,47.555233,47.608070,0.681469,47.527599,47.441601,47.527599,47.584930,47.326939,47.398605,0,1,-0.000000,-0.000000,0.004000,0.004000,1,1,-647.864554,148.990279,19379.430842,-33.657965,-11.285545,33.969315,0.000002,0.000002,0.000002,0.000000,0.000000,0.000000,0,0,0,0,0,0,0,0,0,0.000000,0.000000,0.000000,0.000000,0.000000,0.000000,0.000000,0.000000
241545.398000,1.437494,-1.089114,2.525809,3.275377,1.572121,3.357390,0.000000,0.000000,0.000000,0.000000,0.000000,0.000000,0.000000,0.000000,0.000000,0.000000,0.000000,0.000000,0.000000,-2.260970,-0.418461,-0.238802,-0.000099,0.000000,0.000000,-23.523101,-4.323859,-1.846373,-0.000784,0.000000,1.437502,-1.089135,2.525827,3.275401,1.572108,3.357393,0.000000,0.000000,-0.000000,0.000000,-0.000000,0.000000,0.292158,-1.916057,-0.530013,-0.178359,0.012934,-0.022806,0.000000,-2.260970,-0.418461,-0.238802,-0.000099,0.000000,0.086295,-0.363182,0.250116,-0.000014,0.000034,-3.053741,0.000000,0.000000,0.000000,0.000000,0.000000,0.000000,-4.482544,3.302068,0.676546,-0.062068,0.077303,0.043324,0.086290,-0.363187,0.250113,0.000000,-0.000000,-3.053753,0.000000,0.000000,0.000000,0.000000,0.000000,0.000000,0,28.375000,29.187500,27.687500,31.875000,35.062500,36.187500,0.639336,7,253,253,253,253,253,253,1,0.248997,0.210690,9.538500,0.000000,1.000000,0.000000,47.516720,47.574039,0.609854,47.484600,47.398605,47.541931,47.513268,47.355606,47.398605,0,1,-0.000000,-0.000000,0.004000,0.004000,1,1,-647.888552,149.108500,19379.646477,-33.656133,-11.285141,33.968349,0.000002,0.000002,0.000002,0.000000,0.000000,0.000000,0,0,0,0,0,0,0,0,0,0.000000,0.000000,0.000000,0.000000,0.000000,0.000000,0.000000,0.000000
241545.400000,1.437494,-1.089114,2.525809,3.275377,1.572121,3.357390,0.000000,0.000000,0.000000,0.000000,0.000000,0.000000,0.000000,0.000000,0.000000,0.000000,0.000000,0.000000,0.000000,-2.260964,-0.418528,-0.238803,-0.000097,0.000000,0.000000,-23.523037,-4.324559,-1.846384,-0.000762,0.000000,1.437469,-1.089189,2.525795,3.275352,1.572107,3.357382,0.000000,0.000000,-0.000000,0.000000,-0.000000,0.000000,0.297850,-1.982605,-0.511197,-0.181554,0.002910,0.004217,0.000000,-2.260964,-0.418528,-0.238803,-0.000097,0.000000,0.086283,-0.363185,0.250144,-0.000052,-0.000169,-3.053785,0.000000,0.000000,0.000000,0.000000,0.000000,0.000000,-4.647396,3.427650,0.423147,-0.059731,0.080004,0.041487,0.086290,-0.363187,0.250113,0.000000,-0.000000,-3.053753,0.000000,0.000000,0.000000,0.000000,0.000000,0.000000,0,28.375000,29.187500,27.687500,31.875000,35.062500,36.187500,0.648684,7,253,253,253,253,253,253,1,0.153229,0.134075,9.423578,0.000000,1.000000,0.000000,47.500599,47.568668,0.621043,47.484600,47.384270,47.527599,47.527599,47.384270,47.384270,0,1,-0.000000,-0.000000,0.004000,0.004000,1,1,-647.735249,148.968872,19379.393446,-33.658698,-11.287618,33.966522,0.000002,0.000002,0.000002,0.000000,0.000000,0.000000,0,0,0,0,0,0,0,0,0,0.000000,0.000000,0.000000,0.000000,0.000000,0.000000,0.000000,0.000000
241545.402000,1.437494,-1.089114,2.525809,3.275377,1.572121,3.357390,0.000000,0.000000,0.000000,0.000000,0.000000,0.000000,0.000000,0.000000,0.000000,0.000000,0.000000,0.000000,-0.000000,-2.260920,-0.418674,-0.238793,-0.000097,0.000000,-0.000000,-23.522580,-4.326058,-1.846305,-0.000761,0.000000,1.437502,-1.089115,2.525814,3.275333,1.572115,3.357423,0.000000,0.000000,-0.000000,0.000000,-0.000000,0.000000,0.306467,-1.948637,-0.493312,-0.178606,-0.000549,-0.016654,-0.000000,-2.260920,-0.418674,-0.238793,-0.000097,0.000000,0.086294,-0.363181,0.250117,-0.000019,-0.000059,-3.053712,0.000000,0.000000,0.000000,0.000000,0.000000,0.000000,-4.664736,3.578505,0.499054,-0.058110,0.083650,0.043746,0.086290,-0.363187,0.250113,0.000000,-0.000000,-3.053753,0.000000,0.000000,0.000000,0.000000,0.000000,0.000000,0,28.375000,29.187500,27.687500,31.875000,35.062500,36.187500,0.642205,7,253,253,253,253,253,253,1,0.210690,0.114922,9.500193,0.000000,1.000000,0.000000,47.526573,47.587475,0.629992,47.527599,47.398605,47.570599,47.556267,47.326939,47.427269,0,1,-0.000000,-0.000000,0.004000,0.004000,1,1,-647.731446,148.816904,19379.469196,-33.660638,-11.291115,33.968776,0.000002,0.000002,0.000002,0.000000,0.000000,0.000000,0,0,0,0,0,0,0,0,0,0.000000,0.000000,0.000000,0.000000,0.000000,0.000000,0.000000,0.000000
241545.404000,1.437494,-1.089114,2.525809,3.275377,1.572121,3.357390,0.000000,0.000000,0.000000,0.000000,0.000000,0.000000,0.000000,0.000000,0.000000,0.000000,0.000000,0.000000,-0.000000,-2.261020,-0.418511,-0.238798,-0.000097,0.000000,-0.000000,-23.523624,-4.324382,-1.846348,-0.000766,0.000000,1.437518,-1.089127,2.525807,3.275373,1.572124,3.357374,0.000000,0.000000,-0.000000,0.000000,-0.000000,0.000000,0.333341,-1.943217,-0.555311,-0.195613,-0.004711,-0.008138,-0.000000,-2.261020,-0.418511,-0.238798,-0.000097,0.000000,0.086299,-0.363184,0.250119,-0.000000,-0.000030,-3.053745,0.000000,0.000000,0.000000,0.000000,0.000000,0.000000,-4.346711,3.353796,0.199857,-0.059659,0.076688,0.043326,0.086290,-0.363187,0.250113,0.000000,-0.000000,-3.053753,0.000000,0.000000,0.000000,0.000000,0.000000,0.000000,0,28.375000,29.187500,27.687500,31.875000,35.062500,36.187500,0.644881,7,253,253,253,253,253,253,1,0.134075,0.153229,9.500193,0.000000,1.000000,0.000000,47.548065,47.592846,0.708320,47.527599,47.441601,47.527599,47.570599,47.412937,47.427269,0,1,-0.000000,-0.000000,0.004000,0.004000,1,1,-648.028375,149.068820,19379.169976,-33.658481,-11.284315,33.968355,0.000002,0.000002,0.000002,0.000000,0.000000,0.000000,0,0,0,0,0,0,0,0,0,0.000000,0.000000,0.000000,0.000000,0.000000,0.000000,0.000000,0.000000
241545.406000,1.437494,-1.089114,2.525809,3.275377,1.572121,3.357390,0.000000,0.000000,0.000000,0.000000,0.000000,0.000000,0.000000,0.000000,0.000000,0.000000,0.000000,0.000000,0.000000,-2.261013,-0.418547,-0.238800,-0.000098,0.000000,0.000000,-23.523546,-4.324748,-1.846361,-0.000771,0.000000,1.437441,-1.089177,2.525814,3.275385,1.572153,3.357386,0.000000,0.000000,-0.000000,0.000000,-0.000000,0.000000,0.354279,-1.920110,-0.547517,-0.163936,-0.002347,-0.014744,0.000000,-2.261013,-0.418547,-0.238800,-0.000098,0.000000,0.086268,-0.363185,0.250134,0.000035,-0.000085,-3.053810,0.000000,0.000000,0.000000,0.000000,0.000000,0.000000,-4.587503,3.449761,0.223843,-0.059576,0.078558,0.044768,0.086290,-0.363187,0.250113,0.000000,-0.000000,-3.053753,0.000000,0.000000,0.000000,0.000000,0.000000,0.000000,0,28.375000,29.187500,27.687500,31.875000,35.062500,36.187500,0.642637,7,253,253,253,253,253,253,1,0.191536,0.191536,9.500193,0.000000,1.000000,0.000000,47.523888,47.578518,0.650136,47.498932,47.427269,47.513268,47.527599,47.312607,47.398605,0,1,-0.000000,-0.000000,0.004000,0.004000,1,1,-647.796635,148.952298,19379.194195,-33.658725,-11.286168,33.969801,0.000002,0.000002,0.000002,0.000000,0.000000,0.000000,0,0,0,0,0,0,0,0,0,0.000000,0.000000,0.000000,0.000000,0.000000,0.000000,0.000000,0.000000
241545.408000,1.437494,-1.089114,2.525809,3.275377,1.572121,3.357390,0.000000,0.000000,0.000000,0.000000,0.000000,0.000000,0.000000,0.000000,0.000000,0.000000,0.000000,0.000000,0.000000,-2.260910,-0.418621,-0.238798,-0.000100,0.000000,0.000000,-23.522475,-4.325519,-1.846342,-0.000788,0.000000,1.437435,-1.089131,2.525794,3.275389,1.572099,3.357386,0.000000,0.000000,-0.000000,0.000000,-0.000000,0.000000,0.337424,-2.016821,-0.519086,-0.186348,0.003864,-0.000766,0.000000,-2.260910,-0.418621,-0.238798,-0.000100,0.000000,0.086270,-0.363196,0.250121,-0.000038,-0.000025,-3.053815,0.000000,0.000000,0.000000,0.000000,0.000000,0.000000,-4.357446,3.471411,0.513172,-0.058377,0.071150,0.046157,0.086290,-0.363187,0.250113,0.000000,-0.000000,-3.053753,0.000000,0.000000,0.000000,0.000000,0.000000,0.000000,0,28.375000,29.187500,27.687500,31.875000,35.062500,36.187500,0.645576,7,253,253,253,253,253,253,1,0.229843,0.095768,9.366117,0.000000,1.000000,0.000000,47.520306,47.582996,0.632233,47.484600,47.412937,47.527599,47.513268,47.326939,47.384270,0,1,-0.000000,-0.000000,0.004000,0.004000,1,1,-648.027776,148.951016,19379.483177,-33.659266,-11.278682,33.971184,0.000002,0.000002,0.000002,0.000000,0.000000,0.000000,0,0,0,0,0,0,0,0,0,0.000000,0.000000,0.000000,0.000000,0.000000,0.000000,0.000000,0.000000
241545.408000,1.437494,-1.089114,2.525809,3.275377,1.572121,3.357390,0.000000,0.000000,0.000000,0.000000,0.000000,0.000000,0.000000,0.000000,0.000000,0.000000,0.000000,0.000000,-0.000000,-2.261028,-0.418577,-0.238800,-0.000096,0.000000,-0.000000,-23.523702,-4.325063,-1.846360,-0.000757,0.000000,1.437506,-1.089152,2.525856,3.275340,1.572092,3.357406,0.000000,0.000000,-0.000000,0.000000,-0.000000,0.000000,0.345687,-1.994235,-0.510597,-0.193647,0.015787,-0.016714,-0.000000,-2.261028,-0.418577,-0.238800,-0.000096,0.000000,0.086300,-0.363166,0.250123,-0.000051,-0.000035,-3.053724,0.000000,0.000000,0.000000,0.000000,0.000000,0.000000,-4.609772,3.712519,0.523249,-0.052812,0.078845,0.048125,0.086290,-0.363187,0.250113,0.000000,-0.000000,-3.053753,0.000000,0.000000,0.000000,0.000000,0.000000,0.000000,0,28.375000,29.187500,27.687500,31.875000,35.062500,36.187500,0.644100,7,253,253,253,253,253,253,1,0.229843,0.153229,9.481039,0.000000,1.000000,0.000000,47.525677,47.580307,0.614330,47.527599,47.470268,47.556267,47.570599,47.369938,47.427269,0,1,-0.000000,-0.000000,0.004000,0.004000,1,1,-647.797948,148.688316,19379.493240,-33.665491,-11.285863,33.973152,0.000002,0.000002,0.000002,0.000000,0.000000,0.000000,0,0,0,0,0,0,0,0,0,0.000000,0.000000,0.000000,0.000000,0.000000,0.000000,0.000000,0.000000
241545.412000,1.437494,-1.089114,2.525809,3.275377,1.572121,3.357390,0.000000,0.000000,0.000000,0.000000,0.000000,0.000000,0.000000,0.000000,0.000000,0.000000,0.000000,0.000000,0.000000,-2.260881,-0.418503,-0.238799,-0.000096,0.000000,0.000000,-23.522180,-4.324299,-1.846355,-0.000753,0.000000,1.437452,-1.089106,2.525852,3.275364,1.572115,3.357418,0.000000,0.000000,-0.000000,0.000000,-0.000000,0.000000,0.342493,-1.943105,-0.552073,-0.181781,-0.007897,-0.017713,0.000000,-2.260881,-0.418503,-0.238799,-0.000096,0.000000,0.086277,-0.363178,0.250106,0.000002,0.000057,-3.053765,0.000000,0.000000,0.000000,0.000000,0.000000,0.000000,-4.420659,3.681644,0.399573,-0.051973,0.075379,0.048417,0.086290,-0.363187,0.250113,0.000000,-0.000000,-3.053753,0.000000,0.000000,0.000000,0.000000,0.000000,0.000000,0,28.375000,29.187500,27.687500,31.875000,35.062500,36.187500,0.642420,7,253,253,253,253,253,253,1,0.229843,0.134075,9.442732,0.000000,1.000000,0.000000,47.531944,47.599113,0.652371,47.527599,47.455936,47.541931,47.556267,47.398605,47.412937,0,1,-0.000000,-0.000000,0.004000,0.004000,1,1,-647.983384,148.735951,19379.369483,-33.666019,-11.282339,33.973442,0.000002,0.000002,0.000002,0.000000,0.000000,0.000000,0,0,0,0,0,0,0,0,0,0.000000,0.000000,0.000000,0.000000,0.000000,0.000000,0.000000,0.000000
241545.414000,1.437494,-1.089114,2.525809,3.275377,1.572121,3.357390,0.000000,0.000000,0.000000,0.000000,0.000000,0.000000,0.000000,0.000000,0.000000,0.000000,0.000000,0.000000,-0.000000,-2.260973,-0.418433,-0.238804,-0.000097,0.000000,-0.000000,-23.523138,-4.323574,-1.846393,-0.000766,0.000000,1.437456,-1.089184,2.525794,3.275345,1.572128,3.357382,0.000000,0.000000,-0.000000,0.000000,-0.000000,0.000000,0.306828,-1.933660,-0.572297,-0.180102,0.006057,-0.015398,-0.000000,-2.260973,-0.418433,-0.238804,-0.000097,0.000000,0.086276,-0.363185,0.250144,-0.000020,-0.000180,-3.053798,0.000000,0.000000,0.000000,0.000000,0.000000,0.000000,-4.401510,3.806527,0.438892,-0.052236,0.074710,0.046942,0.086290,-0.363187,0.250113,0.000000,-0.000000,-3.053753,0.000000,0.000000,0.000000,0.000000,0.000000,0.000000,0,28.375000,29.187500,27.687500,31.875000,35.062500,36.187500,0.649416,7,253,253,253,253,253,253,1,0.287304,0.172383,9.481039,0.000000,1.000000,0.000000,47.519409,47.552544,0.603141,47.498932,47.384270,47.513268,47.513268,47.355606,47.326939,0,1,-0.000000,-0.000000,0.004000,0.004000,1,1,-648.013319,148.613057,19379.409357,-33.665700,-11.281686,33.971978,0.000002,0.000002,0.000002,0.000000,0.000000,0.000000,0,0,0,0,0,0,0,0,0,0.000000,0.000000,0.000000,0.000000,0.000000,0.000000,0.000000,0.000000
241545.416000,1.437494,-1.089114,2.525809,3.275377,1.572121,3.357390,0.000000,0.000000,0.000000,0.000000,0.000000,0.000000,0.000000,0.000000,0.000000,0.000000,0.000000,0.000000,-0.000000,-2.260928,-0.418667,-0.238793,-0.000098,0.000000,-0.000000,-23.522666,-4.325985,-1.846303,-0.000774,0.000000,1.437493,-1.089106,2.525835,3.275365,1.572132,3.357381,0.000000,0.000000,-0.000000,0.000000,-0.000000,0.000000,0.308873,-1.989708,-0.515097,-0.181994,0.006079,-0.016210,-0.000000,-2.260928,-0.418667,-0.238793,-0.000098,0.000000,0.086290,-0.363179,0.250108,0.000023,0.000030,-3.053762,0.000000,0.000000,0.000000,0.000000,0.000000,0.000000,-4.284273,3.683564,0.379697,-0.056164,0.075417,0.050195,0.086290,-0.363187,0.250113,0.000000,-0.000000,-3.053753,0.000000,0.000000,0.000000,0.000000,0.000000,0.000000,0,28.375000,29.187500,27.687500,31.875000,35.062500,36.187500,0.657984,7,253,253,253,253,253,253,1,0.287304,0.172383,9.538500,0.000000,1.000000,0.000000,47.501499,47.574039,0.645659,47.484600,47.427269,47.527599,47.484600,47.326939,47.398605,0,1,-0.000000,-0.000000,0.004000,0.004000,1,1,-648.119400,148.745951,19379.349734,-33.661849,-11.282745,33.975221,0.000002,0.000002,0.000002,0.000000,0.000000,0.000000,0,0,0,0,0,0,0,0,0,0.000000,0.000000,0.000000,0.000000,0.000000,0.000000,0.000000,0.000000
241545.416000,1.437494,-1.089114,2.525809,3.275377,1.572121,3.357390,0.000000,0.000000,0.000000,0.000000,0.000000,0.000000,0.000000,0.000000,0.000000,0.000000,0.000000,0.000000,-0.000000,-2.260928,-0.418667,-0.238793,-0.000098,0.000000,-0.000000,-23.522666,-4.325985,-1.846303,-0.000774,0.000000,1.437493,-1.089106,2.525835,3.275365,1.572132,3.357381,0.000000,0.000000,-0.000000,0.000000,-0.000000,0.000000,0.308873,-1.989708,-0.515097,-0.181994,0.006079,-0.016210,-0.000000,-2.260928,-0.418667,-0.238793,-0.000098,0.000000,0.086290,-0.363179,0.250108,0.000023,0.000030,-3.053762,0.000000,0.000000,0.000000,0.000000,0.000000,0.000000,-4.284273,3.683564,0.379697,-0.056164,0.075417,0.050195,0.086290,-0.363187,0.250113,0.000000,-0.000000,-3.053753,0.000000,0.000000,0.000000,0.000000,0.000000,0.000000,0,28.375000,29.187500,27.687500,31.875000,35.062500,36.187500,0.657984,7,253,253,253,253,253,253,1,0.287304,0.172383,9.538500,0.000000,1.000000,0.000000,47.501499,47.574039,0.645659,47.484600,47.427269,47.527599,47.484600,47.326939,47.398605,0,1,-0.000000,-0.000000,0.004000,0.004000,1,1,-648.119400,148.745951,19379.349734,-33.661849,-11.282745,33.975221,0.000002,0.000002,0.000002,0.000000,0.000000,0.000000,0,0,0,0,0,0,0,0,0,0.000000,0.000000,0.000000,0.000000,0.000000,0.000000,0.000000,0.000000
241545.420000,1.437494,-1.089114,2.525809,3.275377,1.572121,3.357390,0.000000,0.000000,0.000000,0.000000,0.000000,0.000000,0.000000,0.000000,0.000000,0.000000,0.000000,0.000000,0.000000,-2.260876,-0.418525,-0.238800,-0.000097,0.000000,0.000000,-23.522123,-4.324524,-1.846361,-0.000764,0.000000,1.437451,-1.089127,2.525799,3.275364,1.572083,3.357418,0.000000,0.000000,-0.000000,0.000000,-0.000000,0.000000,0.288720,-2.000730,-0.533749,-0.185407,0.002954,-0.005625,0.000000,-2.260876,-0.418525,-0.238800,-0.000097,0.000000,0.086278,-0.363192,0.250121,-0.000067,-0.000046,-3.053767,0.000000,0.000000,0.000000,0.000000,0.000000,0.000000,-4.417100,3.535143,0.524139,-0.055747,0.075913,0.047639,0.086290,-0.363187,0.250113,0.000000,-0.000000,-3.053753,0.000000,0.000000,0.000000,0.000000,0.000000,0.000000,0,28.375000,29.187500,27.687500,31.875000,35.062500,36.187500,0.642205,7,253,253,253,253,253,253,1,0.076614,0.172383,9.385271,0.000000,1.000000,0.000000,47.505978,47.560604,0.625520,47.498932,47.441601,47.498932,47.513268,47.326939,47.398605,0,1,-0.000000,-0.000000,0.004000,0.004000,1,1,-647.974166,148.882077,19379.494115,-33.662307,-11.283197,33.972667,0.000002,0.000002,0.000002,0.000000,0.000000,0.000000,0,0,0,0,0,0,0,0,0,0.000000,0.000000,0.000000,0.000000,0.000000,0.000000,0.000000,0.000000
241545.422000,1.437494,-1.089114,2.525809,3.275377,1.572121,3.357390,0.000000,0.000000,0.000000,0.000000,0.000000,0.000000,0.000000,0.000000,0.000000,0.000000,0.000000,0.000000,-0.000000,-2.261027,-0.418561,-0.238799,-0.000095,0.000000,-0.000000,-23.523694,-4.324894,-1.846350,-0.000747,0.000000,1.437510,-1.089143,2.525790,3.275368,1.572128,3.357410,0.000000,0.000000,-0.000000,0.000000,-0.000000,0.000000,0.339630,-1.978940,-0.499144,-0.180006,0.006494,-0.007231,-0.000000,-2.261027,-0.418561,-0.238799,-0.000095,0.000000,0.086295,-0.363188,0.250127,-0.000004,-0.000088,-3.053716,0.000000,0.000000,0.000000,0.000000,0.000000,0.000000,-4.228418,3.702058,0.381042,-0.051850,0.073741,0.049329,0.086290,-0.363187,0.250113,0.000000,-0.000000,-3.053753,0.000000,0.000000,0.000000,0.000000,0.000000,0.000000,0,28.375000,29.187500,27.687500,31.875000,35.062500,36.187500,0.637789,7,253,253,253,253,253,253,1,0.210690,0.076614,9.423578,0.000000,1.000000,0.000000,47.526573,47.568668,0.589710,47.484600,47.398605,47.556267,47.484600,47.326939,47.398605,0,1,-0.000000,-0.000000,0.004000,0.004000,1,1,-648.176894,148.732093,19379.351305,-33.666005,-11.280695,33.974360,0.000002,0.000002,0.000002,0.000000,0.000000,0.000000,0,0,0,0,0,0,0,0,0,0.000000,0.000000,0.000000,0.000000,0.000000,0.000000,0.000000,0.000000
241545.424000,1.437494,-1.089114,2.525809,3.275377,1.572121,3.357390,0.000000,0.000000,0.000000,0.000000,0.000000,0.000000,0.000000,0.000000,0.000000,0.000000,0.000000,0.000000,-0.000000,-2.261012,-0.418604,-0.238797,-0.000098,0.000000,-0.000000,-23.523537,-4.325335,-1.846339,-0.000774,0.000000,1.437448,-1.089196,2.525803,3.275410,1.572132,3.357427,0.000000,0.000000,-0.000000,0.000000,-0.000000,0.000000,0.315455,-1.966405,-0.525188,-0.180113,-0.011579,-0.008921,-0.000000,-2.261012,-0.418604,-0.238797,-0.000098,0.000000,0.086273,-0.363189,0.250140,0.000002,-0.000087,-3.053761,0.000000,0.000000,0.000000,0.000000,0.000000,0.000000,-4.201895,3.641831,0.125181,-0.056488,0.072803,0.048887,0.086290,-0.363187,0.250113,0.000000,-0.000000,-3.053753,0.000000,0.000000,0.000000,0.000000,0.000000,0.000000,0,28.375000,29.187500,27.687500,31.875000,35.062500,36.187500,0.642457,7,253,253,253,253,253,253,1,0.210690,0.134075,9.442732,0.000000,1.000000,0.000000,47.505077,47.559711,0.574043,47.470268,47.384270,47.484600,47.527599,47.369938,47.369938,0,1,-0.000000,-0.000000,0.004000,0.004000,1,1,-648.197839,148.794578,19379.095454,-33.661299,-11.280165,33.973918,0.000002,0.000002,0.000002,0.000000,0.000000,0.000000,0,0,0,0,0,0,0,0,0,0.000000,0.000000,0.000000,0.000000,0.000000,0.000000,0.000000,0.000000
241545.426000,1.437494,-1.089114,2.525809,3.275377,1.572121,3.357390,0.000000,0.000000,0.000000,0.000000,0.000000,0.000000,0.000000,0.000000,0.000000,0.000000,0.000000,0.000000,0.000000,-2.260895,-0.418676,-0.238797,-0.000098,0.000000,0.000000,-23.522325,-4.326085,-1.846339,-0.000776,0.000000,1.437473,-1.089164,2.525814,3.275380,1.572153,3.357447,0.000000,0.000000,-0.000000,0.000000,-0.000000,0.000000,0.355756,-1.995666,-0.532387,-0.177398,-0.014086,-0.004686,0.000000,-2.260895,-0.418676,-0.238797,-0.000098,0.000000,0.086280,-0.363183,0.250130,0.000037,-0.000071,-3.053716,0.000000,0.000000,0.000000,0.000000,0.000000,0.000000,-4.191809,3.550050,0.201922,-0.055779,0.069750,0.049228,0.086290,-0.363187,0.250113,0.000000,-0.000000,-3.053753,0.000000,0.000000,0.000000,0.000000,0.000000,0.000000,0,28.375000,29.187500,27.687500,31.875000,35.062500,36.187500,0.641220,7,253,253,253,253,253,253,1,0.210690,0.095768,9.481039,0.000000,1.000000,0.000000,47.505077,47.564190,0.652371,47.470268,47.398605,47.527599,47.556267,47.341274,47.398605,0,1,-0.000000,-0.000000,0.004000,0.004000,1,1,-648.199960,148.886740,19379.172244,-33.661742,-11.277065,33.974260,0.000002,0.000002,0.000002,0.000000,0.000000,0.000000,0,0,0,0,0,0,0,0,0,0.000000,0.000000,0.000000,0.000000,0.000000,0.000000,0.000000,0.000000
241545.428000,1.437494,-1.089114,2.525809,3.275377,1.572121,3.357390,0.000000,0.000000,0.000000,0.000000,0.000000,0.000000,0.000000,0.000000,0.000000,0.000000,0.000000,0.000000,0.000000,-2.260934,-0.418599,-0.238798,-0.000100,0.000000,0.000000,-23.522722,-4.325283,-1.846348,-0.000788,0.000000,1.437473,-1.089115,2.525799,3.275356,1.572099,3.357393,0.000000,0.000000,-0.000000,0.000000,-0.000000,0.000000,0.319392,-1.993607,-0.511137,-0.182695,-0.010055,-0.019237,0.000000,-2.260934,-0.418599,-0.238798,-0.000100,0.000000,0.086285,-0.363190,0.250117,-0.000041,-0.000042,-3.053770,0.000000,0.000000,0.000000,0.000000,0.000000,0.000000,-4.403503,3.469337,0.324873,-0.058245,0.076839,0.048135,0.086290,-0.363187,0.250113,0.000000,-0.000000,-3.053753,0.000000,0.000000,0.000000,0.000000,0.000000,0.000000,0,28.375000,29.187500,27.687500,31.875000,35.062500,36.187500,0.645336,7,253,253,253,253,253,253,1,0.248997,0.134075,9.519346,0.000000,1.000000,0.000000,47.514931,47.566872,0.627756,47.527599,47.441601,47.541931,47.513268,47.341274,47.355606,0,1,-0.000000,-0.000000,0.004000,0.004000,1,1,-647.981899,148.948833,19379.294910,-33.659900,-11.284339,33.973163,0.000002,0.000002,0.000002,0.000000,0.000000,0.000000,0,0,0,0,0,0,0,0,0,0.000000,0.000000,0.000000,0.000000,0.000000,0.000000,0.000000,0.000000
241545.430000,1.437494,-1.089114,2.525809,3.275377,1.572121,3.357390,0.000000,0.000000,0.000000,0.000000,0.000000,0.000000,0.000000,0.000000,0.000000,0.000000,0.000000,0.000000,-0.000000,-2.261048,-0.418539,-0.238799,-0.000096,0.000000,-0.000000,-23.523909,-4.324667,-1.846353,-0.000757,0.000000,1.437444,-1.089155,2.525835,3.275335,1.572157,3.357369,0.000000,0.000000,-0.000000,0.000000,-0.000000,0.000000,0.313746,-1.956293,-0.458459,-0.185406,-0.001004,-0.014314,-0.000000,-2.261048,-0.418539,-0.238799,-0.000096,0.000000,0.086270,-0.363176,0.250128,0.000040,-0.000095,-3.053823,0.000000,0.000000,0.000000,0.000000,0.000000,0.000000,-4.423267,3.602144,0.448860,-0.053571,0.076601,0.048358,0.086290,-0.363187,0.250113,0.000000,-0.000000,-3.053753,0.000000,0.000000,0.000000,0.000000,0.000000,0.000000,0,28.375000,29.187500,27.687500,31.875000,35.062500,36.187500,0.639672,7,253,253,253,253,253,253,1,0.248997,0.134075,9.481039,0.000000,1.000000,0.000000,47.536423,47.602695,0.574043,47.484600,47.412937,47.527599,47.527599,47.384270,47.355606,0,1,-0.000000,-0.000000,0.004000,0.004000,1,1,-647.973544,148.814953,19379.419258,-33.664534,-11.283690,33.973391,0.000002,0.000002,0.000002,0.000000,0.000000,0.000000,0,0,0,0,0,0,0,0,0,0.000000,0.000000,0.000000,0.000000,0.000000,0.000000,0.000000,0.000000
241545.432000,1.437494,-1.089114,2.525809,3.275377,1.572121,3.357390,0.000000,0.000000,0.000000,0.000000,0.000000,0.000000,0.000000,0.000000,0.000000,0.000000,0.000000,0.000000,-0.000000,-2.260911,-0.418545,-0.238797,-0.000100,0.000000,-0.000000,-23.522488,-4.324729,-1.846339,-0.000791,0.000000,1.437464,-1.089107,2.525840,3.275389,1.572157,3.357362,0.000000,0.000000,-0.000000,0.000000,-0.000000,0.000000,0.296125,-1.971504,-0.504637,-0.180748,0.003949,-0.031789,-0.000000,-2.260911,-0.418545,-0.238797,-0.000100,0.000000,0.086277,-0.363182,0.250105,0.000068,0.000064,-3.053810,0.000000,0.000000,0.000000,0.000000,0.000000,0.000000,-4.412341,3.625227,0.370471,-0.052867,0.075197,0.050492,0.086290,-0.363187,0.250113,0.000000,-0.000000,-3.053753,0.000000,0.000000,0.000000,0.000000,0.000000,0.000000,0,28.375000,29.187500,27.687500,31.875000,35.062500,36.187500,0.641568,7,253,253,253,253,253,253,1,0.229843,0.153229,9.423578,0.000000,1.000000,0.000000,47.509556,47.548962,0.596423,47.441601,47.384270,47.498932,47.513268,47.283943,47.312607,0,1,-0.000000,-0.000000,0.004000,0.004000,1,1,-647.986454,148.793070,19379.340550,-33.665111,-11.282237,33.975518,0.000002,0.000002,0.000002,0.000000,0.000000,0.000000,0,0,0,0,0,0,0,0,0,0.000000,0.000000,0.000000,0.000000,0.000000,0.000000,0.000000,0.000000
241545.434000,1.437494,-1.089114,2.525809,3.275377,1.572121,3.357390,0.000000,0.000000,0.000000,0.000000,0.000000,0.000000,0.000000,0.000000,0.000000,0.000000,0.000000,0.000000,-0.000000,-2.260994,-0.418458,-0.238805,-0.000100,0.000000,-0.000000,-23.523352,-4.323829,-1.846400,-0.000791,0.000000,1.437518,-1.089106,2.525823,3.275410,1.572153,3.357345,0.000000,0.000000,-0.000000,0.000000,-0.000000,0.000000,0.336934,-1.979241,-0.489720,-0.171369,-0.002105,-0.017007,-0.000000,-2.260994,-0.418458,-0.238805,-0.000100,0.000000,0.086296,-0.363185,0.250105,0.000063,0.000074,-3.053773,0.000000,0.000000,0.000000,0.000000,0.000000,0.000000,-4.351518,3.609455,0.088280,-0.058965,0.077328,0.047072,0.086290,-0.363187,0.250113,0.000000,-0.000000,-3.053753,0.000000,0.000000,0.000000,0.000000,0.000000,0.000000,0,28.375000,29.187500,27.687500,31.875000,35.062500,36.187500,0.641916,7,253,253,253,253,253,253,1,0.172383,0.038307,9.461885,0.000000,1.000000,0.000000,47.494331,47.551651,0.618802,47.484600,47.398605,47.513268,47.484600,47.298275,47.369938,0,1,-0.000000,-0.000000,0.004000,0.004000,1,1,-648.045801,148.813990,19379.058319,-33.659225,-11.284895,33.972098,0.000002,0.000002,0.000002,0.000000,0.000000,0.000000,0,0,0,0,0,0,0,0,0,0.000000,0.000000,0.000000,0.000000,0.000000,0.000000,0.000000,0.000000
241545.436000,1.437494,-1.089114,2.525809,3.275377,1.572121,3.357390,0.000000,0.000000,0.000000,0.000000,0.000000,0.000000,0.000000,0.000000,0.000000,0.000000,0.000000,0.000000,0.000000,-2.261026,-0.418486,-0.238806,-0.000100,0.000000,0.000000,-23.523683,-4.324119,-1.846404,-0.000788,0.000000,1.437542,-1.089143,2.525807,3.275373,1.572120,3.357369,0.000000,0.000000,-0.000000,0.000000,-0.000000,0.000000,0.307351,-1.996072,-0.537843,-0.170198,0.013065,-0.018324,0.000000,-2.261026,-0.418486,-0.238806,-0.000100,0.000000,0.086308,-0.363181,0.250124,-0.000011,-0.000054,-3.053725,0.000000,0.000000,0.000000,0.000000,0.000000,0.000000,-4.380440,3.653426,0.338811,-0.052124,0.076087,0.050590,0.086290,-0.363187,0.250113,0.000000,-0.000000,-3.053753,0.000000,0.000000,0.000000,0.000000,0.000000,0.000000,0,28.375000,29.187500,27.687500,31.875000,35.062500,36.187500,0.640500,7,253,253,253,253,253,253,1,0.248997,0.153229,9.442732,0.000000,1.000000,0.000000,47.540005,47.579411,0.600900,47.498932,47.369938,47.541931,47.513268,47.326939,47.398605,0,1,-0.000000,-0.000000,0.004000,0.004000,1,1,-648.021160,148.767277,19379.308965,-33.665936,-11.283056,33.975619,0.000002,0.000002,0.000002,0.000000,0.000000,0.000000,0,0,0,0,0,0,0,0,0,0.000000,0.000000,0.000000,0.000000,0.000000,0.000000,0.000000,0.000000
241545.438000,1.437494,-1.089114,2.525809,3.275377,1.572121,3.357390,0.000000,0.000000,0.000000,0.000000,0.000000,0.000000,0.000000,0.000000,0.000000,0.000000,0.000000,0.000000,0.000000,-2.260983,-0.418575,-0.238799,-0.000098,0.000000,0.000000,-23.523238,-4.325036,-1.846351,-0.000769,0.000000,1.437506,-1.089164,2.525827,3.275345,1.572115,3.357378,0.000000,0.000000,-0.000000,0.000000,-0.000000,0.000000,0.330786,-1.954207,-0.512208,-0.191359,0.006208,-0.021893,0.000000,-2.260983,-0.418575,-0.238799,-0.000098,0.000000,0.086297,-0.363173,0.250131,-0.000025,-0.000096,-3.053752,0.000000,0.000000,0.000000,0.000000,0.000000,0.000000,-4.206652,3.604970,0.440246,-0.055712,0.072417,0.047307,0.086290,-0.363187,0.250113,0.000000,-0.000000,-3.053753,0.000000,0.000000,0.000000,0.000000,0.000000,0.000000,0,28.375000,29.187500,27.687500,31.875000,35.062500,36.187500,0.639372,7,253,253,253,253,253,253,1,0.153229,0.095768,9.481039,0.000000,1.000000,0.000000,47.533737,47.588367,0.681469,47.527599,47.441601,47.498932,47.541931,47.355606,47.384270,0,1,-0.000000,-0.000000,0.004000,0.004000,1,1,-648.189937,148.830854,19379.410466,-33.662038,-11.279712,33.972338,0.000002,0.000002,0.000002,0.000000,0.000000,0.000000,0,0,0,0,0,0,0,0,0,0.000000,0.000000,0.000000,0.000000,0.000000,0.000000,0.000000,0.000000
241545.440000,1.437494,-1.089114,2.525809,3.275377,1.572121,3.357390,0.000000,0.000000,0.000000,0.000000,0.000000,0.000000,0.000000,0.000000,0.000000,0.000000,0.000000,0.000000,-0.000000,-2.260909,-0.418574,-0.238797,-0.000097,0.000000,-0.000000,-23.522468,-4.325029,-1.846334,-0.000766,0.000000,1.437472,-1.089176,2.525819,3.275406,1.572104,3.357407,0.000000,0.000000,-0.000000,0.000000,-0.000000,0.000000,0.329786,-1.942855,-0.514683,-0.181849,-0.003906,-0.012315,-0.000000,-2.260909,-0.418574,-0.238797,-0.000097,0.000000,0.086285,-0.363184,0.250131,-0.000032,-0.000031,-3.053757,0.000000,0.000000,0.000000,0.000000,0.000000,0.000000,-4.295111,3.528858,0.369445,-0.057245,0.074434,0.048847,0.086290,-0.363187,0.250113,0.000000,-0.000000,-3.053753,0.000000,0.000000,0.000000,0.000000,0.000000,0.000000,0,28.375000,29.187500,27.687500,31.875000,35.062500,36.187500,0.644161,7,253,253,253,253,253,253,1,0.114922,0.114922,9.500193,0.000000,1.000000,0.000000,47.515827,47.552544,0.594187,47.498932,47.398605,47.513268,47.513268,47.312607,47.398605,0,1,-0.000000,-0.000000,0.004000,0.004000,1,1,-648.095132,148.899011,19379.339483,-33.660686,-11.281857,33.973875,0.000002,0.000002,0.000002,0.000000,0.000000,0.000000,0,0,0,0,0,0,0,0,0,0.000000,0.000000,0.000000,0.000000,0.000000,0.000000,0.000000,0.000000
241545.442000,1.437494,-1.089114,2.525809,3.275377,1.572121,3.357390,0.000000,0.000000,0.000000,0.000000,0.000000,0.000000,0.000000,0.000000,0.000000,0.000000,0.000000,0.000000,0.000000,-2.260906,-0.418613,-0.238800,-0.000096,0.000000,0.000000,-23.522435,-4.325434,-1.846358,-0.000759,0.000000,1.437477,-1.089131,2.525835,3.275343,1.572141,3.357419,0.000000,0.000000,-0.000000,0.000000,-0.000000,0.000000,0.269020,-1.995765,-0.537657,-0.173822,-0.003083,-0.009243,0.000000,-2.260906,-0.418613,-0.238800,-0.000096,0.000000,0.086284,-0.363176,0.250119,0.000024,-0.000044,-3.053740,0.000000,0.000000,0.000000,0.000000,0.000000,0.000000,-4.223099,3.613018,0.408930,-0.055637,0.072745,0.044004,0.086290,-0.363187,0.250113,0.000000,-0.000000,-3.053753,0.000000,0.000000,0.000000,0.000000,0.000000,0.000000,0,28.375000,29.187500,27.687500,31.875000,35.062500,36.187500,0.639961,7,253,253,253,253,253,253,1,0.229843,0.057461,9.519346,0.000000,1.000000,0.000000,47.499702,47.556129,0.629992,47.470268,47.384270,47.513268,47.527599,47.312607,47.369938,0,1,-0.000000,-0.000000,0.004000,0.004000,1,1,-648.174241,148.821411,19379.379151,-33.662143,-11.280036,33.969035,0.000002,0.000002,0.000002,0.000000,0.000000,0.000000,0,0,0,0,0,0,0,0,0,0.000000,0.000000,0.000000,0.000000,0.000000,0.000000,0.000000,0.000000
241545.444000,1.437494,-1.089114,2.525809,3.275377,1.572121,3.357390,0.000000,0.000000,0.000000,0.000000,0.000000,0.000000,0.000000,0.000000,0.000000,0.000000,0.000000,0.000000,-0.000000,-2.260955,-0.418504,-0.238800,-0.000099,0.000000,-0.000000,-23.522946,-4.324307,-1.846357,-0.000781,0.000000,1.437445,-1.089140,2.525848,3.275356,1.572116,3.357369,0.000000,0.000000,-0.000000,0.000000,-0.000000,0.000000,0.312928,-1.943326,-0.490521,-0.190780,-0.004560,-0.011202,-0.000000,-2.260955,-0.418504,-0.238800,-0.000099,0.000000,0.086275,-0.363176,0.250119,-0.000008,-0.000010,-3.053822,0.000000,0.000000,0.000000,0.000000,0.000000,0.000000,-4.334853,3.614803,0.168108,-0.053337,0.076914,0.047840,0.086290,-0.363187,0.250113,0.000000,-0.000000,-3.053753,0.000000,0.000000,0.000000,0.000000,0.000000,0.000000,0,28.375000,29.187500,27.687500,31.875000,35.062500,36.187500,0.640428,7,253,253,253,253,253,253,1,0.153229,0.210690,9.461885,0.000000,1.000000,0.000000,47.542694,47.605385,0.647900,47.498932,47.441601,47.541931,47.541931,47.355606,47.384270,0,1,-0.000000,-0.000000,0.004000,0.004000,1,1,-648.062791,148.810197,19379.138161,-33.664791,-11.283983,33.972867,0.000002,0.000002,0.000002,0.000000,0.000000,0.000000,0,0,0,0,0,0,0,0,0,0.000000,0.000000,0.000000,0.000000,0.000000,0.000000,0.000000,0.000000
241545.444000,1.437494,-1.089114,2.525809,3.275377,1.572121,3.357390,0.000000,0.000000,0.000000,0.000000,0.000000,0.000000,0.000000,0.000000,0.000000,0.000000,0.000000,0.000000,-0.000000,-2.260955,-0.418504,-0.238800,-0.000099,0.000000,-0.000000,-23.522946,-4.324307,-1.846357,-0.000781,0.000000,1.437485,-1.089156,2.525777,3.275324,1.572124,3.357394,0.000000,0.000000,-0.000000,0.000000,-0.000000,0.000000,0.341059,-1.998653,-0.531142,-0.165381,-0.003599,-0.016212,-0.000000,-2.260917,-0.418497,-0.238801,-0.000097,0.000000,0.086287,-0.363188,0.250138,-0.000029,-0.000193,-3.053757,0.000000,0.000000,0.000000,0.000000,0.000000,0.000000,-4.263839,3.643452,0.244630,-0.053878,0.072441,0.045791,0.086290,-0.363187,0.250113,0.000000,-0.000000,-3.053753,0.000000,0.000000,0.000000,0.000000,0.000000,0.000000,0,28.375000,29.187500,27.687500,31.875000,35.062500,36.187500,0.642144,7,253,253,253,253,253,253,1,0.134075,0.095768,9.481039,0.000000,1.000000,0.000000,47.548962,47.601803,0.612089,47.513268,47.441601,47.541931,47.541931,47.341274,47.398605,0,1,-0.000000,-0.000000,0.004000,0.004000,1,1,-648.136345,148.787371,19379.215086,-33.663869,-11.279572,33.970826,0.000002,0.000002,0.000002,0.000000,0.000000,0.000000,0,0,0,0,0,0,0,0,0,0.000000,0.000000,0.000000,0.000000,0.000000,0.000000,0.000000,0.000000
241545.448000,1.437494,-1.089114,2.525809,3.275377,1.572121,3.357390,0.000000,0.000000,0.000000,0.000000,0.000000,0.000000,0.000000,0.000000,0.000000,0.000000,0.000000,0.000000,-0.000000,-2.261008,-0.418646,-0.238792,-0.000098,0.000000,-0.000000,-23.523492,-4.325771,-1.846298,-0.000771,0.000000,1.437460,-1.089168,2.525885,3.275373,1.572128,3.357374,0.000000,0.000000,-0.000000,0.000000,-0.000000,0.000000,0.281083,-2.004549,-0.507995,-0.186709,-0.008130,-0.021269,-0.000000,-2.261008,-0.418646,-0.238792,-0.000098,0.000000,0.086281,-0.363163,0.250121,0.000016,0.000024,-3.053802,0.000000,0.000000,0.000000,0.000000,0.000000,0.000000,-4.408807,3.534806,0.327014,-0.052730,0.074164,0.047709,0.086290,-0.363187,0.250113,0.000000,-0.000000,-3.053753,0.000000,0.000000,0.000000,0.000000,0.000000,0.000000,0,28.375000,29.187500,27.687500,31.875000,35.062500,36.187500,0.641880,7,253,253,253,253,253,253,1,0.114922,0.076614,9.442732,0.000000,1.000000,0.000000,47.513138,47.577621,0.596423,47.498932,47.412937,47.513268,47.484600,47.384270,47.384270,0,1,-0.000000,-0.000000,0.004000,0.004000,1,1,-647.982149,148.883371,19379.297049,-33.665156,-11.281193,33.972736,0.000002,0.000002,0.000002,0.000000,0.000000,0.000000,0,0,0,0,0,0,0,0,0,0.000000,0.000000,0.000000,0.000000,0.000000,0.000000,0.000000,0.000000
241545.450000,1.437494,-1.089114,2.525809,3.275377,1.572121,3.357390,0.000000,0.000000,0.000000,0.000000,0.000000,0.000000,0.000000,0.000000,0.000000,0.000000,0.000000,0.000000,-0.000000,-2.260804,-0.418484,-0.238803,-0.000098,0.000000,-0.000000,-23.521377,-4.324095,-1.846382,-0.000774,0.000000,1.437457,-1.089172,2.525769,3.275380,1.572099,3.357374,0.000000,0.000000,-0.000000,0.000000,-0.000000,0.000000,0.323295,-1.973660,-0.538461,-0.170099,0.006904,-0.015309,-0.000000,-2.260804,-0.418484,-0.238803,-0.000098,0.000000,0.086278,-0.363197,0.250140,-0.000058,-0.000138,-3.053806,0.000000,0.000000,0.000000,0.000000,0.000000,0.000000,-4.282706,3.549380,0.425818,-0.056677,0.075588,0.050689,0.086290,-0.363187,0.250113,0.000000,-0.000000,-3.053753,0.000000,0.000000,0.000000,0.000000,0.000000,0.000000,0,28.375000,29.187500,27.687500,31.875000,35.062500,36.187500,0.659844,7,253,253,253,253,253,253,1,0.210690,0.095768,9.423578,0.000000,1.000000,0.000000,47.505978,47.563290,0.618802,47.484600,47.398605,47.527599,47.484600,47.355606,47.384270,0,1,-0.000000,-0.000000,0.004000,0.004000,1,1,-648.109136,148.879715,19379.396048,-33.661351,-11.282950,33.975721,0.000002,0.000002,0.000002,0.000000,0.000000,0.000000,0,0,0,0,0,0,0,0,0,0.000000,0.000000,0.000000,0.000000,0.000000,0.000000,0.000000,0.000000
241545.450000,1.437494,-1.089114,2.525809,3.275377,1.572121,3.357390,0.000000,0.000000,0.000000,0.000000,0.000000,0.000000,0.000000,0.000000,0.000000,0.000000,0.000000,0.000000,-0.000000,-2.260804,-0.418484,-0.238803,-0.000098,0.000000,-0.000000,-23.521377,-4.324095,-1.846382,-0.000774,0.000000,1.437457,-1.089172,2.525769,3.275380,1.572099,3.357374,0.000000,0.000000,-0.000000,0.000000,-0.000000,0.000000,0.323295,-1.973660,-0.538461,-0.170099,0.006904,-0.015309,-0.000000,-2.260804,-0.418484,-0.238803,-0.000098,0.000000,0.086278,-0.363197,0.250140,-0.000058,-0.000138,-3.053806,0.000000,0.000000,0.000000,0.000000,0.000000,0.000000,-4.282706,3.549380,0.425818,-0.056677,0.075588,0.050689,0.086290,-0.363187,0.250113,0.000000,-0.000000,-3.053753,0.000000,0.000000,0.000000,0.000000,0.000000,0.000000,0,28.375000,29.187500,27.687500,31.875000,35.062500,36.187500,0.659844,7,253,253,253,253,253,253,1,0.210690,0.095768,9.423578,0.000000,1.000000,0.000000,47.505978,47.563290,0.618802,47.484600,47.398605,47.527599,47.484600,47.355606,47.384270,0,1,-0.000000,-0.000000,0.004000,0.004000,1,1,-648.109136,148.879715,19379.396048,-33.661351,-11.282950,33.975721,0.000002,0.000002,0.000002,0.000000,0.000000,0.000000,0,0,0,0,0,0,0,0,0,0.000000,0.000000,0.000000,0.000000,0.000000,0.000000,0.000000,0.000000
241545.454000,1.437494,-1.089114,2.525809,3.275377,1.572121,3.357390,0.000000,0.000000,0.000000,0.000000,0.000000,0.000000,0.000000,0.000000,0.000000,0.000000,0.000000,0.000000,0.000000,-2.260880,-0.418588,-0.238795,-0.000096,0.000000,0.000000,-23.522170,-4.325170,-1.846322,-0.000757,0.000000,1.437490,-1.089128,2.525786,3.275324,1.572099,3.357415,0.000000,0.000000,-0.000000,0.000000,-0.000000,0.000000,0.355219,-2.005920,-0.560979,-0.187670,-0.007764,-0.002835,0.000000,-2.260880,-0.418588,-0.238795,-0.000096,0.000000,0.086291,-0.363188,0.250127,-0.000057,-0.000131,-3.053732,0.000000,0.000000,0.000000,0.000000,0.000000,0.000000,-4.431298,3.457555,0.241591,-0.059874,0.078261,0.048063,0.086290,-0.363187,0.250113,0.000000,-0.000000,-3.053753,0.000000,0.000000,0.000000,0.000000,0.000000,0.000000,0,28.375000,29.187500,27.687500,31.875000,35.062500,36.187500,0.643416,7,253,253,253,253,253,253,1,0.229843,0.153229,9.481039,0.000000,1.000000,0.000000,47.520306,47.581200,0.681469,47.527599,47.441601,47.541931,47.541931,47.412937,47.412937,0,1,-0.000000,-0.000000,0.004000,0.004000,1,1,-647.953355,148.957847,19379.211795,-33.658406,-11.285898,33.973095,0.000002,0.000002,0.000002,0.000000,0.000000,0.000000,0,0,0,0,0,0,0,0,0,0.000000,0.000000,0.000000,0.000000,0.000000,0.000000,0.000000,0.000000
241545.456000,1.437494,-1.089114,2.525809,3.275377,1.572121,3.357390,0.000000,0.000000,0.000000,0.000000,0.000000,0.000000,0.000000,0.000000,0.000000,0.000000,0.000000,0.000000,-0.000000,-2.261044,-0.418582,-0.238795,-0.000096,0.000000,-0.000000,-23.523874,-4.325115,-1.846319,-0.000757,0.000000,1.437469,-1.089086,2.525782,3.275410,1.572120,3.357402,0.000000,0.000000,-0.000000,0.000000,-0.000000,0.000000,0.308608,-1.998730,-0.497362,-0.169914,-0.008905,-0.013700,-0.000000,-2.261044,-0.418582,-0.238795,-0.000096,0.000000,0.086279,-0.363203,0.250105,0.000007,0.000050,-3.053766,0.000000,0.000000,0.000000,0.000000,0.000000,0.000000,-4.490579,3.748164,0.294736,-0.052522,0.076684,0.049554,0.086290,-0.363187,0.250113,0.000000,-0.000000,-3.053753,0.000000,0.000000,0.000000,0.000000,0.000000,0.000000,0,28.375000,29.187500,27.687500,31.875000,35.062500,36.187500,0.642828,7,253,253,253,253,253,253,1,0.287304,0.191536,9.615114,0.000000,1.000000,0.000000,47.512241,47.551651,0.567330,47.498932,47.412937,47.527599,47.470268,47.369938,47.384270,0,1,-0.000000,-0.000000,0.004000,0.004000,1,1,-647.919561,148.663549,19379.264677,-33.665587,-11.283688,33.974578,0.000002,0.000002,0.000002,0.000000,0.000000,0.000000,0,0,0,0,0,0,0,0,0,0.000000,0.000000,0.000000,0.000000,0.000000,0.000000,0.000000,0.000000
241545.458000,1.437494,-1.089114,2.525809,3.275377,1.572121,3.357390,0.000000,0.000000,0.000000,0.000000,0.000000,0.000000,0.000000,0.000000,0.000000,0.000000,0.000000,0.000000,-0.000000,-2.261132,-0.418523,-0.238804,-0.000098,0.000000,-0.000000,-23.524790,-4.324501,-1.846391,-0.000769,0.000000,1.437494,-1.089057,2.525803,3.275389,1.572119,3.357348,0.000000,0.000000,-0.000000,0.000000,-0.000000,0.000000,0.310670,-1.947713,-0.539024,-0.186019,-0.008805,0.001587,-0.000000,-2.261132,-0.418523,-0.238804,-0.000098,0.000000,0.086289,-0.363195,0.250093,0.000015,0.000094,-3.053794,0.000000,0.000000,0.000000,0.000000,0.000000,0.000000,-4.340323,3.759582,0.287794,-0.050718,0.072525,0.046476,0.086290,-0.363187,0.250113,0.000000,-0.000000,-3.053753,0.000000,0.000000,0.000000,0.000000,0.000000,0.000000,0,28.375000,29.187500,27.687500,31.875000,35.062500,36.187500,0.642985,7,253,253,253,253,253,253,1,0.268151,0.134075,9.576807,0.000000,1.000000,0.000000,47.501499,47.559711,0.603141,47.470268,47.412937,47.527599,47.527599,47.398605,47.384270,0,1,-0.000000,-0.000000,0.004000,0.004000,1,1,-648.070110,148.665528,19379.257641,-33.667016,-11.279386,33.971499,0.000002,0.000002,0.000002,0.000000,0.000000,0.000000,0,0,0,0,0,0,0,0,0,0.000000,0.000000,0.000000,0.000000,0.000000,0.000000,0.000000,0.000000
241545.460000,1.437494,-1.089114,2.525809,3.275377,1.572121,3.357390,0.000000,0.000000,0.000000,0.000000,0.000000,0.000000,0.000000,0.000000,0.000000,0.000000,0.000000,0.000000,-0.000000,-2.261148,-0.418435,-0.238806,-0.000098,0.000000,-0.000000,-23.524954,-4.323591,-1.846408,-0.000769,0.000000,1.437481,-1.089102,2.525812,3.275359,1.572120,3.357374,0.000000,0.000000,-0.000000,0.000000,-0.000000,0.000000,0.322779,-1.931018,-0.543135,-0.177566,-0.010263,-0.014055,-0.000000,-2.261148,-0.418435,-0.238806,-0.000098,0.000000,0.086286,-0.363187,0.250111,-0.000002,-0.000006,-3.053782,0.000000,0.000000,0.000000,0.000000,0.000000,0.000000,-4.367818,3.562364,0.401840,-0.055187,0.077827,0.048739,0.086290,-0.363187,0.250113,0.000000,-0.000000,-3.053753,0.000000,0.000000,0.000000,0.000000,0.000000,0.000000,0,28.375000,29.187500,27.687500,31.875000,35.062500,36.187500,0.645709,7,253,253,253,253,253,253,1,0.134075,0.153229,9.481039,0.000000,1.000000,0.000000,47.530155,47.588367,0.721751,47.513268,47.441601,47.556267,47.570599,47.384270,47.412937,0,1,-0.000000,-0.000000,0.004000,0.004000,1,1,-648.025505,148.859388,19379.371899,-33.663033,-11.285057,33.973766,0.000002,0.000002,0.000002,0.000000,0.000000,0.000000,0,0,0,0,0,0,0,0,0,0.000000,0.000000,0.000000,0.000000,0.000000,0.000000,0.000000,0.000000
241545.462000,1.437494,-1.089114,2.525809,3.275377,1.572121,3.357390,0.000000,0.000000,0.000000,0.000000,0.000000,0.000000,0.000000,0.000000,0.000000,0.000000,0.000000,0.000000,-0.000000,-2.261048,-0.418497,-0.238801,-0.000098,0.000000,-0.000000,-23.523914,-4.324230,-1.846369,-0.000769,0.000000,1.437481,-1.089115,2.525803,3.275326,1.572132,3.357406,0.000000,0.000000,-0.000000,0.000000,-0.000000,0.000000,0.358656,-1.935485,-0.481310,-0.179898,-0.018783,-0.007404,-0.000000,-2.261048,-0.418497,-0.238801,-0.000098,0.000000,0.086285,-0.363185,0.250120,0.000002,-0.000090,-3.053749,0.000000,0.000000,0.000000,0.000000,0.000000,0.000000,-4.357581,3.627720,0.362625,-0.052752,0.072548,0.046894,0.086290,-0.363187,0.250113,0.000000,-0.000000,-3.053753,0.000000,0.000000,0.000000,0.000000,0.000000,0.000000,0,28.375000,29.187500,27.687500,31.875000,35.062500,36.187500,0.644317,7,253,253,253,253,253,253,1,0.172383,0.076614,9.423578,0.000000,1.000000,0.000000,47.530155,47.577621,0.668038,47.498932,47.470268,47.556267,47.570599,47.341274,47.398605,0,1,-0.000000,-0.000000,0.004000,0.004000,1,1,-648.041563,148.794938,19379.332906,-33.664999,-11.279583,33.971926,0.000002,0.000002,0.000002,0.000000,0.000000,0.000000,0,0,0,0,0,0,0,0,0,0.000000,0.000000,0.000000,0.000000,0.000000,0.000000,0.000000,0.000000
241545.464000,1.437494,-1.089114,2.525809,3.275377,1.572121,3.357390,0.000000,0.000000,0.000000,0.000000,0.000000,0.000000,0.000000,0.000000,0.000000,0.000000,0.000000,0.000000,-0.000000,-2.261039,-0.418531,-0.238797,-0.000098,0.000000,-0.000000,-23.523824,-4.324582,-1.846338,-0.000776,0.000000,1.437502,-1.089101,2.525807,3.275364,1.572111,3.357362,0.000000,0.000000,-0.000000,0.000000,-0.000000,0.000000,0.353262,-1.922366,-0.504534,-0.184131,-0.012550,-0.031386,-0.000000,-2.261039,-0.418531,-0.238797,-0.000098,0.000000,0.086294,-0.363187,0.250111,-0.000015,-0.000003,-3.053773,0.000000,0.000000,0.000000,0.000000,0.000000,0.000000,-4.461182,3.633373,0.274692,-0.052913,0.079450,0.049672,0.086290,-0.363187,0.250113,0.000000,-0.000000,-3.053753,0.000000,0.000000,0.000000,0.000000,0.000000,0.000000,0,28.375000,29.187500,27.687500,31.875000,35.062500,36.187500,0.646716,7,253,253,253,253,253,253,1,0.268151,0.153229,9.519346,0.000000,1.000000,0.000000,47.505077,47.569561,0.605377,47.470268,47.398605,47.513268,47.527599,47.326939,47.369938,0,1,-0.000000,-0.000000,0.004000,0.004000,1,1,-647.938780,148.780435,19379.244705,-33.665440,-11.286474,33.974699,0.000002,0.000002,0.000002,0.000000,0.000000,0.000000,0,0,0,0,0,0,0,0,0,0.000000,0.000000,0.000000,0.000000,0.000000,0.000000,0.000000,0.000000
241545.466000,1.437494,-1.089114,2.525809,3.275377,1.572121,3.357390,0.000000,0.000000,0.000000,0.000000,0.000000,0.000000,0.000000,0.000000,0.000000,0.000000,0.000000,0.000000,0.000000,-2.261058,-0.418503,-0.238801,-0.000097,0.000000,0.000000,-23.524017,-4.324295,-1.846370,-0.000764,0.000000,1.437513,-1.089102,2.525814,3.275356,1.572132,3.357374,0.000000,0.000000,-0.000000,0.000000,-0.000000,0.000000,0.354372,-1.960212,-0.508076,-0.177721,-0.006127,-0.019149,0.000000,-2.261058,-0.418503,-0.238801,-0.000097,0.000000,0.086296,-0.363183,0.250111,0.000016,-0.000010,-3.053749,0.000000,0.000000,0.000000,0.000000,0.000000,0.000000,-4.276705,3.533158,0.231292,-0.057363,0.075395,0.048081,0.086290,-0.363187,0.250113,0.000000,-0.000000,-3.053753,0.000000,0.000000,0.000000,0.000000,0.000000,0.000000,0,28.375000,29.187500,27.687500,31.875000,35.062500,36.187500,0.641412,7,253,253,253,253,253,253,1,0.172383,0.172383,9.557653,0.000000,1.000000,0.000000,47.521198,47.559711,0.614330,47.470268,47.427269,47.513268,47.556267,47.326939,47.384270,0,1,-0.000000,-0.000000,0.004000,0.004000,1,1,-648.113806,148.896338,19379.201409,-33.660654,-11.282827,33.973109,0.000002,0.000002,0.000002,0.000000,0.000000,0.000000,0,0,0,0,0,0,0,0,0,0.000000,0.000000,0.000000,0.000000,0.000000,0.000000,0.000000,0.000000
241545.468000,1.437494,-1.089114,2.525809,3.275377,1.572121,3.357390,0.000000,0.000000,0.000000,0.000000,0.000000,0.000000,0.000000,0.000000,0.000000,0.000000,0.000000,0.000000,-0.000000,-2.261044,-0.418492,-0.238801,-0.000098,0.000000,-0.000000,-23.523866,-4.324182,-1.846369,-0.000776,0.000000,1.437457,-1.089114,2.525777,3.275364,1.572120,3.357410,0.000000,0.000000,-0.000000,0.000000,-0.000000,0.000000,0.321661,-1.920030,-0.541488,-0.186971,-0.012467,-0.005005,-0.000000,-2.261044,-0.418492,-0.238801,-0.000098,0.000000,0.086276,-0.363198,0.250120,-0.000013,-0.000068,-3.053769,0.000000,0.000000,0.000000,0.000000,0.000000,0.000000,-4.327529,3.606732,0.352282,-0.055235,0.074437,0.047419,0.086290,-0.363187,0.250113,0.000000,-0.000000,-3.053753,0.000000,0.000000,0.000000,0.000000,0.000000,0.000000,0,28.375000,29.187500,27.687500,31.875000,35.062500,36.187500,0.638520,7,253,253,253,253,253,253,1,0.248997,0.076614,9.519346,0.000000,1.000000,0.000000,47.505077,47.557919,0.676992,47.498932,47.427269,47.513268,47.484600,47.298275,47.398605,0,1,-0.000000,-0.000000,0.004000,0.004000,1,1,-648.069599,148.818592,19379.322463,-33.662689,-11.281682,33.972449,0.000002,0.000002,0.000002,0.000000,0.000000,0.000000,0,0,0,0,0,0,0,0,0,0.000000,0.000000,0.000000,0.000000,0.000000,0.000000,0.000000,0.000000
241545.470000,1.437494,-1.089114,2.525809,3.275377,1.572121,3.357390,0.000000,0.000000,0.000000,0.000000,0.000000,0.000000,0.000000,0.000000,0.000000,0.000000,0.000000,0.000000,-0.000000,-2.261087,-0.418575,-0.238798,-0.000098,0.000000,-0.000000,-23.524319,-4.325039,-1.846346,-0.000769,0.000000,1.437473,-1.089147,2.525823,3.275406,1.572124,3.357374,0.000000,0.000000,-0.000000,0.000000,-0.000000,0.000000,0.319287,-1.943450,-0.505910,-0.185296,-0.009232,-0.006800,-0.000000,-2.261087,-0.418575,-0.238798,-0.000098,0.000000,0.086283,-0.363185,0.250120,0.000007,0.000013,-3.053789,0.000000,0.000000,0.000000,0.000000,0.000000,0.000000,-4.197612,3.485617,0.399373,-0.055301,0.070071,0.045140,0.086290,-0.363187,0.250113,0.000000,-0.000000,-3.053753,0.000000,0.000000,0.000000,0.000000,0.000000,0.000000,0,28.375000,29.187500,27.687500,31.875000,35.062500,36.187500,0.641868,7,253,253,253,253,253,253,1,0.210690,0.057461,9.404425,0.000000,1.000000,0.000000,47.533737,47.572247,0.627756,47.498932,47.398605,47.513268,47.556267,47.326939,47.412937,0,1,-0.000000,-0.000000,0.004000,0.004000,1,1,-648.188280,148.950821,19379.369412,-33.662238,-11.277341,33.970167,0.000002,0.000002,0.000002,0.000000,0.000000,0.000000,0,0,0,0,0,0,0,0,0,0.000000,0.000000,0.000000,0.000000,0.000000,0.000000,0.000000,0.000000
241545.472000,1.437494,-1.089114,2.525809,3.275377,1.572121,3.357390,0.000000,0.000000,0.000000,0.000000,0.000000,0.000000,0.000000,0.000000,0.000000,0.000000,0.000000,0.000000,0.000000,-2.260950,-0.418557,-0.238802,-0.000098,0.000000,0.000000,-23.522896,-4.324853,-1.846377,-0.000771,0.000000,1.437464,-1.089102,2.525799,3.275340,1.572090,3.357357,0.000000,0.000000,-0.000000,0.000000,-0.000000,0.000000,0.350733,-1.957667,-0.509382,-0.187996,-0.003927,-0.009287,0.000000,-2.260950,-0.418557,-0.238802,-0.000098,0.000000,0.086282,-0.363190,0.250115,-0.000055,-0.000048,-3.053815,0.000000,0.000000,0.000000,0.000000,0.000000,0.000000,-4.337908,3.682770,0.429491,-0.052401,0.075177,0.049548,0.086290,-0.363187,0.250113,0.000000,-0.000000,-3.053753,0.000000,0.000000,0.000000,0.000000,0.000000,0.000000,0,28.375000,29.187500,27.687500,31.875000,35.062500,36.187500,0.635988,7,253,253,253,253,253,253,1,0.095768,0.134075,9.538500,0.000000,1.000000,0.000000,47.488960,47.552544,0.591951,47.455936,47.341274,47.484600,47.484600,47.312607,47.369938,0,1,-0.000000,-0.000000,0.004000,0.004000,1,1,-648.065796,148.742151,19379.399511,-33.665571,-11.282168,33.974576,0.000002,0.000002,0.000002,0.000000,0.000000,0.000000,0,0,0,0,0,0,0,0,0,0.000000,0.000000,0.000000,0.000000,0.000000,0.000000,0.000000,0.000000
241545.474000,1.437494,-1.089114,2.525809,3.275377,1.572121,3.357390,0.000000,0.000000,0.000000,0.000000,0.000000,0.000000,0.000000,0.000000,0.000000,0.000000,0.000000,0.000000,0.000000,-2.261070,-0.418518,-0.238799,-0.000095,0.000000,0.000000,-23.524136,-4.324452,-1.846350,-0.000752,0.000000,1.437477,-1.089118,2.525799,3.275352,1.572153,3.357386,0.000000,0.000000,-0.000000,0.000000,-0.000000,0.000000,0.327434,-1.966021,-0.525102,-0.160145,-0.004740,-0.008020,0.000000,-2.261070,-0.418518,-0.238799,-0.000095,0.000000,0.086281,-0.363188,0.250119,0.000038,-0.000069,-3.053774,0.000000,0.000000,0.000000,0.000000,0.000000,0.000000,-4.326673,3.560328,0.407585,-0.058261,0.073472,0.051011,0.086290,-0.363187,0.250113,0.000000,-0.000000,-3.053753,0.000000,0.000000,0.000000,0.000000,0.000000,0.000000,0,28.375000,29.187500,27.687500,31.875000,35.062500,36.187500,0.636312,7,253,253,253,253,253,253,1,0.191536,0.172383,9.481039,0.000000,1.000000,0.000000,47.501499,47.548065,0.676992,47.470268,47.384270,47.513268,47.484600,47.312607,47.384270,0,1,-0.000000,-0.000000,0.004000,0.004000,1,1,-648.066294,148.864911,19379.377906,-33.659592,-11.280987,33.976043,0.000002,0.000002,0.000002,0.000000,0.000000,0.000000,0,0,0,0,0,0,0,0,0,0.000000,0.000000,0.000000,0.000000,0.000000,0.000000,0.000000,0.000000
241545.476000,1.437494,-1.089114,2.525809,3.275377,1.572121,3.357390,0.000000,0.000000,0.000000,0.000000,0.000000,0.000000,0.000000,0.000000,0.000000,0.000000,0.000000,0.000000,0.000000,-2.261041,-0.418545,-0.238798,-0.000100,0.000000,0.000000,-23.523843,-4.324724,-1.846349,-0.000788,0.000000,1.437506,-1.089152,2.525852,3.275401,1.572128,3.357406,0.000000,0.000000,-0.000000,0.000000,-0.000000,0.000000,0.340666,-1.993163,-0.548292,-0.194088,-0.005394,-0.021747,0.000000,-2.261041,-0.418545,-0.238798,-0.000100,0.000000,0.086296,-0.363173,0.250118,0.000019,0.000041,-3.053724,0.000000,0.000000,0.000000,0.000000,0.000000,0.000000,-4.506017,3.527539,0.368244,-0.056849,0.077367,0.049804,0.086290,-0.363187,0.250113,0.000000,-0.000000,-3.053753,0.000000,0.000000,0.000000,0.000000,0.000000,0.000000,0,28.375000,29.187500,27.687500,31.875000,35.062500,36.187500,0.639156,7,253,253,253,253,253,253,1,0.210690,0.210690,9.442732,0.000000,1.000000,0.000000,47.492542,47.553440,0.591951,47.484600,47.427269,47.513268,47.527599,47.326939,47.398605,0,1,-0.000000,-0.000000,0.004000,0.004000,1,1,-647.884977,148.881782,19379.338247,-33.661341,-11.284750,33.974829,0.000002,0.000002,0.000002,0.000000,0.000000,0.000000,0,0,0,0,0,0,0,0,0,0.000000,0.000000,0.000000,0.000000,0.000000,0.000000,0.000000,0.000000
